1 1 100 1 1
1 2 100 1 1
1 1 100 2 1
1 3 100 2 3.64781e-05
2 3 100 2 0.999963
1 1 100 3 1
2 2 100 3 1
1 3 100 3 0.000124815
2 3 100 3 0.499938
3 3 100 3 0.499937
3 4 100 3 1
1 5 100 3 0.333332
2 5 100 3 0.333334
3 5 100 3 0.333334
2 0 100 4 0.245109
3 0 100 4 0.754891
1 1 100 4 0.888424
2 1 100 4 0.111576
2 2 100 4 0.49997
3 2 100 4 0.250045
4 2 100 4 0.249985
1 3 100 4 0.144622
2 3 100 4 0.288477
3 3 100 4 0.42225
4 3 100 4 0.144652
2 4 100 4 0.285791
3 4 100 4 0.285684
4 4 100 4 0.428526
1 5 100 4 0.175157
2 5 100 4 0.175497
3 5 100 4 0.122855
4 5 100 4 0.526491
1 6 100 4 0.00229995
2 6 100 4 0.28935
3 6 100 4 0.146095
4 6 100 4 0.562255
4 7 100 4 1
1 0 100 5 5.89525e-06
2 0 100 5 0.237336
3 0 100 5 0.0919365
4 0 100 5 0.670719
5 0 100 5 3.51208e-06
1 1 100 5 0.859331
2 1 100 5 0.0716236
3 1 100 5 0.069045
2 2 100 5 0.670159
3 2 100 5 0.329841
2 3 100 5 0.25028
3 3 100 5 0.342349
4 3 100 5 0.283034
5 3 100 5 0.124338
1 4 100 5 0.187166
3 4 100 5 0.250351
4 4 100 5 0.188147
5 4 100 5 0.374337
1 5 100 5 0.0984197
2 5 100 5 0.295259
3 5 100 5 0.179703
4 5 100 5 0.13136
5 5 100 5 0.295258
2 6 100 5 0.111111
3 6 100 5 0.333334
4 6 100 5 0.333333
5 6 100 5 0.222222
3 7 100 5 0.000185246
4 7 100 5 0.318962
5 7 100 5 0.680853
1 8 100 5 0.000853663
2 8 100 5 0.00750197
3 8 100 5 0.0213598
4 8 100 5 0.272486
5 8 100 5 0.697799
2 9 100 5 0.00912085
3 9 100 5 0.0480604
4 9 100 5 0.471257
5 9 100 5 0.471561
2 0 100 6 0.392353
3 0 100 6 0.00173086
5 0 100 6 0.605916
1 1 100 6 0.764701
2 1 100 6 0.0588296
3 1 100 6 0.117646
5 1 100 6 0.0588231
2 2 100 6 0.432835
3 2 100 6 0.340243
4 2 100 6 0.113414
5 2 100 6 9.31683e-05
6 2 100 6 0.113414
1 3 100 6 0.0624086
2 3 100 6 0.438916
3 3 100 6 0.311451
4 3 100 6 0.0624075
5 3 100 6 0.0624086
6 3 100 6 0.0624086
2 4 100 6 0.0730833
3 4 100 6 0.0730903
4 4 100 6 0.634583
5 4 100 6 0.146162
6 4 100 6 0.0730811
3 5 100 6 0.204959
4 5 100 6 0.204959
5 5 100 6 0.385123
6 5 100 6 0.204959
2 6 100 6 0.066182
3 6 100 6 0.198538
4 6 100 6 0.132364
5 6 100 6 0.205824
6 6 100 6 0.397092
1 7 100 6 0.124591
4 7 100 6 0.151518
5 7 100 6 0.225526
6 7 100 6 0.498365
1 8 100 6 0.345237
2 8 100 6 0.0616469
3 8 100 6 0.0383585
4 8 100 6 0.197421
5 8 100 6 0.0121002
6 8 100 6 0.345236
4 14 100 6 1
6 15 100 6 1
2 0 100 7 1.16986e-06
3 0 100 7 0.26078
4 0 100 7 0.127474
5 0 100 7 0.3169
6 0 100 7 0.294842
7 0 100 7 4.0522e-06
1 1 100 7 0.914574
2 1 100 7 0.000226098
3 1 100 7 0.0491045
4 1 100 7 0.0360958
2 2 100 7 0.680678
3 2 100 7 0.191268
4 2 100 7 1.23549e-05
6 2 100 7 0.128042
2 3 100 7 0.210809
3 3 100 7 0.306372
4 3 100 7 0.226458
5 3 100 7 0.152601
7 3 100 7 0.10376
2 4 100 7 0.0871576
3 4 100 7 0.2179
4 4 100 7 0.514078
5 4 100 7 0.130689
6 4 100 7 0.0501759
1 5 100 7 0.0518052
2 5 100 7 0.0547399
3 5 100 7 0.0518047
4 5 100 7 0.10361
5 5 100 7 0.366137
6 5 100 7 0.112878
7 5 100 7 0.259026
1 6 100 7 0.131629
2 6 100 7 0.0662591
3 6 100 7 0.0658142
5 6 100 7 0.19744
6 6 100 7 0.407231
7 6 100 7 0.131627
1 7 100 7 0.063128
2 7 100 7 0.126256
3 7 100 7 0.063128
5 7 100 7 0.063128
6 7 100 7 0.305593
7 7 100 7 0.378767
4 8 100 7 0.000875596
6 8 100 7 0.000223006
7 8 100 7 0.998901
2 9 100 7 1.04497e-06
5 9 100 7 0.0168106
6 9 100 7 0.491591
7 9 100 7 0.491598
2 0 100 8 0.0779323
3 0 100 8 0.144126
4 0 100 8 0.231208
5 0 100 8 0.235713
6 0 100 8 3.24412e-06
7 0 100 8 0.311016
8 0 100 8 1.26243e-06
1 1 100 8 0.863636
2 1 100 8 0.0909091
3 1 100 8 0.0454545
2 2 100 8 0.662275
3 2 100 8 0.205204
4 2 100 8 0.132521
2 3 100 8 0.231796
3 3 100 8 0.479082
4 3 100 8 0.289119
7 3 100 8 2.8846e-06
3 4 100 8 0.143922
4 4 100 8 0.359571
5 4 100 8 0.431897
6 4 100 8 0.0646101
1 5 100 8 0.0479079
2 5 100 8 0.0953141
3 5 100 8 0.0852821
4 5 100 8 0.000228173
5 5 100 8 0.335264
6 5 100 8 0.29228
7 5 100 8 0.0958159
8 5 100 8 0.0479079
3 6 100 8 0.107784
4 6 100 8 0.215612
5 6 100 8 0.107844
6 6 100 8 0.135523
7 6 100 8 0.217659
8 6 100 8 0.215577
4 7 100 8 0.00426506
5 7 100 8 0.0797018
6 7 100 8 0.516897
7 7 100 8 0.160033
8 7 100 8 0.239104
4 8 100 8 0.111171
5 8 100 8 1.26174e-05
6 8 100 8 0.333661
7 8 100 8 0.110499
8 8 100 8 0.444657
7 9 100 8 0.833333
8 9 100 8 0.166667
2 10 100 8 0.0985874
3 10 100 8 0.0240804
4 10 100 8 4.65682e-05
5 10 100 8 0.108604
6 10 100 8 0.140745
7 10 100 8 0.134915
8 10 100 8 0.493023
6 11 100 8 9.59979e-05
7 11 100 8 0.251619
8 11 100 8 0.748285
6 12 100 8 0.00121573
7 12 100 8 0.404191
8 12 100 8 0.594593
2 0 100 9 0.0920314
3 0 100 9 0.089476
4 0 100 9 0.103874
5 0 100 9 0.252605
6 0 100 9 0.0322601
7 0 100 9 0.240412
8 0 100 9 0.189341
9 0 100 9 7.70171e-07
1 1 100 9 0.954546
3 1 100 9 0.0454545
2 2 100 9 0.582052
3 2 100 9 0.369298
4 2 100 9 0.0486496
1 3 100 9 0.063694
2 3 100 9 0.383371
3 3 100 9 0.280909
4 3 100 9 0.191082
5 3 100 9 0.0172524
9 3 100 9 0.0636914
1 4 100 9 0.0405454
2 4 100 9 0.0337816
3 4 100 9 0.287141
4 4 100 9 0.365515
5 4 100 9 0.110665
6 4 100 9 0.121807
7 4 100 9 0.0405454
1 5 100 9 0.0555614
2 5 100 9 0.111086
4 5 100 9 0.222172
5 5 100 9 0.333375
6 5 100 9 0.166684
7 5 100 9 0.0555613
8 5 100 9 0.0555598
2 6 100 9 0.0669812
4 6 100 9 0.00018981
5 6 100 9 0.113382
6 6 100 9 0.449159
7 6 100 9 0.226332
8 6 100 9 0.113321
9 6 100 9 0.0306348
4 7 100 9 0.061457
5 7 100 9 0.141842
6 7 100 9 0.222439
7 7 100 9 0.219645
8 7 100 9 0.109807
9 7 100 9 0.24481
1 8 100 9 0.0563587
2 8 100 9 3.73126e-05
3 8 100 9 0.0563587
4 8 100 9 0.0563587
5 8 100 9 0.0664076
6 8 100 9 0.112717
7 8 100 9 0.290961
8 8 100 9 0.191725
9 8 100 9 0.169076
3 9 100 9 0.067325
4 9 100 9 0.166762
5 9 100 9 0.0674066
6 9 100 9 0.131353
7 9 100 9 0.0673484
8 9 100 9 0.297838
9 9 100 9 0.201967
2 10 100 9 0.0588839
5 10 100 9 0.117695
6 10 100 9 0.117548
8 10 100 9 0.234802
9 10 100 9 0.471071
1 11 100 9 0.0947875
2 11 100 9 0.0668667
3 11 100 9 0.0947915
4 11 100 9 0.0947918
5 11 100 9 0.00164889
6 11 100 9 0.0986866
7 11 100 9 0.145322
8 11 100 9 0.118731
9 11 100 9 0.284375
1 12 100 9 5.26343e-06
2 12 100 9 1.90837e-06
3 12 100 9 2.79078e-05
4 12 100 9 0.000215734
5 12 100 9 8.84421e-06
6 12 100 9 4.38786e-05
7 12 100 9 0.108741
8 12 100 9 0.300523
9 12 100 9 0.590433
6 13 100 9 0.999887
8 13 100 9 0.000112859
1 14 100 9 6.16805e-06
4 14 100 9 0.000385542
7 14 100 9 0.277617
8 14 100 9 0.325831
9 14 100 9 0.396161
1 0 100 10 6.91886e-07
2 0 100 10 3.37761e-06
3 0 100 10 0.117107
4 0 100 10 0.116701
5 0 100 10 0.179584
6 0 100 10 0.185347
7 0 100 10 0.0581514
8 0 100 10 0.119788
9 0 100 10 0.223313
10 0 100 10 4.69686e-06
1 1 100 10 0.878034
2 1 100 10 0.121886
9 1 100 10 8.03251e-05
1 2 100 10 0.0720096
2 2 100 10 0.642187
3 2 100 10 0.21435
4 2 100 10 0.0714499
8 2 100 10 4.19644e-06
1 3 100 10 0.0604492
2 3 100 10 0.322708
3 3 100 10 0.332297
4 3 100 10 0.215466
5 3 100 10 0.0643873
8 3 100 10 0.00469348
2 4 100 10 0.0801008
3 4 100 10 0.146382
4 4 100 10 0.533208
5 4 100 10 0.240302
7 4 100 10 4.06456e-06
9 4 100 10 2.32016e-06
3 5 100 10 0.455778
4 5 100 10 0.13338
5 5 100 10 0.0692173
6 5 100 10 0.197601
7 5 100 10 0.144003
9 5 100 10 2.10671e-05
2 6 100 10 4.41889e-06
3 6 100 10 0.000502047
4 6 100 10 0.222131
5 6 100 10 0.437895
6 6 100 10 0.218687
7 6 100 10 0.0536458
8 6 100 10 0.0556024
9 6 100 10 0.0115329
3 7 100 10 0.066493
4 7 100 10 0.0664789
5 7 100 10 0.0360391
6 7 100 10 0.267469
7 7 100 10 0.362037
8 7 100 10 0.135003
10 7 100 10 0.066479
1 8 100 10 0.0339217
2 8 100 10 0.0339217
5 8 100 10 0.117323
6 8 100 10 0.166237
7 8 100 10 0.267379
8 8 100 10 0.101765
9 8 100 10 0.177688
10 8 100 10 0.101765
1 9 100 10 0.116161
2 9 100 10 0.0580806
3 9 100 10 0.0580806
5 9 100 10 2.70912e-06
6 9 100 10 0.114956
7 9 100 10 0.116161
8 9 100 10 0.304236
9 9 100 10 0.116161
10 9 100 10 0.116161
4 10 100 10 0.0705687
5 10 100 10 0.0705685
6 10 100 10 0.00146446
7 10 100 10 0.109519
8 10 100 10 0.253902
9 10 100 10 0.141137
10 10 100 10 0.35284
1 11 100 10 0.0710097
5 11 100 10 0.0674499
6 11 100 10 0.06745
7 11 100 10 0.06753
8 11 100 10 0.2698
9 11 100 10 0.254411
10 11 100 10 0.20235
1 12 100 10 0.0774279
2 12 100 10 0.193039
3 12 100 10 0.108655
4 12 100 10 0.0705772
5 12 100 10 3.0301e-05
7 12 100 10 2.73418e-06
8 12 100 10 0.0643714
9 12 100 10 0.228483
10 12 100 10 0.257415
5 13 100 10 8.19918e-07
6 13 100 10 0.000206187
7 13 100 10 0.0698893
8 13 100 10 0.0327842
9 13 100 10 0.0994812
10 13 100 10 0.797638
1 14 100 10 0.303174
2 14 100 10 0.00384213
5 14 100 10 1.65631e-05
6 14 100 10 0.000175225
7 14 100 10 1.72268e-05
8 14 100 10 0.000664213
9 14 100 10 0.346055
10 14 100 10 0.346056
1 0 100 11 4.57667e-07
2 0 100 11 0.082464
3 0 100 11 0.183359
4 0 100 11 0.0506443
5 0 100 11 0.12329
6 0 100 11 0.117671
7 0 100 11 0.0869477
8 0 100 11 0.0782254
9 0 100 11 0.140109
10 0 100 11 0.137288
1 1 100 11 1
1 2 100 11 0.0628448
2 2 100 11 0.798346
3 2 100 11 0.0634893
4 2 100 11 0.0753171
6 2 100 11 2.72863e-06
2 3 100 11 0.393084
3 3 100 11 0.40019
4 3 100 11 0.129419
5 3 100 11 0.0126633
6 3 100 11 0.0646429
3 4 100 11 0.283262
4 4 100 11 0.649202
5 4 100 11 0.0674955
6 4 100 11 4.68761e-06
7 4 100 11 2.99299e-05
10 4 100 11 5.9793e-06
3 5 100 11 0.0653414
4 5 100 11 0.0594239
5 5 100 11 0.552546
6 5 100 11 0.192015
7 5 100 11 0.130674
2 6 100 11 0.008096
4 6 100 11 0.167878
5 6 100 11 0.212291
6 6 100 11 0.33193
7 6 100 11 0.167887
8 6 100 11 0.111919
2 7 100 11 0.000207629
4 7 100 11 0.000455609
5 7 100 11 0.0622268
6 7 100 11 0.187519
7 7 100 11 0.373361
8 7 100 11 0.189582
9 7 100 11 0.0621957
10 7 100 11 0.0622268
11 7 100 11 0.0622268
3 8 100 11 0.112365
5 8 100 11 0.000178721
6 8 100 11 0.168044
7 8 100 11 0.101906
8 8 100 11 0.280783
9 8 100 11 0.224098
10 8 100 11 0.0564412
11 8 100 11 0.0561827
3 9 100 11 0.041555
4 9 100 11 0.041611
6 9 100 11 0.00661332
7 9 100 11 0.166571
8 9 100 11 0.166444
9 9 100 11 0.282392
10 9 100 11 0.169981
11 9 100 11 0.124833
3 10 100 11 0.0601445
4 10 100 11 0.119866
5 10 100 11 0.147556
8 10 100 11 0.179665
9 10 100 11 0.102692
10 10 100 11 0.209644
11 10 100 11 0.180433
1 11 100 11 0.111074
5 11 100 11 0.000104934
6 11 100 11 0.111218
9 11 100 11 0.222435
10 11 100 11 0.221516
11 11 100 11 0.333652
5 12 100 11 0.0667311
6 12 100 11 0.0667312
7 12 100 11 0.0667016
8 12 100 11 0.0667312
9 12 100 11 0.0667312
10 12 100 11 0.265987
11 12 100 11 0.400387
1 13 100 11 5.43047e-07
2 13 100 11 0.00525646
3 13 100 11 3.50253e-07
4 13 100 11 0.00064543
5 13 100 11 0.10771
6 13 100 11 0.058536
7 13 100 11 0.150573
8 13 100 11 0.133119
9 13 100 11 0.0112859
10 13 100 11 0.133322
11 13 100 11 0.39955
5 14 100 11 1.11144e-05
8 14 100 11 0.999989
7 15 100 11 1.19421e-05
8 15 100 11 0.000585653
9 15 100 11 0.999402
5 16 100 11 0.828704
8 16 100 11 0.00181954
10 16 100 11 0.169477
9 17 100 11 0.00228909
10 17 100 11 0.49795
11 17 100 11 0.499761
2 0 100 12 0.0798581
3 0 100 12 0.0848662
4 0 100 12 0.16403
5 0 100 12 0.0575425
6 0 100 12 0.0364497
7 0 100 12 0.0522491
8 0 100 12 0.0580141
9 0 100 12 0.112363
10 0 100 12 0.228385
11 0 100 12 0.12624
12 0 100 12 2.10445e-06
1 1 100 12 1
2 2 100 12 0.709339
3 2 100 12 0.224143
4 2 100 12 0.0665136
11 2 100 12 3.57339e-06
2 3 100 12 0.258792
3 3 100 12 0.400541
4 3 100 12 0.170333
6 3 100 12 0.0567822
7 3 100 12 0.113546
10 3 100 12 5.20508e-06
1 4 100 12 0.0406196
2 4 100 12 0.0820643
3 4 100 12 0.206474
4 4 100 12 0.215369
5 4 100 12 0.205053
6 4 100 12 0.127318
7 4 100 12 0.0410346
11 4 100 12 0.0410337
12 4 100 12 0.0410338
3 5 100 12 0.067807
4 5 100 12 0.0886105
5 5 100 12 0.344701
6 5 100 12 0.24036
7 5 100 12 0.0862302
8 5 100 12 0.0861748
9 5 100 12 0.0430251
10 5 100 12 0.0430877
11 5 100 12 3.36505e-06
1 6 100 12 0.0474552
2 6 100 12 3.00266e-06
3 6 100 12 0.0474551
4 6 100 12 0.141739
5 6 100 12 0.18752
6 6 100 12 0.148488
7 6 100 12 0.189782
8 6 100 12 0.142366
9 6 100 12 0.0477303
10 6 100 12 0.0474552
11 6 100 12 7.20392e-06
2 7 100 12 0.0501466
4 7 100 12 0.0500401
5 7 100 12 0.100293
6 7 100 12 0.246773
7 7 100 12 0.202063
8 7 100 12 0.150098
9 7 100 12 0.100293
10 7 100 12 0.100293
4 8 100 12 7.06002e-05
6 8 100 12 1.38134e-05
7 8 100 12 0.0814687
8 8 100 12 0.210616
9 8 100 12 0.280352
10 8 100 12 0.00200482
11 8 100 12 0.283651
12 8 100 12 0.141823
3 9 100 12 0.00133553
7 9 100 12 0.0684542
8 9 100 12 0.0729407
9 9 100 12 0.165381
10 9 100 12 0.225802
11 9 100 12 0.233055
12 9 100 12 0.233031
6 10 100 12 0.0652343
7 10 100 12 0.0744453
8 10 100 12 0.200716
9 10 100 12 0.195871
10 10 100 12 0.202797
12 10 100 12 0.260937
4 11 100 12 2.25082e-05
5 11 100 12 0.00645685
7 11 100 12 0.13164
8 11 100 12 0.135163
9 11 100 12 4.63661e-05
10 11 100 12 0.133191
11 11 100 12 0.460288
12 11 100 12 0.133192
4 12 100 12 1.34195e-05
7 12 100 12 0.000248779
8 12 100 12 0.165518
10 12 100 12 0.162444
11 12 100 12 0.346063
12 12 100 12 0.325712
7 13 100 12 0.248526
9 13 100 12 0.496837
11 13 100 12 0.00611105
12 13 100 12 0.248526
3 14 100 12 2.14232e-07
4 14 100 12 7.20076e-06
7 14 100 12 0.0012572
8 14 100 12 0.124382
9 14 100 12 0.138826
10 14 100 12 0.175724
11 14 100 12 0.00517612
12 14 100 12 0.554627
4 15 100 12 0.00504816
6 15 100 12 0.943508
7 15 100 12 0.00568846
8 15 100 12 0.0420351
9 15 100 12 2.67983e-06
10 15 100 12 0.00371729
3 16 100 12 0.0068323
6 16 100 12 0.0522888
7 16 100 12 2.38244e-05
8 16 100 12 0.187968
9 16 100 12 0.188759
10 16 100 12 8.15927e-05
11 16 100 12 0.376031
12 16 100 12 0.188015
9 17 100 12 0.000517768
10 17 100 12 0.0405613
11 17 100 12 0.479462
12 17 100 12 0.479459
1 18 100 12 0.000952897
2 18 100 12 0.00227209
6 18 100 12 0.00227574
7 18 100 12 0.492193
8 18 100 12 0.00068442
12 18 100 12 0.501622
2 0 100 13 0.0228981
3 0 100 13 0.0617276
4 0 100 13 0.0682734
5 0 100 13 0.0799346
6 0 100 13 0.10298
7 0 100 13 0.0550404
8 0 100 13 0.0335046
9 0 100 13 0.133935
10 0 100 13 0.153275
11 0 100 13 0.126384
12 0 100 13 0.162047
1 1 100 13 0.827587
2 1 100 13 0.103448
3 1 100 13 0.0344827
5 1 100 13 0.0344827
2 2 100 13 0.881504
3 2 100 13 0.0592497
6 2 100 13 0.0592461
2 3 100 13 0.134281
3 3 100 13 0.482007
4 3 100 13 0.164478
5 3 100 13 0.13154
6 3 100 13 0.0438467
7 3 100 13 0.0438468
2 4 100 13 0.0633876
3 4 100 13 0.133717
4 4 100 13 0.530477
5 4 100 13 0.138689
6 4 100 13 0.0668705
7 4 100 13 1.49019e-06
8 4 100 13 0.0668567
10 4 100 13 8.7863e-07
3 5 100 13 0.186917
4 5 100 13 0.124859
5 5 100 13 0.43898
6 5 100 13 0.0623051
7 5 100 13 0.124623
9 5 100 13 0.062307
12 5 100 13 8.97004e-06
4 6 100 13 0.235806
5 6 100 13 0.117573
6 6 100 13 0.235148
7 6 100 13 0.235156
8 6 100 13 0.11753
10 6 100 13 0.058787
2 7 100 13 4.04145e-05
3 7 100 13 2.64511e-06
4 7 100 13 0.0408561
5 7 100 13 0.124449
6 7 100 13 0.165957
7 7 100 13 0.219499
8 7 100 13 0.323803
9 7 100 13 0.124467
10 7 100 13 4.86718e-07
11 7 100 13 0.00092588
3 8 100 13 5.38706e-05
5 8 100 13 0.047284
6 8 100 13 0.28374
7 8 100 13 0.190889
8 8 100 13 0.112294
9 8 100 13 0.0946648
10 8 100 13 0.141852
11 8 100 13 0.129222
6 9 100 13 0.04532
7 9 100 13 0.181283
8 9 100 13 0.180946
9 9 100 13 0.2266
10 9 100 13 0.181275
11 9 100 13 0.0905059
12 9 100 13 0.0940702
7 10 100 13 0.0464385
8 10 100 13 0.180053
9 10 100 13 0.018532
10 10 100 13 0.154089
11 10 100 13 0.186449
12 10 100 13 0.228684
13 10 100 13 0.185754
2 11 100 13 0.0617955
7 11 100 13 0.0617955
8 11 100 13 0.0617954
9 11 100 13 0.185385
10 11 100 13 0.191102
11 11 100 13 0.185717
12 11 100 13 0.128819
13 11 100 13 0.123591
2 12 100 13 9.29036e-07
3 12 100 13 0.178158
8 12 100 13 0.120786
9 12 100 13 0.0144431
10 12 100 13 0.0135678
11 12 100 13 0.308268
12 12 100 13 0.182449
13 12 100 13 0.182328
3 13 100 13 0.00230105
4 13 100 13 0.0998115
5 13 100 13 0.0499057
6 13 100 13 0.0499025
7 13 100 13 9.54896e-07
9 13 100 13 0.0967502
10 13 100 13 0.149717
11 13 100 13 0.0499245
12 13 100 13 0.152346
13 13 100 13 0.34934
1 14 100 13 0.0928903
2 14 100 13 0.0927998
3 14 100 13 0.186603
4 14 100 13 0.0928903
5 14 100 13 0.0928903
11 14 100 13 0.0659868
12 14 100 13 0.00437841
13 14 100 13 0.371561
1 15 100 13 6.83608e-06
2 15 100 13 0.00297956
3 15 100 13 0.0194716
4 15 100 13 0.000875985
5 15 100 13 1.23354e-06
8 15 100 13 0.000101233
9 15 100 13 0.19517
10 15 100 13 0.000102941
11 15 100 13 8.34621e-06
12 15 100 13 0.390641
13 15 100 13 0.390642
5 16 100 13 1.37953e-06
6 16 100 13 2.20254e-05
7 16 100 13 1.15983e-05
8 16 100 13 5.43634e-05
9 16 100 13 0.329765
10 16 100 13 0.000296409
11 16 100 13 8.40885e-06
12 16 100 13 0.00229684
13 16 100 13 0.667544
10 17 100 13 0.0371011
11 17 100 13 0.390659
12 17 100 13 0.181575
13 17 100 13 0.390664
2 0 100 14 0.0172088
3 0 100 14 0.0365713
4 0 100 14 0.0979659
5 0 100 14 0.124515
6 0 100 14 0.11037
7 0 100 14 0.0732112
8 0 100 14 0.0627129
9 0 100 14 0.0768619
10 0 100 14 0.0955893
11 0 100 14 0.0730119
12 0 100 14 0.09315
13 0 100 14 0.138828
14 0 100 14 3.11316e-06
1 1 100 14 1
1 2 100 14 0.0876973
2 2 100 14 0.654711
3 2 100 14 0.131326
4 2 100 14 0.0438485
5 2 100 14 0.0438486
6 2 100 14 0.0385684
1 3 100 14 0.0758545
2 3 100 14 0.193206
3 3 100 14 0.417033
4 3 100 14 0.157626
5 3 100 14 3.96722e-06
6 3 100 14 0.0424944
7 3 100 14 0.0758545
8 3 100 14 0.0379273
2 4 100 14 0.0453129
3 4 100 14 0.272218
4 4 100 14 0.362509
5 4 100 14 0.184018
6 4 100 14 0.0453135
8 4 100 14 0.0453135
9 4 100 14 0.0453148
2 5 100 14 0.13976
3 5 100 14 0.0466022
4 5 100 14 0.186425
5 5 100 14 0.379115
6 5 100 14 0.139799
7 5 100 14 0.0466158
8 5 100 14 0.0616159
11 5 100 14 1.95437e-05
12 5 100 14 3.18963e-05
13 5 100 14 1.67695e-05
2 6 100 14 0.0775095
3 6 100 14 0.0770594
4 6 100 14 0.0771767
5 6 100 14 0.115765
6 6 100 14 0.233319
7 6 100 14 0.227694
8 6 100 14 0.115343
9 6 100 14 0.0385887
13 6 100 14 0.0375434
2 7 100 14 0.0473872
3 7 100 14 0.000303773
4 7 100 14 0.0947744
6 7 100 14 0.0947744
7 7 100 14 0.383661
8 7 100 14 0.0947744
9 7 100 14 0.236935
10 7 100 14 0.0473872
11 7 100 14 3.11106e-06
3 8 100 14 0.0579565
4 8 100 14 0.0432151
5 8 100 14 0.144891
6 8 100 14 0.142668
7 8 100 14 0.0869424
8 8 100 14 0.203156
9 8 100 14 0.202845
10 8 100 14 0.11831
11 8 100 14 1.64624e-05
5 9 100 14 0.0500172
6 9 100 14 0.0500152
7 9 100 14 0.100156
8 9 100 14 0.100044
9 9 100 14 0.10003
10 9 100 14 0.205948
11 9 100 14 0.293729
13 9 100 14 0.100059
4 10 100 14 0.037711
5 10 100 14 0.0377179
7 10 100 14 0.0356606
8 10 100 14 0.075383
9 10 100 14 0.0985729
10 10 100 14 0.112818
11 10 100 14 0.188648
12 10 100 14 0.224949
13 10 100 14 0.037696
14 10 100 14 0.150844
1 11 100 14 0.0366901
2 11 100 14 0.0366901
6 11 100 14 0.0366901
7 11 100 14 0.0386643
8 11 100 14 0.223459
9 11 100 14 0.146466
10 11 100 14 0.0796966
11 11 100 14 0.0366945
12 11 100 14 0.144679
13 11 100 14 0.14689
14 11 100 14 0.0733802
1 12 100 14 0.0391191
3 12 100 14 5.7337e-07
5 12 100 14 0.0391193
6 12 100 14 0.0782386
7 12 100 14 0.0782556
8 12 100 14 0.0782443
9 12 100 14 0.0855387
10 12 100 14 0.210433
11 12 100 14 0.117257
12 12 100 14 0.0781974
13 12 100 14 0.0391262
14 12 100 14 0.156471
1 13 100 14 0.095148
2 13 100 14 0.047574
3 13 100 14 0.095147
8 13 100 14 0.00436986
9 13 100 14 0.000382212
10 13 100 14 0.0950069
11 13 100 14 0.190296
12 13 100 14 0.0691665
13 13 100 14 0.212614
14 13 100 14 0.190296
6 14 100 14 0.0527061
7 14 100 14 0.0527062
9 14 100 14 0.0527062
10 14 100 14 0.105412
11 14 100 14 0.286018
12 14 100 14 0.18688
13 14 100 14 0.105453
14 14 100 14 0.158118
9 15 100 14 0.0764894
10 15 100 14 0.00258393
12 15 100 14 0.455546
13 15 100 14 0.159423
14 15 100 14 0.305957
3 16 100 14 4.29322e-05
4 16 100 14 1.66604e-06
5 16 100 14 3.03067e-06
6 16 100 14 2.61728e-07
7 16 100 14 4.87137e-06
8 16 100 14 9.11346e-06
9 16 100 14 0.00212305
10 16 100 14 3.87887e-06
11 16 100 14 0.0550834
12 16 100 14 0.00885719
13 16 100 14 0.450283
14 16 100 14 0.483588
1 17 100 14 0.0774072
2 17 100 14 0.0774087
3 17 100 14 0.155039
4 17 100 14 0.075762
5 17 100 14 0.00023315
8 17 100 14 0.00589856
9 17 100 14 1.01819e-05
10 17 100 14 0.121849
11 17 100 14 0.0774111
12 17 100 14 0.0872103
13 17 100 14 0.0895501
14 17 100 14 0.232222
2 18 100 14 0.00175986
3 18 100 14 0.00272278
4 18 100 14 0.156203
5 18 100 14 0.00564971
6 18 100 14 0.155904
7 18 100 14 1.01343e-05
8 18 100 14 2.20139e-05
9 18 100 14 0.000147473
10 18 100 14 1.41662e-05
11 18 100 14 0.0580166
12 18 100 14 0.154114
13 18 100 14 0.153031
14 18 100 14 0.312405
8 19 100 14 0.14575
9 19 100 14 0.051117
11 19 100 14 0.800628
13 19 100 14 0.00250497
4 20 100 14 4.3084e-07
5 20 100 14 5.48836e-06
6 20 100 14 6.7286e-07
7 20 100 14 1.68001e-05
8 20 100 14 1.49076e-05
9 20 100 14 5.3548e-07
10 20 100 14 0.170078
11 20 100 14 0.167028
12 20 100 14 0.170083
13 20 100 14 0.152608
14 20 100 14 0.340165
1 0 100 15 2.57863e-07
2 0 100 15 0.0326764
3 0 100 15 0.0146502
4 0 100 15 0.0939923
5 0 100 15 0.0599467
6 0 100 15 0.152587
7 0 100 15 0.0328325
8 0 100 15 0.0475108
9 0 100 15 0.129281
10 0 100 15 0.0692462
11 0 100 15 0.063776
12 0 100 15 0.0785999
13 0 100 15 0.102001
14 0 100 15 0.122898
15 0 100 15 8.78925e-07
1 1 100 15 0.903227
2 1 100 15 0.0967728
1 2 100 15 0.0283701
2 2 100 15 0.694624
3 2 100 15 0.199537
4 2 100 15 0.0341953
7 2 100 15 0.000623684
8 2 100 15 0.00845408
12 2 100 15 1.01876e-06
13 2 100 15 0.0341953
2 3 100 15 0.123641
3 3 100 15 0.632987
4 3 100 15 0.095673
5 3 100 15 0.0998618
7 3 100 15 0.0478222
8 3 100 15 1.41104e-05
13 3 100 15 7.10371e-07
1 4 100 15 0.0436181
2 4 100 15 0.0436181
3 4 100 15 0.174472
4 4 100 15 0.432243
5 4 100 15 0.130856
6 4 100 15 0.0436338
7 4 100 15 0.000596482
8 4 100 15 0.0436181
9 4 100 15 0.0436188
10 4 100 15 0.0437167
14 4 100 15 8.43363e-06
1 5 100 15 0.00658777
2 5 100 15 0.0386746
3 5 100 15 0.11602
4 5 100 15 0.198277
5 5 100 15 0.390028
6 5 100 15 0.154216
7 5 100 15 0.0773464
8 5 100 15 0.0188458
9 5 100 15 1.45893e-06
12 5 100 15 3.16483e-06
3 6 100 15 0.0763659
4 6 100 15 0.190368
5 6 100 15 0.112796
6 6 100 15 0.314598
7 6 100 15 0.1913
8 6 100 15 0.0763727
9 6 100 15 6.076e-06
12 6 100 15 0.0381924
2 7 100 15 0.0614261
3 7 100 15 0.0302634
4 7 100 15 0.0302713
5 7 100 15 0.0929649
6 7 100 15 0.0908232
7 7 100 15 0.272426
8 7 100 15 0.236986
9 7 100 15 0.0917171
10 7 100 15 0.0302638
11 7 100 15 0.0302639
12 7 100 15 0.00233052
13 7 100 15 0.0302634
3 8 100 15 0.0395594
4 8 100 15 6.54302e-07
5 8 100 15 0.118678
6 8 100 15 0.040122
7 8 100 15 0.191869
8 8 100 15 0.315838
9 8 100 15 0.135205
10 8 100 15 0.078733
11 8 100 15 0.000875229
14 8 100 15 0.0395594
15 8 100 15 0.0395592
2 9 100 15 0.0341557
3 9 100 15 0.0341545
5 9 100 15 0.068309
6 9 100 15 0.0341545
7 9 100 15 0.107236
8 9 100 15 0.0438944
9 9 100 15 0.285319
10 9 100 15 0.187847
11 9 100 15 0.102463
12 9 100 15 0.0341573
14 9 100 15 0.0341545
15 9 100 15 0.0341545
4 10 100 15 1.74164e-06
6 10 100 15 0.0464452
7 10 100 15 6.20888e-06
8 10 100 15 0.0937282
9 10 100 15 0.192047
10 10 100 15 0.374881
11 10 100 15 0.199168
12 10 100 15 0.0937225
5 11 100 15 5.21063e-05
6 11 100 15 0.0513918
7 11 100 15 0.0455184
8 11 100 15 0.154115
9 11 100 15 6.03809e-05
10 11 100 15 0.235751
11 11 100 15 0.252528
12 11 100 15 0.157811
13 11 100 15 0.102744
14 11 100 15 2.83375e-05
4 12 100 15 0.0712765
5 12 100 15 2.82479e-05
6 12 100 15 0.0389811
9 12 100 15 3.50094e-06
10 12 100 15 0.125296
11 12 100 15 0.137769
12 12 100 15 0.286325
13 12 100 15 0.21382
14 12 100 15 0.090863
15 12 100 15 0.0356376
2 13 100 15 5.89372e-07
5 13 100 15 0.0405148
7 13 100 15 0.0405847
8 13 100 15 0.000190409
10 13 100 15 0.0405847
11 13 100 15 0.19845
12 13 100 15 0.0908509
13 13 100 15 0.183021
14 13 100 15 0.324634
15 13 100 15 0.0811693
1 14 100 15 0.0347754
6 14 100 15 9.67174e-07
7 14 100 15 0.0347193
8 14 100 15 0.034764
9 14 100 15 0.0313646
11 14 100 15 0.0701723
12 14 100 15 0.133751
13 14 100 15 0.173275
14 14 100 15 0.174254
15 14 100 15 0.312924
1 15 100 15 0.0259134
4 15 100 15 0.0259149
5 15 100 15 0.051802
6 15 100 15 5.75951e-07
7 15 100 15 0.0259153
8 15 100 15 0.0297775
9 15 100 15 0.0777674
10 15 100 15 0.0518635
11 15 100 15 0.0776329
12 15 100 15 0.148988
13 15 100 15 0.078834
14 15 100 15 0.120483
15 15 100 15 0.285107
4 16 100 15 0.00124875
7 16 100 15 0.133065
8 16 100 15 0.0665324
9 16 100 15 0.0665324
10 16 100 15 0.000777496
11 16 100 15 0.133065
13 16 100 15 0.133053
14 16 100 15 0.199597
15 16 100 15 0.266128
6 17 100 15 0.22388
7 17 100 15 0.000436711
8 17 100 15 0.247089
9 17 100 15 0.0258324
10 17 100 15 0.000269341
12 17 100 15 0.247237
13 17 100 15 0.00141113
14 17 100 15 0.00660639
15 17 100 15 0.247237
2 18 100 15 4.39227e-06
3 18 100 15 2.74646e-06
4 18 100 15 2.74763e-05
5 18 100 15 7.36592e-06
6 18 100 15 9.50151e-05
7 18 100 15 0.000497696
8 18 100 15 3.24244e-05
9 18 100 15 2.02996e-05
10 18 100 15 0.000143982
11 18 100 15 0.000278882
12 18 100 15 1.25957e-06
13 18 100 15 0.662114
14 18 100 15 0.00247486
15 18 100 15 0.3343
2 19 100 15 1.45612e-05
10 19 100 15 0.000106264
14 19 100 15 0.987919
15 19 100 15 0.0119599
5 20 100 15 0.999385
14 20 100 15 0.000614922
1 21 100 15 0.160337
2 21 100 15 0.0172337
3 21 100 15 0.160337
4 21 100 15 0.0934084
5 21 100 15 0.127788
6 21 100 15 0.16029
7 21 100 15 0.119901
8 21 100 15 2.84422e-05
14 21 100 15 0.000339845
15 21 100 15 0.160336
6 22 100 15 1.22958e-06
9 22 100 15 9.84602e-06
12 22 100 15 6.80017e-06
13 22 100 15 0.0106883
14 22 100 15 0.0927537
15 22 100 15 0.89654
2 0 100 16 0.0291158
3 0 100 16 0.0554848
4 0 100 16 0.0914184
5 0 100 16 0.0276976
6 0 100 16 0.116536
7 0 100 16 0.0600863
8 0 100 16 0.0485622
9 0 100 16 0.0765806
10 0 100 16 0.0363494
11 0 100 16 0.0557736
12 0 100 16 0.0702732
13 0 100 16 0.0583328
14 0 100 16 0.158108
15 0 100 16 0.115682
1 1 100 16 0.958333
2 1 100 16 0.0416666
1 2 100 16 0.0349501
2 2 100 16 0.615633
3 2 100 16 0.104812
4 2 100 16 0.10485
5 2 100 16 0.0698514
6 2 100 16 0.0349501
8 2 100 16 0.0349501
11 2 100 16 3.43113e-06
12 2 100 16 4.35663e-07
1 3 100 16 0.0493283
2 3 100 16 0.149763
3 3 100 16 0.603442
4 3 100 16 0.0494299
5 3 100 16 0.0987089
9 3 100 16 0.0493283
1 4 100 16 0.0478389
2 4 100 16 0.0478409
3 4 100 16 0.143492
4 4 100 16 0.378277
5 4 100 16 0.239023
6 4 100 16 3.54569e-06
7 4 100 16 0.0478421
10 4 100 16 0.0478409
11 4 100 16 0.0478409
1 5 100 16 0.0552374
3 5 100 16 0.0552374
4 5 100 16 0.217921
5 5 100 16 0.174386
6 5 100 16 0.165712
7 5 100 16 0.165712
8 5 100 16 0.0551737
9 5 100 16 0.0552382
10 5 100 16 0.0552374
11 5 100 16 2.22343e-05
12 5 100 16 0.000111183
14 5 100 16 1.00677e-05
2 6 100 16 0.00029548
3 6 100 16 3.17331e-06
4 6 100 16 0.0345402
5 6 100 16 0.177787
6 6 100 16 0.304935
7 6 100 16 0.241598
8 6 100 16 0.18062
9 6 100 16 2.84226e-05
11 6 100 16 0.0601833
12 6 100 16 8.54394e-06
14 6 100 16 9.4833e-07
3 7 100 16 5.30109e-07
4 7 100 16 0.0196559
5 7 100 16 0.15449
6 7 100 16 0.155146
7 7 100 16 0.304033
8 7 100 16 0.0514314
9 7 100 16 0.160548
10 7 100 16 0.0514314
11 7 100 16 0.0517063
12 7 100 16 0.0515518
14 7 100 16 1.27339e-06
15 7 100 16 4.11018e-06
2 8 100 16 0.00195698
3 8 100 16 0.0768209
4 8 100 16 0.0384097
5 8 100 16 0.192333
6 8 100 16 0.0768159
7 8 100 16 0.191612
8 8 100 16 0.306648
9 8 100 16 3.50226e-05
10 8 100 16 0.115227
14 8 100 16 0.000140103
15 8 100 16 8.41616e-07
4 9 100 16 6.44776e-06
6 9 100 16 0.129362
7 9 100 16 0.0432735
8 9 100 16 0.329772
9 9 100 16 0.159304
10 9 100 16 0.0862639
11 9 100 16 0.16577
12 9 100 16 0.0431195
13 9 100 16 0.0431195
14 9 100 16 9.40535e-06
2 10 100 16 9.93095e-07
3 10 100 16 0.0345781
4 10 100 16 0.0345797
5 10 100 16 1.17153e-06
6 10 100 16 3.51973e-07
7 10 100 16 0.103734
8 10 100 16 0.0691559
9 10 100 16 0.242031
10 10 100 16 0.182123
11 10 100 16 0.196983
12 10 100 16 0.0647741
14 10 100 16 0.00288336
15 10 100 16 0.0345774
16 10 100 16 0.0345781
2 11 100 16 0.0133729
3 11 100 16 4.39701e-07
4 11 100 16 0.0360464
5 11 100 16 0.0720939
6 11 100 16 0.0720921
7 11 100 16 0.0360472
8 11 100 16 0.0360464
9 11 100 16 0.0720924
10 11 100 16 0.21615
11 11 100 16 0.148446
12 11 100 16 0.116032
13 11 100 16 0.0734415
14 11 100 16 0.0720927
16 11 100 16 0.0360461
5 12 100 16 3.09881e-06
9 12 100 16 0.113511
10 12 100 16 0.113511
11 12 100 16 0.087524
12 12 100 16 0.458415
13 12 100 16 0.170266
15 12 100 16 0.0567707
2 13 100 16 9.31835e-07
10 13 100 16 0.0739938
11 13 100 16 0.0584006
12 13 100 16 0.283609
13 13 100 16 0.292003
14 13 100 16 0.175404
15 13 100 16 0.116589
2 14 100 16 5.47225e-07
4 14 100 16 0.0517372
9 14 100 16 0.0533675
10 14 100 16 0.105647
11 14 100 16 0.105877
12 14 100 16 0.0531295
13 14 100 16 0.317032
14 14 100 16 0.199921
15 14 100 16 0.06045
16 14 100 16 0.0528384
5 15 100 16 1.02704e-06
7 15 100 16 6.60752e-07
11 15 100 16 0.0974493
12 15 100 16 0.058004
13 15 100 16 0.0487179
14 15 100 16 0.260425
15 15 100 16 0.291781
16 15 100 16 0.243621
2 16 100 16 0.0417003
3 16 100 16 0.0416653
9 16 100 16 0.0821746
10 16 100 16 0.0417003
13 16 100 16 0.125049
14 16 100 16 0.0417002
15 16 100 16 0.250709
16 16 100 16 0.375301
2 17 100 16 0.0730831
10 17 100 16 1.88073e-05
11 17 100 16 0.0769858
12 17 100 16 0.0769858
13 17 100 16 0.230957
14 17 100 16 0.0800537
15 17 100 16 0.0769868
16 17 100 16 0.384929
6 18 100 16 9.95496e-05
7 18 100 16 0.000101587
8 18 100 16 0.0179518
11 18 100 16 4.82393e-06
12 18 100 16 0.000141006
13 18 100 16 4.46504e-06
14 18 100 16 0.00249681
15 18 100 16 0.979198
16 18 100 16 1.46752e-06
5 19 100 16 3.49765e-07
7 19 100 16 9.3481e-06
8 19 100 16 1.14823e-05
11 19 100 16 2.53084e-06
12 19 100 16 2.63367e-05
13 19 100 16 2.31449e-07
14 19 100 16 0.213578
15 19 100 16 0.199658
16 19 100 16 0.586714
1 20 100 16 2.00957e-06
3 20 100 16 8.50765e-05
14 20 100 16 1.3799e-05
15 20 100 16 0.0538179
16 20 100 16 0.946081
6 21 100 16 0.00299079
12 21 100 16 1.02321e-05
13 21 100 16 0.000458587
15 21 100 16 0.00162198
16 21 100 16 0.994918
1 22 100 16 0.143111
2 22 100 16 0.143036
3 22 100 16 0.143096
4 22 100 16 0.143112
5 22 100 16 0.143112
6 22 100 16 0.140899
7 22 100 16 0.000519949
13 22 100 16 9.60436e-07
15 22 100 16 3.80184e-07
16 22 100 16 0.143112
2 0 100 17 0.0251338
3 0 100 17 0.0495162
4 0 100 17 0.0236847
5 0 100 17 0.0432658
6 0 100 17 0.0828028
7 0 100 17 0.0525263
8 0 100 17 0.0822803
9 0 100 17 0.0504025
10 0 100 17 0.127452
11 0 100 17 0.104953
12 0 100 17 0.0532414
13 0 100 17 0.0729255
14 0 100 17 0.056334
15 0 100 17 0.0475713
16 0 100 17 0.127909
17 0 100 17 8.76349e-07
1 1 100 17 0.870983
2 1 100 17 0.0645083
5 1 100 17 0.0322542
6 1 100 17 0.0322542
2 2 100 17 0.81323
3 2 100 17 0.140075
4 2 100 17 2.11418e-06
13 2 100 17 0.0466916
16 2 100 17 1.1434e-06
1 3 100 17 0.0401172
2 3 100 17 0.188322
3 3 100 17 0.493307
4 3 100 17 0.200828
5 3 100 17 0.0372013
7 3 100 17 8.70168e-05
8 3 100 17 2.2477e-05
9 3 100 17 1.37693e-06
10 3 100 17 1.1251e-06
11 3 100 17 4.05826e-07
14 3 100 17 0.0401121
2 4 100 17 0.0373595
3 4 100 17 0.260863
4 4 100 17 0.476099
5 4 100 17 0.188307
6 4 100 17 6.86536e-06
7 4 100 17 0.0373595
10 4 100 17 3.11745e-06
16 4 100 17 1.68499e-06
1 5 100 17 0.0433147
2 5 100 17 0.0434754
3 5 100 17 8.60269e-06
4 5 100 17 0.260575
5 5 100 17 0.294771
6 5 100 17 0.22743
7 5 100 17 0.0434748
8 5 100 17 0.0434749
10 5 100 17 5.73953e-07
15 5 100 17 0.0434748
2 6 100 17 0.0482995
3 6 100 17 0.0482995
4 6 100 17 0.0226092
5 6 100 17 0.338096
6 6 100 17 0.246381
7 6 100 17 0.102017
8 6 100 17 0.0482898
9 6 100 17 0.0482995
10 6 100 17 9.46481e-06
12 6 100 17 0.0483067
15 6 100 17 0.00109002
16 6 100 17 0.0483022
3 7 100 17 0.0276293
4 7 100 17 0.0828815
5 7 100 17 0.0276293
6 7 100 17 0.147478
7 7 100 17 0.276099
8 7 100 17 0.134519
9 7 100 17 0.138147
10 7 100 17 0.0551524
11 7 100 17 2.6265e-05
12 7 100 17 0.0276309
13 7 100 17 0.0551758
14 7 100 17 0.0276308
16 7 100 17 1.52449e-06
1 8 100 17 0.0364956
5 8 100 17 0.0364956
6 8 100 17 0.113421
7 8 100 17 0.107578
8 8 100 17 0.291912
9 8 100 17 0.147401
10 8 100 17 0.120716
11 8 100 17 0.0729909
12 8 100 17 0.0729857
13 8 100 17 4.17112e-06
3 9 100 17 1.39391e-06
6 9 100 17 0.0784868
7 9 100 17 0.0392496
8 9 100 17 0.155008
9 9 100 17 0.2423
10 9 100 17 0.175191
11 9 100 17 0.230723
12 9 100 17 0.0392456
13 9 100 17 0.0397947
3 10 100 17 0.0411402
5 10 100 17 0.0411403
6 10 100 17 0.0411403
7 10 100 17 0.246752
8 10 100 17 0.0822806
9 10 100 17 0.16456
10 10 100 17 0.0849236
11 10 100 17 0.0461167
12 10 100 17 0.164561
13 10 100 17 0.0411491
14 10 100 17 0.005095
15 10 100 17 0.0411403
4 11 100 17 4.85703e-06
5 11 100 17 3.69786e-05
8 11 100 17 0.156236
9 11 100 17 0.117186
10 11 100 17 0.156277
11 11 100 17 0.238586
12 11 100 17 0.11721
13 11 100 17 0.0973549
14 11 100 17 0.078139
15 11 100 17 0.0389662
16 11 100 17 2.44036e-06
1 12 100 17 0.0432084
2 12 100 17 0.0432084
3 12 100 17 0.0432084
5 12 100 17 0.0432084
6 12 100 17 0.0864168
9 12 100 17 0.0438453
10 12 100 17 1.62409e-05
11 12 100 17 0.129576
12 12 100 17 0.302426
13 12 100 17 0.0876449
14 12 100 17 0.0432084
15 12 100 17 0.0476156
17 12 100 17 0.0864168
2 13 100 17 9.69868e-07
5 13 100 17 4.8923e-07
7 13 100 17 0.0383122
9 13 100 17 0.0383083
10 13 100 17 0.0766202
11 13 100 17 0.0766172
12 13 100 17 0.114925
13 13 100 17 0.267624
14 13 100 17 0.153194
15 13 100 17 0.116492
16 13 100 17 0.0795978
17 13 100 17 0.0383083
7 14 100 17 0.0360117
8 14 100 17 3.61261e-07
9 14 100 17 1.37347e-05
10 14 100 17 0.0720219
11 14 100 17 0.0360136
12 14 100 17 0.108035
13 14 100 17 0.144142
14 14 100 17 0.313815
15 14 100 17 0.0720235
16 14 100 17 0.0378642
17 14 100 17 0.180059
11 15 100 17 0.000426887
13 15 100 17 0.0606037
14 15 100 17 0.221429
15 15 100 17 0.362274
16 15 100 17 0.234054
17 15 100 17 0.121212
4 16 100 17 0.000592334
8 16 100 17 6.87627e-05
13 16 100 17 0.0673741
14 16 100 17 0.0839027
15 16 100 17 0.153955
16 16 100 17 0.424611
17 16 100 17 0.269496
5 17 100 17 0.0602465
9 17 100 17 0.060244
10 17 100 17 0.0355566
12 17 100 17 0.0602473
14 17 100 17 0.0602483
15 17 100 17 0.301236
16 17 100 17 0.181235
17 17 100 17 0.240986
2 18 100 17 0.0312382
3 18 100 17 0.0312331
4 18 100 17 0.0624764
5 18 100 17 0.0624765
7 18 100 17 0.031238
9 18 100 17 0.0307772
10 18 100 17 0.0312382
11 18 100 17 0.0624765
12 18 100 17 0.0312382
13 18 100 17 0.0624765
14 18 100 17 0.094684
15 18 100 17 0.124952
16 18 100 17 0.0935908
17 18 100 17 0.249905
7 19 100 17 7.78968e-05
8 19 100 17 8.29467e-05
9 19 100 17 4.93408e-06
10 19 100 17 9.60071e-05
11 19 100 17 0.00562926
12 19 100 17 0.00151787
13 19 100 17 0.263092
14 19 100 17 0.00151787
15 19 100 17 0.188803
16 19 100 17 0.275774
17 19 100 17 0.263404
1 20 100 17 5.15855e-07
6 20 100 17 3.75501e-07
7 20 100 17 1.09474e-06
8 20 100 17 5.29067e-06
10 20 100 17 5.85899e-07
11 20 100 17 1.3308e-06
12 20 100 17 4.23178e-06
13 20 100 17 0.000165824
14 20 100 17 0.000352212
15 20 100 17 0.0669634
16 20 100 17 0.0823732
17 20 100 17 0.850132
2 0 100 18 0.0398419
3 0 100 18 0.0648037
4 0 100 18 0.103559
5 0 100 18 0.0517992
6 0 100 18 0.050021
7 0 100 18 0.114284
8 0 100 18 0.0112241
9 0 100 18 0.0263283
10 0 100 18 0.0651092
11 0 100 18 0.0735562
12 0 100 18 0.0666857
13 0 100 18 0.0528182
14 0 100 18 0.0714874
15 0 100 18 0.0700296
16 0 100 18 0.047495
17 0 100 18 0.0909571
18 0 100 18 1.40759e-07
1 1 100 18 0.860201
2 1 100 18 0.11205
3 1 100 18 0.0277487
1 2 100 18 0.0166644
2 2 100 18 0.904017
3 2 100 18 0.0312194
4 2 100 18 0.048081
8 2 100 18 8.29412e-06
12 2 100 18 9.74311e-06
2 3 100 18 0.162025
3 3 100 18 0.619097
4 3 100 18 0.0453944
5 3 100 18 1.30274e-06
6 3 100 18 0.04338
7 3 100 18 0.0433649
8 3 100 18 4.77699e-07
13 3 100 18 0.0433665
14 3 100 18 0.0433648
16 3 100 18 6.15256e-06
1 4 100 18 9.38938e-06
3 4 100 18 0.205529
4 4 100 18 0.337129
5 4 100 18 0.418727
9 4 100 18 0.0342438
14 4 100 18 0.00436054
17 4 100 18 5.2848e-07
2 5 100 18 5.20287e-06
3 5 100 18 0.0361586
4 5 100 18 0.323376
5 5 100 18 0.135697
6 5 100 18 0.361155
7 5 100 18 0.107649
8 5 100 18 0.0359487
15 5 100 18 1.01667e-05
2 6 100 18 0.0453147
3 6 100 18 0.045315
4 6 100 18 0.0453705
5 6 100 18 0.316411
6 6 100 18 0.271884
7 6 100 18 0.275695
11 6 100 18 4.29509e-06
12 6 100 18 3.23532e-06
14 6 100 18 1.2644e-06
16 6 100 18 5.64005e-07
3 7 100 18 8.1123e-07
4 7 100 18 0.0445675
5 7 100 18 0.0891351
6 7 100 18 0.309178
7 7 100 18 0.131885
8 7 100 18 0.291575
9 7 100 18 0.0891293
10 7 100 18 0.0445298
3 8 100 18 0.0390381
5 8 100 18 0.0385905
6 8 100 18 0.0442812
7 8 100 18 0.333729
8 8 100 18 0.297228
9 8 100 18 0.129848
10 8 100 18 0.0782126
11 8 100 18 0.0390597
12 8 100 18 1.29649e-05
5 9 100 18 1.1567e-06
6 9 100 18 0.0401775
7 9 100 18 0.00168176
8 9 100 18 0.361556
9 9 100 18 0.36155
10 9 100 18 0.120519
11 9 100 18 0.114515
6 10 100 18 1.95249e-05
7 10 100 18 0.0480928
8 10 100 18 0.12769
9 10 100 18 0.339144
10 10 100 18 0.268918
11 10 100 18 0.0969968
12 10 100 18 0.119137
14 10 100 18 2.65395e-06
6 11 100 18 0.0467922
7 11 100 18 8.41927e-07
8 11 100 18 0.0466357
9 11 100 18 0.0935908
10 11 100 18 0.236031
11 11 100 18 0.296174
12 11 100 18 0.187169
13 11 100 18 0.0935997
14 11 100 18 7.56373e-06
8 12 100 18 0.0890374
9 12 100 18 0.0450551
10 12 100 18 0.135429
11 12 100 18 0.138264
12 12 100 18 0.270724
13 12 100 18 0.180131
14 12 100 18 0.0963253
16 12 100 18 0.0450339
7 13 100 18 2.18444e-06
9 13 100 18 0.037767
10 13 100 18 0.0552788
11 13 100 18 0.151096
12 13 100 18 0.264026
13 13 100 18 0.287631
14 13 100 18 0.128712
16 13 100 18 0.0379599
17 13 100 18 0.0375274
5 14 100 18 2.12972e-05
10 14 100 18 0.0350412
11 14 100 18 0.105123
12 14 100 18 0.105666
13 14 100 18 0.248263
14 14 100 18 0.211027
15 14 100 18 0.189739
16 14 100 18 0.0700781
17 14 100 18 3.90569e-07
18 14 100 18 0.0350411
5 15 100 18 0.00024885
10 15 100 18 0.0376662
11 15 100 18 0.0376663
12 15 100 18 0.0403623
13 15 100 18 0.0822038
14 15 100 18 0.22073
15 15 100 18 0.28631
16 15 100 18 0.150712
17 15 100 18 0.0687671
18 15 100 18 0.0753324
4 16 100 18 0.000148777
7 16 100 18 5.54084e-07
10 16 100 18 4.54463e-07
11 16 100 18 0.0335753
12 16 100 18 0.0335753
13 16 100 18 0.0335753
14 16 100 18 0.130017
15 16 100 18 0.131079
16 16 100 18 0.301991
17 16 100 18 0.16816
18 16 100 18 0.167876
3 17 100 18 9.47973e-07
10 17 100 18 5.64279e-06
12 17 100 18 0.0644466
13 17 100 18 0.0655883
14 17 100 18 0.128893
15 17 100 18 0.132765
16 17 100 18 0.085601
17 17 100 18 0.264913
18 17 100 18 0.257786
10 18 100 18 0.0486049
11 18 100 18 0.0486049
13 18 100 18 0.0972098
15 18 100 18 0.17426
16 18 100 18 0.242985
17 18 100 18 0.145311
18 18 100 18 0.243024
14 19 100 18 0.0768856
16 19 100 18 0.149481
17 19 100 18 0.37472
18 19 100 18 0.398913
1 20 100 18 2.97632e-07
4 20 100 18 1.33303e-05
7 20 100 18 9.60293e-06
10 20 100 18 1.90078e-07
11 20 100 18 8.45002e-07
13 20 100 18 1.49492e-07
14 20 100 18 0.000257659
15 20 100 18 0.216866
16 20 100 18 0.121998
17 20 100 18 0.250534
18 20 100 18 0.41032
7 21 100 18 9.83967e-06
12 21 100 18 4.02786e-05
13 21 100 18 3.83001e-05
15 21 100 18 0.337965
16 21 100 18 0.326365
17 21 100 18 2.18349e-05
18 21 100 18 0.335559
7 22 100 18 4.8262e-05
11 22 100 18 6.04736e-05
14 22 100 18 2.58425e-06
16 22 100 18 0.0890201
17 22 100 18 0.353205
18 22 100 18 0.557664
4 23 100 18 1.98037e-06
7 23 100 18 6.34832e-06
9 23 100 18 3.62087e-06
14 23 100 18 0.332661
15 23 100 18 0.000580271
16 23 100 18 0.326523
17 23 100 18 0.340224
1 24 100 18 0.0641066
2 24 100 18 0.0135062
3 24 100 18 0.137663
4 24 100 18 0.0838034
5 24 100 18 0.140483
6 24 100 18 0.0768581
7 24 100 18 0.000152246
8 24 100 18 0.00174643
13 24 100 18 2.02679e-07
14 24 100 18 3.63758e-05
15 24 100 18 0.0701183
16 24 100 18 0.000234906
17 24 100 18 0.130318
18 24 100 18 0.280974
2 0 100 19 0.0242773
3 0 100 19 0.0127865
4 0 100 19 0.0959888
5 0 100 19 0.0435478
6 0 100 19 0.0512356
7 0 100 19 0.0602492
8 0 100 19 0.0835618
9 0 100 19 0.035675
10 0 100 19 0.0623973
11 0 100 19 0.0947175
12 0 100 19 0.0616274
13 0 100 19 0.102897
14 0 100 19 0.0460895
15 0 100 19 0.0243126
16 0 100 19 0.0809822
17 0 100 19 0.0609175
18 0 100 19 0.0587357
19 0 100 19 1.25609e-06
1 1 100 19 0.866462
3 1 100 19 0.0999788
4 1 100 19 0.00023383
8 1 100 19 0.0333255
1 2 100 19 0.0405928
2 2 100 19 0.671586
3 2 100 19 0.0812016
5 2 100 19 0.00386443
6 2 100 19 0.0405875
9 2 100 19 6.15751e-05
12 2 100 19 0.0403283
13 2 100 19 0.0405927
14 2 100 19 0.0405928
15 2 100 19 0.0405928
1 3 100 19 0.0412068
2 3 100 19 0.183424
3 3 100 19 0.491942
4 3 100 19 0.1598
5 3 100 19 0.0412068
6 3 100 19 0.0412119
7 3 100 19 0.0412068
12 3 100 19 1.08686e-06
16 3 100 19 1.75268e-06
1 4 100 19 0.0370193
2 4 100 19 0.148073
3 4 100 19 0.188267
4 4 100 19 0.262279
5 4 100 19 0.148077
6 4 100 19 0.179262
7 4 100 19 0.0370193
8 4 100 19 4.64105e-07
14 4 100 19 3.83448e-07
17 4 100 19 1.74903e-06
2 5 100 19 3.9977e-06
3 5 100 19 0.0501789
4 5 100 19 0.100384
5 5 100 19 0.297191
6 5 100 19 0.14997
7 5 100 19 0.15053
8 5 100 19 0.0501789
9 5 100 19 0.150519
10 5 100 19 0.051041
11 5 100 19 1.09999e-06
12 5 100 19 8.40727e-07
14 5 100 19 1.09593e-06
2 6 100 19 4.35569e-06
3 6 100 19 0.139516
4 6 100 19 0.0473172
5 6 100 19 0.207938
6 6 100 19 0.178437
7 6 100 19 0.23668
8 6 100 19 0.141947
9 6 100 19 0.0473172
10 6 100 19 2.16081e-05
12 6 100 19 1.39927e-06
14 6 100 19 0.000807854
15 6 100 19 5.03247e-07
16 6 100 19 4.01568e-06
18 6 100 19 7.09486e-06
1 7 100 19 0.0312523
2 7 100 19 0.0625044
3 7 100 19 0.0312523
4 7 100 19 0.156254
5 7 100 19 0.0625046
6 7 100 19 0.12501
7 7 100 19 0.156262
8 7 100 19 0.156257
9 7 100 19 0.124941
10 7 100 19 0.0312523
11 7 100 19 0.0312529
12 7 100 19 0.0312573
16 7 100 19 7.24744e-07
2 8 100 19 0.000173139
3 8 100 19 3.51067e-05
5 8 100 19 0.0833386
6 8 100 19 0.0833386
7 8 100 19 0.0833386
8 8 100 19 0.166674
9 8 100 19 0.166018
10 8 100 19 0.201543
11 8 100 19 0.0833446
12 8 100 19 0.0416699
13 8 100 19 0.00718758
14 8 100 19 0.0833386
2 9 100 19 0.0414838
5 9 100 19 0.124454
6 9 100 19 0.124476
7 9 100 19 0.0429226
8 9 100 19 0.124451
9 9 100 19 0.0414878
10 9 100 19 0.12445
11 9 100 19 0.248903
12 9 100 19 0.124451
14 9 100 19 0.00291686
15 9 100 19 2.93615e-06
6 10 100 19 0.00587408
7 10 100 19 0.0666819
8 10 100 19 0.128948
9 10 100 19 0.169286
10 10 100 19 0.166777
11 10 100 19 0.0667795
12 10 100 19 0.26229
13 10 100 19 0.100023
14 10 100 19 0.033341
16 10 100 19 4.17653e-07
17 10 100 19 5.49132e-07
4 11 100 19 5.00375e-07
7 11 100 19 0.0483161
8 11 100 19 0.0549137
9 11 100 19 0.0966322
10 11 100 19 0.0483641
11 11 100 19 0.144948
12 11 100 19 0.0693519
13 11 100 19 0.199718
14 11 100 19 0.144454
15 11 100 19 0.144948
16 11 100 19 0.0483214
18 11 100 19 4.58982e-06
19 11 100 19 2.73151e-05
6 12 100 19 0.034802
7 12 100 19 0.0696038
8 12 100 19 0.00390462
9 12 100 19 0.0696038
10 12 100 19 0.13913
11 12 100 19 0.0382239
12 12 100 19 0.0892545
13 12 100 19 0.0700781
14 12 100 19 0.139146
15 12 100 19 0.208812
16 12 100 19 0.102639
17 12 100 19 0.0348019
4 13 100 19 0.0487099
6 13 100 19 9.33802e-07
7 13 100 19 0.0487099
9 13 100 19 0.0487135
10 13 100 19 0.146185
12 13 100 19 0.0517465
13 13 100 19 0.14613
14 13 100 19 0.0975043
15 13 100 19 0.194837
16 13 100 19 0.152644
17 13 100 19 0.0487099
18 13 100 19 0.0161089
3 14 100 19 0.0422955
4 14 100 19 1.4628e-06
5 14 100 19 0.0434823
7 14 100 19 4.93597e-07
9 14 100 19 0.0869645
10 14 100 19 0.0434624
11 14 100 19 0.130438
13 14 100 19 0.0436173
14 14 100 19 0.173931
16 14 100 19 0.0895758
17 14 100 19 0.21581
18 14 100 19 0.0434823
19 14 100 19 0.0869399
6 15 100 19 5.68086e-06
7 15 100 19 1.0814e-06
9 15 100 19 0.0895777
10 15 100 19 0.00105172
11 15 100 19 0.000169627
12 15 100 19 0.0447844
13 15 100 19 0.0985391
14 15 100 19 0.0493589
15 15 100 19 0.0895726
16 15 100 19 0.0893668
17 15 100 19 0.178776
18 15 100 19 0.224447
19 15 100 19 0.134349
3 16 100 19 0.035726
5 16 100 19 0.0357247
6 16 100 19 0.0357242
7 16 100 19 0.0357247
8 16 100 19 0.0714493
10 16 100 19 0.0357247
11 16 100 19 0.0714493
12 16 100 19 0.0357247
13 16 100 19 0.107174
14 16 100 19 0.0713675
15 16 100 19 9.0899e-07
16 16 100 19 0.0714604
17 16 100 19 0.142917
18 16 100 19 0.106934
19 16 100 19 0.142898
9 17 100 19 0.0301509
10 17 100 19 0.0295519
11 17 100 19 0.0301501
12 17 100 19 0.0602994
13 17 100 19 0.0301497
14 17 100 19 0.0904823
15 17 100 19 0.150656
16 17 100 19 0.123247
17 17 100 19 0.0936742
18 17 100 19 0.180741
19 17 100 19 0.180898
11 18 100 19 0.00904979
15 18 100 19 0.196847
16 18 100 19 0.113192
17 18 100 19 0.385638
18 18 100 19 0.0984269
19 18 100 19 0.196847
3 19 100 19 0.045555
4 19 100 19 0.045555
5 19 100 19 0.045555
6 19 100 19 0.045555
7 19 100 19 0.045555
11 19 100 19 0.045555
12 19 100 19 0.0911099
14 19 100 19 0.136665
15 19 100 19 0.0911099
16 19 100 19 0.0889006
17 19 100 19 0.0455559
18 19 100 19 0.0911096
19 19 100 19 0.18222
4 20 100 19 0.0631464
5 20 100 19 0.0631464
6 20 100 19 0.0631464
8 20 100 19 1.03874e-06
13 20 100 19 0.0631464
15 20 100 19 0.126293
16 20 100 19 0.126293
17 20 100 19 3.36782e-05
18 20 100 19 0.242209
19 20 100 19 0.252585
1 21 100 19 0.184222
2 21 100 19 0.184222
3 21 100 19 8.32757e-05
4 21 100 19 0.164642
5 21 100 19 5.14169e-05
8 21 100 19 2.3487e-06
12 21 100 19 2.87693e-06
13 21 100 19 0.000197944
14 21 100 19 0.0175354
15 21 100 19 1.26129e-05
16 21 100 19 0.0815637
17 21 100 19 0.183244
18 21 100 19 3.18157e-07
19 21 100 19 0.18422
1 22 100 19 7.7868e-07
3 22 100 19 0.00023426
4 22 100 19 0.0908251
5 22 100 19 0.0897833
6 22 100 19 0.000242686
7 22 100 19 2.28624e-06
8 22 100 19 5.20228e-06
10 22 100 19 0.000318017
11 22 100 19 0.0895081
12 22 100 19 0.0896188
13 22 100 19 0.00063836
14 22 100 19 7.18376e-06
15 22 100 19 0.0898108
16 22 100 19 0.0898253
17 22 100 19 0.165184
18 22 100 19 0.204178
19 22 100 19 0.0898183
4 23 100 19 2.41595e-06
6 23 100 19 0.000292932
8 23 100 19 2.32831e-06
10 23 100 19 1.53623e-06
12 23 100 19 0.00141939
15 23 100 19 1.31277e-05
16 23 100 19 0.00429835
18 23 100 19 0.99397
2 24 100 19 1.48523e-06
7 24 100 19 2.54384e-07
10 24 100 19 1.06176e-06
11 24 100 19 3.53736e-06
12 24 100 19 0.000349872
13 24 100 19 0.155856
14 24 100 19 0.15697
15 24 100 19 0.156036
16 24 100 19 0.0165535
17 24 100 19 0.0252442
18 24 100 19 0.0180705
19 24 100 19 0.470913
15 25 100 19 7.73251e-05
16 25 100 19 0.280811
17 25 100 19 0.094516
18 25 100 19 0.12233
19 25 100 19 0.502266
1 0 100 20 1.05685e-07
2 0 100 20 0.0115453
3 0 100 20 0.0418888
4 0 100 20 0.056211
5 0 100 20 0.0564612
6 0 100 20 0.0750636
7 0 100 20 0.0395359
8 0 100 20 0.0794187
9 0 100 20 0.0298754
10 0 100 20 0.0815376
11 0 100 20 0.0562976
12 0 100 20 0.0501976
13 0 100 20 0.049485
14 0 100 20 0.0401886
15 0 100 20 0.044032
16 0 100 20 0.0913597
17 0 100 20 0.051842
18 0 100 20 0.0479547
19 0 100 20 0.0971049
20 0 100 20 3.10386e-07
1 1 100 20 0.867772
2 1 100 20 0.105795
3 1 100 20 0.0264333
2 2 100 20 0.619462
3 2 100 20 0.283882
4 2 100 20 0.0325195
8 2 100 20 0.0320665
10 2 100 20 0.0320665
12 2 100 20 1.47923e-06
16 2 100 20 2.06294e-06
2 3 100 20 0.155118
3 3 100 20 0.401501
4 3 100 20 0.395164
5 3 100 20 0.048216
15 3 100 20 7.79941e-07
1 4 100 20 3.60478e-05
2 4 100 20 0.0760824
3 4 100 20 0.193902
4 4 100 20 0.265286
5 4 100 20 0.331954
6 4 100 20 0.0331832
7 4 100 20 0.0995497
8 4 100 20 6.3806e-06
2 5 100 20 0.000180994
3 5 100 20 0.178458
4 5 100 20 0.148582
5 5 100 20 0.239541
6 5 100 20 0.38559
8 5 100 20 0.0476445
10 5 100 20 1.2552e-06
17 5 100 20 6.03664e-07
19 5 100 20 1.25428e-06
3 6 100 20 1.42946e-05
4 6 100 20 0.113021
5 6 100 20 0.236524
6 6 100 20 0.235816
7 6 100 20 0.188318
8 6 100 20 0.0753414
9 6 100 20 0.0379372
11 6 100 20 0.0376737
12 6 100 20 0.0376737
13 6 100 20 6.60914e-06
15 6 100 20 0.0376737
4 7 100 20 0.0355929
5 7 100 20 0.106777
6 7 100 20 0.319934
7 7 100 20 0.250884
8 7 100 20 0.142368
9 7 100 20 0.14395
13 7 100 20 0.0004941
4 8 100 20 0.0738646
6 8 100 20 0.0398407
7 8 100 20 0.2953
8 8 100 20 0.184994
9 8 100 20 0.147908
10 8 100 20 0.073878
12 8 100 20 0.0368773
13 8 100 20 0.0369323
14 8 100 20 0.0738645
15 8 100 20 0.0365411
5 9 100 20 1.53261e-06
6 9 100 20 4.18959e-07
7 9 100 20 0.159796
8 9 100 20 0.24218
9 9 100 20 0.235183
10 9 100 20 0.201515
11 9 100 20 0.0806886
12 9 100 20 0.0403125
16 9 100 20 0.0403129
17 9 100 20 9.3564e-06
19 9 100 20 1.04004e-06
7 10 100 20 0.030692
8 10 100 20 0.088841
9 10 100 20 0.244707
10 10 100 20 0.206024
11 10 100 20 0.15346
12 10 100 20 0.0921241
13 10 100 20 0.0920731
14 10 100 20 0.030692
16 10 100 20 0.0306919
17 10 100 20 0.0306952
6 11 100 20 1.17096e-06
8 11 100 20 0.0415984
9 11 100 20 0.0773433
10 11 100 20 0.195062
11 11 100 20 0.236253
12 11 100 20 0.23203
14 11 100 20 0.140393
17 11 100 20 2.43753e-06
18 11 100 20 0.0386877
19 11 100 20 0.0386287
6 12 100 20 4.896e-07
8 12 100 20 1.66361e-05
9 12 100 20 0.0866366
10 12 100 20 0.0441056
11 12 100 20 0.216621
12 12 100 20 0.172187
13 12 100 20 0.389813
14 12 100 20 2.74257e-05
15 12 100 20 0.0905907
16 12 100 20 7.31329e-07
3 13 100 20 1.80858e-05
7 13 100 20 2.19173e-05
8 13 100 20 1.9091e-06
10 13 100 20 2.86627e-05
11 13 100 20 0.0768301
12 13 100 20 0.228778
13 13 100 20 0.0776919
14 13 100 20 0.339691
15 13 100 20 0.188569
16 13 100 20 0.0768306
19 13 100 20 0.0115388
2 14 100 20 0.027222
8 14 100 20 0.0542409
9 14 100 20 0.0544446
10 14 100 20 0.0814336
11 14 100 20 0.054444
12 14 100 20 0.0544599
13 14 100 20 0.109002
14 14 100 20 0.027222
15 14 100 20 0.0634901
16 14 100 20 0.181561
17 14 100 20 0.13732
18 14 100 20 0.081666
19 14 100 20 0.0462711
20 14 100 20 0.027222
6 15 100 20 5.63937e-07
8 15 100 20 2.14039e-05
9 15 100 20 0.00522223
11 15 100 20 0.0958245
12 15 100 20 0.0435772
13 15 100 20 0.130732
14 15 100 20 0.325435
15 15 100 20 0.135471
16 15 100 20 0.00165614
17 15 100 20 0.087155
18 15 100 20 0.0877533
19 15 100 20 0.0435742
20 15 100 20 0.0435772
9 16 100 20 0.043075
10 16 100 20 1.29735e-06
11 16 100 20 9.20367e-06
12 16 100 20 0.08615
13 16 100 20 0.0851831
14 16 100 20 4.03981e-06
15 16 100 20 0.349907
16 16 100 20 0.1723
18 16 100 20 0.13418
19 16 100 20 0.0861153
20 16 100 20 0.043075
10 17 100 20 0.0355305
13 17 100 20 0.0705791
14 17 100 20 0.0355305
15 17 100 20 0.106591
16 17 100 20 0.177653
17 17 100 20 0.250918
18 17 100 20 0.0745223
19 17 100 20 0.177614
20 17 100 20 0.071061
9 18 100 20 1.90898e-06
11 18 100 20 0.0443897
12 18 100 20 1.90898e-06
14 18 100 20 0.088386
16 18 100 20 0.0913075
17 18 100 20 0.338433
18 18 100 20 0.260234
19 18 100 20 0.000474659
20 18 100 20 0.176772
4 19 100 20 4.24758e-05
9 19 100 20 1.41e-06
10 19 100 20 9.59338e-07
11 19 100 20 1.11118e-06
13 19 100 20 0.047098
14 19 100 20 9.00233e-07
15 19 100 20 0.0471149
16 19 100 20 3.50072e-05
17 19 100 20 0.188434
18 19 100 20 0.39592
19 19 100 20 0.132899
20 19 100 20 0.188452
1 20 100 20 0.00896619
2 20 100 20 0.052708
3 20 100 20 0.052708
5 20 100 20 0.0526832
7 20 100 20 0.052708
10 20 100 20 1.66603e-06
12 20 100 20 0.052708
14 20 100 20 0.052708
15 20 100 20 0.052708
16 20 100 20 0.052708
17 20 100 20 0.0527155
18 20 100 20 0.00369638
19 20 100 20 0.249442
20 20 100 20 0.263539
2 21 100 20 0.0564658
3 21 100 20 1.02457e-05
4 21 100 20 0.0564658
5 21 100 20 0.0558734
6 21 100 20 1.12424e-06
13 21 100 20 0.0564658
17 21 100 20 1.25356e-06
18 21 100 20 0.088574
19 21 100 20 0.177951
20 21 100 20 0.508191
1 22 100 20 3.27407e-07
3 22 100 20 7.38269e-06
7 22 100 20 5.97546e-07
8 22 100 20 1.20274e-06
12 22 100 20 6.96663e-06
14 22 100 20 0.126808
15 22 100 20 0.126823
16 22 100 20 0.126826
17 22 100 20 0.0217322
18 22 100 20 0.127152
19 22 100 20 0.0901474
20 22 100 20 0.380495
12 23 100 20 3.27149e-06
18 23 100 20 1.22462e-05
19 23 100 20 0.487551
20 23 100 20 0.512434
19 24 100 20 0.0463773
20 24 100 20 0.953623
7 25 100 20 0.000101882
8 25 100 20 0.0110555
10 25 100 20 0.000192243
11 25 100 20 0.976511
13 25 100 20 8.20451e-05
16 25 100 20 0.0120572
9 26 100 20 9.76597e-06
12 26 100 20 3.76062e-05
17 26 100 20 0.999953
19 27 100 20 0.000302927
20 27 100 20 0.999697
2 0 100 21 0.0361957
3 0 100 21 0.01101
4 0 100 21 0.0715294
5 0 100 21 0.0393011
6 0 100 21 0.0366719
7 0 100 21 0.0883417
8 0 100 21 0.0717441
9 0 100 21 0.013708
10 0 100 21 0.0837843
11 0 100 21 0.0474032
12 0 100 21 0.0350703
13 0 100 21 0.0139961
14 0 100 21 0.0362595
15 0 100 21 0.048746
16 0 100 21 0.089103
17 0 100 21 0.0771532
18 0 100 21 0.0703978
19 0 100 21 0.0496161
20 0 100 21 0.0799685
1 1 100 21 0.952381
2 1 100 21 0.0476189
2 2 100 21 0.500003
3 2 100 21 0.374999
6 2 100 21 0.0416665
7 2 100 21 0.0416662
8 2 100 21 0.0416656
1 3 100 21 0.1571
2 3 100 21 0.209468
3 3 100 21 0.371204
4 3 100 21 0.105126
7 3 100 21 0.0523666
8 3 100 21 0.104734
10 3 100 21 7.01187e-07
16 3 100 21 8.02542e-07
19 3 100 21 8.0245e-07
2 4 100 21 6.95915e-06
3 4 100 21 0.121916
4 4 100 21 0.58957
5 4 100 21 0.0601814
6 4 100 21 0.121679
7 4 100 21 0.0457824
8 4 100 21 0.0608393
9 4 100 21 5.67833e-06
10 4 100 21 3.62961e-06
13 4 100 21 4.63634e-06
15 4 100 21 5.67833e-06
16 4 100 21 4.02442e-06
17 4 100 21 1.55405e-06
2 5 100 21 0.0472367
4 5 100 21 0.160501
5 5 100 21 0.507654
6 5 100 21 0.0956589
7 5 100 21 0.0472367
8 5 100 21 0.0472367
9 5 100 21 0.0472367
10 5 100 21 0.0472379
19 5 100 21 1.20569e-06
3 6 100 21 0.138126
4 6 100 21 0.103303
5 6 100 21 0.242342
6 6 100 21 0.377995
7 6 100 21 0.0691141
8 6 100 21 5.4936e-06
9 6 100 21 0.0345571
13 6 100 21 0.0345571
2 7 100 21 0.0616041
3 7 100 21 0.0615933
5 7 100 21 0.184763
6 7 100 21 0.184661
7 7 100 21 0.258886
8 7 100 21 0.125146
9 7 100 21 0.123145
15 7 100 21 0.000186898
16 7 100 21 1.16656e-05
19 7 100 21 2.8696e-06
2 8 100 21 0.105209
7 8 100 21 0.115956
8 8 100 21 0.214942
9 8 100 21 0.353478
10 8 100 21 0.0526034
11 8 100 21 0.0526034
12 8 100 21 0.105207
20 8 100 21 9.16809e-07
2 9 100 21 0.0479881
5 9 100 21 3.22846e-05
6 9 100 21 0.0479882
7 9 100 21 0.177631
8 9 100 21 0.0937221
9 9 100 21 0.296511
10 9 100 21 0.192714
11 9 100 21 0.143351
13 9 100 21 9.08007e-06
16 9 100 21 9.17319e-06
19 9 100 21 4.42464e-05
3 10 100 21 0.0434503
5 10 100 21 4.40488e-06
7 10 100 21 0.0436455
8 10 100 21 0.086739
9 10 100 21 0.130351
10 10 100 21 0.391051
11 10 100 21 0.174355
12 10 100 21 0.130351
18 10 100 21 5.34106e-05
4 11 100 21 0.0399107
8 11 100 21 0.159643
9 11 100 21 0.0798246
10 11 100 21 0.0820035
11 11 100 21 0.239475
12 11 100 21 0.19952
13 11 100 21 0.199615
16 11 100 21 8.61329e-06
4 12 100 21 4.73996e-06
6 12 100 21 0.000402143
7 12 100 21 0.0590699
9 12 100 21 0.0694668
10 12 100 21 6.65894e-06
11 12 100 21 0.153715
12 12 100 21 0.430476
13 12 100 21 0.0717343
14 12 100 21 0.215125
6 13 100 21 1.2023e-06
10 13 100 21 6.17585e-06
11 13 100 21 0.117808
12 13 100 21 0.17665
13 13 100 21 0.35199
14 13 100 21 0.235616
15 13 100 21 0.117926
16 13 100 21 1.67825e-06
17 13 100 21 7.08228e-07
2 14 100 21 6.51869e-07
5 14 100 21 1.87073e-05
6 14 100 21 0.0792714
7 14 100 21 1.49732e-06
9 14 100 21 0.0396325
10 14 100 21 0.0396468
11 14 100 21 0.0396357
12 14 100 21 0.118917
13 14 100 21 0.159526
14 14 100 21 0.243927
15 14 100 21 0.160499
16 14 100 21 0.118905
18 14 100 21 1.87359e-05
4 15 100 21 1.57168e-06
6 15 100 21 6.23802e-06
7 15 100 21 0.000293448
8 15 100 21 6.03319e-07
10 15 100 21 4.90883e-05
11 15 100 21 0.0522019
12 15 100 21 8.05113e-05
13 15 100 21 0.102639
14 15 100 21 0.107498
15 15 100 21 0.275362
16 15 100 21 0.239101
17 15 100 21 0.167071
18 15 100 21 0.0556952
19 15 100 21 7.57532e-07
2 16 100 21 4.12172e-07
11 16 100 21 0.03556
12 16 100 21 0.00353593
13 16 100 21 0.03556
14 16 100 21 0.174907
15 16 100 21 0.245483
16 16 100 21 0.184462
17 16 100 21 0.17787
18 16 100 21 0.142614
19 16 100 21 1.41424e-06
20 16 100 21 6.56453e-06
2 17 100 21 0.00030083
6 17 100 21 9.25863e-06
7 17 100 21 5.15702e-07
13 17 100 21 0.093862
14 17 100 21 0.0938456
15 17 100 21 0.140772
17 17 100 21 0.201221
18 17 100 21 0.187699
19 17 100 21 0.252608
20 17 100 21 0.0296814
1 18 100 21 0.0375563
6 18 100 21 5.44203e-07
8 18 100 21 1.24496e-06
10 18 100 21 2.00416e-06
13 18 100 21 0.0374524
15 18 100 21 0.00251092
16 18 100 21 0.0779714
17 18 100 21 0.0874165
18 18 100 21 0.156782
19 18 100 21 0.261161
20 18 100 21 0.151365
21 18 100 21 0.187782
2 19 100 21 9.17965e-07
9 19 100 21 5.10422e-07
15 19 100 21 2.52421e-05
16 19 100 21 0.101434
17 19 100 21 0.101486
18 19 100 21 0.202972
19 19 100 21 0.233569
20 19 100 21 0.259027
21 19 100 21 0.101486
2 20 100 21 1.27005e-06
12 20 100 21 8.74056e-07
13 20 100 21 0.0729817
16 20 100 21 0.00555426
17 20 100 21 0.0731544
19 20 100 21 0.0732597
20 20 100 21 0.191195
21 20 100 21 0.583853
1 21 100 21 0.071495
16 21 100 21 0.0714949
17 21 100 21 0.071495
18 21 100 21 0.142422
19 21 100 21 0.071495
20 21 100 21 0.285619
21 21 100 21 0.28598
13 22 100 21 4.68574e-06
19 22 100 21 0.332892
20 22 100 21 0.00168078
21 22 100 21 0.665423
7 23 100 21 6.41434e-06
11 23 100 21 0.000205307
12 23 100 21 2.80624e-06
14 23 100 21 4.11357e-07
16 23 100 21 5.00409e-06
17 23 100 21 3.63521e-05
18 23 100 21 0.145215
19 23 100 21 0.0692004
20 23 100 21 1.55528e-05
21 23 100 21 0.785313
11 24 100 21 1.29407e-05
16 24 100 21 9.08862e-07
18 24 100 21 1.23769e-06
19 24 100 21 0.247243
20 24 100 21 0.752742
8 25 100 21 4.26694e-07
18 25 100 21 5.08009e-07
19 25 100 21 0.000679174
20 25 100 21 0.357788
21 25 100 21 0.641532
2 0 100 22 0.0170679
3 0 100 22 0.0102345
4 0 100 22 0.0527383
5 0 100 22 0.0353724
6 0 100 22 0.0435836
7 0 100 22 0.0442219
8 0 100 22 0.0445025
9 0 100 22 0.039445
10 0 100 22 0.0450597
11 0 100 22 0.0569671
12 0 100 22 0.0641754
13 0 100 22 0.0606066
14 0 100 22 0.0722644
15 0 100 22 0.0618145
16 0 100 22 0.041951
17 0 100 22 0.0506354
18 0 100 22 0.0959482
19 0 100 22 0.0386363
20 0 100 22 0.0741644
21 0 100 22 0.0506107
22 0 100 22 2.55575e-07
1 1 100 22 0.868262
2 1 100 22 0.105391
3 1 100 22 0.0263477
1 2 100 22 0.00170397
2 2 100 22 0.628167
3 2 100 22 0.296042
4 2 100 22 0.0370427
5 2 100 22 3.84086e-07
11 2 100 22 0.0370426
18 2 100 22 7.23757e-07
2 3 100 22 0.214339
3 3 100 22 0.445449
4 3 100 22 0.285843
5 3 100 22 6.15785e-05
12 3 100 22 0.025863
20 3 100 22 0.0284443
1 4 100 22 0.0307626
2 4 100 22 0.0922597
3 4 100 22 0.277595
4 4 100 22 0.216928
5 4 100 22 0.254922
6 4 100 22 0.0351919
7 4 100 22 0.0307626
10 4 100 22 2.84625e-06
11 4 100 22 0.0307597
12 4 100 22 3.29345e-07
17 4 100 22 5.2797e-05
21 4 100 22 0.0307626
2 5 100 22 5.79381e-05
4 5 100 22 0.235671
5 5 100 22 0.31973
6 5 100 22 0.130493
7 5 100 22 0.274413
10 5 100 22 4.08792e-07
11 5 100 22 0.000354484
13 5 100 22 0.0392785
18 5 100 22 7.05434e-07
20 5 100 22 4.65638e-07
21 5 100 22 1.42571e-06
2 6 100 22 0.0617353
4 6 100 22 0.064156
5 6 100 22 0.216024
6 6 100 22 0.370411
7 6 100 22 0.148161
8 6 100 22 0.0671019
9 6 100 22 0.0617353
17 6 100 22 0.0105997
18 6 100 22 1.70569e-06
20 6 100 22 3.30472e-05
22 6 100 22 4.02058e-05
2 7 100 22 5.99932e-07
4 7 100 22 0.0569876
5 7 100 22 0.113881
6 7 100 22 0.195674
7 7 100 22 0.148524
8 7 100 22 0.284863
9 7 100 22 0.0854833
10 7 100 22 0.0860922
11 7 100 22 3.35873e-07
18 7 100 22 1.0154e-06
22 7 100 22 0.0284938
1 8 100 22 0.0621475
4 8 100 22 1.04383e-06
5 8 100 22 0.0932212
6 8 100 22 0.125229
7 8 100 22 0.217524
8 8 100 22 0.0932212
9 8 100 22 0.155743
10 8 100 22 0.096959
12 8 100 22 0.0932223
14 8 100 22 0.000431137
15 8 100 22 0.0310694
16 8 100 22 0.0310737
21 8 100 22 0.000157549
5 9 100 22 6.8115e-07
6 9 100 22 0.0555987
7 9 100 22 0.089283
8 9 100 22 0.222396
9 9 100 22 0.193789
10 9 100 22 0.189586
11 9 100 22 0.0826449
12 9 100 22 1.25012e-06
13 9 100 22 0.0276848
14 9 100 22 0.0278092
15 9 100 22 0.0277994
16 9 100 22 0.0555979
17 9 100 22 9.59187e-06
21 9 100 22 1.00905e-06
22 9 100 22 0.0277994
3 10 100 22 0.0368531
4 10 100 22 0.0368531
5 10 100 22 0.0368536
7 10 100 22 0.0394307
8 10 100 22 0.110559
9 10 100 22 0.145029
10 10 100 22 0.11402
11 10 100 22 0.294843
12 10 100 22 0.0749152
13 10 100 22 0.0737033
14 10 100 22 0.0368531
15 10 100 22 3.93589e-05
16 10 100 22 4.21863e-05
17 10 100 22 3.3108e-06
20 10 100 22 8.84211e-07
4 11 100 22 4.39119e-07
5 11 100 22 5.87045e-07
6 11 100 22 0.0414697
7 11 100 22 0.0414697
8 11 100 22 0.168926
9 11 100 22 0.00875561
10 11 100 22 0.125881
11 11 100 22 0.165745
12 11 100 22 0.280005
13 11 100 22 0.0433131
14 11 100 22 0.0414697
15 11 100 22 0.0414927
17 11 100 22 8.44368e-07
18 11 100 22 5.87044e-07
19 11 100 22 0.0414697
9 12 100 22 0.241426
10 12 100 22 0.0746187
11 12 100 22 0.10869
12 12 100 22 0.14896
13 12 100 22 0.277277
14 12 100 22 0.111712
16 12 100 22 0.0372688
17 12 100 22 4.44197e-05
18 12 100 22 6.13834e-07
20 12 100 22 1.04341e-06
2 13 100 22 0.000269704
4 13 100 22 1.9918e-06
5 13 100 22 5.5165e-07
9 13 100 22 0.01184
10 13 100 22 0.0799158
11 13 100 22 0.0717712
12 13 100 22 0.0828857
13 13 100 22 0.209713
14 13 100 22 0.290024
15 13 100 22 0.08286
16 13 100 22 0.08286
17 13 100 22 0.0464006
19 13 100 22 1.63743e-06
21 13 100 22 0.0414562
2 14 100 22 1.40157e-06
5 14 100 22 5.49617e-07
10 14 100 22 0.0898792
11 14 100 22 0.130537
12 14 100 22 0.0476272
13 14 100 22 0.0434795
14 14 100 22 0.14885
15 14 100 22 0.217526
16 14 100 22 0.043599
17 14 100 22 0.0440005
18 14 100 22 0.147541
20 14 100 22 0.0434795
22 14 100 22 0.0434795
4 15 100 22 4.20298e-07
5 15 100 22 8.79816e-06
11 15 100 22 0.0344005
12 15 100 22 0.0688477
13 15 100 22 0.103204
14 15 100 22 0.103439
15 15 100 22 0.241511
16 15 100 22 0.10318
17 15 100 22 0.0688772
18 15 100 22 0.0703126
19 15 100 22 0.206005
21 15 100 22 0.000214018
4 16 100 22 1.53341e-06
10 16 100 22 1.65121e-06
12 16 100 22 0.0805266
13 16 100 22 0.0402345
14 16 100 22 0.041997
15 16 100 22 0.0796283
16 16 100 22 0.264543
17 16 100 22 0.160284
18 16 100 22 0.0403127
19 16 100 22 0.160937
20 16 100 22 0.0912986
21 16 100 22 0.0402345
2 17 100 22 0.0109999
7 17 100 22 1.30521e-06
9 17 100 22 0.037667
10 17 100 22 0.0784082
11 17 100 22 0.0376729
12 17 100 22 0.0376922
13 17 100 22 0.0376765
15 17 100 22 0.113001
16 17 100 22 0.0751763
17 17 100 22 0.114506
18 17 100 22 0.00433837
19 17 100 22 0.0376687
20 17 100 22 0.0762113
21 17 100 22 0.188312
22 17 100 22 0.150668
2 18 100 22 2.06942e-06
11 18 100 22 0.0297811
12 18 100 22 0.0297714
13 18 100 22 0.0297811
14 18 100 22 0.029781
15 18 100 22 0.148908
16 18 100 22 0.119124
17 18 100 22 0.177527
18 18 100 22 0.200035
19 18 100 22 0.0524538
20 18 100 22 0.0637117
21 18 100 22 0.0595625
22 18 100 22 0.0595618
9 19 100 22 0.0348696
10 19 100 22 0.0348697
12 19 100 22 0.0348697
13 19 100 22 0.0911308
14 19 100 22 0.174348
15 19 100 22 5.70439e-05
16 19 100 22 0.139625
17 19 100 22 0.0697279
18 19 100 22 0.0721936
19 19 100 22 0.139164
20 19 100 22 0.0699468
21 19 100 22 0.0695045
22 19 100 22 0.0696939
7 20 100 22 1.49885e-05
14 20 100 22 2.85737e-06
16 20 100 22 0.00591321
17 20 100 22 0.241405
18 20 100 22 0.212737
19 20 100 22 0.1633
20 20 100 22 0.0816144
21 20 100 22 0.090978
22 20 100 22 0.204035
9 21 100 22 0.0430546
10 21 100 22 0.0861093
11 21 100 22 0.0430546
12 21 100 22 0.0390441
13 21 100 22 0.0430546
14 21 100 22 0.0071304
15 21 100 22 0.0430551
16 21 100 22 0.122738
17 21 100 22 0.0891441
19 21 100 22 0.170861
20 21 100 22 0.00186989
21 21 100 22 0.138667
22 21 100 22 0.172218
17 22 100 22 0.0590492
18 22 100 22 0.116144
19 22 100 22 0.118098
20 22 100 22 0.293547
21 22 100 22 0.236014
22 22 100 22 0.177148
5 23 100 22 0.000111985
10 23 100 22 1.15017e-06
18 23 100 22 0.0073011
19 23 100 22 0.111931
20 23 100 22 0.414712
21 23 100 22 0.361099
22 23 100 22 0.104844
1 24 100 22 1.57324e-06
2 24 100 22 0.000135215
3 24 100 22 5.7132e-07
9 24 100 22 2.20376e-07
10 24 100 22 2.13392e-05
11 24 100 22 2.68605e-05
12 24 100 22 9.11177e-05
13 24 100 22 2.22379e-05
14 24 100 22 7.53993e-06
15 24 100 22 0.00079641
16 24 100 22 1.9866e-05
17 24 100 22 4.13491e-06
18 24 100 22 0.000193434
19 24 100 22 0.112702
20 24 100 22 0.195566
21 24 100 22 0.197219
22 24 100 22 0.493193
5 25 100 22 2.60745e-06
11 25 100 22 8.1004e-06
18 25 100 22 4.77546e-06
19 25 100 22 0.000538577
20 25 100 22 0.000646651
21 25 100 22 0.00305571
22 25 100 22 0.995744
3 26 100 22 0.000681097
10 26 100 22 5.67519e-05
21 26 100 22 0.215701
22 26 100 22 0.783561
5 27 100 22 5.74015e-07
6 27 100 22 4.21355e-07
8 27 100 22 2.07e-05
10 27 100 22 5.11292e-07
14 27 100 22 9.45414e-07
19 27 100 22 0.32038
20 27 100 22 0.323407
21 27 100 22 0.0328907
22 27 100 22 0.3233
12 28 100 22 9.43653e-05
14 28 100 22 1.6673e-05
15 28 100 22 3.80837e-05
16 28 100 22 0.00380005
17 28 100 22 6.03166e-06
19 28 100 22 0.00222368
20 28 100 22 0.517958
21 28 100 22 0.238238
22 28 100 22 0.237625
5 29 100 22 2.47475e-07
12 29 100 22 0.000101919
13 29 100 22 5.53882e-07
14 29 100 22 5.56649e-05
15 29 100 22 0.0396507
16 29 100 22 0.186373
17 29 100 22 0.191958
18 29 100 22 0.19196
19 29 100 22 0.00496636
20 29 100 22 0.0007218
21 29 100 22 0.192249
22 29 100 22 0.191963
16 30 100 22 1.81286e-06
17 30 100 22 2.43047e-05
19 30 100 22 0.00223582
20 30 100 22 0.00012336
21 30 100 22 0.000416538
22 30 100 22 0.997198
2 0 100 23 0.0208919
3 0 100 23 0.048452
4 0 100 23 0.0592136
5 0 100 23 0.0659357
6 0 100 23 0.03872
7 0 100 23 0.0197091
8 0 100 23 0.0560628
9 0 100 23 0.0404262
10 0 100 23 0.0485223
11 0 100 23 0.0368028
12 0 100 23 0.0286891
13 0 100 23 0.0533951
14 0 100 23 0.0396199
15 0 100 23 0.0300059
16 0 100 23 0.0351316
17 0 100 23 0.0305087
18 0 100 23 0.0874308
19 0 100 23 0.0719218
20 0 100 23 0.0489127
21 0 100 23 0.0605023
22 0 100 23 0.0791452
23 0 100 23 3.51951e-07
1 1 100 23 0.85762
2 1 100 23 0.0714683
3 1 100 23 0.0357372
4 1 100 23 0.0351749
2 2 100 23 0.760616
3 2 100 23 0.191432
4 2 100 23 0.0478962
8 2 100 23 4.51041e-05
13 2 100 23 2.33544e-06
15 2 100 23 2.98081e-06
19 2 100 23 2.57904e-06
22 2 100 23 2.58157e-06
2 3 100 23 0.0474131
3 3 100 23 0.573417
4 3 100 23 0.0474131
5 3 100 23 0.142359
6 3 100 23 0.0948235
7 3 100 23 0.0474131
8 3 100 23 0.0471009
16 3 100 23 6.79977e-06
21 3 100 23 5.38296e-05
1 4 100 23 0.0689494
2 4 100 23 0.103316
3 4 100 23 0.154555
4 4 100 23 0.465162
5 4 100 23 0.0516584
6 4 100 23 0.154979
8 4 100 23 0.000362591
11 4 100 23 0.000997957
14 4 100 23 1.35157e-05
22 4 100 23 5.70624e-06
3 5 100 23 7.20992e-06
4 5 100 23 0.204423
5 5 100 23 0.47501
7 5 100 23 0.153248
8 5 100 23 0.051097
9 5 100 23 0.102194
12 5 100 23 8.663e-07
15 5 100 23 0.0140179
16 5 100 23 8.66598e-07
19 5 100 23 8.66531e-07
2 6 100 23 0.0503822
4 6 100 23 0.0503822
5 6 100 23 0.051002
6 6 100 23 0.498496
7 6 100 23 0.203306
8 6 100 23 0.0503822
10 6 100 23 0.0960461
13 6 100 23 7.5972e-07
15 6 100 23 1.71184e-06
3 7 100 23 1.48443e-06
4 7 100 23 0.0584549
5 7 100 23 0.0584566
6 7 100 23 0.266371
7 7 100 23 0.235173
8 7 100 23 0.188001
9 7 100 23 0.0584549
11 7 100 23 0.0765347
12 7 100 23 0.0584548
13 7 100 23 8.85996e-05
15 7 100 23 6.51789e-06
16 7 100 23 8.02594e-07
17 7 100 23 1.10418e-06
22 7 100 23 1.10418e-06
3 8 100 23 3.51857e-05
6 8 100 23 0.049544
7 8 100 23 0.283334
8 8 100 23 0.19662
9 8 100 23 0.23778
10 8 100 23 0.0476859
11 8 100 23 0.0896294
12 8 100 23 0.0953718
5 9 100 23 0.043227
6 9 100 23 0.00162861
7 9 100 23 0.129741
8 9 100 23 0.298162
9 9 100 23 0.172891
10 9 100 23 0.0935638
11 9 100 23 0.043227
12 9 100 23 0.0432897
13 9 100 23 4.9153e-05
14 9 100 23 0.041316
16 9 100 23 0.0864892
18 9 100 23 0.043227
19 9 100 23 0.000370889
22 9 100 23 0.00281861
2 10 100 23 9.55792e-07
3 10 100 23 3.5601e-05
7 10 100 23 0.0358877
9 10 100 23 0.140316
10 10 100 23 0.215525
11 10 100 23 0.141634
12 10 100 23 0.107666
13 10 100 23 0.107672
14 10 100 23 0.0717776
15 10 100 23 0.0717874
17 10 100 23 0.0717776
19 10 100 23 0.0359179
21 10 100 23 1.71515e-06
2 11 100 23 1.10954e-06
8 11 100 23 0.104731
9 11 100 23 0.101957
10 11 100 23 0.306604
11 11 100 23 0.158593
12 11 100 23 0.152647
13 11 100 23 0.0210804
15 11 100 23 0.0524281
16 11 100 23 0.0509789
18 11 100 23 0.0509787
19 11 100 23 7.33619e-07
22 11 100 23 5.53027e-07
2 12 100 23 2.03487e-06
9 12 100 23 0.130204
10 12 100 23 0.0434014
11 12 100 23 0.254101
12 12 100 23 0.177676
13 12 100 23 0.221167
14 12 100 23 0.130026
15 12 100 23 1.0034e-05
16 12 100 23 7.20833e-06
17 12 100 23 0.0434035
4 13 100 23 7.39228e-06
7 13 100 23 1.66545e-06
8 13 100 23 5.46938e-07
10 13 100 23 0.0540602
11 13 100 23 0.054111
12 13 100 23 0.324361
13 13 100 23 0.108329
14 13 100 23 0.162181
15 13 100 23 0.145169
16 13 100 23 0.0372068
17 13 100 23 0.108118
18 13 100 23 0.0064121
20 13 100 23 4.29511e-05
4 14 100 23 0.000160163
5 14 100 23 0.0499562
9 14 100 23 0.000160163
10 14 100 23 0.0499553
11 14 100 23 0.0492035
12 14 100 23 0.0499568
13 14 100 23 0.282823
14 14 100 23 0.0999091
15 14 100 23 0.212338
16 14 100 23 0.0499569
17 14 100 23 0.0499553
18 14 100 23 0.0499553
19 14 100 23 0.0555103
20 14 100 23 0.000160163
6 15 100 23 0.00397009
8 15 100 23 0.000783329
10 15 100 23 0.0387779
11 15 100 23 0.0456558
13 15 100 23 0.0786923
14 15 100 23 0.236088
15 15 100 23 0.11803
16 15 100 23 0.183724
17 15 100 23 0.136851
18 15 100 23 0.0393479
19 15 100 23 0.039385
20 15 100 23 0.0393479
22 15 100 23 0.0393479
6 16 100 23 0.021456
7 16 100 23 0.0484189
9 16 100 23 0.0484189
12 16 100 23 0.0484189
13 16 100 23 0.0484189
14 16 100 23 0.0968378
15 16 100 23 0.280419
16 16 100 23 0.0968377
17 16 100 23 0.117478
18 16 100 23 0.0968187
19 16 100 23 0.0484189
21 16 100 23 0.0480591
5 17 100 23 7.5379e-07
10 17 100 23 5.96574e-05
12 17 100 23 7.5379e-07
13 17 100 23 5.77295e-05
14 17 100 23 0.0442801
15 17 100 23 0.0398449
16 17 100 23 0.2699
17 17 100 23 0.0860751
18 17 100 23 0.1723
19 17 100 23 0.0860849
20 17 100 23 0.129228
21 17 100 23 0.0860729
22 17 100 23 0.0430591
23 17 100 23 0.0430364
1 18 100 23 1.57494e-06
3 18 100 23 2.68493e-06
6 18 100 23 1.07542e-05
10 18 100 23 1.35936e-05
13 18 100 23 0.0283973
14 18 100 23 1.08493e-06
16 18 100 23 0.197051
17 18 100 23 0.350958
18 18 100 23 0.140503
19 18 100 23 0.133346
20 18 100 23 0.00219492
21 18 100 23 0.00292658
22 18 100 23 0.0743682
23 18 100 23 0.0702257
8 19 100 23 0.0558205
10 19 100 23 7.61196e-07
18 19 100 23 0.111712
19 19 100 23 0.171354
20 19 100 23 0.279102
21 19 100 23 0.11142
22 19 100 23 0.103129
23 19 100 23 0.167461
5 20 100 23 6.44025e-07
14 20 100 23 0.0974298
17 20 100 23 0.097463
18 20 100 23 0.000320039
19 20 100 23 0.173277
20 20 100 23 0.194868
21 20 100 23 0.193384
22 20 100 23 0.145823
23 20 100 23 0.0974341
11 21 100 23 0.129141
15 21 100 23 0.0645475
16 21 100 23 0.0645702
17 21 100 23 0.000154261
18 21 100 23 0.0645703
20 21 100 23 0.129141
21 21 100 23 0.129141
22 21 100 23 0.225025
23 21 100 23 0.193711
1 22 100 23 8.10963e-07
2 22 100 23 0.0664429
4 22 100 23 0.0664429
5 22 100 23 0.0664394
7 22 100 23 0.0664388
12 22 100 23 0.0664411
15 22 100 23 4.75737e-05
19 22 100 23 0.0702534
20 22 100 23 0.132883
21 22 100 23 0.198844
22 22 100 23 0.0664435
23 22 100 23 0.199322
13 23 100 23 0.142725
15 23 100 23 0.142728
17 23 100 23 0.142747
21 23 100 23 0.0170651
22 23 100 23 0.126559
23 23 100 23 0.428175
4 24 100 23 0.123078
5 24 100 23 0.12308
6 24 100 23 0.123078
13 24 100 23 5.2359e-06
18 24 100 23 1.44785e-05
20 24 100 23 0.123081
21 24 100 23 0.106008
22 24 100 23 0.1555
23 24 100 23 0.246155
1 25 100 23 0.0710273
2 25 100 23 0.0771471
3 25 100 23 0.0768726
4 25 100 23 1.75426e-06
6 25 100 23 6.93613e-07
7 25 100 23 7.92658e-07
8 25 100 23 9.69338e-05
9 25 100 23 0.00754353
10 25 100 23 0.000234619
12 25 100 23 1.27573e-06
13 25 100 23 3.1353e-05
14 25 100 23 6.05575e-05
15 25 100 23 0.00113824
16 25 100 23 8.89693e-06
17 25 100 23 2.13331e-06
18 25 100 23 3.03918e-06
19 25 100 23 0.0771552
20 25 100 23 0.0779602
21 25 100 23 0.22432
22 25 100 23 0.155032
23 25 100 23 0.231362
3 26 100 23 1.80424e-06
4 26 100 23 2.02931e-06
5 26 100 23 2.14489e-07
7 26 100 23 1.69366e-06
8 26 100 23 2.58107e-07
9 26 100 23 0.00144758
10 26 100 23 0.000500723
11 26 100 23 0.0567573
12 26 100 23 4.13695e-05
13 26 100 23 1.10805e-05
14 26 100 23 4.71395e-05
15 26 100 23 0.0918051
16 26 100 23 0.0936915
17 26 100 23 0.0932511
18 26 100 23 0.193449
19 26 100 23 0.0932942
20 26 100 23 0.0932525
21 26 100 23 0.0782786
22 26 100 23 0.0176621
23 26 100 23 0.186504
3 27 100 23 1.70014e-06
9 27 100 23 2.06888e-06
11 27 100 23 2.15914e-05
12 27 100 23 0.156914
13 27 100 23 0.141083
14 27 100 23 5.87745e-06
15 27 100 23 0.000146083
16 27 100 23 5.34495e-05
18 27 100 23 0.000215965
19 27 100 23 0.292234
20 27 100 23 0.304408
22 27 100 23 0.104914
1 28 100 23 6.48796e-07
2 28 100 23 4.76311e-07
3 28 100 23 6.13891e-07
5 28 100 23 9.21546e-05
14 28 100 23 1.48266e-05
15 28 100 23 2.35697e-05
16 28 100 23 1.40312e-06
17 28 100 23 5.32983e-06
18 28 100 23 9.75598e-07
21 28 100 23 0.333136
22 28 100 23 0.000700131
23 28 100 23 0.666024
6 29 100 23 0.0176016
10 29 100 23 0.982195
14 29 100 23 0.000142249
17 29 100 23 6.15552e-05
3 30 100 23 1.33113e-06
14 30 100 23 2.47921e-05
17 30 100 23 2.56006e-06
22 30 100 23 0.999971
22 31 100 23 0.0211379
23 31 100 23 0.978862
2 0 100 24 0.0145482
3 0 100 24 0.0191517
4 0 100 24 0.0404296
5 0 100 24 0.0312935
6 0 100 24 0.0641663
7 0 100 24 0.0161299
8 0 100 24 0.0148133
9 0 100 24 0.0757141
10 0 100 24 0.0299643
11 0 100 24 0.0802672
12 0 100 24 0.0879403
13 0 100 24 0.0461115
14 0 100 24 0.0566552
15 0 100 24 0.0440309
16 0 100 24 0.0477213
17 0 100 24 0.0343536
18 0 100 24 0.0401467
19 0 100 24 0.0316066
20 0 100 24 0.0656098
21 0 100 24 0.0357614
22 0 100 24 0.0554046
23 0 100 24 0.0681799
24 0 100 24 2.65288e-07
1 1 100 24 0.861107
2 1 100 24 0.111115
7 1 100 24 0.0277777
1 2 100 24 3.66004e-06
2 2 100 24 0.593803
3 2 100 24 0.29595
4 2 100 24 0.0362425
6 2 100 24 0.0369983
8 2 100 24 0.0369983
9 2 100 24 6.94781e-07
21 2 100 24 3.23208e-06
22 2 100 24 5.42451e-07
2 3 100 24 0.0894778
3 3 100 24 0.415129
4 3 100 24 0.439668
5 3 100 24 0.0557257
1 4 100 24 0.0354718
2 4 100 24 0.141902
3 4 100 24 0.212096
4 4 100 24 0.184012
5 4 100 24 0.248093
6 4 100 24 0.0709543
7 4 100 24 0.0709419
8 4 100 24 0.0354756
15 4 100 24 0.00105318
1 5 100 24 0.0473696
2 5 100 24 0.0473696
3 5 100 24 0.0462815
4 5 100 24 0.0638848
5 5 100 24 0.522127
6 5 100 24 0.129005
7 5 100 24 0.0475632
8 5 100 24 0.0947392
9 5 100 24 0.00164068
11 5 100 24 1.96229e-06
12 5 100 24 9.53716e-07
14 5 100 24 9.53716e-07
20 5 100 24 4.08884e-06
21 5 100 24 8.2007e-06
22 5 100 24 9.76594e-07
23 5 100 24 2.1353e-06
2 6 100 24 0.0307688
3 6 100 24 1.2896e-06
4 6 100 24 0.0983137
5 6 100 24 0.0691901
6 6 100 24 0.278806
7 6 100 24 0.196627
8 6 100 24 0.0655425
9 6 100 24 0.131083
10 6 100 24 0.0313317
12 6 100 24 0.0327941
14 6 100 24 0.032771
15 6 100 24 0.0327712
2 7 100 24 0.0295574
3 7 100 24 0.0524983
4 7 100 24 0.0206442
5 7 100 24 0.0591149
6 7 100 24 0.177344
7 7 100 24 0.266067
8 7 100 24 0.235859
9 7 100 24 0.0888862
10 7 100 24 0.0386339
11 7 100 24 0.00112322
13 7 100 24 9.94883e-07
15 7 100 24 6.36301e-05
16 7 100 24 0.0302066
4 8 100 24 0.000116224
5 8 100 24 0.0354769
6 8 100 24 0.0709544
7 8 100 24 0.212801
8 8 100 24 0.219844
9 8 100 24 0.141908
10 8 100 24 0.140993
11 8 100 24 0.106431
12 8 100 24 0.0713972
13 8 100 24 2.14171e-06
15 8 100 24 6.29999e-05
17 8 100 24 8.87093e-06
20 8 100 24 1.53285e-06
21 8 100 24 2.14175e-06
22 8 100 24 1.266e-06
4 9 100 24 4.67592e-07
5 9 100 24 0.0786253
6 9 100 24 0.108994
7 9 100 24 0.0393099
8 9 100 24 0.274786
9 9 100 24 0.0393585
10 9 100 24 0.187444
11 9 100 24 0.113415
12 9 100 24 0.0786198
13 9 100 24 0.079417
16 9 100 24 2.95294e-05
7 10 100 24 0.0878852
8 10 100 24 0.0585901
9 10 100 24 0.219488
10 10 100 24 0.29283
11 10 100 24 0.206655
12 10 100 24 0.0179664
13 10 100 24 0.116586
16 10 100 24 3.19851e-07
8 11 100 24 0.0438061
9 11 100 24 0.0438062
10 11 100 24 0.231739
11 11 100 24 0.130064
12 11 100 24 0.190328
13 11 100 24 0.0483965
14 11 100 24 0.136862
15 11 100 24 0.0435791
16 11 100 24 0.0876124
17 11 100 24 0.0438062
10 12 100 24 0.0382632
11 12 100 24 0.196885
12 12 100 24 0.119326
13 12 100 24 0.153052
14 12 100 24 0.186166
15 12 100 24 0.191518
16 12 100 24 0.0382632
17 12 100 24 0.0382632
18 12 100 24 0.0382632
4 13 100 24 0.036991
8 13 100 24 0.036991
10 13 100 24 0.0739819
11 13 100 24 0.0360394
12 13 100 24 0.22292
13 13 100 24 0.0739829
14 13 100 24 0.0740515
15 13 100 24 0.183602
16 13 100 24 0.113641
17 13 100 24 0.0739819
19 13 100 24 0.0738158
20 13 100 24 1.35369e-06
23 13 100 24 4.13906e-07
2 14 100 24 0.0274197
3 14 100 24 4.93664e-07
4 14 100 24 0.0274197
5 14 100 24 0.082259
7 14 100 24 0.0274197
9 14 100 24 0.0548392
11 14 100 24 0.0274197
12 14 100 24 0.0548607
13 14 100 24 0.191084
14 14 100 24 0.0821997
15 14 100 24 0.0415809
16 14 100 24 0.164094
17 14 100 24 0.0823045
18 14 100 24 0.0548393
20 14 100 24 0.0274197
21 14 100 24 1.12007e-06
23 14 100 24 0.0274197
24 14 100 24 0.0274197
2 15 100 24 9.04144e-07
6 15 100 24 0.0314251
9 15 100 24 0.00108632
11 15 100 24 0.0314251
12 15 100 24 0.0314193
13 15 100 24 0.0628668
14 15 100 24 0.157124
15 15 100 24 0.0954443
16 15 100 24 0.1257
17 15 100 24 0.180674
18 15 100 24 0.157126
19 15 100 24 0.0942817
20 15 100 24 0.0314261
21 15 100 24 3.37249e-07
23 15 100 24 3.78151e-07
10 16 100 24 4.98852e-07
13 16 100 24 0.120038
14 16 100 24 0.0799335
15 16 100 24 0.200048
16 16 100 24 0.0400139
17 16 100 24 0.120013
18 16 100 24 0.24008
19 16 100 24 0.0797807
20 16 100 24 1.39361e-05
21 16 100 24 0.0400127
22 16 100 24 0.0400525
24 16 100 24 0.0400127
1 17 100 24 0.0395911
5 17 100 24 1.38808e-06
12 17 100 24 5.4001e-07
14 17 100 24 0.118832
15 17 100 24 0.0792008
16 17 100 24 0.237533
17 17 100 24 0.0395919
18 17 100 24 0.120011
19 17 100 24 0.24343
20 17 100 24 0.0791818
21 17 100 24 1.39311e-06
22 17 100 24 0.00303531
23 17 100 24 0.0395911
2 18 100 24 0.03046
7 18 100 24 0.03047
14 18 100 24 0.0304701
15 18 100 24 0.0304701
17 18 100 24 0.182722
18 18 100 24 0.0570529
19 18 100 24 0.120367
20 18 100 24 0.182814
21 18 100 24 0.274228
22 18 100 24 5.01917e-07
23 18 100 24 0.0304746
24 18 100 24 0.0304699
9 19 100 24 0.0581821
15 19 100 24 0.0581821
16 19 100 24 0.0581997
17 19 100 24 3.58506e-06
18 19 100 24 0.119337
19 19 100 24 0.116364
20 19 100 24 0.18424
21 19 100 24 0.06116
22 19 100 24 0.286093
23 19 100 24 0.0582378
12 20 100 24 0.0294346
13 20 100 24 0.0653199
14 20 100 24 0.0294346
15 20 100 24 0.0294346
16 20 100 24 0.0592606
17 20 100 24 0.0883166
18 20 100 24 0.117738
19 20 100 24 0.0883039
20 20 100 24 0.0798676
21 20 100 24 0.0950579
22 20 100 24 0.175305
23 20 100 24 0.0542226
24 20 100 24 0.0883038
6 21 100 24 6.56406e-06
7 21 100 24 0.0323004
9 21 100 24 0.000989466
14 21 100 24 0.0323004
15 21 100 24 0.0323004
16 21 100 24 0.0323492
17 21 100 24 0.0323004
18 21 100 24 0.0323003
19 21 100 24 0.0968993
20 21 100 24 0.0646007
21 21 100 24 0.248842
22 21 100 24 0.161475
23 21 100 24 0.0718345
24 21 100 24 0.161502
3 22 100 24 4.71407e-07
8 22 100 24 0.0386869
9 22 100 24 0.0386869
10 22 100 24 0.0386869
13 22 100 24 0.0386869
15 22 100 24 0.0386869
18 22 100 24 0.0416417
20 22 100 24 0.154747
21 22 100 24 0.0773738
22 22 100 24 0.0775173
23 22 100 24 0.184477
24 22 100 24 0.270808
17 23 100 24 0.148169
19 23 100 24 0.222188
20 23 100 24 0.14808
21 23 100 24 0.124908
22 23 100 24 0.134072
23 23 100 24 0.148521
24 23 100 24 0.0740628
17 24 100 24 0.0614076
18 24 100 24 0.122815
19 24 100 24 0.0614076
20 24 100 24 3.74353e-05
21 24 100 24 0.116531
22 24 100 24 0.268935
23 24 100 24 0.184645
24 24 100 24 0.184222
6 25 100 24 1.17796e-05
9 25 100 24 0.00295272
20 25 100 24 0.10075
21 25 100 24 0.10075
22 25 100 24 0.10339
23 25 100 24 0.289145
24 25 100 24 0.403
3 26 100 24 2.42314e-06
6 26 100 24 0.00354261
9 26 100 24 2.31009e-06
11 26 100 24 1.10912e-06
14 26 100 24 0.000122827
15 26 100 24 1.44423e-05
16 26 100 24 3.03291e-07
18 26 100 24 0.00558848
19 26 100 24 3.31783e-06
21 26 100 24 0.0015897
22 26 100 24 0.195253
23 26 100 24 0.39652
24 26 100 24 0.39736
3 27 100 24 3.38441e-07
4 27 100 24 8.21178e-06
17 27 100 24 1.64148e-05
21 27 100 24 0.000192331
22 27 100 24 0.0013991
23 27 100 24 0.370074
24 27 100 24 0.628309
19 28 100 24 1.80347e-06
21 28 100 24 3.40029e-05
22 28 100 24 0.00347591
23 28 100 24 0.498243
24 28 100 24 0.498245
16 29 100 24 1.1326e-06
17 29 100 24 0.00566667
18 29 100 24 0.0413469
19 29 100 24 0.22607
20 29 100 24 0.226092
21 29 100 24 0.225752
22 29 100 24 4.37982e-05
23 29 100 24 0.048935
24 29 100 24 0.226092
2 0 100 25 0.00260057
3 0 100 25 0.0300572
4 0 100 25 0.0250104
5 0 100 25 0.00301917
6 0 100 25 0.062654
7 0 100 25 0.0615757
8 0 100 25 0.0557591
9 0 100 25 0.0500373
10 0 100 25 0.0358025
11 0 100 25 0.0513051
12 0 100 25 0.025146
13 0 100 25 0.0483583
14 0 100 25 0.0852181
15 0 100 25 0.0211832
16 0 100 25 0.0260907
17 0 100 25 0.0671745
18 0 100 25 0.0374469
19 0 100 25 0.0506762
20 0 100 25 0.0373989
21 0 100 25 0.0456646
22 0 100 25 0.0498219
23 0 100 25 0.0758306
24 0 100 25 0.0521683
25 0 100 25 4.02198e-07
1 1 100 25 0.689739
2 1 100 25 0.2068
3 1 100 25 0.034487
4 1 100 25 0.034487
5 1 100 25 0.034487
2 2 100 25 0.651392
3 2 100 25 0.28807
4 2 100 25 0.0603424
6 2 100 25 0.000190781
15 2 100 25 4.02482e-06
22 2 100 25 6.43374e-07
1 3 100 25 0.0619524
2 3 100 25 0.0619524
3 3 100 25 0.484078
4 3 100 25 0.195596
5 3 100 25 0.134431
7 3 100 25 0.0619524
8 3 100 25 3.25901e-05
22 3 100 25 3.88979e-06
3 4 100 25 0.134134
4 4 100 25 0.334684
5 4 100 25 0.189662
6 4 100 25 0.201124
7 4 100 25 0.000606323
8 4 100 25 0.0669853
9 4 100 25 0.0666362
10 4 100 25 0.00616179
14 4 100 25 6.62723e-06
2 5 100 25 0.067868
4 5 100 25 0.271472
5 5 100 25 0.253231
6 5 100 25 0.0680739
7 5 100 25 0.203604
11 5 100 25 0.067868
12 5 100 25 1.48257e-05
22 5 100 25 0.067868
2 6 100 25 0.0526521
3 6 100 25 0.105284
4 6 100 25 0.0970079
5 6 100 25 0.105284
6 6 100 25 0.21056
7 6 100 25 0.0085607
8 6 100 25 0.263209
9 6 100 25 0.0521595
14 6 100 25 0.0526414
16 6 100 25 0.0526418
4 7 100 25 0.100873
5 7 100 25 0.201746
6 7 100 25 0.25213
7 7 100 25 0.146104
9 7 100 25 0.0511824
10 7 100 25 0.151309
12 7 100 25 0.0462192
23 7 100 25 0.0504364
5 8 100 25 0.0521929
6 8 100 25 0.153582
7 8 100 25 0.260606
8 8 100 25 0.269187
9 8 100 25 0.0521929
10 8 100 25 0.104385
12 8 100 25 0.0556602
13 8 100 25 0.0521929
16 8 100 25 1.26219e-06
3 9 100 25 4.13665e-07
4 9 100 25 0.0355873
5 9 100 25 0.0711264
6 9 100 25 0.0364291
7 9 100 25 0.106737
8 9 100 25 0.0711745
9 9 100 25 0.284163
10 9 100 25 0.0355413
11 9 100 25 0.106626
12 9 100 25 0.0357262
13 9 100 25 0.0229987
14 9 100 25 0.0355897
15 9 100 25 0.0480875
16 9 100 25 0.0385566
18 9 100 25 0.0356768
19 9 100 25 0.0359799
5 10 100 25 0.103054
7 10 100 25 0.0515268
8 10 100 25 0.122117
9 10 100 25 0.0515268
10 10 100 25 0.259538
11 10 100 25 0.0515009
12 10 100 25 0.0515534
13 10 100 25 0.0515493
14 10 100 25 0.103054
15 10 100 25 0.0515268
20 10 100 25 0.103054
7 11 100 25 0.0591477
8 11 100 25 0.0591477
9 11 100 25 0.118328
10 11 100 25 0.177405
11 11 100 25 0.29569
12 11 100 25 0.0591477
13 11 100 25 0.000751836
14 11 100 25 0.0591477
15 11 100 25 0.11192
16 11 100 25 0.000166405
21 11 100 25 0.0591476
8 12 100 25 0.0439556
9 12 100 25 0.0439547
10 12 100 25 0.131867
11 12 100 25 0.0807948
12 12 100 25 0.219778
13 12 100 25 0.175245
15 12 100 25 0.0879112
16 12 100 25 0.128583
17 12 100 25 0.0439556
21 12 100 25 0.0439556
9 13 100 25 0.0542155
11 13 100 25 0.216656
12 13 100 25 0.108328
13 13 100 25 0.108316
14 13 100 25 0.272972
15 13 100 25 0.0228523
16 13 100 25 0.054164
17 13 100 25 0.108235
19 13 100 25 1.89548e-05
22 13 100 25 0.0541638
24 13 100 25 7.89156e-05
7 14 100 25 6.81024e-06
11 14 100 25 0.00293934
12 14 100 25 0.0629068
13 14 100 25 0.125814
14 14 100 25 0.185217
15 14 100 25 0.183996
16 14 100 25 0.125814
17 14 100 25 0.0616796
18 14 100 25 0.18872
23 14 100 25 0.0629062
11 15 100 25 3.52203e-05
12 15 100 25 0.164465
13 15 100 25 0.000208902
14 15 100 25 0.00154993
15 15 100 25 0.222674
16 15 100 25 0.273676
17 15 100 25 0.109643
18 15 100 25 0.0548854
19 15 100 25 0.118041
24 15 100 25 0.0548215
13 16 100 25 0.211712
15 16 100 25 0.157292
16 16 100 25 0.104863
17 16 100 25 6.62339e-05
18 16 100 25 0.105689
19 16 100 25 0.157284
20 16 100 25 0.104862
21 16 100 25 0.00094061
22 16 100 25 0.104862
25 16 100 25 0.0524307
9 17 100 25 1.11617e-06
10 17 100 25 7.40494e-05
11 17 100 25 0.000237682
12 17 100 25 0.0538521
13 17 100 25 0.0212027
14 17 100 25 0.0617694
15 17 100 25 0.0350914
16 17 100 25 0.156225
17 17 100 25 0.0882099
18 17 100 25 0.108184
19 17 100 25 0.204711
20 17 100 25 0.162274
21 17 100 25 0.108168
10 18 100 25 0.0526998
15 18 100 25 0.0526998
17 18 100 25 0.158099
18 18 100 25 0.0527042
19 18 100 25 0.0526998
20 18 100 25 0.0526998
21 18 100 25 0.209685
22 18 100 25 0.158099
23 18 100 25 0.10529
24 18 100 25 0.052623
25 18 100 25 0.0526998
2 19 100 25 0.0491093
3 19 100 25 0.0491093
4 19 100 25 0.0491093
5 19 100 25 0.000688614
12 19 100 25 0.0982186
13 19 100 25 0.0511595
14 19 100 25 0.0491093
15 19 100 25 0.0982186
16 19 100 25 0.0491093
17 19 100 25 0.0982186
18 19 100 25 0.0982066
19 19 100 25 0.00249168
20 19 100 25 0.0491093
21 19 100 25 0.0503356
22 19 100 25 0.0986021
23 19 100 25 0.0491093
24 19 100 25 0.0109861
25 19 100 25 0.049109
9 20 100 25 1.06299e-06
11 20 100 25 0.0832899
13 20 100 25 0.0832895
14 20 100 25 0.000663789
16 20 100 25 0.0843257
17 20 100 25 9.43842e-05
18 20 100 25 0.0832899
19 20 100 25 0.0832899
21 20 100 25 0.0832898
22 20 100 25 0.0833012
23 20 100 25 0.324651
24 20 100 25 0.00722349
25 20 100 25 0.0832899
11 21 100 25 1.28936e-06
12 21 100 25 0.0596794
13 21 100 25 0.0596576
14 21 100 25 0.000133015
17 21 100 25 0.119359
20 21 100 25 0.119359
21 21 100 25 0.0596794
22 21 100 25 0.0596794
23 21 100 25 0.0501459
24 21 100 25 0.352947
25 21 100 25 0.119359
6 22 100 25 4.43481e-06
9 22 100 25 0.085198
10 22 100 25 0.0851946
11 22 100 25 0.085198
18 22 100 25 0.170396
20 22 100 25 0.0510241
21 22 100 25 0.112127
24 22 100 25 0.155265
25 22 100 25 0.255592
1 23 100 25 0.0668319
2 23 100 25 0.0668188
3 23 100 25 0.0668319
5 23 100 25 0.067769
6 23 100 25 0.000143309
11 23 100 25 3.1685e-06
17 23 100 25 0.0668319
18 23 100 25 0.0668318
19 23 100 25 0.196197
20 23 100 25 0.0668319
21 23 100 25 0.0668494
23 23 100 25 0.133664
24 23 100 25 0.000732645
25 23 100 25 0.133664
16 24 100 25 0.000298052
18 24 100 25 0.200149
19 24 100 25 0.202458
20 24 100 25 0.101236
21 24 100 25 0.10121
22 24 100 25 0.100844
24 24 100 25 0.0913323
25 24 100 25 0.202473
20 25 100 25 0.204835
21 25 100 25 0.204834
22 25 100 25 0.204796
23 25 100 25 0.121013
24 25 100 25 0.162105
25 25 100 25 0.102417
9 26 100 25 2.90567e-05
21 26 100 25 0.305469
24 26 100 25 0.388925
25 26 100 25 0.305577
6 27 100 25 0.000211212
7 27 100 25 6.81961e-06
11 27 100 25 2.61361e-06
13 27 100 25 7.60593e-07
14 27 100 25 3.25992e-07
15 27 100 25 2.99885e-07
19 27 100 25 9.62193e-06
21 27 100 25 1.65666e-06
22 27 100 25 0.283459
23 27 100 25 0.424141
24 27 100 25 0.00106245
25 27 100 25 0.291104
6 28 100 25 1.27214e-06
7 28 100 25 1.3595e-05
11 28 100 25 1.87432e-06
14 28 100 25 8.06667e-06
15 28 100 25 1.16975e-05
16 28 100 25 0.000263779
17 28 100 25 0.104866
18 28 100 25 0.104867
19 28 100 25 0.104841
20 28 100 25 0.294059
22 28 100 25 0.107565
23 28 100 25 0.0729187
24 28 100 25 0.105717
25 28 100 25 0.104867
2 29 100 25 2.59849e-06
4 29 100 25 7.01201e-07
5 29 100 25 1.76507e-06
11 29 100 25 1.89339e-06
16 29 100 25 5.3606e-05
18 29 100 25 9.01431e-07
19 29 100 25 1.65019e-05
21 29 100 25 0.199731
22 29 100 25 0.199116
23 29 100 25 0.00198446
24 29 100 25 0.399359
25 29 100 25 0.199731
4 30 100 25 3.40551e-07
5 30 100 25 4.87367e-07
6 30 100 25 1.91874e-06
19 30 100 25 0.000386511
20 30 100 25 0.140656
21 30 100 25 0.0169383
22 30 100 25 0.141089
23 30 100 25 0.139351
24 30 100 25 0.13961
25 30 100 25 0.421967
22 31 100 25 0.000356894
23 31 100 25 0.331973
24 31 100 25 5.76623e-05
25 31 100 25 0.667612
2 0 100 26 0.00902658
3 0 100 26 0.0327302
4 0 100 26 0.0268367
5 0 100 26 0.0721908
6 0 100 26 0.0243066
7 0 100 26 0.0692457
8 0 100 26 0.0467508
9 0 100 26 0.0484974
10 0 100 26 0.0459663
11 0 100 26 0.0401791
12 0 100 26 0.0477013
13 0 100 26 0.0440396
14 0 100 26 0.0490203
15 0 100 26 0.0535697
16 0 100 26 0.0277261
17 0 100 26 0.0420661
18 0 100 26 0.0377307
19 0 100 26 0.012382
20 0 100 26 0.0324085
21 0 100 26 0.0226353
22 0 100 26 0.0492933
23 0 100 26 0.0561264
24 0 100 26 0.04846
25 0 100 26 0.0611105
26 0 100 26 2.21083e-07
1 1 100 26 0.892823
2 1 100 26 0.035751
3 1 100 26 0.0357127
4 1 100 26 6.35498e-07
5 1 100 26 0.0357129
2 2 100 26 0.840165
3 2 100 26 0.0799109
4 2 100 26 0.0399555
6 2 100 26 0.0399554
11 2 100 26 1.30714e-05
1 3 100 26 0.0454569
2 3 100 26 0.0907399
3 3 100 26 0.583756
4 3 100 26 0.233155
5 3 100 26 0.0014394
6 3 100 26 0.0454494
22 3 100 26 3.20362e-06
3 4 100 26 0.187038
4 4 100 26 0.460059
5 4 100 26 0.199558
7 4 100 26 0.153344
8 4 100 26 8.6232e-07
2 5 100 26 0.0425133
4 5 100 26 0.0835808
5 5 100 26 0.269879
6 5 100 26 0.219693
7 5 100 26 0.212594
8 5 100 26 0.171475
12 5 100 26 0.000261533
17 5 100 26 3.92044e-06
3 6 100 26 0.0499024
4 6 100 26 0.101551
5 6 100 26 0.149459
6 6 100 26 0.399219
7 6 100 26 0.0998048
8 6 100 26 0.0503537
9 6 100 26 0.149707
21 6 100 26 7.66858e-07
25 6 100 26 2.37477e-06
2 7 100 26 7.81214e-07
4 7 100 26 0.069067
5 7 100 26 0.0692485
6 7 100 26 0.358489
7 7 100 26 0.221969
8 7 100 26 0.0690904
9 7 100 26 1.25121e-05
10 7 100 26 0.212115
16 7 100 26 9.30539e-07
25 7 100 26 6.54043e-06
1 8 100 26 0.0411265
2 8 100 26 0.0411265
3 8 100 26 0.0411053
4 8 100 26 0.0411265
5 8 100 26 0.0411429
6 8 100 26 0.0411265
7 8 100 26 0.0974624
8 8 100 26 0.204253
9 8 100 26 0.287018
11 8 100 26 0.0411278
12 8 100 26 0.0411265
14 8 100 26 0.0822529
16 8 100 26 1.99805e-06
17 8 100 26 4.42287e-07
18 8 100 26 1.34546e-06
24 8 100 26 1.34546e-06
4 9 100 26 0.0486602
5 9 100 26 0.0486331
6 9 100 26 0.0113768
7 9 100 26 0.0486331
8 9 100 26 0.195286
9 9 100 26 0.195665
10 9 100 26 0.291756
11 9 100 26 0.0971521
12 9 100 26 0.0500544
13 9 100 26 4.44855e-06
15 9 100 26 0.0127742
16 9 100 26 7.71018e-07
22 9 100 26 3.47891e-06
24 9 100 26 5.51486e-07
5 10 100 26 1.02574e-05
6 10 100 26 0.0391301
7 10 100 26 0.0966722
8 10 100 26 0.144249
9 10 100 26 0.134598
10 10 100 26 0.150333
11 10 100 26 0.241606
12 10 100 26 0.0483936
13 10 100 26 0.0966722
15 10 100 26 0.0483361
2 11 100 26 0.000324865
3 11 100 26 0.0652315
4 11 100 26 0.0652191
5 11 100 26 0.0326158
6 11 100 26 0.0652315
8 11 100 26 0.130231
9 11 100 26 0.0652315
10 11 100 26 0.0616369
11 11 100 26 0.194297
12 11 100 26 0.224826
13 11 100 26 0.0652314
14 11 100 26 6.51559e-07
15 11 100 26 0.0299216
18 11 100 26 3.71562e-07
24 11 100 26 8.06404e-07
9 12 100 26 0.0881109
10 12 100 26 0.174749
11 12 100 26 0.15627
12 12 100 26 0.178705
13 12 100 26 0.183726
14 12 100 26 0.0873747
15 12 100 26 0.0873746
16 12 100 26 0.0436895
6 13 100 26 1.69428e-06
7 13 100 26 1.45325e-06
10 13 100 26 0.105572
11 13 100 26 0.052786
12 13 100 26 0.105572
13 13 100 26 0.328058
14 13 100 26 0.0937004
15 13 100 26 0.106302
16 13 100 26 0.158358
17 13 100 26 0.0496472
25 13 100 26 8.50475e-07
3 14 100 26 7.91717e-07
5 14 100 26 8.76772e-06
11 14 100 26 0.00989246
12 14 100 26 0.0154771
13 14 100 26 0.106457
14 14 100 26 0.625029
15 14 100 26 0.0578719
16 14 100 26 0.12837
18 14 100 26 0.0568897
21 14 100 26 1.91523e-06
24 14 100 26 1.40648e-06
9 15 100 26 0.000313252
11 15 100 26 6.67935e-07
12 15 100 26 0.0928598
13 15 100 26 0.0352106
14 15 100 26 0.0704197
15 15 100 26 0.210439
16 15 100 26 0.16822
17 15 100 26 0.140848
19 15 100 26 0.0352115
20 15 100 26 0.105633
21 15 100 26 0.0704222
22 15 100 26 0.0352111
23 15 100 26 0.0352111
7 16 100 26 1.17851e-06
12 16 100 26 1.11781e-06
13 16 100 26 0.110524
14 16 100 26 0.0368417
15 16 100 26 0.113655
16 16 100 26 0.221047
17 16 100 26 0.263856
18 16 100 26 0.110525
19 16 100 26 0.110527
22 16 100 26 0.0330225
7 17 100 26 0.00037754
11 17 100 26 0.0398592
13 17 100 26 2.64686e-06
14 17 100 26 0.0398599
15 17 100 26 0.119577
16 17 100 26 0.159393
17 17 100 26 0.199049
18 17 100 26 0.239157
19 17 100 26 0.0797188
20 17 100 26 0.119578
22 17 100 26 0.00342758
12 18 100 26 0.0588803
15 18 100 26 0.0588803
16 18 100 26 6.60515e-05
17 18 100 26 0.000285573
18 18 100 26 0.233165
19 18 100 26 0.294401
20 18 100 26 0.176641
21 18 100 26 0.11776
22 18 100 26 0.00104026
23 18 100 26 0.0588803
13 19 100 26 0.0544506
14 19 100 26 0.000514686
16 19 100 26 0.108907
18 19 100 26 0.163352
19 19 100 26 0.272253
20 19 100 26 0.16335
21 19 100 26 0.0738207
22 19 100 26 0.0544492
23 19 100 26 0.0544506
24 19 100 26 0.054453
14 20 100 26 0.0469788
15 20 100 26 1.75147e-05
16 20 100 26 1.04286e-05
17 20 100 26 0.0953006
18 20 100 26 0.0476498
19 20 100 26 0.14295
20 20 100 26 0.0953006
21 20 100 26 0.190601
22 20 100 26 0.0476503
23 20 100 26 0.190583
24 20 100 26 0.0476576
25 20 100 26 0.0953006
7 21 100 26 9.94951e-05
15 21 100 26 0.0410534
16 21 100 26 0.0410506
17 21 100 26 0.05287
18 21 100 26 0.00739447
19 21 100 26 0.068815
20 21 100 26 0.0821068
21 21 100 26 0.13237
22 21 100 26 0.24631
23 21 100 26 0.0410543
24 21 100 26 0.082105
25 21 100 26 0.0816107
26 21 100 26 0.12316
9 22 100 26 0.00014011
11 22 100 26 0.0560664
13 22 100 26 0.0560664
17 22 100 26 0.0624427
19 22 100 26 9.56876e-07
20 22 100 26 0.111956
21 22 100 26 0.168199
22 22 100 26 0.0969952
23 22 100 26 0.0560651
24 22 100 26 0.223869
25 22 100 26 0.0560664
26 22 100 26 0.112133
2 23 100 26 1.05661e-05
3 23 100 26 8.23545e-07
7 23 100 26 4.87345e-05
10 23 100 26 0.0001017
18 23 100 26 0.152339
19 23 100 26 0.053904
20 23 100 26 0.0409036
21 23 100 26 0.107808
22 23 100 26 0.215615
23 23 100 26 0.215616
24 23 100 26 0.105845
25 23 100 26 0.0539046
26 23 100 26 0.053904
10 24 100 26 0.000659299
11 24 100 26 0.047894
12 24 100 26 0.0464943
17 24 100 26 0.047894
19 24 100 26 0.0957879
20 24 100 26 1.01876e-05
21 24 100 26 0.095769
22 24 100 26 0.0479047
23 24 100 26 0.095788
24 24 100 26 0.191504
25 24 100 26 0.138719
26 24 100 26 0.191576
3 25 100 26 1.22999e-06
9 25 100 26 1.91492e-06
16 25 100 26 7.8144e-06
20 25 100 26 0.129157
21 25 100 26 2.8764e-05
22 25 100 26 0.0725554
23 25 100 26 0.217661
24 25 100 26 0.145108
25 25 100 26 0.21782
26 25 100 26 0.21766
14 26 100 26 8.27311e-07
18 26 100 26 0.0484972
19 26 100 26 0.0484972
20 26 100 26 0.0969944
21 26 100 26 0.193989
22 26 100 26 0.0969857
23 26 100 26 0.0485005
24 26 100 26 0.0484972
25 26 100 26 0.175553
26 26 100 26 0.242485
22 27 100 26 0.170564
24 27 100 26 0.317885
26 27 100 26 0.511551
5 28 100 26 1.05705e-06
8 28 100 26 1.39489e-06
10 28 100 26 3.82147e-07
21 28 100 26 5.63509e-06
22 28 100 26 1.35369e-05
23 28 100 26 0.169924
24 28 100 26 0.339336
25 28 100 26 0.321055
26 28 100 26 0.169663
3 29 100 26 1.23142e-06
9 29 100 26 0.0196373
22 29 100 26 0.000214362
23 29 100 26 3.73617e-05
24 29 100 26 0.1908
25 29 100 26 0.39393
26 29 100 26 0.39538
4 30 100 26 9.67924e-07
5 30 100 26 1.12805e-06
8 30 100 26 0.00302397
10 30 100 26 0.904877
11 30 100 26 0.000284965
14 30 100 26 0.000358646
16 30 100 26 0.00321196
20 30 100 26 5.74701e-06
22 30 100 26 2.12614e-05
24 30 100 26 0.0054306
25 30 100 26 0.0827837
4 31 100 26 1.80335e-07
5 31 100 26 0.147245
6 31 100 26 0.0451209
7 31 100 26 0.150525
8 31 100 26 2.45355e-05
9 31 100 26 0.150527
10 31 100 26 0.150282
11 31 100 26 0.000108791
14 31 100 26 4.36432e-07
15 31 100 26 5.46115e-07
17 31 100 26 0.0456777
18 31 100 26 1.06255e-05
19 31 100 26 1.65337e-06
20 31 100 26 3.58379e-07
21 31 100 26 5.78237e-06
22 31 100 26 5.68575e-06
23 31 100 26 1.67376e-07
24 31 100 26 3.01131e-05
25 31 100 26 0.15991
26 31 100 26 0.150524
10 32 100 26 9.08584e-06
17 32 100 26 0.000579737
18 32 100 26 0.142468
19 32 100 26 0.142125
20 32 100 26 0.140953
21 32 100 26 0.14248
22 32 100 26 0.143804
23 32 100 26 0.13891
24 32 100 26 0.000173996
25 32 100 26 0.00601778
26 32 100 26 0.142479
2 33 100 26 5.62688e-07
4 33 100 26 0.000137457
8 33 100 26 9.59407e-05
10 33 100 26 0.000416792
11 33 100 26 0.258127
12 33 100 26 0.258322
13 33 100 26 0.0272742
14 33 100 26 0.19649
15 33 100 26 0.000808861
25 33 100 26 8.42393e-06
26 33 100 26 0.258319
2 0 100 27 0.0114072
3 0 100 27 0.0745925
4 0 100 27 0.0268187
5 0 100 27 0.0345591
6 0 100 27 0.0199678
7 0 100 27 0.0362618
8 0 100 27 0.0321209
9 0 100 27 0.0405975
10 0 100 27 0.020835
11 0 100 27 0.041118
12 0 100 27 0.0599651
13 0 100 27 0.0136446
14 0 100 27 0.0224237
15 0 100 27 0.0578615
16 0 100 27 0.00985228
17 0 100 27 0.0469994
18 0 100 27 0.0555943
19 0 100 27 0.0611531
20 0 100 27 0.0538839
21 0 100 27 0.0683167
22 0 100 27 0.0390908
23 0 100 27 0.0419099
24 0 100 27 0.0282105
25 0 100 27 0.0408995
26 0 100 27 0.0619162
27 0 100 27 1.4693e-07
1 1 100 27 0.789475
2 1 100 27 0.105263
3 1 100 27 0.0526317
4 1 100 27 0.0263159
5 1 100 27 0.0263138
1 2 100 27 0.0725784
2 2 100 27 0.519065
3 2 100 27 0.114497
4 2 100 27 0.184986
5 2 100 27 0.0725771
6 2 100 27 0.0362892
8 2 100 27 1.23796e-06
11 2 100 27 2.13493e-06
17 2 100 27 3.09353e-06
18 2 100 27 6.9257e-07
2 3 100 27 0.372601
3 3 100 27 0.289581
4 3 100 27 0.263214
5 3 100 27 2.88678e-06
6 3 100 27 0.03719
7 3 100 27 0.0371696
9 3 100 27 7.23024e-07
13 3 100 27 0.000226266
18 3 100 27 4.19078e-07
21 3 100 27 1.34369e-05
22 3 100 27 5.05236e-07
3 4 100 27 0.374258
4 4 100 27 0.24637
5 4 100 27 0.252847
6 4 100 27 0.0421411
7 4 100 27 0.0842821
9 4 100 27 7.2604e-07
12 4 100 27 9.91456e-05
22 4 100 27 5.56138e-07
26 4 100 27 8.15122e-07
3 5 100 27 0.000121894
4 5 100 27 0.176114
5 5 100 27 0.256745
6 5 100 27 0.248083
7 5 100 27 0.17718
8 5 100 27 0.106308
9 5 100 27 0.0354378
10 5 100 27 4.47549e-07
21 5 100 27 7.86601e-06
25 5 100 27 1.85317e-06
4 6 100 27 0.0871915
5 6 100 27 0.302331
6 6 100 27 0.177603
7 6 100 27 0.174277
8 6 100 27 0.0843183
9 6 100 27 0.0871383
10 6 100 27 0.0871384
15 6 100 27 8.89587e-07
18 6 100 27 5.27763e-07
24 6 100 27 4.76008e-07
3 7 100 27 0.00751164
4 7 100 27 0.0636981
5 7 100 27 0.148593
6 7 100 27 0.318343
7 7 100 27 0.0104208
8 7 100 27 0.256543
9 7 100 27 0.0955294
10 7 100 27 0.067449
11 7 100 27 0.0318491
17 7 100 27 6.30511e-05
21 7 100 27 8.41922e-07
5 8 100 27 6.67127e-06
6 8 100 27 0.149832
7 8 100 27 0.310378
8 8 100 27 0.0900532
9 8 100 27 0.119883
10 8 100 27 0.0600365
11 8 100 27 0.119865
12 8 100 27 0.0600465
17 8 100 27 0.0299663
19 8 100 27 0.0299668
20 8 100 27 0.0299663
3 9 100 27 6.98176e-07
6 9 100 27 0.0367613
7 9 100 27 0.147063
8 9 100 27 0.194617
9 9 100 27 0.106689
10 9 100 27 0.257343
11 9 100 27 0.147045
12 9 100 27 0.0362259
13 9 100 27 0.0367613
14 9 100 27 0.0367613
15 9 100 27 0.000731931
23 9 100 27 1.13379e-06
8 10 100 27 0.0432103
9 10 100 27 0.347663
10 10 100 27 0.0431983
11 10 100 27 0.0863677
12 10 100 27 0.265127
13 10 100 27 0.127385
14 10 100 27 0.0431983
15 10 100 27 0.0438482
20 10 100 27 1.24863e-06
22 10 100 27 6.89409e-07
26 10 100 27 6.89409e-07
8 11 100 27 0.088959
9 11 100 27 0.000146848
10 11 100 27 0.172611
11 11 100 27 0.177966
12 11 100 27 0.144292
13 11 100 27 0.179454
14 11 100 27 0.0888281
15 11 100 27 0.0885234
16 11 100 27 0.0295632
17 11 100 27 0.0296562
5 12 100 27 6.39553e-07
8 12 100 27 0.0322238
9 12 100 27 0.064449
10 12 100 27 0.128897
11 12 100 27 0.161119
12 12 100 27 1.95389e-06
13 12 100 27 0.161119
14 12 100 27 0.258847
15 12 100 27 0.0322238
16 12 100 27 0.0322241
18 12 100 27 0.0644476
19 12 100 27 0.0322238
20 12 100 27 0.0322238
5 13 100 27 1.75771e-06
7 13 100 27 0.0312434
8 13 100 27 6.03319e-07
9 13 100 27 0.0625224
10 13 100 27 0.093781
11 13 100 27 0.0312603
12 13 100 27 0.131422
13 13 100 27 0.0590869
14 13 100 27 0.109022
15 13 100 27 0.0936251
16 13 100 27 0.209356
17 13 100 27 0.0625206
18 13 100 27 0.0536322
19 13 100 27 0.0625207
20 13 100 27 3.32757e-06
21 13 100 27 5.48284e-07
25 13 100 27 4.22339e-07
26 13 100 27 8.03775e-07
5 14 100 27 4.64004e-07
8 14 100 27 4.46209e-07
10 14 100 27 0.0866322
11 14 100 27 0.0852616
12 14 100 27 0.0869486
13 14 100 27 0.220945
14 14 100 27 0.0434133
15 14 100 27 0.216387
16 14 100 27 0.0418231
17 14 100 27 0.045589
18 14 100 27 0.0865205
19 14 100 27 0.0432363
20 14 100 27 0.0432363
22 14 100 27 1.24643e-06
25 14 100 27 2.2611e-06
26 14 100 27 3.03383e-06
11 15 100 27 0.000469778
12 15 100 27 0.0644422
13 15 100 27 0.12619
14 15 100 27 0.164409
15 15 100 27 0.03222
16 15 100 27 0.128884
17 15 100 27 0.0644443
18 15 100 27 0.0967473
19 15 100 27 0.128866
20 15 100 27 0.0644422
21 15 100 27 0.0322211
22 15 100 27 0.0644422
23 15 100 27 0.0322211
7 16 100 27 4.43261e-07
8 16 100 27 0.0422356
9 16 100 27 6.26718e-07
11 16 100 27 0.0867798
