2 0.277015 0.71634 0.00494303 0.000807244 0.000577118 0.00025343 0 0 6.3886e-05 0 
3 0.106907 0.710947 0.110956 0.0400895 0.0128177 0.00614877 0.00850588 0.00166019 0.000491808 0.00147531 
4 0.831173 0.168564 0.000205745 5.76386e-05 0 0 0 0 0 0 
5 0.840958 0.157786 0.000550759 0.000605653 6.42895e-05 2.82314e-05 0 0 7.11673e-06 0 
6 0.264771 0.600562 0.0898994 0.0217702 0.0158342 0.00301229 0.00248587 0.00121157 0 0.000453678 
7 0.324348 0.624562 0.0323472 0.0112746 0.00249227 0.00323237 0.000904861 0.000694338 0 0.000145117 
8 0.0547711 0.817447 0.0720648 0.0245739 0.0173288 0.00780273 0.00252178 0.00349023 0 0 
9 0.105607 0.75826 0.0950003 0.0214232 0.0092923 0.0067314 0.00149218 0.00219359 0 0 
10 0.0674056 0.632922 0.216652 0.0547131 0.0193993 0.00623662 0.00178092 0 0 0.000890482 
11 0.464458 0.534729 0.000634042 0.000179132 0 0 0 0 0 0 
12 0.33456 0.661721 0.00371855 0 0 0 0 0 0 0 
13 0.0932166 0.717747 0.110028 0.0525115 0.0107684 0.007616 0.0062352 0.000616164 0.00126103 0 
14 0.273497 0.708013 0.011355 0.00316277 0.00155526 0.0014957 0.00059321 0.000328566 0 0 
15 0.321158 0.620525 0.0272834 0.00759944 0.00373772 0.0174819 0.00142535 0.000789472 0 0 
16 0.327739 0.665294 0.00439018 0.0011423 0.000561712 0.000540199 0.000214249 0.000118668 0 0 
17 0.285202 0.707693 0.00528588 0.000863191 0.000617117 0.000270994 0 0 6.83137e-05 0 
18 0.154248 0.67987 0.104263 0.0370651 0.00819335 0.0106264 0.00297473 0.00228264 0 0.000477071 
19 0.104846 0.893388 0.0013142 0.000214471 0.00015333 6.73319e-05 0 0 1.69734e-05 0 
20 0.187461 0.712881 0.0640841 0.0185281 0.00803659 0.00582176 0.00129054 0.00189716 0 0 
21 0.0974804 0.78433 0.0761818 0.021879 0.00949001 0.00687463 0.00152393 0.00224026 0 0 
22 0.529931 0.463393 0.00496601 0.000810998 0.000579803 0.000254609 0 0 6.41831e-05 0 
23 0.515 0.468874 0.0119965 0.00195915 0.00140065 0.000615066 0 0 0.000155049 0 
24 0.270094 0.609323 0.0758152 0.0217699 0.0158342 0.00301229 0.00248587 0.00121157 0 0.000453678 
25 0.471256 0.528338 0.000316002 8.92742e-05 0 0 0 0 0 0 
26 0.107091 0.728422 0.0957389 0.0456918 0.00936995 0.00662691 0.00542544 0.000536143 0.00109726 0 
27 0.461114 0.528005 0.00668165 0.00186109 0.000915171 0.00088012 0.000349066 0.00019334 0 0 
28 0.388081 0.597765 0.00869206 0.00242106 0.00119053 0.00114494 0.000454094 0.000251513 0 0 
29 0.0746306 0.305827 0.224798 0.172072 0 0.181376 0.041296 0 0 0 
30 0.0665571 0.638245 0.213416 0.0538965 0.0191098 0.00614353 0.00175434 0 0 0.000877191 
31 0.542729 0.347568 0.106169 0.00167658 0.00119863 0.000526355 0 0 0.000132686 0 
32 0.40721 0.592246 0.000544385 0 0 0 0 0 0 0 
33 0.340049 0.612909 0.0288883 0.00804647 0.00395677 0.00380523 0.0015092 0.000835912 0 0 
34 0.159075 0.621378 0.128324 0.0610032 0.0100841 0.0130787 0.00366121 0.0028094 0 0.000587164 
35 0.160324 0.697563 0.0865704 0.0312786 0.0100006 0.00479739 0.00663646 0.00129532 0.000383718 0.00115107 
36 0.600267 0.398622 0.00086609 0.000244707 0 0 0 0 0 0 
37 0.116776 0.668881 0.136583 0.04379 0.0140009 0.00671634 0.00929104 0.00181344 0.000537206 0.00161149 
38 0.427436 0.561174 0.00847374 0.00138385 0.000989346 0.000434452 0 0 0.000109519 0 
39 0.410147 0.565982 0.0202675 0.00170946 0.00122213 0.000536675 0 0 0.000135288 0 
40 0.178801 0.614379 0.120885 0.057466 0.00950032 0.0123205 0.00344896 0.00264654 0 0.000553126 
41 0.511484 0.484232 0.00318719 0.000520492 0.000372112 0.000163406 0 0 4.11921e-05 0 
42 0.252941 0.573407 0.132903 0.0198162 0.0144132 0.00274196 0.00226277 0.00110284 0 0.000412963 
43 0.274033 0.607059 0.0747622 0.0214675 0.0156143 0.00297046 0.00245134 0.00119474 0 0.000447377 
44 0.253491 0.590407 0.107943 0.0234191 0.0170338 0.0032405 0.00267419 0.00130335 0 0.000488048 
45 0.0713381 0.336452 0.214882 0.179185 0 0.173373 0.0247695 0 0 0 
46 0.110006 0.688076 0.114172 0.0557442 0.0131892 0.00632699 0.00875243 0.00170832 0.000506063 0.00151807 
47 0.0566002 0.688872 0.155557 0.0500858 0.0253663 0.0051998 0.00780193 0.00787271 0 0.00264401 
48 0.242659 0.633264 0.0780128 0.0224009 0.0162932 0.00309961 0.00255792 0.00124668 0 0.000466828 
49 0.156664 0.642267 0.126379 0.0449274 0.00993134 0.0128805 0.00360573 0.00276683 0 0.000578268 
50 0.304441 0.69246 0.00309879 0 0 0 0 0 0 0 
51 0.33831 0.560871 0.063425 0.0181843 0.0132262 0.00251615 0.00207643 0.00101201 0 0.000378955 
52 0.0918458 0.707192 0.123116 0.0517393 0.0106101 0.007504 0.00614351 0.000607103 0.00124249 0 
53 0.116776 0.668881 0.121209 0.0591644 0.0140009 0.00671634 0.00929104 0.00181344 0.000537206 0.00161149 
54 0.0661787 0.63622 0.181882 0.0585618 0.029659 0.00607977 0.00912225 0.00920502 0 0.00309146 
55 0.065423 0.64372 0.210278 0.0531039 0.0188287 0.00605319 0.00172854 0 0 0.000864291 
56 0.0742522 0.80004 0.0748938 0.0224114 0.0158038 0.00711609 0.00229986 0.00318309 0 0 
57 0.0985774 0.72032 0.115461 0.0369656 0.0118189 0.00566964 0.00784309 0.00153083 0.000453485 0.00136035 
58 0.449927 0.524878 0.0154746 0.00430834 0.00211858 0.00203744 0.000808073 0.000447575 0 0 
59 0.222295 0.669814 0.0678133 0.0241074 0.00532901 0.0069115 0.00193478 0.00148464 0 0.00031029 
60 0.0623422 0.657253 0.171393 0.0551669 0.0279397 0.00572732 0.00859343 0.00867139 0 0.00291224 
61 0.762251 0.23746 0.000224826 6.3516e-05 0 0 0 0 0 0 
62 0.110029 0.659383 0.157335 0.0412515 0.0131892 0.00632699 0.00875243 0.00170832 0.000506063 0.00151807 
63 0.0960849 0.693677 0.113414 0.0695118 0.0110998 0.00785034 0.00642706 0.000635123 0.00129983 0 
64 0.146729 0.711322 0.0954929 0.0241957 0.0104948 0.00760253 0.00168529 0.00247746 0 0 
65 0.0937224 0.823701 0.0531081 0.0153479 0.00665717 0.0048225 0.00106903 0.00157153 0 0 
66 0.154786 0.736963 0.0630077 0.0300707 0.00616655 0.0043613 0.00357059 0.000352846 0.00072213 0 
67 0.0423913 0.594642 0.153328 0.153225 0.0222314 0.0174801 0.0105043 0.00582069 0.000378105 0 
68 0.054923 0.565098 0.312333 0.0445811 0.0158068 0.00508169 0.00145112 0 0 0.000725578 
69 0.429006 0.559325 0.00868043 0.0014176 0.00101348 0.000445048 0 0 0.00011219 0 
70 0.325343 0.627615 0.0288883 0.00804647 0.00395677 0.00380523 0.0015092 0.000835912 0 0 
71 0.452421 0.546005 0.0012279 0.000346926 0 0 0 0 0 0 
72 0.095504 0.585304 0.225543 0.0696968 0.0164148 0.00527714 0.00150693 0 0 0.000753485 
73 0.0960849 0.693678 0.128798 0.0541272 0.0110998 0.00785034 0.00642706 0.000635123 0.00129983 0 
74 0.19314 0.69172 0.0670172 0.0319843 0.00655896 0.00463884 0.0037978 0.0003753 0.000768084 0 
75 0.309274 0.636896 0.0380042 0.00701487 0.00344949 0.00331738 0.00131571 0.000728744 0 0 
76 0.257391 0.610896 0.0828135 0.0237794 0.0172958 0.00329035 0.00271533 0.0013234 0 0.000495556 
77 0.0442343 0.620495 0.174486 0.101917 0.023198 0.0182401 0.010961 0.00607377 0.000394544 0 
78 0.159473 0.639641 0.144476 0.0293803 0.0127437 0.00923164 0.00204642 0.00300835 0 0 
79 0.380611 0.607226 0.00904823 0.00147767 0.00105642 0.000463906 0 0 0.000116944 0 
80 0.159075 0.621378 0.143708 0.0456186 0.0100841 0.0130787 0.00366121 0.0028094 0 0.000587164 
81 0.0656278 0.732871 0.123149 0.0396512 0.0200816 0.00411651 0.00617653 0.00623256 0 0.00209317 
82 0.065423 0.64372 0.210279 0.0531039 0.0188287 0.00605319 0.00172854 0 0 0.000864291 
83 0.209297 0.683686 0.0672861 0.0193208 0.0140529 0.00267341 0.00220621 0.00107526 0 0.000402639 
84 0.131988 0.724316 0.0924145 0.0267094 0.0115852 0.0083924 0.00186038 0.00273486 0 0 
85 0.10874 0.72756 0.0997203 0.0360298 0.0115197 0.00552611 0.00764453 0.00149207 0.000442005 0.00132591 
86 0.115006 0.689049 0.119362 0.0431265 0.0137887 0.00661458 0.00915027 0.00178597 0.000529066 0.00158707 
87 0.168556 0.68933 0.0865711 0.0312786 0.0100006 0.00479739 0.00663646 0.00129532 0.000383718 0.00115107 
88 0.0806754 0.695241 0.126363 0.0430989 0.030392 0.0136848 0.00442281 0.00612132 0 0 
89 0.305359 0.65415 0.0248659 0.00692607 0.00340583 0.00327539 0.00129905 0.000719519 0 0 
90 0.330199 0.607132 0.0442448 0.00816656 0.00401583 0.00386202 0.00153172 0.000848388 0 0 
91 0.381771 0.571188 0.0295769 0.00849266 0.00617708 0.00117513 0.000969761 0.000472644 0 0.000176984 
92 0.286888 0.704445 0.00846518 0.000202267 0 0 0 0 0 0 
93 0.0843989 0.744446 0.0996202 0.0475442 0.00974981 0.00689557 0.00564539 0.000557878 0.00114175 0 
94 0.123684 0.678406 0.122929 0.0463124 0.0135161 0.00979113 0.00217045 0.00319067 0 0 
95 0.120046 0.687864 0.119314 0.0449504 0.0131185 0.00950316 0.00210661 0.00309683 0 0 
96 0.0908413 0.667961 0.174377 0.0440374 0.0156141 0.00501972 0.00143342 0 0 0.000716729 
97 0.260741 0.613356 0.07916 0.0227303 0.0165328 0.00314519 0.00259554 0.00126502 0 0.000473693 
98 0.264633 0.592652 0.0803491 0.0230775 0.031697 0.00319213 0.00263428 0.0012839 0 0.000480763 
99 0.615037 0.383729 0.00100845 0.000226505 0 0 0 0 0 0 
100 0.116776 0.684265 0.121198 0.04379 0.0140009 0.00671634 0.00929104 0.00181344 0.000537206 0.00161149 
101 0.09874 0.752186 0.0909773 0.0327167 0.0104604 0.00501796 0.00694158 0.00135487 0.000401361 0.00120399 
102 0.497265 0.502206 0.000412144 0.000116379 0 0 0 0 0 0 
103 0.1184 0.721941 0.097258 0.0351401 0.0112353 0.00538966 0.00745577 0.00145523 0.000431091 0.00129317 
104 0.159075 0.621378 0.12837 0.0609563 0.0100841 0.0130787 0.00366121 0.0028094 0 0.000587164 
105 0.159084 0.636754 0.128324 0.0456186 0.0100841 0.0130787 0.00366121 0.0028094 0 0.000587164 
106 0.335795 0.603308 0.0285138 0.00792985 0.00390501 0.0182372 0.00148732 0.000823797 0 0 
107 0.468167 0.510726 0.0157013 0.00256419 0.0018332 0.000805013 0 0 0.000202932 0 
108 0.362362 0.585153 0.0400156 0.00552694 0.00271778 0.00261369 0.00103662 0.000574162 0 0 
109 0.338965 0.625085 0.0220795 0.00614786 0.00302315 0.00290736 0.00115309 0.000638674 0 0 
110 0.182737 0.621775 0.12796 0.0406193 0.00897902 0.0116454 0.00325998 0.00250152 0 0.000522818 
111 0.515217 0.410722 0.0583418 0.00200468 0.0129267 0.000629206 0 0 0.000158613 0 
112 0.362849 0.598585 0.0236934 0.00659229 0.00324169 0.00311754 0.00123645 0.000684843 0 0 
113 0.598326 0.387886 0.00846728 0.00235845 0.00115974 0.00111533 0.000442351 0.000245009 0 0 
114 0.065176 0.641732 0.179126 0.0576745 0.0292097 0.00598765 0.00898404 0.00906555 0 0.00304462 
115 0.0913022 0.717172 0.117053 0.0376883 0.0190875 0.00391272 0.00587076 0.00592402 0 0.00198955 
116 0.0946179 0.814309 0.0554782 0.0200447 0.00640885 0.00307438 0.00425294 0.000830097 0.000245904 0.000737655 
117 0.0979124 0.730933 0.0996202 0.0475442 0.00974981 0.00689557 0.00564539 0.000557878 0.00114175 0 
118 0.252959 0.619076 0.0872151 0.0198162 0.0144132 0.00274196 0.00226277 0.00110284 0 0.000412963 
119 0.125587 0.704227 0.109436 0.0316404 0.013724 0.00994177 0.00220384 0.00323976 0 0 
120 0.0661787 0.620836 0.181882 0.0587308 0.0448747 0.00607977 0.00912225 0.00920502 0 0.00309146 
121 0.351542 0.608473 0.024555 0.0068395 0.00336325 0.00323444 0.00128282 0.000710525 0 0 
122 0.466698 0.524957 0.00620756 0.00101375 0.000724753 0.000318261 0 0 8.02289e-05 0 
123 0.335121 0.618519 0.0284696 0.00792985 0.00389943 0.00375008 0.00148732 0.000823797 0 0 
124 0.326542 0.633473 0.024555 0.0068395 0.00336325 0.00323444 0.00128282 0.000710525 0 0 
125 0.367639 0.587306 0.0276685 0.00770647 0.00378958 0.00364444 0.00144543 0.000800592 0 0 
126 0.100555 0.732793 0.102096 0.0429057 0.00879861 0.00622283 0.00509462 0.000503451 0.00103036 0 
127 0.117478 0.740701 0.0911965 0.026367 0.0114367 0.00828481 0.00183653 0.0026998 0 0 
128 0.3698 0.590214 0.0245551 0.0068395 0.00336325 0.00323444 0.00128282 0.000710525 0 0 
129 0.065176 0.611429 0.179126 0.072826 0.0443611 0.00598774 0.00898404 0.00906555 0 0.00304462 
130 0.0661788 0.63622 0.181882 0.0585618 0.029659 0.00607977 0.00912225 0.00920502 0 0.00309146 
131 0.154326 0.632681 0.139418 0.0442568 0.00978311 0.0126883 0.00355192 0.00272554 0 0.000569637 
132 0.339618 0.659674 0.000707824 0 0 0 0 0 0 0 
133 0.323673 0.624309 0.0367318 0.00680112 0.00332173 0.00319451 0.00126698 0.000701753 0 0 
134 0.0746306 0.321212 0.224798 0.172072 0 0.181375 0.0259127 0 0 0 
135 0.335202 0.616331 0.0297637 0.0082903 0.00407667 0.00392054 0.00155493 0.000861243 0 0 
136 0.661282 0.321793 0.0103937 0.00289502 0.0014236 0.00136908 0.000542991 0.000300751 0 0 
137 0.147712 0.662708 0.119158 0.0423601 0.00936383 0.0121445 0.00339969 0.00260873 0 0.000545224 
138 0.156664 0.642267 0.126379 0.0449274 0.00993134 0.0128805 0.00360573 0.00276683 0 0.000578268 
139 0.12043 0.702134 0.111455 0.0407531 0.0118942 0.0086162 0.00190999 0.00280779 0 0 
140 0.123684 0.679654 0.120994 0.0469996 0.0135161 0.00979114 0.00217045 0.00319067 0 0 
141 0.257814 0.740571 0.00125977 0.000355937 0 0 0 0 0 0 
142 0.300381 0.591247 0.0681378 0.0195654 0.0142307 0.00270725 0.00223413 0.00108888 0 0.000407736 
143 0.158469 0.653578 0.119488 0.0411835 0.00910372 0.0118071 0.00330526 0.00253626 0 0.000530079 
144 0.322094 0.636895 0.0251846 0.00701487 0.00344949 0.00331738 0.00131571 0.000728744 0 0 
145 0.0262107 0.425114 0.125804 0.348226 0.0401722 0.0172366 0 0 0 0.0172368 
146 0.345124 0.607132 0.0293194 0.00816656 0.00401583 0.00386202 0.00153172 0.000848388 0 0 
147 0.482354 0.495899 0.0161771 0.00264189 0.00188875 0.000829407 0 0 0.000209081 0 
148 0.065176 0.626068 0.194789 0.0576745 0.0292097 0.00598765 0.00898404 0.00906555 0 0.00304462 
149 0.123684 0.67845 0.138037 0.031161 0.0135161 0.00979114 0.00217045 0.00319067 0 0 
150 0.257391 0.610851 0.0828582 0.0237794 0.0172958 0.00329035 0.00271533 0.0013234 0 0.000495556 
151 0.0469564 0.627911 0.154453 0.108189 0.0246256 0.0193626 0.0116355 0.00644754 0.000418824 0 
152 0.0661787 0.620836 0.181882 0.0739464 0.029659 0.00607977 0.00912225 0.00920502 0 0.00309146 
153 0.181533 0.623312 0.122662 0.043606 0.00963924 0.0125017 0.00349968 0.00268546 0 0.00056126 
154 0.0813248 0.608552 0.228342 0.0538965 0.0191098 0.00614353 0.00175434 0 0 0.000877191 
155 0.119631 0.708054 0.115905 0.0293803 0.0127437 0.00923164 0.00204642 0.00300835 0 0 
156 0.134638 0.685331 0.106169 0.0306959 0.0282345 0.0096502 0.00213805 0.00314305 0 0 
157 0.156811 0.64212 0.126379 0.0449274 0.00993134 0.0128805 0.00360573 0.00276683 0 0.000578268 
158 0.267577 0.595832 0.091184 0.0220809 0.0160604 0.00305533 0.00252138 0.00122887 0 0.000460159 
159 0.30418 0.572696 0.082374 0.0198162 0.0144132 0.00274196 0.00226277 0.00110284 0 0.000412963 
160 0.206604 0.635413 0.099298 0.0353001 0.00780319 0.0101204 0.00283308 0.00217394 0 0.000454353 
161 0.111787 0.75199 0.0880683 0.0250808 0.0108788 0.00788067 0.00174694 0.0025681 0 0 
162 0.0960849 0.709062 0.113414 0.0541272 0.0110998 0.00785034 0.00642706 0.000635123 0.00129983 0 
163 0.144576 0.616326 0.158383 0.0512738 0.0121342 0.00582083 0.00805224 0.00157165 0.000465578 0.00139663 
164 0.173248 0.687695 0.0847087 0.0306059 0.00978556 0.00469422 0.00649374 0.00126746 0.000375466 0.00112631 
165 0.138262 0.71942 0.0828403 0.0395311 0.00810659 0.00573339 0.00469392 0.000463854 0.000949317 0 
166 0.121441 0.720422 0.097602 0.0403612 0.0081987 0.00579855 0.00474726 0.000469125 0.000960104 0 
167 0.441323 0.539541 0.014236 0.00232486 0.0016621 0.000729878 0 0 0.000183992 0 
168 0.591442 0.405791 0.002158 0.000609048 0 0 0 0 0 0 
169 0.103507 0.715558 0.105313 0.050261 0.0103069 0.0072896 0.00596798 0.000589757 0.00120699 0 
170 0.116069 0.678784 0.115685 0.0394567 0.0278237 0.0125283 0.00404906 0.00560403 0 0 
171 0.0750153 0.611046 0.211482 0.0767414 0.0176616 0.00563858 0.00161015 0 0 0.000805093 
172 0.260144 0.620948 0.0747622 0.0214675 0.0156143 0.00297046 0.00245134 0.00119474 0 0.000447377 
173 0.213671 0.773296 0.0130331 0 0 0 0 0 0 0 
174 0.355992 0.603419 0.0249631 0.00692607 0.00340583 0.00327539 0.00129905 0.000719519 0 0 
175 0.108142 0.702821 0.110028 0.0525115 0.0107684 0.007616 0.0062352 0.000616164 0.00126103 0 
176 0 0.581818 0.112121 0 0.0969697 0.209091 0 0 0 0 
177 0.302691 0.658769 0.0236675 0.00659229 0.00324169 0.00311754 0.00123645 0.000684843 0 0 
178 0.659311 0.339848 0.000655738 0.00018456 0 0 0 0 0 0 
179 0.33515 0.603997 0.0429619 0.00792985 0.00389942 0.00375008 0.00148732 0.000823797 0 0 
180 0.325343 0.627615 0.0288883 0.00804647 0.00395677 0.00380523 0.0015092 0.000835912 0 0 
181 0.260767 0.569097 0.106936 0.0380155 0.00840344 0.0108989 0.00305101 0.00234117 0 0.000489304 
182 0.154326 0.63268 0.139418 0.0442568 0.00978311 0.0126883 0.00355192 0.00272554 0 0.000569637 
183 0.317459 0.640451 0.0258474 0.00719947 0.00354027 0.00340468 0.00135033 0.000747921 0 0 
184 0.211879 0.711681 0.0480615 0.0138006 0.0100378 0.00190958 0.00157586 0.000768046 0 0.0002876 
185 0.0919806 0.625473 0.20427 0.0515866 0.0182908 0.00588024 0.00167915 0 0 0.000839597 
186 0.315694 0.579898 0.0656455 0.0188496 0.0137101 0.00260821 0.0021524 0.00104904 0 0.000392819 
187 0.0791286 0.632154 0.176452 0.0568137 0.0287737 0.00589828 0.00884995 0.00893024 0 0.00299917 
188 0.554252 0.444055 0.00131975 0.000372887 0 0 0 0 0 0 
189 0.0469564 0.612527 0.154453 0.123574 0.0246256 0.0193626 0.0116355 0.00644754 0.000418824 0 
190 0.11329 0.678765 0.132506 0.0424829 0.0135829 0.00651586 0.00901369 0.00175931 0.00052117 0.00156339 
191 0.142851 0.641874 0.146972 0.0384642 0.0122981 0.00589949 0.00816105 0.00159289 0.00047187 0.0014155 
192 0.0469564 0.627881 0.154483 0.108189 0.0246256 0.0193626 0.0116355 0.00644754 0.000418824 0 
193 0.0661787 0.63622 0.181882 0.0585618 0.029659 0.00607977 0.00912225 0.00920502 0 0.00309146 
194 0.260742 0.613355 0.07916 0.0227303 0.0165328 0.00314519 0.00259554 0.00126502 0 0.000473693 
195 0.159075 0.621378 0.143708 0.0456186 0.0100841 0.0130787 0.00366121 0.0028094 0 0.000587164 
196 0.125587 0.704227 0.109436 0.0316404 0.013724 0.00994177 0.00220384 0.00323976 0 0 
197 0.0316414 0.501679 0.151014 0.241526 0.0322405 0.0209492 0 0 0 0.0209493 
198 0.0932167 0.717602 0.110173 0.0525115 0.0107684 0.007616 0.0062352 0.000616164 0.00126103 0 
199 0.386371 0.503901 0.0980826 0.00516188 0.0025383 0.00244109 0.000968163 0.000536245 0 0 
200 0.162152 0.662454 0.103673 0.0305991 0.0212875 0.0147062 0.00207608 0.00305195 0 0 
201 0.115006 0.673898 0.119362 0.0431265 0.0137887 0.00661458 0.00915027 0.00178597 0.000529072 0.0167386 
202 0.303345 0.671858 0.0152279 0.00424155 0.00208574 0.00200586 0.000795545 0.000440636 0 0 
203 0.129563 0.695676 0.106458 0.0384642 0.0122981 0.00589949 0.00816105 0.00159289 0.00047187 0.0014155 
204 0.0960849 0.709062 0.113414 0.0541272 0.0110998 0.00785034 0.00642706 0.000635123 0.00129983 0 
205 0.0932167 0.702664 0.110186 0.0674368 0.0107684 0.007616 0.0062352 0.000616164 0.00126103 0 
206 0.177607 0.667339 0.101237 0.0324655 0.00712465 0.00924037 0.00258672 0.0019849 0 0.000414844 
207 0.247114 0.640236 0.0708274 0.0203377 0.0147925 0.00281412 0.00232232 0.00113186 0 0.000423831 
208 0.38512 0.604007 0.00808858 0.00132094 0.000944375 0.000414704 0 0 0.000104541 0 
209 0.156664 0.627115 0.14153 0.0449274 0.00993134 0.0128805 0.00360573 0.00276683 0 0.000578268 
210 0.148347 0.661762 0.11947 0.0423601 0.00936383 0.0121445 0.00339969 0.00260873 0 0.000545224 
211 0.128648 0.731326 0.0900421 0.0260332 0.0112919 0.00817994 0.00181328 0.00266563 0 0 
212 0.0684426 0.611892 0.219983 0.0555549 0.0350824 0.00633257 0.00180832 0 0 0.000904182 
213 0.389127 0.596076 0.0110072 0.00179757 0.00128513 0.000564339 0 0 0.000142262 0 
214 0.159075 0.621378 0.143708 0.0456186 0.0100841 0.0130787 0.00366121 0.0028094 0 0.000587164 
215 0.476555 0.503231 0.0150379 0.00245584 0.00175574 0.000770998 0 0 0.000194357 0 
216 0.145632 0.582952 0.201986 0.0417635 0.00923195 0.0119734 0.00335181 0.00257199 0 0.000537545 
217 0.333953 0.584163 0.0678287 0.006246 0.0030575 0.0029404 0.0011662 0.000645932 0 0 
218 0.121838 0.697569 0.121657 0.0306959 0.0133143 0.009645 0.00213805 0.00314305 0 0 
219 0.156664 0.642267 0.126379 0.0449274 0.00993134 0.0128805 0.00360573 0.00276683 0 0.000578268 
220 0.330199 0.622057 0.0293194 0.00816656 0.00401583 0.00386202 0.00153172 0.000848388 0 0 
221 0.361502 0.595845 0.0261931 0.00729546 0.00358747 0.00345007 0.00136834 0.000757893 0 0 
222 0.340359 0.595043 0.0302216 0.0238025 0.00413939 0.00398085 0.00157885 0.000874492 0 0 
223 0.257391 0.595511 0.0828135 0.0237794 0.0172958 0.018675 0.00271533 0.0013234 0 0.000495556 
224 0.123684 0.708709 0.107778 0.031161 0.0135161 0.00979114 0.00217045 0.00319067 0 0 
225 0.584248 0.413695 0.00160367 0.000453011 0 0 0 0 0 0 
226 0.0918965 0.70714 0.123115 0.0517414 0.0106101 0.007504 0.00614351 0.000607103 0.00124249 0 
227 0.235753 0.608427 0.0949224 0.0342934 0.0109645 0.00525979 0.00727612 0.00142017 0.000420703 0.00126201 
228 0.256962 0.61896 0.0780128 0.0224009 0.0162932 0.00309961 0.00255792 0.00124668 0 0.000466828 
229 0.0778395 0.611111 0.232773 0.0515866 0.0182908 0.00588024 0.00167915 0 0 0.000839597 
230 0.110134 0.724067 0.100999 0.0364917 0.0116674 0.00559695 0.00774253 0.0015112 0.000447672 0.00134291 
231 0.253491 0.586488 0.111862 0.0234191 0.0170338 0.0032405 0.00267419 0.00130335 0 0.000488048 
232 0.330199 0.622057 0.0293194 0.00816656 0.00401583 0.00386202 0.00153172 0.000848388 0 0 
233 0.358151 0.59976 0.0258474 0.00719947 0.00354027 0.00340468 0.00135033 0.000747921 0 0 
234 0.117824 0.692049 0.120888 0.0389911 0.0124665 0.00598031 0.00827284 0.00161471 0.000478334 0.00143489 
235 0.115006 0.673898 0.119362 0.0431265 0.0289403 0.00661458 0.00915027 0.00178597 0.000529066 0.00158707 
236 0.171816 0.627115 0.126379 0.0449274 0.00993134 0.0128805 0.00360573 0.00276683 0 0.000578268 
237 0.125523 0.722942 0.0974428 0.0281729 0.01222 0.00885226 0.00196232 0.00288472 0 0 
238 0.0674056 0.602621 0.246953 0.0547131 0.0193993 0.00623662 0.00178092 0 0 0.000890482 
239 0.556168 0.441236 0.00202506 0.000570983 0 0 0 0 0 0 
240 0.094629 0.683202 0.126812 0.0684586 0.0109316 0.0077314 0.00632968 0.0006255 0.00128014 0 
241 0.340359 0.610428 0.0302216 0.00841784 0.00413939 0.00398085 0.00157885 0.000874492 0 0 
242 0.335081 0.622154 0.0263062 0.00729546 0.00358747 0.00345007 0.00136834 0.000757893 0 0 
243 0.321601 0.606344 0.0549101 0.00759973 0.00373695 0.00359383 0.00142535 0.000789472 0 0 
244 0.356886 0.587869 0.0390023 0.00719947 0.00354027 0.00340468 0.00135033 0.000747921 0 0 
245 0.120476 0.699902 0.109422 0.0395327 0.0126397 0.00606337 0.00838775 0.00163714 0.000484977 0.00145482 
246 0.0826261 0.638687 0.175648 0.0521445 0.0264087 0.00541349 0.00812255 0.00819625 0 0.00275267 
247 0.0905147 0.725928 0.106839 0.0509894 0.0104563 0.00739525 0.00605447 0.000598304 0.00122448 0 
248 0.335121 0.618519 0.0284696 0.00792985 0.00389943 0.00375008 0.00148732 0.000823797 0 0 
249 0.0469564 0.612527 0.169838 0.108189 0.0246256 0.0193626 0.0116355 0.00644754 0.000418824 0 
250 0.275536 0.598561 0.07916 0.0227303 0.0165328 0.00314519 0.00259554 0.00126502 0 0.000473693 
251 0.159075 0.636763 0.128324 0.0456186 0.0100841 0.0130787 0.00366121 0.0028094 0 0.000587164 
252 0.286669 0.701849 0.00854156 0.00139492 0.00099726 0.000437927 0 0 0.000110395 0 
253 0.235309 0.742326 0.0147447 0.00337753 0.00166087 0.00159726 0.00063349 0.000350877 0 0 
254 0.541551 0.455041 0.00265759 0.000750881 0 0 0 0 0 0 
255 0.159075 0.621378 0.143708 0.0456186 0.0100841 0.0130787 0.00366121 0.0028094 0 0.000587164 
256 0.106907 0.710947 0.110957 0.0400895 0.0128177 0.00614877 0.00850588 0.00166019 0.000491808 0.00147531 
257 0.419654 0.545194 0.0215868 0.00601274 0.00295671 0.00284347 0.00112775 0.000624637 0 0 
258 0.377456 0.580945 0.0255667 0.00710597 0.00349429 0.00336046 0.0013328 0.000738208 0 0 
259 0.130158 0.673898 0.119362 0.0431265 0.0137887 0.00661458 0.00915027 0.00178597 0.000529066 0.00158707 
260 0.333273 0.639617 0.0166488 0.00463695 0.00228017 0.00219284 0.000869706 0.000481712 0 0 
261 0.1542 0.685478 0.0933151 0.0445351 0.00913273 0.00645914 0.00528808 0.000522569 0.00106948 0 
262 0.0316414 0.501679 0.135629 0.241526 0.0322405 0.0209492 0 0 0 0.0363339 
263 0.330199 0.607132 0.0442447 0.00816656 0.00401583 0.00386202 0.00153172 0.000848388 0 0 
264 0.15534 0.621705 0.141728 0.054318 0.00897902 0.0116454 0.00325998 0.00250152 0 0.000522818 
265 0.0620074 0.747817 0.137489 0.0347218 0.0123111 0.00395785 0.0011302 0 0 0.000565113 
266 0.0932166 0.687896 0.139879 0.0525115 0.0107684 0.007616 0.0062352 0.000616164 0.00126103 0 
267 0.0746306 0.321192 0.224818 0.172072 0 0.181375 0.0259128 0 0 0 
268 0.330199 0.607132 0.0442448 0.00816656 0.00401583 0.00386202 0.00153172 0.000848388 0 0 
269 0.0952922 0.712888 0.108243 0.0368609 0.0259932 0.0117041 0.00378267 0.00523534 0 0 
270 0.330199 0.622057 0.0293194 0.00816656 0.00401583 0.00386202 0.00153172 0.000848388 0 0 
271 0.042136 0.0306609 0 0.927203 0 0 0 0 0 0 
272 0.0793208 0.797722 0.0821213 0.0230289 0.00733917 0.00352066 0.0048703 0.000950595 0.0002816 0.000844733 
273 0.0674056 0.617773 0.231802 0.0547131 0.0193993 0.00623662 0.00178092 0 0 0.000890482 
274 0.0843591 0.688397 0.171083 0.0316266 0.0101117 0.00485069 0.0067102 0.00130971 0.000387982 0.00116385 
275 0.285926 0.601424 0.0708274 0.0203377 0.0147925 0.00281412 0.00232232 0.00113186 0 0.000423831 
276 0.425411 0.540917 0.0206779 0.00575958 0.00283221 0.00272374 0.00108027 0.000598337 0 0 
277 0.123684 0.678416 0.138071 0.031161 0.0135161 0.00979114 0.00217045 0.00319067 0 0 
278 0.443756 0.538952 0.0128637 0.00210078 0.0015019 0.000659529 0 0 0.000166257 0 
279 0.201628 0.630442 0.0949917 0.0463345 0.0109646 0.00525979 0.00727612 0.00142017 0.000420703 0.00126201 
280 0.125587 0.704216 0.109447 0.0316404 0.013724 0.00994177 0.00220384 0.00323976 0 0 
281 0.197313 0.625746 0.111214 0.0395361 0.00873957 0.0113349 0.00317305 0.00243481 0 0.000508876 
282 0.0674056 0.617773 0.21665 0.0547244 0.0345395 0.00623662 0.00178092 0 0 0.000890482 
283 0.159075 0.636525 0.128562 0.0456186 0.0100841 0.0130787 0.00366121 0.0028094 0 0.000587164 
284 0.260741 0.613356 0.07916 0.0227303 0.0165328 0.00314519 0.00259554 0.00126502 0 0.000473693 
285 0.475323 0.489383 0.0299665 0.00252702 0.00180663 0.000793346 0 0 0.000199991 0 
286 0.115006 0.689049 0.119362 0.0431265 0.0137887 0.00661458 0.00915027 0.00178597 0.000529066 0.00158707 
287 0.0932166 0.717747 0.110028 0.0525115 0.0107684 0.007616 0.0062352 0.000616164 0.00126103 0 
288 0.0661787 0.620836 0.197266 0.0585618 0.029659 0.00607977 0.00912226 0.00920502 0 0.00309146 
289 0.253491 0.60164 0.081559 0.0385705 0.0170338 0.0032405 0.00267419 0.00130335 0 0.000488048 
290 0.401136 0.596719 0.00167245 0.000472537 0 0 0 0 0 0 
291 0.264856 0.612838 0.0768983 0.0220809 0.0160604 0.00305533 0.00252138 0.00122887 0 0.000460159 
292 0.316058 0.638244 0.0280635 0.00781657 0.00384372 0.00369651 0.00146608 0.000812029 0 0 
293 0.258914 0.616584 0.0784371 0.0224009 0.0162932 0.00309961 0.00255792 0.00124668 0 0.000466828 
294 0.359416 0.595528 0.0276691 0.00770647 0.00378958 0.00364444 0.00144543 0.000800592 0 0 
295 0.0960849 0.693677 0.113414 0.0541272 0.0264844 0.00785034 0.00642706 0.000635123 0.00129983 0 
296 0 0.300098 0.561374 0 0 0.138528 0 0 0 0 
297 0.0469564 0.627911 0.154453 0.108189 0.0246256 0.0193626 0.0116355 0.00644754 0.000418824 0 
298 0.401435 0.560907 0.0231351 0.00643717 0.00316542 0.00304418 0.00120736 0.000668729 0 0 
299 0.270287 0.612434 0.0737381 0.0211735 0.0154004 0.00292977 0.00241776 0.00117837 0 0.000441249 
300 0.249707 0.622511 0.0803415 0.0230696 0.0167795 0.00319213 0.00263428 0.0012839 0 0.000480763 
301 0.396766 0.554334 0.0345462 0.00636232 0.00312861 0.00300878 0.00119332 0.000660954 0 0 
302 0.124498 0.659091 0.114173 0.0702343 0.0131919 0.00632699 0.00875243 0.00170832 0.000506063 0.00151807 
303 0.108109 0.687929 0.110028 0.0525115 0.0112716 0.0220382 0.00623521 0.000616164 0.00126103 0 
304 0.0637608 0.653686 0.204277 0.0515866 0.0182908 0.00588024 0.00167915 0 0 0.000839597 
305 0.159075 0.636763 0.128324 0.0456186 0.0100841 0.0130787 0.00366121 0.0028094 0 0.000587164 
306 0.0581302 0.639922 0.188879 0.0628623 0.0260519 0.00534033 0.00801279 0.00808549 0 0.00271547 
307 0.30137 0.663087 0.0218267 0.00607955 0.00298956 0.00287506 0.00114028 0.000631578 0 0 
308 0.159075 0.621378 0.128324 0.0456186 0.0254687 0.0130787 0.00366121 0.0028094 0 0.000587164 
309 0.0661787 0.63622 0.181882 0.0585618 0.029659 0.00607977 0.00912225 0.00920502 0 0.00309146 
310 0.0684426 0.611892 0.219983 0.0709395 0.0196978 0.00633256 0.00180832 0 0 0.000904182 
311 0.0960849 0.709062 0.113414 0.0541272 0.0110998 0.00785034 0.00642706 0.000635123 0.00129983 0 
312 0.116087 0.709152 0.106458 0.0384642 0.0122981 0.00589949 0.00816105 0.00159289 0.00047187 0.0014155 
313 0.0806754 0.679857 0.128679 0.0558885 0.0306713 0.0136848 0.00442282 0.00612132 0 0 
314 0.249724 0.629693 0.0758152 0.0217699 0.0158342 0.00301229 0.00248587 0.00121157 0 0.000453678 
315 0.242316 0.66207 0.0638285 0.0154569 0.0112423 0.00213873 0.00176496 0.000860212 0 0.000322112 
316 0.115006 0.689049 0.119362 0.0431265 0.0137887 0.00661458 0.00915027 0.00178597 0.000529066 0.00158707 
317 0.12272 0.678246 0.112541 0.0549479 0.0130008 0.00623661 0.0086274 0.00168391 0.000498834 0.00149638 
318 0.0960849 0.709062 0.113414 0.0541272 0.0110998 0.00785034 0.00642706 0.000635123 0.00129983 0 
319 0.257391 0.595511 0.0828135 0.0237794 0.0172961 0.0186747 0.00271533 0.0013234 0 0.000495556 
320 0.397507 0.600168 0.00181312 0.000512283 0 0 0 0 0 0 
321 0.105007 0.711435 0.106839 0.0509894 0.0104563 0.00739525 0.00605447 0.000598304 0.00122448 0 
322 0.118307 0.721373 0.103092 0.0298061 0.0129284 0.00936543 0.00207608 0.00305195 0 0 
323 0.57672 0.406377 0.0125788 0.00205135 0.00146656 0.00064401 0 0 0.000162346 0 
324 0.0816396 0.642016 0.16889 0.0543788 0.0275405 0.0056455 0.00847066 0.00854752 0 0.00287064 
325 0.0663995 0.638398 0.213421 0.0538965 0.0191098 0.00614353 0.00175434 0 0 0.000877191 
326 0.0960849 0.693677 0.113414 0.0541272 0.0110998 0.0232315 0.00643046 0.000635123 0.00129983 0 
327 0.482354 0.495899 0.0161771 0.00264189 0.00188875 0.000829407 0 0 0.000209081 0 
328 0.115006 0.673898 0.134513 0.0431266 0.0137887 0.00661458 0.00915027 0.00178597 0.000529066 0.00158707 
329 0.324078 0.63225 0.0280462 0.00692607 0.00340583 0.00327539 0.00129905 0.000719519 0 0 
330 0.156664 0.642267 0.126379 0.0449274 0.00993134 0.0128805 0.00360573 0.00276683 0 0.000578268 
331 0.246035 0.613356 0.0938659 0.0227303 0.0165328 0.00314519 0.00259554 0.00126502 0 0.000473693 
332 0.360985 0.578174 0.0429511 0.00792985 0.00389943 0.00375008 0.00148732 0.000823797 0 0 
333 0.253491 0.616791 0.0815588 0.0234191 0.0170338 0.0032405 0.00267419 0.00130335 0 0.000488048 
334 0.146781 0.6929 0.103092 0.0298061 0.0129284 0.00936543 0.00207608 0.00305195 0 0 
335 0.116776 0.684265 0.121198 0.04379 0.0140009 0.00671634 0.00929104 0.00181344 0.000537206 0.00161149 
336 0.0960849 0.709062 0.113414 0.0541272 0.0110998 0.00785034 0.00642706 0.000635123 0.00129983 0 
337 0.340359 0.595043 0.0456061 0.00841784 0.00413939 0.00398085 0.00157885 0.000874492 0 0 
338 0.0661787 0.620836 0.181882 0.0739464 0.029659 0.00607977 0.00912225 0.00920502 0 0.00309146 
339 0.154326 0.647601 0.124498 0.0442568 0.00978311 0.0126883 0.00355192 0.00272554 0 0.000569637 
340 0.271632 0.621351 0.067286 0.0193208 0.0140529 0.00267341 0.00220621 0.00107526 0 0.000402639 
341 0.414823 0.554419 0.0188886 0.00526115 0.00258712 0.00248803 0.000986782 0.000546558 0 0 
342 0.0674056 0.632924 0.21665 0.0547131 0.0193993 0.00623662 0.00178092 0 0 0.000890482 
343 0.595669 0.402305 0.00157971 0.000445645 0 0 0 0 0 0 
344 0.257391 0.595511 0.098184 0.0237935 0.0172958 0.00329035 0.00271533 0.0013234 0 0.000495556 
345 0.0684426 0.61191 0.23535 0.0555548 0.0196978 0.00633256 0.00180832 0 0 0.000904182 
346 0.301542 0.658473 0.024555 0.0068395 0.00336325 0.00323444 0.00128282 0.000710525 0 0 
347 0.0960849 0.693677 0.128798 0.0541272 0.0110998 0.00785034 0.00642706 0.000635123 0.00129983 0 
348 0.123684 0.708709 0.107778 0.031161 0.0135161 0.00979114 0.00217045 0.00319067 0 0 
349 0.512629 0.484299 0.00239511 0.00067672 0 0 0 0 0 0 
350 0.0604801 0.624093 0.149843 0.10496 0.0238905 0.0187846 0.0112882 0.00625508 0.000406322 0 
351 0.166695 0.650989 0.1157 0.0400704 0.00885768 0.011488 0.00321592 0.00246772 0 0.000515753 
352 0.120062 0.702555 0.104633 0.0449253 0.0131185 0.00950316 0.00210661 0.00309683 0 0 
353 0.15476 0.663822 0.0987973 0.0563364 0.0123942 0.00897521 0.00198958 0.00292478 0 0 
354 0.094629 0.698319 0.111696 0.0684578 0.0109316 0.0077314 0.00632968 0.0006255 0.00128014 0 
355 0.294492 0.620742 0.0532962 0.0153036 0.011131 0.00211755 0.00174749 0.000851695 0 0.000318922 
356 0.0932166 0.717747 0.110028 0.0525115 0.0107684 0.007616 0.0062352 0.000616164 0.00126103 0 
357 0.257391 0.610896 0.0828135 0.0237794 0.0172958 0.00329035 0.00271533 0.0013234 0 0.000495556 
358 0.331944 0.620342 0.0336863 0.00621772 0.0030575 0.0029404 0.0011662 0.000645932 0 0 
359 0.510484 0.487812 0.00132879 0.000375441 0 0 0 0 0 0 
360 0.127266 0.719094 0.0987962 0.0285642 0.0123897 0.00897521 0.00198958 0.00292478 0 0 
361 0.518293 0.462046 0.0146259 0.00238856 0.00170764 0.000749875 0 0 0.000189032 0 
362 0.159075 0.636763 0.128324 0.0456186 0.0100841 0.0130787 0.00366121 0.0028094 0 0.000587164 
363 0.125587 0.688843 0.109436 0.0470244 0.0137245 0.00994177 0.00220384 0.00323976 0 0 
364 0.125521 0.672243 0.148144 0.0281729 0.01222 0.00885226 0.00196232 0.00288472 0 0 
365 0.0932167 0.717713 0.110062 0.0525115 0.0107684 0.007616 0.0062352 0.000616164 0.00126103 0 
366 0.344619 0.609683 0.0280629 0.00781657 0.00384372 0.00369651 0.00146608 0.000812029 0 0 
367 0.116776 0.684265 0.121198 0.04379 0.0140009 0.00671634 0.00929104 0.00181344 0.000537206 0.00161149 
368 0.348924 0.606648 0.0272834 0.00759944 0.00373695 0.00359383 0.00142535 0.000789472 0 0 
369 0.109774 0.683174 0.126847 0.0533071 0.0109316 0.0077314 0.00632968 0.0006255 0.00128014 0 
370 0.0469564 0.612527 0.169838 0.108189 0.0246256 0.0193626 0.0116355 0.00644754 0.000418824 0 
371 0.253491 0.60164 0.0967103 0.0234191 0.0170338 0.0032405 0.00267419 0.00130335 0 0.000488048 
372 0.094629 0.69832 0.126846 0.0533071 0.0109316 0.0077314 0.00632968 0.0006255 0.00128014 0 
373 0.120992 0.682781 0.125038 0.0400895 0.0128177 0.00614877 0.00850588 0.00166019 0.000491808 0.00147531 
374 0.0661787 0.63622 0.181882 0.0585618 0.029659 0.00607977 0.00912225 0.00920502 0 0.00309146 
375 0.0661787 0.620836 0.181882 0.0585618 0.029659 0.00822218 0.0223486 0.0092209 0 0.00309146 
376 0.263298 0.626941 0.0690113 0.0198162 0.0144132 0.00274196 0.00226277 0.00110284 0 0.000412963 
377 0.445203 0.522746 0.0272149 0.00229427 0.00164023 0.000720275 0 0 0.000181571 0 
378 0.106655 0.707088 0.108411 0.0517392 0.0106101 0.007504 0.00614351 0.000607103 0.00124249 0 
379 0.152711 0.665331 0.120318 0.0347116 0.0110983 0.00532393 0.00736485 0.00143748 0.000425834 0.0012774 
380 0.155338 0.649034 0.1281 0.0406193 0.00897902 0.0116454 0.00325998 0.00250152 0 0.000522818 
381 0.246255 0.593077 0.116522 0.0214675 0.0156143 0.00297046 0.00245134 0.00119474 0 0.000447377 
382 0.279558 0.577735 0.0950657 0.0232706 0.0167795 0.00319213 0.00263428 0.0012839 0 0.000480763 
383 0.0932166 0.717747 0.110028 0.0525115 0.0107684 0.007616 0.0062352 0.000616164 0.00126103 0 
384 0.171816 0.611963 0.126379 0.0449274 0.00993134 0.028032 0.00360573 0.00276683 0 0.000578268 
385 0.179273 0.610847 0.122681 0.0469091 0.021042 0.0125017 0.00349968 0.00268546 0 0.00056126 
386 0.0617884 0.663514 0.198596 0.0501537 0.0177827 0.0057169 0.00163251 0 0 0.000816275 
387 0.156664 0.642236 0.12641 0.0449274 0.00993134 0.0128805 0.00360573 0.00276683 0 0.000578268 
388 0.0896302 0.789507 0.0736253 0.0266014 0.00850521 0.00408002 0.00564409 0.00110162 0.00032634 0.000978943 
389 0.214617 0.668598 0.0752197 0.0216487 0.00939012 0.00680226 0.00150789 0.00221668 0 0 
390 0.145722 0.686688 0.0988424 0.0456918 0.00936995 0.00662691 0.00542544 0.000536143 0.00109726 0 
391 0.0577771 0.607415 0.263647 0.0468969 0.016628 0.00534567 0.0015265 0 0 0.00076327 
392 0.233295 0.654056 0.0708274 0.0203377 0.0147925 0.00281412 0.00232232 0.00113186 0 0.000423831 
393 0.134284 0.693371 0.108325 0.0385092 0.00851257 0.0110404 0.00309063 0.00237157 0 0.000495658 
394 0.243422 0.6256 0.087437 0.0211735 0.0154004 0.00292977 0.00241776 0.00117837 0 0.000441249 
395 0.143097 0.703201 0.107246 0.0241956 0.0104948 0.00760253 0.00168529 0.00247746 0 0 
396 0.180232 0.609907 0.122662 0.043606 0.00964635 0.0272004 0.00349968 0.00268546 0 0.00056126 
397 0.125587 0.688843 0.109436 0.0316404 0.013724 0.0253264 0.00220384 0.00323976 0 0 
398 0.164346 0.643327 0.120884 0.042974 0.00949954 0.0123205 0.00344896 0.00264654 0 0.000553126 
399 0.392919 0.522315 0.0532959 0.0153036 0.011131 0.00211755 0.00174749 0.000851695 0 0.000318922 
400 0.157228 0.686969 0.100188 0.0289665 0.0125642 0.00910162 0.0020176 0.00296598 0 0 
401 0.497714 0.482352 0.014829 0.00242173 0.00173135 0.00076029 0 0 0.000191658 0 
402 0.105012 0.696939 0.121332 0.0509894 0.0104563 0.00739525 0.00605447 0.000598304 0.00122448 0 
403 0.125587 0.688843 0.12482 0.0316404 0.013724 0.00994177 0.00220384 0.00323976 0 0 
404 0.117677 0.691469 0.121615 0.0389911 0.0124665 0.00598031 0.00827284 0.00161471 0.000478334 0.00143489 
405 0.0892216 0.729837 0.105319 0.050261 0.0103069 0.0072896 0.00596798 0.000589757 0.00120699 0 
406 0.12633 0.654077 0.145263 0.0418581 0.0133832 0.00642003 0.00888114 0.00173344 0.000513506 0.0015404 
407 0.11718 0.724789 0.10162 0.0293803 0.0127437 0.00923164 0.00204642 0.00300835 0 0 
408 0.116134 0.705336 0.103972 0.0495531 0.0101618 0.00718693 0.00588392 0.00058145 0.00118999 0 
409 0.520352 0.459654 0.01522 0.00226448 0.00161893 0.000710921 0 0 0.000179213 0 
410 0.157811 0.691813 0.0916035 0.0330971 0.0105821 0.00507631 0.0070223 0.00137062 0.000406028 0.00121799 
411 0.0706359 0.832681 0.0562741 0.026857 0.00550753 0.00389521 0.003189 0.000315137 0.000644956 0 
412 0.156664 0.627115 0.141531 0.0449274 0.00993134 0.0128805 0.00360573 0.00276683 0 0.000578268 
413 0.0932166 0.702821 0.124954 0.0525115 0.0107684 0.007616 0.0062352 0.000616164 0.00126103 0 
414 0.125587 0.688843 0.109436 0.0316404 0.0137243 0.0253261 0.00220384 0.00323976 0 0 
415 0.065176 0.62658 0.179126 0.072826 0.0292097 0.00598765 0.00898404 0.00906555 0 0.00304462 
416 0.317412 0.640498 0.0258474 0.00719947 0.00354027 0.00340468 0.00135033 0.000747921 0 0 
417 0.125587 0.704227 0.109436 0.0316404 0.013724 0.00994177 0.00220384 0.00323976 0 0 
418 0.159075 0.636763 0.128324 0.0456186 0.0100841 0.0130787 0.00366121 0.0028094 0 0.000587164 
419 0.466271 0.515562 0.0135151 0.00220715 0.00157794 0.000692923 0 0 0.000174676 0 
420 0.0918458 0.692512 0.137796 0.0517393 0.0106101 0.007504 0.00614351 0.000607103 0.00124249 0 
421 0.110313 0.699356 0.13697 0.0277922 0.0120549 0.00873263 0.0019358 0.00284574 0 0 
422 0.274679 0.599513 0.0720495 0.0322731 0.0147928 0.00281412 0.00232232 0.00113186 0 0.000423831 
423 0.124499 0.688076 0.114172 0.0412515 0.0131892 0.00632699 0.00875243 0.00170832 0.000506063 0.00151807 
424 0.0674056 0.632924 0.21665 0.0547131 0.0193993 0.00623662 0.00178092 0 0 0.000890482 
425 0.509928 0.476001 0.0104676 0.00170946 0.00122213 0.000536675 0 0 0.000135288 0 
426 0.163999 0.597376 0.169986 0.0417301 0.00897902 0.0116454 0.00325998 0.00250152 0 0.000522818 
427 0.0932166 0.687896 0.124953 0.0525115 0.0107684 0.00929289 0.0194837 0.000616164 0.00126103 0 
428 0.177541 0.627485 0.0967201 0.0564849 0.023241 0.0104648 0.00338215 0.00468101 0 0 
429 0.128215 0.678765 0.117581 0.0424829 0.0135829 0.00651586 0.00901369 0.00175931 0.00052117 0.00156339 
430 0.257391 0.595511 0.0828135 0.0238487 0.0326111 0.00329036 0.00271533 0.0013234 0 0.000495556 
431 0.118321 0.706903 0.117548 0.0298061 0.0129284 0.00936543 0.00207608 0.00305195 0 0 
432 0.246035 0.613356 0.0938657 0.0227303 0.0165328 0.00314519 0.00259554 0.00126502 0 0.000473693 
433 0.115006 0.659184 0.149227 0.0431265 0.0137887 0.00661458 0.00915027 0.00178597 0.000529066 0.00158707 
434 0.0684426 0.61194 0.23532 0.0555548 0.0196978 0.00633256 0.00180832 0 0 0.000904182 
435 0.0960849 0.709062 0.113414 0.0541272 0.0110998 0.00785034 0.00642706 0.000635123 0.00129983 0 
436 0.0813249 0.608552 0.228342 0.0538965 0.0191098 0.00614353 0.00175434 0 0 0.000877191 
437 0.131916 0.669125 0.121198 0.04379 0.0140009 0.00671634 0.00929104 0.00181344 0.000537206 0.00161149 
438 0.257391 0.610896 0.0828135 0.0237794 0.0172958 0.00329035 0.00271533 0.0013234 0 0.000495556 
439 0.0661787 0.620836 0.181882 0.0585618 0.029659 0.0214644 0.00912225 0.00920502 0 0.00309146 
440 0.106934 0.710921 0.110956 0.0400895 0.0128177 0.00614877 0.00850588 0.00166019 0.000491808 0.00147531 
441 0.147712 0.648425 0.133441 0.0423601 0.00936383 0.0121445 0.00339969 0.00260873 0 0.000545224 
442 0.110085 0.702485 0.114178 0.0412515 0.0131892 0.00632699 0.00875243 0.00170832 0.000506063 0.00151807 
443 0.123684 0.708709 0.107778 0.031161 0.0135161 0.00979114 0.00217045 0.00319067 0 0 
444 0.280105 0.633417 0.0543729 0.0156128 0.0113558 0.00216033 0.00178279 0.000868901 0 0.000325365 
445 0.257391 0.595511 0.0828161 0.0391615 0.0172958 0.00329035 0.00271533 0.0013234 0 0.000495556 
446 0.0918458 0.707074 0.10853 0.0664435 0.0106102 0.007504 0.00614351 0.000607103 0.00124249 0 
447 0.0960849 0.709062 0.113414 0.0541272 0.0110998 0.00785034 0.00642706 0.000635123 0.00129983 0 
448 0.147292 0.691952 0.103528 0.0298061 0.0129284 0.00936543 0.00207608 0.00305195 0 0 
449 0.121838 0.698131 0.121094 0.0306959 0.0133143 0.009645 0.00213805 0.00314305 0 0 
450 0.116776 0.684242 0.121221 0.04379 0.0140009 0.00671634 0.00929104 0.00181344 0.000537206 0.00161149 
451 0.116776 0.684265 0.121198 0.04379 0.0140009 0.00671634 0.00929104 0.00181344 0.000537206 0.00161149 
452 0.106591 0.706832 0.10873 0.0517392 0.0106101 0.007504 0.00614351 0.000607103 0.00124249 0 
453 0.0746306 0.305827 0.224798 0.172072 0 0.196759 0.0259127 0 0 0 
454 0.340359 0.595044 0.0456057 0.00841784 0.00413939 0.00398085 0.00157885 0.000874492 0 0 
455 0.246453 0.640898 0.0708274 0.0203377 0.0147925 0.00281412 0.00232232 0.00113186 0 0.000423831 
456 0.094629 0.71347 0.111695 0.0533071 0.0109316 0.0077314 0.00632968 0.0006255 0.00128014 0 
457 0.159075 0.636763 0.128324 0.0456186 0.0100841 0.0130787 0.00366121 0.0028094 0 0.000587164 
458 0.102756 0.721335 0.102387 0.0488648 0.0100206 0.00708711 0.0058022 0.000573375 0.00117346 0 
459 0.276479 0.609213 0.0719286 0.0206088 0.0149897 0.00285164 0.00235329 0.00114695 0 0.000429482 
460 0.340359 0.610428 0.0302216 0.00841784 0.00413939 0.00398085 0.00157885 0.000874492 0 0 
461 0.257391 0.595511 0.0981982 0.0237794 0.0172958 0.00329035 0.00271533 0.0013234 0 0.000495556 
462 0.253491 0.60164 0.0967103 0.0234191 0.0170338 0.0032405 0.00267419 0.00130335 0 0.000488048 
463 0.0771162 0.693981 0.135494 0.0411975 0.0290512 0.0130811 0.00422769 0.00585127 0 0 
464 0.115006 0.689049 0.119362 0.0431265 0.0137887 0.00661458 0.00915027 0.00178597 0.000529066 0.00158707 
465 0.239006 0.624403 0.0911839 0.0220809 0.0160604 0.00305533 0.00252138 0.00122887 0 0.000460159 
466 0.239426 0.644879 0.0727417 0.0208873 0.0151923 0.00289017 0.00238509 0.00116245 0 0.000435286 
467 0.11859 0.670314 0.134491 0.0431491 0.0137887 0.00661458 0.00915027 0.00178597 0.000529066 0.00158707 
468 0.159075 0.636763 0.128324 0.0456186 0.0100841 0.0130787 0.00366121 0.0028094 0 0.000587164 
469 0.257391 0.610896 0.0828135 0.0237794 0.0172958 0.00329035 0.00271533 0.0013234 0 0.000495556 
470 0.237604 0.680074 0.0517595 0.0148621 0.0108099 0.00205647 0.00169708 0.000827127 0 0.000309723 
471 0.246035 0.628062 0.07916 0.0227303 0.0165328 0.00314519 0.00259554 0.00126502 0 0.000473693 
472 0.0806754 0.695241 0.126363 0.0430989 0.030392 0.0136848 0.00442281 0.00612132 0 0 
473 0.253491 0.616791 0.0815588 0.0234191 0.0170338 0.0032405 0.00267419 0.00130335 0 0.000488048 
474 0.367934 0.587012 0.0276676 0.00770647 0.00378958 0.00364444 0.00144543 0.000800592 0 0 
475 0 0.28933 0.57001 0 0 0.140659 0 0 0 0 
476 0.156664 0.642267 0.126379 0.0449274 0.00993134 0.0128805 0.00360573 0.00276683 0 0.000578268 
477 0.116776 0.668881 0.136583 0.04379 0.0140009 0.00671634 0.00929104 0.00181344 0.000537206 0.00161149 
478 0.211076 0.687003 0.0640819 0.0184008 0.0133837 0.00254611 0.00210115 0.00102406 0 0.000383466 
479 0.0566289 0.692877 0.181135 0.0457097 0.016207 0.00521034 0.00148786 0 0 0.000743947 
480 0.114483 0.693764 0.117422 0.0418581 0.0133832 0.00642003 0.00888114 0.00173344 0.000513505 0.0015404 
481 0.147156 0.70729 0.0935964 0.0270608 0.0117376 0.00850283 0.00188486 0.00277085 0 0 
482 0.125587 0.688843 0.109436 0.0316404 0.013724 0.0119081 0.0156221 0.00323976 0 0 
483 0.521903 0.47445 0.00286391 0.000783062 0 0 0 0 0 0 
484 0.12108 0.663252 0.10841 0.081151 0.0106101 0.007504 0.00614351 0.000607103 0.00124249 0 
485 0.0715027 0.677261 0.153551 0.0494353 0.0250369 0.00513227 0.0077006 0.00777047 0 0.00260967 
486 0.103507 0.715558 0.105313 0.050261 0.0103069 0.0072896 0.00596798 0.000589757 0.00120699 0 
487 0.123684 0.693557 0.107778 0.0463125 0.0135161 0.00979114 0.00217045 0.00319067 0 0 
488 0.25961 0.62774 0.0708274 0.0203377 0.0147925 0.00281412 0.00232232 0.00113186 0 0.000423831 
489 0.0684426 0.611892 0.219983 0.0709395 0.0196978 0.00633256 0.00180832 0 0 0.000904182 
490 0.253491 0.601628 0.0967025 0.0234391 0.0170338 0.0032405 0.00267419 0.00130335 0 0.000488048 
491 0.0838083 0.629549 0.207232 0.0523343 0.0185559 0.00596546 0.00170349 0 0 0.000851765 
492 0.0549402 0.655614 0.141523 0.093764 0.0213422 0.0167809 0.0100841 0.00558787 0.000362981 0 
493 0.494433 0.502605 0.00230957 0.000652552 0 0 0 0 0 0 
494 0.277893 0.545187 0.132153 0.0217699 0.0158342 0.00301229 0.00248587 0.00121157 0 0.000453678 
495 0.214516 0.613139 0.108325 0.0385092 0.00851257 0.0110404 0.00309063 0.00237157 0 0.000495658 
496 0.349614 0.604019 0.0284771 0.00792985 0.00389943 0.00375008 0.00148732 0.000823797 0 0 
497 0.031162 0.524381 0.133574 0.237867 0.031752 0.0206317 0 0 0 0.0206319 
498 0.0932166 0.702821 0.110028 0.0525115 0.0107685 0.0225413 0.00623529 0.000616164 0.00126103 0 
499 0.246035 0.613354 0.0938686 0.0227303 0.0165328 0.00314519 0.00259554 0.00126502 0 0.000473693 
500 0.579516 0.417271 0.00251908 0.000693852 0 0 0 0 0 0 
501 0.159075 0.621378 0.128324 0.0456186 0.0254687 0.0130787 0.00366121 0.0028094 0 0.000587164 
502 0.11329 0.693647 0.117624 0.0424829 0.0135829 0.00651586 0.0090137 0.00175931 0.00052117 0.00156339 
503 0.0932168 0.717746 0.110028 0.0525115 0.0107684 0.007616 0.0062352 0.000616164 0.00126103 0 
504 0.277129 0.611667 0.069925 0.0200735 0.0146004 0.00277757 0.00229216 0.00111716 0 0.000418327 
505 0.094629 0.698319 0.126847 0.0533071 0.0109316 0.0077314 0.00632968 0.0006255 0.00128014 0 
506 0.115006 0.689049 0.119362 0.0431265 0.0137887 0.00661458 0.00915027 0.00178597 0.000529066 0.00158707 
507 0.100632 0.723459 0.102387 0.0488648 0.0100206 0.00708711 0.0058022 0.000573375 0.00117346 0 
508 0.094629 0.71347 0.111695 0.0533071 0.0109316 0.0077314 0.00632968 0.0006255 0.00128014 0 
509 0.346278 0.605458 0.0340746 0.00628919 0.00309265 0.0029742 0.0011796 0.000653356 0 0 
510 0.0614516 0.619345 0.211542 0.0545871 0.0275405 0.0056455 0.00847066 0.00854752 0 0.00287064 
511 0.159075 0.621378 0.143708 0.0456186 0.0100841 0.0130787 0.00366121 0.0028094 0 0.000587164 
512 0.301462 0.66177 0.0225793 0.00628919 0.00309265 0.0029742 0.0011796 0.000653356 0 0 
513 0.300849 0.600744 0.0618723 0.0177662 0.0129222 0.00245831 0.00202869 0.000988749 0 0.000370243 
514 0.275007 0.617314 0.0679472 0.0193208 0.0140529 0.00267341 0.00220621 0.00107526 0 0.000402639 
515 0.477805 0.476483 0.0408103 0.00232525 0.0016621 0.000729878 0 0 0.000183992 0 
516 0.253491 0.60164 0.0815589 0.0385705 0.0170338 0.0032405 0.00267419 0.00130335 0 0.000488048 
517 0.225456 0.57529 0.192348 0.00592963 0.000629692 0.000276469 0 0 6.96938e-05 0 
518 0.340359 0.610428 0.0302216 0.00841784 0.00413939 0.00398085 0.00157885 0.000874492 0 0 
519 0.475875 0.503324 0.0154739 0.00252702 0.00180663 0.000793346 0 0 0.000199991 0 
520 0.46247 0.503244 0.029109 0.00245584 0.00175574 0.000770998 0 0 0.000194357 0 
521 0.129059 0.715138 0.100188 0.0289665 0.0125642 0.00910162 0.0020176 0.00296598 0 0 
522 0.199266 0.619725 0.120892 0.0361611 0.00799351 0.0103672 0.00290218 0.00222696 0 0.000465435 
523 0.402763 0.569897 0.0167898 0.00467658 0.00229966 0.00221158 0.00087714 0.000485829 0 0 
524 0.0674219 0.617756 0.21665 0.0548152 0.0344488 0.00623662 0.00178092 0 0 0.000890482 
525 0.094629 0.698319 0.112633 0.0674187 0.0110336 0.0077314 0.00632968 0.0006255 0.00128014 0 
526 0.125599 0.704215 0.109436 0.0316404 0.013724 0.00994177 0.00220384 0.00323976 0 0 
527 0.335046 0.617421 0.0333439 0.00628987 0.00309265 0.0029742 0.0011796 0.000653356 0 0 
528 0.14035 0.672484 0.114652 0.0481955 0.00988337 0.00699003 0.00572272 0.00056552 0.00115739 0 
529 0.339096 0.565765 0.0598218 0.017174 0.0124914 0.00237637 0.00196107 0.000955791 0 0.000357902 
530 0.138836 0.678406 0.122929 0.031161 0.0135161 0.00979114 0.00217045 0.00319067 0 0 
531 0.0442343 0.635028 0.159953 0.101917 0.023198 0.0182401 0.010961 0.00607377 0.000394544 0 
532 0.139728 0.68094 0.112717 0.0400704 0.00885768 0.011488 0.00321592 0.00246772 0 0.000515753 
533 0.125587 0.689367 0.124296 0.0316404 0.013724 0.00994177 0.00220384 0.00323976 0 0 
534 0.094629 0.698319 0.12633 0.0538236 0.0109316 0.0077314 0.00632968 0.0006255 0.00128014 0 
535 0.253491 0.616791 0.0815588 0.0234191 0.0170338 0.0032405 0.00267419 0.00130335 0 0.000488048 
536 0.367358 0.571815 0.0457735 0.00667268 0.00328122 0.00315555 0.00125153 0.000693195 0 0 
537 0.199422 0.620473 0.12142 0.0353001 0.00780319 0.0101204 0.00283308 0.00217394 0 0.000454353 
538 0.2772 0.618393 0.0656449 0.0188496 0.0137101 0.00260821 0.0021524 0.00104904 0 0.000392819 
539 0.146908 0.695108 0.0992983 0.0353001 0.00780319 0.0101204 0.00283308 0.00217394 0 0.000454353 
540 0.128067 0.699618 0.115627 0.0296584 0.0127437 0.00923164 0.00204642 0.00300835 0 0 
541 0.159075 0.636763 0.128324 0.0456186 0.0100841 0.0130787 0.00366121 0.0028094 0 0.000587164 
542 0.582195 0.414487 0.00258672 0.000730858 0 0 0 0 0 0 
543 0.0306969 0.531477 0.131584 0.234316 0.0312781 0.0203238 0 0 0 0.0203239 
544 0.115006 0.673898 0.134514 0.0431265 0.0137887 0.00661458 0.00915027 0.00178597 0.000529066 0.00158707 
545 0.390508 0.566841 0.0261922 0.00729546 0.00358747 0.00345007 0.00136834 0.000757893 0 0 
546 0.0626076 0.628036 0.200346 0.0551669 0.0279397 0.00572732 0.00859343 0.00867139 0 0.00291224 
547 0.0813249 0.608552 0.213416 0.0688219 0.0191098 0.00614353 0.00175434 0 0 0.000877191 
548 0.0960849 0.693677 0.113414 0.0695118 0.0110998 0.00785034 0.00642706 0.000635123 0.00129983 0 
549 0.115006 0.673898 0.134514 0.0431265 0.0137887 0.00661458 0.00915027 0.00178597 0.000529066 0.00158707 
550 0.0684426 0.611892 0.219983 0.0709394 0.0196978 0.00633256 0.00180832 0 0 0.000904182 
551 0.141155 0.705205 0.0987962 0.0285642 0.0123897 0.00897521 0.00198958 0.00292478 0 0 
552 0.0684426 0.611892 0.219983 0.0709394 0.0196978 0.00633256 0.00180832 0 0 0.000904182 
553 0.100632 0.723459 0.102387 0.0488648 0.0100206 0.00708711 0.0058022 0.000573375 0.00117346 0 
554 0.0469564 0.627911 0.154453 0.108189 0.0246256 0.0193626 0.0116355 0.00644754 0.000418824 0 
555 0.0998742 0.729963 0.103657 0.037452 0.0119744 0.00574424 0.00794628 0.00155097 0.000459452 0.00137825 
556 0.125587 0.688843 0.12482 0.0316404 0.013724 0.00994177 0.00220384 0.00323976 0 0 
557 0.0684426 0.611892 0.235368 0.0555548 0.0196978 0.00633256 0.00180832 0 0 0.000904182 
558 0.0312652 0.509127 0.148726 0.237867 0.031752 0.0206317 0 0 0 0.0206319 
559 0.242469 0.633453 0.0780128 0.0224009 0.0162932 0.00309961 0.00255792 0.00124668 0 0.000466828 
560 0.0961824 0.708965 0.113414 0.0541272 0.0110998 0.00785034 0.00642706 0.000635123 0.00129983 0 
561 0.0960849 0.693945 0.128531 0.0541272 0.0110998 0.00785034 0.00642706 0.000635123 0.00129983 0 
562 0.0469564 0.627911 0.154453 0.108189 0.0246256 0.0193626 0.0116355 0.00644754 0.000418824 0 
563 0.10222 0.691062 0.149641 0.0376153 0.013337 0.00428767 0.00122438 0 0 0.000612206 
564 0.114974 0.715138 0.114272 0.0289665 0.0125642 0.00910162 0.0020176 0.00296598 0 0 
565 0.159075 0.636763 0.128324 0.0456186 0.0100841 0.0130787 0.00366121 0.0028094 0 0.000587164 
566 0.109553 0.723776 0.0970193 0.046293 0.00949324 0.00671411 0.00549682 0.000543197 0.0011117 0 
567 0.0694117 0.789821 0.0819501 0.0390919 0.00801651 0.00566969 0.00464176 0.0004587 0.000938769 0 
568 0.128782 0.727526 0.0875323 0.0316261 0.0101117 0.00485069 0.0067102 0.00130971 0.000387982 0.00116385 
569 0.116776 0.684265 0.121198 0.04379 0.0140009 0.00671634 0.00929104 0.00181344 0.000537206 0.00161149 
570 0.123684 0.678406 0.138081 0.031161 0.0135161 0.00979114 0.00217045 0.00319067 0 0 
571 0.116776 0.684265 0.121198 0.04379 0.0140009 0.00671634 0.00929104 0.00181344 0.000537206 0.00161149 
572 0.121432 0.739386 0.0810115 0.0386623 0.00792842 0.00560739 0.00459075 0.000453659 0.000928453 0 
573 0.116868 0.71072 0.116001 0.0293806 0.0127437 0.00923164 0.00204642 0.00300835 0 0 
574 0.134752 0.70257 0.104608 0.0302445 0.0131185 0.00950316 0.00210661 0.00309683 0 0 
575 0.116086 0.709153 0.106458 0.0384642 0.0122981 0.00589949 0.00816105 0.00159289 0.00047187 0.0014155 
576 0.123684 0.693558 0.122929 0.031161 0.0135161 0.00979114 0.00217045 0.00319067 0 0 
577 0.159075 0.621378 0.143708 0.0456186 0.0100841 0.0130787 0.00366121 0.0028094 0 0.000587164 
578 0.237037 0.63783 0.0815918 0.0211735 0.0154004 0.00292977 0.00241776 0.00117837 0 0.000441249 
579 0.147271 0.680384 0.108325 0.0385092 0.00851257 0.0110404 0.00309063 0.00237157 0 0.000495658 
580 0.0970061 0.753989 0.0867282 0.0413914 0.00848807 0.0060032 0.00491481 0.000485682 0.00099399 0 
581 0.0623422 0.657309 0.171338 0.0551669 0.0279397 0.00572732 0.00859343 0.00867139 0 0.00291224 
582 0.340049 0.600515 0.0412823 0.00804647 0.00395677 0.00380523 0.0015092 0.000835912 0 0 
583 0.0621367 0.648338 0.137551 0.0963329 0.0219269 0.0172407 0.0103604 0.00574096 0.000372925 0 
584 0.0674056 0.632924 0.21665 0.0547131 0.0193993 0.00623662 0.00178092 0 0 0.000890482 
585 0.325681 0.629265 0.0276676 0.00770647 0.00378958 0.00364444 0.00144543 0.000800592 0 0 
586 0.0830571 0.722736 0.109517 0.0373524 0.0263397 0.0118602 0.00383311 0.00530515 0 0 
587 0.0801289 0.599603 0.239689 0.053104 0.0188287 0.00605319 0.00172854 0 0 0.000864291 
588 0.115292 0.673612 0.119362 0.0432789 0.0287879 0.00661458 0.00915027 0.00178597 0.000529066 0.00158707 
589 0.321147 0.634424 0.0272844 0.00759944 0.00373695 0.00359383 0.00142535 0.000789472 0 0 
590 0.115006 0.689049 0.119362 0.0431265 0.0137887 0.00661458 0.00915027 0.00178597 0.000529066 0.00158707 
591 0.065176 0.62658 0.179126 0.072826 0.0292097 0.00598765 0.00898404 0.00906555 0 0.00304462 
592 0.335202 0.616331 0.0297637 0.0082903 0.00407667 0.00392054 0.00155493 0.000861243 0 0 
593 0.156664 0.642267 0.126379 0.0449274 0.00993134 0.0128805 0.00360573 0.00276683 0 0.000578268 
594 0.123684 0.708709 0.107778 0.031161 0.0135161 0.00979114 0.00217045 0.00319067 0 0 
595 0.187885 0.611095 0.13159 0.0417635 0.00923195 0.0119734 0.00335181 0.00257199 0 0.000537545 
596 0.340049 0.612909 0.0288883 0.00804647 0.00395677 0.00380523 0.0015092 0.000835912 0 0 
597 0.156664 0.642267 0.126379 0.0449274 0.00993134 0.0128805 0.00360573 0.00276683 0 0.000578268 
598 0.125587 0.688843 0.12482 0.0316404 0.013724 0.00994177 0.00220384 0.00323976 0 0 
599 0.155044 0.677536 0.112577 0.0285642 0.0123897 0.00897521 0.00198958 0.00292478 0 0 
600 0.130158 0.673898 0.119362 0.0431265 0.0137887 0.00661458 0.00915027 0.00178597 0.000529066 0.00158707 
601 0.065176 0.62658 0.179126 0.072826 0.0292097 0.00598765 0.00898404 0.00906555 0 0.00304462 
602 0.125587 0.688843 0.109436 0.0316404 0.0137617 0.0252887 0.00220384 0.00323976 0 0 
603 0.0707632 0.655955 0.202122 0.046897 0.016628 0.00534567 0.0015265 0 0 0.00076327 
604 0.076835 0.613831 0.200323 0.0551669 0.0279397 0.00572732 0.00859343 0.00867139 0 0.00291224 
605 0.108142 0.687896 0.110028 0.0674368 0.0107685 0.007616 0.0062352 0.000616164 0.00126103 0 
606 0.152057 0.610225 0.150386 0.0584446 0.00963924 0.0125017 0.00349968 0.00268546 0 0.00056126 
607 0.349837 0.60293 0.033363 0.00614791 0.00302315 0.00290736 0.00115309 0.000638674 0 0 
608 0.551959 0.444382 0.002853 0.000806093 0 0 0 0 0 0 
609 0.116776 0.684265 0.121198 0.04379 0.0140009 0.00671634 0.00929104 0.00181344 0.000537206 0.00161149 
610 0.16372 0.66469 0.118228 0.0277929 0.0120549 0.00873263 0.0019358 0.00284574 0 0 
611 0.125587 0.688843 0.12482 0.0316404 0.013724 0.00994177 0.00220384 0.00323976 0 0 
612 0.415231 0.544742 0.0247872 0.00675506 0.00332173 0.00319451 0.00126698 0.000701753 0 0 
613 0.125587 0.688843 0.109436 0.047025 0.013724 0.00994177 0.00220384 0.00323976 0 0 
614 0.325777 0.612476 0.0435937 0.00804647 0.00395677 0.00380523 0.0015092 0.000835912 0 0 
615 0.0883393 0.627026 0.209575 0.0494666 0.0175391 0.00563858 0.00161015 0 0 0.000805093 
616 0.0540892 0.554789 0.117545 0.209323 0.0279417 0.0181559 0 0 0 0.018156 
617 0.116776 0.683491 0.121972 0.04379 0.0140009 0.00671634 0.00929104 0.00181344 0.000537206 0.00161149 
618 0.159075 0.621378 0.143708 0.0456186 0.0100841 0.0130787 0.00366121 0.0028094 0 0.000587164 
619 0.115006 0.689049 0.119362 0.0431265 0.0137887 0.00661458 0.00915027 0.00178597 0.000529066 0.00158707 
620 0.0914338 0.633792 0.198672 0.0501537 0.0177827 0.0057169 0.00163251 0 0 0.000816275 
621 0.113926 0.692869 0.117765 0.0424829 0.0135829 0.00651586 0.00901369 0.00175931 0.00052117 0.00156339 
622 0.0968529 0.647169 0.123905 0.0837179 0.0190555 0.014983 0.00900367 0.00498917 0.00032409 0 
623 0.461254 0.536126 0.00204214 0.000576993 0 0 0 0 0 0 
624 0.123684 0.678406 0.107778 0.0463283 0.0286518 0.00979114 0.00217045 0.00319067 0 0 
625 0.094629 0.683167 0.141998 0.0533071 0.0109316 0.0077314 0.00632968 0.0006255 0.00128014 0 
626 0.1117 0.702825 0.113269 0.0406622 0.0130008 0.00623661 0.0086274 0.00168391 0.000498834 0.00149638 
627 0.0966069 0.73452 0.0982919 0.0469103 0.00961981 0.00680363 0.00557011 0.00055044 0.00112652 0 
628 0.149853 0.601774 0.176929 0.042975 0.00949954 0.0123205 0.00344896 0.00264654 0 0.000553126 
629 0.0469564 0.612532 0.169832 0.108189 0.0246256 0.0193626 0.0116355 0.00644754 0.000418824 0 
630 0.330777 0.616345 0.0525266 0.000351374 0 0 0 0 0 0 
631 0.0479918 0.448744 0.451663 0.0357674 0.0108505 0.00348828 0.000996108 0 0 0.000498066 
632 0.063259 0.652269 0.173858 0.0559782 0.0283506 0.00581154 0.0087198 0.00879891 0 0.00295507 
633 0.253491 0.60164 0.0967103 0.0234191 0.0170338 0.0032405 0.00267419 0.00130335 0 0.000488048 
634 0.0455548 0.639018 0.149843 0.10496 0.0238905 0.0187846 0.0112882 0.00625508 0.000406322 0 
635 0.502952 0.477912 0.0142359 0.00232486 0.0016621 0.000729879 0 0 0.000183992 0 
636 0.330199 0.607132 0.0293194 0.00816657 0.0189412 0.00386202 0.00153172 0.000848388 0 0 
637 0.169266 0.617741 0.124493 0.0591822 0.00978311 0.0126883 0.00355192 0.00272554 0 0.000569637 
638 0.113377 0.732983 0.0987962 0.0285642 0.0123897 0.00897521 0.00198958 0.00292478 0 0 
639 0.115006 0.658746 0.149665 0.0431265 0.0137887 0.00661458 0.00915027 0.00178597 0.000529066 0.00158707 
640 0.553533 0.442697 0.00293945 0.00083052 0 0 0 0 0 0 
641 0.090515 0.71114 0.121627 0.0509894 0.0104563 0.00739525 0.00605447 0.000598304 0.00122448 0 
642 0.154381 0.651639 0.128338 0.0369656 0.0118189 0.00566964 0.00784309 0.00153083 0.000453485 0.00136035 
643 0.159075 0.636763 0.128324 0.0456186 0.0100841 0.0130787 0.00366121 0.0028094 0 0.000587164 
644 0.0663995 0.623477 0.228342 0.0538965 0.0191098 0.00614353 0.00175434 0 0 0.000877191 
645 0.159075 0.621458 0.143628 0.0456186 0.0100841 0.0130787 0.00366121 0.0028094 0 0.000587164 
646 0.0932166 0.717669 0.110106 0.0525115 0.0107684 0.007616 0.0062352 0.000616164 0.00126103 0 
647 0.266626 0.617679 0.0727416 0.0208873 0.0151923 0.00289017 0.00238509 0.00116245 0 0.000435286 
648 0.181702 0.676463 0.0912101 0.026367 0.0114367 0.00828481 0.00183653 0.0026998 0 0 
649 0.0960849 0.693678 0.128798 0.0541272 0.0110998 0.00785034 0.00642706 0.000635123 0.00129983 0 
650 0.415638 0.566194 0.0135151 0.00220715 0.00157794 0.000692923 0 0 0.000174676 0 
651 0.257391 0.595511 0.0828135 0.0390561 0.0174038 0.00329035 0.00271533 0.0013234 0 0.000495556 
652 0.340049 0.598203 0.0435941 0.00804647 0.00395677 0.00380523 0.0015092 0.000835912 0 0 
653 0.123905 0.708488 0.107778 0.031161 0.0135161 0.00979114 0.00217045 0.00319067 0 0 
654 0.257391 0.595511 0.0828136 0.039164 0.0172958 0.00329035 0.00271533 0.0013234 0 0.000495556 
655 0.065176 0.641732 0.179126 0.0576745 0.0292097 0.00598765 0.00898404 0.00906555 0 0.00304462 
656 0.0789675 0.57642 0.265201 0.0523343 0.0185559 0.00596546 0.00170349 0 0 0.000851765 
657 0.0306969 0.53148 0.131581 0.234316 0.0312781 0.0203238 0 0 0 0.0203239 
658 0.209469 0.620395 0.106936 0.0380155 0.00840344 0.0108989 0.00305101 0.00234117 0 0.000489304 
659 0.215668 0.706427 0.0517539 0.01362 0.00590769 0.00427957 0.000948672 0.0013946 0 0 
660 0.159075 0.621378 0.143708 0.0456186 0.0100841 0.0130787 0.00366121 0.0028094 0 0.000587164 
661 0.0626587 0.64469 0.215478 0.0508601 0.0180332 0.00579742 0.0016555 0 0 0.000827772 
662 0.0986126 0.714189 0.114683 0.0481955 0.00988337 0.00699003 0.00572272 0.00056552 0.00115739 0 
663 0.0661787 0.620836 0.197266 0.0585618 0.029659 0.00607977 0.00912225 0.00920502 0 0.00309146 
664 0.115006 0.689049 0.119362 0.0431265 0.0137887 0.00661458 0.00915027 0.00178597 0.000529066 0.00158707 
665 0.096737 0.646255 0.185848 0.0468969 0.016628 0.00534567 0.0015265 0 0 0.00076327 
666 0.0644749 0.634391 0.221708 0.0523492 0.0185559 0.00596546 0.00170349 0 0 0.000851765 
667 0.065176 0.62658 0.194277 0.0576745 0.0292097 0.00598765 0.00898404 0.00906555 0 0.00304462 
668 0.0932166 0.687896 0.110029 0.0823612 0.0107684 0.007616 0.0062352 0.000616164 0.00126103 0 
669 0.154326 0.637812 0.134287 0.0442568 0.00978311 0.0126883 0.00355192 0.00272554 0 0.000569637 
670 0.116776 0.684264 0.121199 0.04379 0.0140009 0.00671634 0.00929104 0.00181344 0.000537206 0.00161149 
671 0.116776 0.668881 0.136341 0.0440311 0.0140009 0.00671634 0.00929104 0.00181344 0.000537206 0.00161149 
672 0.507206 0.489431 0.00262167 0.000740734 0 0 0 0 0 0 
673 0.121838 0.698131 0.121094 0.0306959 0.0133143 0.009645 0.00213805 0.00314305 0 0 
674 0.278415 0.54201 0.130192 0.029945 0.0133837 0.00254611 0.00210115 0.00102406 0 0.000383466 
675 0.570896 0.371774 0.0365558 0.0101024 0.0073479 0.00139786 0.00115357 0.00056223 0 0.00021053 
676 0.0960849 0.693677 0.113414 0.0541272 0.0264844 0.00785034 0.00642706 0.000635123 0.00129983 0 
677 0.114246 0.620767 0.16195 0.0521441 0.0264087 0.00541349 0.00812255 0.00819625 0 0.00275267 
678 0.124009 0.693457 0.122705 0.031161 0.0135161 0.00979114 0.00217045 0.00319067 0 0 
679 0.126568 0.668545 0.115851 0.056564 0.0133832 0.00642003 0.00888114 0.00173344 0.000513506 0.0015404 
680 0.164245 0.658814 0.111214 0.0395361 0.00873957 0.0113349 0.00317305 0.00243481 0 0.000508876 
681 0.116776 0.684265 0.121198 0.04379 0.0140009 0.00671634 0.00929104 0.00181344 0.000537206 0.00161149 
682 0.257391 0.595511 0.0828135 0.0237801 0.0326798 0.00329035 0.00271533 0.0013234 0 0.000495556 
683 0.107024 0.666272 0.141433 0.0541709 0.0128177 0.00614877 0.00850588 0.00166019 0.000491808 0.00147531 
684 0.094629 0.71347 0.111695 0.0533071 0.0109316 0.0077314 0.00632968 0.0006255 0.00128014 0 
685 0.405951 0.556433 0.0263936 0.00497418 0.002446 0.00235232 0.000932958 0.000516745 0 0 
686 0.139998 0.683793 0.115351 0.0366075 0.0080922 0.0104952 0.00293801 0.00225446 0 0.000471181 
687 0.115006 0.673898 0.119362 0.058278 0.0137887 0.00661458 0.00915027 0.00178597 0.000529066 0.00158707 
688 0.116776 0.684265 0.121198 0.04379 0.0140009 0.00671634 0.00929104 0.00181344 0.000537206 0.00161149 
689 0.159075 0.636763 0.128324 0.0456186 0.0100841 0.0130787 0.00366121 0.0028094 0 0.000587164 
690 0.141036 0.668783 0.115851 0.0418581 0.0133832 0.00642003 0.00888114 0.00173344 0.000513505 0.0015404 
691 0.0611739 0.61862 0.152113 0.10655 0.0242525 0.0190692 0.0114592 0.00634985 0.000412478 0 
692 0.0806754 0.67986 0.141745 0.0430989 0.030392 0.0136848 0.00442281 0.00612132 0 0 
693 0.0436024 0.591863 0.14988 0.156628 0.0228666 0.0179795 0.0108044 0.005987 0.000388908 0 
694 0.307269 0.634414 0.0272834 0.00759948 0.0176258 0.00359383 0.00142535 0.000789472 0 0 
695 0.157825 0.667413 0.106458 0.0384642 0.0122981 0.00589949 0.00816105 0.00159289 0.00047187 0.0014155 
696 0.0806754 0.695237 0.126368 0.0430989 0.030392 0.0136848 0.00442282 0.00612132 0 0 
697 0.223817 0.594394 0.114261 0.0406193 0.00897902 0.0116454 0.00325998 0.00250152 0 0.000522818 
698 0.159075 0.621378 0.128324 0.0456186 0.0100842 0.0284632 0.00366121 0.0028094 0 0.000587164 
699 0.120046 0.717276 0.104608 0.0302445 0.0131185 0.00950316 0.00210661 0.00309683 0 0 
700 0.0684426 0.627277 0.219983 0.0555548 0.0196978 0.00633256 0.00180832 0 0 0.000904182 
701 0.116776 0.668881 0.136583 0.0437902 0.0140009 0.00671634 0.00929104 0.00181344 0.000537206 0.00161149 
702 0.065176 0.641704 0.179154 0.0576745 0.0292097 0.00598765 0.00898404 0.00906555 0 0.00304462 
703 0.0794531 0.684707 0.124449 0.0424459 0.045083 0.0134775 0.0043558 0.00602858 0 0 
704 0.116776 0.668881 0.136583 0.04379 0.0140009 0.00671634 0.00929104 0.00181344 0.000537206 0.00161149 
705 0.111624 0.698003 0.116043 0.0418581 0.0133832 0.00642003 0.00888114 0.00173344 0.000513506 0.0015404 
706 0.094629 0.698319 0.126847 0.0533071 0.0109316 0.0077314 0.00632968 0.0006255 0.00128014 0 
707 0.0684426 0.627257 0.220003 0.0555548 0.0196978 0.00633256 0.00180832 0 0 0.000904182 
708 0.0932166 0.717656 0.11012 0.0525115 0.0107684 0.007616 0.0062352 0.000616164 0.00126103 0 
709 0.0932166 0.703291 0.124484 0.0525115 0.0107684 0.007616 0.0062352 0.000616164 0.00126103 0 
710 0.340359 0.610428 0.0302216 0.00841784 0.00413939 0.00398085 0.00157885 0.000874492 0 0 
711 0.046245 0.618397 0.167215 0.1066 0.0242525 0.0190692 0.0114592 0.00634985 0.000412478 0 
712 0.065176 0.62658 0.194277 0.0576745 0.0292097 0.00598765 0.00898404 0.00906555 0 0.00304462 
713 0.335121 0.604388 0.0426007 0.00792985 0.00389943 0.00375008 0.00148732 0.000823797 0 0 
714 0.046245 0.633549 0.152113 0.10655 0.0242525 0.0190692 0.0114592 0.00634985 0.000412478 0 
715 0.13476 0.689834 0.117336 0.0302445 0.0131185 0.00950316 0.00210661 0.00309683 0 0 
716 0.130158 0.658746 0.134514 0.0431265 0.0137887 0.00661458 0.00915027 0.00178597 0.000529066 0.00158707 
717 0.230464 0.597147 0.112997 0.0357254 0.0078972 0.0102423 0.00286721 0.00220013 0 0.000459828 
718 0.0626587 0.658774 0.201393 0.0508601 0.0180332 0.00579742 0.0016555 0 0 0.000827772 
719 0.116776 0.668881 0.136583 0.04379 0.0140009 0.00671634 0.00929104 0.00181344 0.000537206 0.00161149 
720 0.0684426 0.627276 0.219984 0.0555548 0.0196978 0.00633256 0.00180832 0 0 0.000904182 
721 0.253479 0.603503 0.0955779 0.0230696 0.0167795 0.00319213 0.00263428 0.0012839 0 0.000480763 
722 0.159075 0.621378 0.128324 0.0456186 0.0100841 0.0130787 0.0069085 0.0149467 0 0.000587164 
723 0.143609 0.671706 0.116219 0.0411835 0.00910372 0.0118071 0.00330526 0.00253626 0 0.000530079 
724 0.0661787 0.620836 0.197266 0.0585618 0.029659 0.00607977 0.00912225 0.00920502 0 0.00309146 
725 0.166762 0.638082 0.122662 0.043606 0.00963924 0.0125017 0.00349968 0.00268546 0 0.00056126 
726 0.0684426 0.611892 0.235368 0.0555549 0.0196978 0.00633256 0.00180832 0 0 0.000904182 
727 0.115006 0.689049 0.119362 0.0431265 0.0137887 0.00661458 0.00915027 0.00178597 0.000529066 0.00158707 
728 0.11329 0.69369 0.117581 0.0424829 0.0135829 0.00651586 0.00901369 0.00175931 0.00052117 0.00156339 
729 0.127814 0.667243 0.129756 0.0427151 0.0133832 0.00642003 0.00888114 0.00173344 0.000513506 0.0015404 
730 0.0684426 0.611892 0.235368 0.0555548 0.0196978 0.00633256 0.00180832 0 0 0.000904182 
731 0.149649 0.687673 0.104608 0.0302445 0.0131185 0.00950316 0.00210661 0.00309683 0 0 
732 0.0661787 0.620841 0.19726 0.0585633 0.029659 0.00607977 0.00912225 0.00920502 0 0.00309146 
733 0.249707 0.586192 0.11666 0.0230697 0.0167795 0.00319213 0.00263428 0.0012839 0 0.000480763 
734 0.0663995 0.638403 0.213416 0.0538965 0.0191098 0.00614353 0.00175434 0 0 0.000877191 
735 0.11329 0.69369 0.117581 0.0424829 0.0135829 0.00651586 0.00901369 0.00175931 0.00052117 0.00156339 
736 0.331243 0.619327 0.0310057 0.00816656 0.00401583 0.00386202 0.00153172 0.000848388 0 0 
737 0.156664 0.613323 0.155323 0.0449274 0.00993134 0.0128805 0.00360573 0.00276683 0 0.000578268 
738 0.257391 0.610896 0.0828135 0.0237794 0.0172958 0.00329035 0.00271533 0.0013234 0 0.000495556 
739 0.0931926 0.674488 0.122591 0.0567377 0.0294848 0.0132763 0.00429079 0.0059386 0 0 
740 0.0684426 0.611892 0.235368 0.0555548 0.0196978 0.00633256 0.00180832 0 0 0.000904182 
741 0.12633 0.683489 0.115851 0.0418581 0.0133832 0.00642003 0.00888114 0.00173344 0.000513505 0.0015404 
742 0.257391 0.595511 0.0828135 0.0237848 0.0326751 0.00329035 0.00271533 0.0013234 0 0.000495556 
743 0.300303 0.658154 0.0255117 0.00710597 0.00349429 0.00336046 0.0013328 0.000738208 0 0 
744 0.330223 0.622033 0.0293194 0.00816656 0.00401583 0.00386202 0.00153172 0.000848388 0 0 
745 0.340932 0.619082 0.0245551 0.0068395 0.00336325 0.00323444 0.00128282 0.000710525 0 0 
746 0.0674056 0.632924 0.21665 0.0547131 0.0193993 0.00623662 0.00178092 0 0 0.000890482 
747 0.104374 0.735304 0.0933151 0.0445351 0.00913273 0.00645914 0.00528808 0.000522569 0.00106948 0 
748 0.148821 0.699736 0.0987936 0.0274217 0.0118941 0.0086162 0.00190999 0.00280779 0 0 
749 0.253491 0.586488 0.111862 0.0234192 0.0170338 0.0032405 0.00267419 0.00130335 0 0.000488048 
750 0.094629 0.683167 0.141998 0.0533071 0.0109316 0.0077314 0.00632968 0.0006255 0.00128014 0 
751 0.132592 0.646126 0.151082 0.0395331 0.0126397 0.00606337 0.00838774 0.00163714 0.000484977 0.00145482 
752 0.136051 0.689337 0.10975 0.0390159 0.00862458 0.0111857 0.00313129 0.00240278 0 0.00050218 
753 0.159075 0.622528 0.142559 0.0456186 0.0100841 0.0130787 0.00366121 0.0028094 0 0.000587164 
754 0.152057 0.637816 0.12298 0.0582598 0.00963924 0.0125017 0.00349968 0.00268546 0 0.00056126 
755 0.0960849 0.693677 0.113445 0.069481 0.0110998 0.00785034 0.00642706 0.000635123 0.00129983 0 
756 0.159075 0.636763 0.128324 0.0456186 0.0100841 0.0130787 0.00366121 0.0028094 0 0.000587164 
757 0.123684 0.693557 0.107778 0.0463125 0.0135161 0.00979114 0.00217045 0.00319067 0 0 
758 0.0960849 0.693677 0.113414 0.0695118 0.0110998 0.00785034 0.00642706 0.000635123 0.00129983 0 
759 0.156664 0.611964 0.156682 0.0449274 0.00993134 0.0128805 0.00360573 0.00276683 0 0.000578268 
760 0.108435 0.706818 0.112541 0.0406622 0.0130008 0.00623661 0.0086274 0.00168391 0.000498834 0.00149638 
761 0.345423 0.591918 0.0442352 0.00816656 0.00401583 0.00386202 0.00153172 0.000848388 0 0 
762 0.123684 0.708709 0.107778 0.031161 0.0135161 0.00979114 0.00217045 0.00319067 0 0 
763 0.156664 0.611964 0.126379 0.0752304 0.00993134 0.0128805 0.00360573 0.00276683 0 0.000578268 
764 0.105339 0.635244 0.213732 0.0239369 0.0102536 0.00742776 0.00164655 0.00242051 0 0 
765 0.125587 0.688843 0.12482 0.0316404 0.013724 0.00994177 0.00220384 0.00323976 0 0 
766 0.253491 0.586488 0.111862 0.0234191 0.0170338 0.0032405 0.00267419 0.00130335 0 0.000488048 
767 0.275447 0.583945 0.0791602 0.037436 0.0165328 0.00314519 0.00259554 0.00126502 0 0.000473693 
768 0.113291 0.693689 0.117581 0.0424829 0.0135829 0.00651586 0.00901369 0.00175931 0.00052117 0.00156339 
769 0.0918458 0.707192 0.123116 0.0517393 0.0106101 0.007504 0.00614351 0.000607103 0.00124249 0 
770 0.264633 0.59266 0.0952669 0.0230696 0.0167795 0.00319213 0.00263428 0.0012839 0 0.000480763 
771 0.172614 0.65084 0.110836 0.0377594 0.0115197 0.00552611 0.00764453 0.00149207 0.000442005 0.00132591 
772 0.0663995 0.593627 0.258192 0.0538965 0.0191098 0.00614353 0.00175434 0 0 0.000877191 
773 0.115448 0.688569 0.119401 0.0431265 0.0137887 0.00661458 0.00915027 0.00178597 0.000529066 0.00158707 
774 0.138836 0.693557 0.107778 0.031161 0.0135161 0.00979114 0.00217045 0.00319067 0 0 
775 0.094629 0.698319 0.126847 0.0533071 0.0109316 0.0077314 0.00632968 0.0006255 0.00128014 0 
776 0.124342 0.728163 0.0948446 0.0274217 0.0118941 0.0086162 0.00190999 0.00280779 0 0 
777 0.121838 0.712994 0.106232 0.0306959 0.0133143 0.009645 0.00213805 0.00314305 0 0 
778 0.0644749 0.634391 0.221723 0.0523343 0.0185559 0.00596546 0.00170349 0 0 0.000851765 
779 0.0642032 0.632154 0.190154 0.0580379 0.0287737 0.00589828 0.00884995 0.00893024 0 0.00299918 
780 0.0684426 0.611892 0.235362 0.0555603 0.0196978 0.00633256 0.00180832 0 0 0.000904182 
781 0.116776 0.668881 0.121198 0.04379 0.0293855 0.00671635 0.00929104 0.00181344 0.000537206 0.00161149 
782 0.159075 0.621378 0.128324 0.0610032 0.0100841 0.0130787 0.00366121 0.0028094 0 0.000587164 
783 0.121178 0.703785 0.117809 0.0298062 0.0129284 0.00936543 0.00207608 0.00305195 0 0 
784 0.185276 0.63041 0.115848 0.0411835 0.00910372 0.0118071 0.00330526 0.00253626 0 0.000530079 
785 0.0623422 0.657309 0.171338 0.0551669 0.0279397 0.00572732 0.00859343 0.00867139 0 0.00291224 
786 0.340359 0.595044 0.0456053 0.00841784 0.00413939 0.00398085 0.00157885 0.000874492 0 0 
787 0.116776 0.668881 0.136583 0.04379 0.0140009 0.00671634 0.00929104 0.00181344 0.000537206 0.00161149 
788 0.350354 0.586028 0.0297637 0.0082903 0.0192282 0.00392054 0.00155493 0.000861242 0 0 
789 0.0542592 0.704163 0.174756 0.0440374 0.0156141 0.00501972 0.00143342 0 0 0.000716729 
790 0.491812 0.465768 0.0378817 0.0021532 0.00153898 0.000675813 0 0 0.000170363 0 
791 0.167171 0.634761 0.124493 0.0442568 0.00978311 0.0126883 0.00355192 0.00272554 0 0.000569637 
792 0.114618 0.747107 0.0889166 0.0257078 0.0111508 0.00807769 0.00179062 0.00263231 0 0 
793 0.0926462 0.765045 0.0828303 0.0395311 0.00810658 0.00573339 0.00469392 0.000463854 0.000949317 0 
794 0.360556 0.585101 0.0256966 0.0198349 0.00344965 0.00331738 0.00131571 0.000728744 0 0 
795 0.340359 0.610428 0.0302216 0.00841784 0.00413939 0.00398085 0.00157885 0.000874492 0 0 
796 0.116776 0.668881 0.136583 0.04379 0.0140009 0.00671634 0.00929104 0.00181344 0.000537206 0.00161149 
797 0.125587 0.688843 0.12482 0.0316404 0.013724 0.00994177 0.00220384 0.00323976 0 0 
798 0.257391 0.595511 0.0981981 0.0237795 0.0172958 0.00329035 0.00271533 0.0013234 0 0.000495556 
799 0.335202 0.616331 0.0297637 0.0082903 0.00407667 0.00392054 0.00155493 0.000861243 0 0 
800 0.125587 0.688843 0.12482 0.0316404 0.013724 0.00994177 0.00220384 0.00323976 0 0 
801 0.159075 0.634432 0.130654 0.0456186 0.0100841 0.0130787 0.00366121 0.0028094 0 0.000587164 
802 0.117896 0.510666 0.315421 0.0336956 0.0074485 0.00966039 0.0027043 0.00207513 0 0.000433701 
803 0.251402 0.712248 0.0223228 0.00621772 0.0030575 0.0029404 0.0011662 0.000645932 0 0 
804 0.131058 0.717407 0.0974429 0.0281729 0.01222 0.00885226 0.00196232 0.00288472 0 0 
805 0.462473 0.503228 0.0291222 0.00245584 0.00175574 0.000770998 0 0 0.000194357 0 
806 0.448386 0.531399 0.0150379 0.00245584 0.00175574 0.000770998 0 0 0.000194357 0 
807 0.249707 0.622511 0.0803415 0.0230696 0.0167795 0.00319213 0.00263428 0.0012839 0 0.000480763 
808 0.384058 0.573852 0.0258475 0.00719947 0.00354027 0.00340468 0.00135033 0.000747921 0 0 
809 0.497942 0.458962 0.0385011 0.00217956 0.00155822 0.000684261 0 0 0.000172492 0 
810 0.113396 0.693584 0.117581 0.0424829 0.0135829 0.00651586 0.00901369 0.00175931 0.00052117 0.00156339 
811 0.545272 0.451015 0.00289558 0.000818124 0 0 0 0 0 0 
812 0.152057 0.639613 0.135838 0.043606 0.00963924 0.0125017 0.00349968 0.00268546 0 0.00056126 
813 0.257391 0.610896 0.0828135 0.0237794 0.0172958 0.00329035 0.00271533 0.0013234 0 0.000495556 
814 0.237036 0.612119 0.106077 0.02177 0.0158342 0.00301229 0.00248587 0.00121157 0 0.000453678 
815 0.125587 0.688843 0.12482 0.0316409 0.013724 0.00994177 0.00220384 0.00323976 0 0 
816 0.0791286 0.617228 0.176452 0.0568138 0.043699 0.00589828 0.00884995 0.00893024 0 0.00299917 
817 0.0684426 0.611892 0.235368 0.0555548 0.0196978 0.00633256 0.00180832 0 0 0.000904182 
818 0.330199 0.607132 0.0442446 0.00816656 0.00401583 0.00386202 0.00153172 0.000848388 0 0 
819 0.115008 0.673896 0.119362 0.0582781 0.0137887 0.00661458 0.00915027 0.00178597 0.000529066 0.00158707 
820 0.145188 0.682355 0.116047 0.0293803 0.0127437 0.00923164 0.00204642 0.00300835 0 0 
821 0.136764 0.698131 0.106169 0.0306959 0.0133143 0.009645 0.00213805 0.00314305 0 0 
822 0.0932166 0.702821 0.124954 0.0525115 0.0107684 0.007616 0.0062352 0.000616164 0.00126103 0 
823 0.14375 0.667975 0.119972 0.0384642 0.0122981 0.00589949 0.00816105 0.00159289 0.00047187 0.0014155 
824 0.113384 0.732976 0.0987962 0.0285642 0.0123897 0.00897521 0.00198958 0.00292478 0 0 
825 0.116776 0.684265 0.121198 0.04379 0.0140009 0.00671634 0.00929104 0.00181344 0.000537206 0.00161149 
826 0.0644749 0.60541 0.236212 0.066826 0.0185559 0.00596546 0.00170349 0 0 0.000851765 
827 0.119311 0.687107 0.123381 0.0395327 0.0126397 0.00606337 0.00838775 0.00163714 0.000484977 0.00145482 
828 0.113883 0.732476 0.0987979 0.0285642 0.0123897 0.00897521 0.00198958 0.00292478 0 0 
829 0.0661787 0.63622 0.181882 0.0585618 0.029659 0.00607977 0.00912225 0.00920502 0 0.00309146 
830 0.10994 0.707681 0.111798 0.0469103 0.00961981 0.00680363 0.00557011 0.00055044 0.00112652 0 
831 0.0726502 0.661543 0.192748 0.0481475 0.0170714 0.00548822 0.00156721 0 0 0.000783624 
832 0.115006 0.658746 0.134514 0.0547045 0.0173622 0.00661458 0.00915027 0.00178597 0.000529066 0.00158707 
833 0.065423 0.64372 0.210278 0.0531039 0.0188287 0.00605319 0.00172854 0 0 0.000864291 
834 0.0684426 0.627277 0.219983 0.0555548 0.0196978 0.00633256 0.00180832 0 0 0.000904182 
835 0.120992 0.668692 0.139127 0.0400895 0.0128177 0.00614877 0.00850588 0.00166019 0.000491808 0.00147531 
836 0.125474 0.737957 0.0878189 0.0253904 0.0110131 0.00797796 0.00176851 0.00259981 0 0 
837 0.180098 0.610032 0.117089 0.0655199 0.0112353 0.00538966 0.00745577 0.00145523 0.000431091 0.00129317 
838 0.0644773 0.618029 0.238083 0.0523344 0.0185559 0.00596546 0.00170349 0 0 0.000851765 
839 0.325343 0.627615 0.0288883 0.00804647 0.00395677 0.00380523 0.0015092 0.000835912 0 0 
840 0.28633 0.606644 0.0672947 0.0193208 0.0140529 0.00267341 0.00220621 0.00107526 0 0.000402639 
841 0.116776 0.668895 0.136569 0.04379 0.0140009 0.00671634 0.00929104 0.00181344 0.000537206 0.00161149 
842 0.26465 0.592639 0.080346 0.0230696 0.0168086 0.0180884 0.00263428 0.0012839 0 0.000480763 
843 0.159075 0.621378 0.128324 0.0456186 0.0254687 0.0130787 0.00366121 0.0028094 0 0.000587164 
844 0.046245 0.60441 0.166108 0.121693 0.0242525 0.0190692 0.0114592 0.00634985 0.000412478 0 
845 0.0469564 0.612527 0.154453 0.108189 0.0400102 0.0193626 0.0116355 0.00644754 0.000418824 0 
846 0.529467 0.466927 0.00281165 0.000794411 0 0 0 0 0 0 
847 0.257391 0.610896 0.0828136 0.0237794 0.0172958 0.00329035 0.00271533 0.0013234 0 0.000495556 
848 0.497506 0.465596 0.0161772 0.0177933 0.00188875 0.000829407 0 0 0.000209081 0 
849 0.267577 0.610118 0.0768983 0.0220809 0.0160604 0.00305533 0.00252138 0.00122887 0 0.000460159 
850 0.094629 0.71347 0.111695 0.0533071 0.0109316 0.0077314 0.00632968 0.0006255 0.00128014 0 
851 0.159716 0.653374 0.117479 0.0417635 0.00923195 0.0119734 0.00335181 0.00257199 0 0.000537545 
852 0.35385 0.601096 0.0276676 0.00770647 0.00378958 0.00364444 0.00144543 0.000800592 0 0 
853 0.159075 0.636763 0.128324 0.0456186 0.0100841 0.0130787 0.00366121 0.0028094 0 0.000587164 
854 0.134159 0.705521 0.103092 0.0298061 0.0129284 0.00936543 0.00207608 0.00305195 0 0 
855 0.135363 0.684606 0.121094 0.030696 0.0133143 0.009645 0.00213805 0.00314305 0 0 
856 0.0960849 0.709062 0.113414 0.0541272 0.0110998 0.00785034 0.00642706 0.000635123 0.00129983 0 
857 0.0806754 0.679857 0.126363 0.0430989 0.030392 0.0136848 0.00448989 0.0214389 0 0 
858 0.345633 0.608669 0.0280629 0.00781657 0.00384372 0.00369651 0.00146608 0.000812029 0 0 
859 0.0960849 0.709062 0.113414 0.0541272 0.0110998 0.00785034 0.00642706 0.000635123 0.00129983 0 
860 0.0960849 0.70895 0.113526 0.0541272 0.0110998 0.00785034 0.00642706 0.000635123 0.00129983 0 
861 0.0905147 0.695905 0.122369 0.0654821 0.0104563 0.00739525 0.00605447 0.000598304 0.00122448 0 
862 0.335205 0.616327 0.0297637 0.0082903 0.00407667 0.00392054 0.00155493 0.000861242 0 0 
863 0.125523 0.709214 0.111171 0.0281729 0.01222 0.00885226 0.00196232 0.00288472 0 0 
864 0.104376 0.72268 0.105915 0.0445574 0.00913273 0.00645914 0.00528808 0.000522569 0.00106948 0 
865 0.0661787 0.620836 0.197266 0.0585618 0.029659 0.00607977 0.00912225 0.00920502 0 0.00309146 
866 0.12633 0.683489 0.115851 0.0418581 0.0133832 0.00642003 0.00888114 0.00173344 0.000513505 0.0015404 
867 0.118307 0.706881 0.117584 0.0298061 0.0129284 0.00936543 0.00207608 0.00305195 0 0 
868 0.11903 0.698824 0.110956 0.0400895 0.0128177 0.00614877 0.00850588 0.00166019 0.000491808 0.00147531 
869 0.159075 0.636763 0.128324 0.0456186 0.0100841 0.0130787 0.00366121 0.0028094 0 0.000587164 
870 0.0674056 0.632924 0.21665 0.0547131 0.0193993 0.00623662 0.00178092 0 0 0.000890482 
871 0.149853 0.657523 0.121182 0.042974 0.00949954 0.0123205 0.00344896 0.00264654 0 0.000553126 
872 0.257391 0.610896 0.0828136 0.0237794 0.0172958 0.00329035 0.00271533 0.0013234 0 0.000495556 
873 0.0684426 0.611892 0.219983 0.0709392 0.0196978 0.00633256 0.00180832 0 0 0.000904182 
874 0.456047 0.524019 0.014829 0.00242173 0.00173135 0.00076029 0 0 0.000191658 0 
875 0.11696 0.684081 0.121198 0.04379 0.0140009 0.00671634 0.00929104 0.00181344 0.000537206 0.00161149 
876 0.031162 0.5242 0.133756 0.237867 0.031752 0.0206317 0 0 0 0.0206319 
877 0.129059 0.701053 0.114272 0.0289668 0.0125642 0.00910162 0.0020176 0.00296598 0 0 
878 0.159474 0.671361 0.112755 0.0293803 0.0127437 0.00923164 0.00204642 0.00300835 0 0 
879 0.0885395 0.718988 0.103831 0.0636376 0.0101618 0.00718693 0.00588392 0.00058145 0.00118999 0 
880 0.123684 0.678406 0.107965 0.0612613 0.0135319 0.00979113 0.00217045 0.00319067 0 0 
881 0.115007 0.673887 0.134524 0.0431266 0.0137887 0.00661458 0.00915027 0.00178597 0.000529066 0.00158707 
882 0.11329 0.66385 0.132496 0.0574082 0.0135829 0.00651586 0.0090137 0.00175931 0.00052117 0.00156339 
883 0.152442 0.652403 0.122662 0.043606 0.00963924 0.0125017 0.00349968 0.00268546 0 0.00056126 
884 0.0932166 0.70243 0.125345 0.0525115 0.0107684 0.007616 0.0062352 0.000616164 0.00126103 0 
885 0.325343 0.612914 0.0377522 0.0138834 0.00395677 0.00380523 0.0015092 0.000835912 0 0 
886 0.229183 0.639839 0.0874367 0.0211735 0.0154004 0.00292977 0.00241776 0.00117837 0 0.000441249 
887 0.253491 0.592505 0.10584 0.0234243 0.0170338 0.0032405 0.00267419 0.00130335 0 0.000488048 
888 0.482354 0.495899 0.0161771 0.00264189 0.00188875 0.000829407 0 0 0.000209081 0 
889 0.0684426 0.611892 0.219983 0.0709394 0.0196978 0.00633256 0.00180832 0 0 0.000904182 
890 0.115006 0.658746 0.134514 0.0431266 0.0137887 0.0217661 0.00915027 0.00178597 0.000529066 0.00158707 
891 0.08812 0.646892 0.16195 0.0521441 0.0264087 0.00541349 0.00812255 0.00819625 0 0.00275267 
892 0.292177 0.636174 0.0451616 0.0128805 0.00936857 0.00178227 0.0014708 0.000716843 0 0.000268426 
893 0.407888 0.55696 0.0215869 0.00601274 0.00295671 0.00284347 0.00112775 0.000624637 0 0 
894 0.106552 0.692804 0.122797 0.0517393 0.0106101 0.007504 0.00614351 0.000607103 0.00124249 0 
895 0.11827 0.749768 0.0803868 0.0290444 0.0092863 0.00445472 0.00616242 0.00120279 0.00035631 0.00106885 
896 0.150783 0.69973 0.0961261 0.0277922 0.0120549 0.00873263 0.0019358 0.00284574 0 0 
897 0.285948 0.589974 0.0780128 0.0224009 0.0162932 0.00309961 0.00255792 0.00124668 0 0.000466828 
898 0.0912813 0.634016 0.198601 0.0501537 0.0177827 0.0057169 0.00163251 0 0 0.000816275 
899 0.0960849 0.693677 0.113414 0.0541272 0.0110998 0.023235 0.00642706 0.000635123 0.00129983 0 
900 0.108183 0.687086 0.125723 0.0525115 0.0107684 0.007616 0.0062352 0.000616164 0.00126103 0 
901 0.0960849 0.693677 0.128798 0.0541272 0.0110998 0.00785034 0.00642706 0.000635123 0.00129983 0 
902 0.154326 0.60283 0.169151 0.0443748 0.00978311 0.0126883 0.00355192 0.00272554 0 0.000569637 
903 0.257391 0.595511 0.0828135 0.0237794 0.0326804 0.00329035 0.00271533 0.0013234 0 0.000495556 
904 0.116617 0.725354 0.101619 0.0293803 0.0127437 0.00923164 0.00204642 0.00300835 0 0 
905 0.065176 0.641732 0.179126 0.0576745 0.0292097 0.00598765 0.00898404 0.00906555 0 0.00304462 
906 0.1592 0.656486 0.115848 0.0411835 0.00910372 0.0118071 0.00330526 0.00253626 0 0.000530079 
907 0.111624 0.683489 0.130557 0.0418581 0.0133832 0.00642003 0.00888114 0.00173344 0.000513506 0.0015404 
908 0.141036 0.668783 0.115851 0.0418581 0.0133832 0.00642003 0.00888114 0.00173344 0.000513505 0.0015404 
909 0.3412 0.617257 0.0255117 0.00710597 0.00349429 0.00336046 0.0013328 0.000738208 0 0 
910 0.0469564 0.612527 0.154453 0.123574 0.0246256 0.0193626 0.0116355 0.00644754 0.000418824 0 
911 0.136764 0.698131 0.106169 0.0306959 0.0133143 0.009645 0.00213805 0.00314305 0 0 
912 0.113313 0.678742 0.117581 0.0424829 0.0285069 0.00651731 0.00901369 0.00175931 0.00052117 0.00156339 
913 0.490082 0.488497 0.0159357 0.00260246 0.00186056 0.000817028 0 0 0.000205961 0 
914 0.0661787 0.621862 0.196216 0.0585853 0.029659 0.00607977 0.00912225 0.00920502 0 0.00309146 
915 0.10078 0.762652 0.0878189 0.0253904 0.0110131 0.00797796 0.00176851 0.00259981 0 0 
916 0.123684 0.708709 0.107778 0.031161 0.0135161 0.00979114 0.00217045 0.00319067 0 0 
917 0.10741 0.747037 0.0935964 0.0270608 0.0117376 0.00850283 0.00188486 0.00277085 0 0 
918 0.291097 0.666813 0.0258474 0.00719947 0.00354027 0.00340468 0.00135033 0.000747921 0 0 
919 0.072832 0.641538 0.197411 0.0389087 0.0274372 0.0123543 0.00399282 0.0055262 0 0 
920 0.0932167 0.702821 0.110029 0.0674364 0.0107689 0.007616 0.0062352 0.000616164 0.00126103 0 
921 0.10205 0.691395 0.119042 0.0625096 0.0101618 0.00718693 0.00588392 0.00058145 0.00118999 0 
922 0.139113 0.7594 0.0652599 0.0188681 0.00818405 0.00592858 0.00131422 0.00193197 0 0 
923 0.0626587 0.64469 0.215478 0.0508601 0.0180332 0.00579742 0.0016555 0 0 0.000827772 
924 0.117677 0.650373 0.162711 0.0389911 0.0124665 0.00598031 0.00827284 0.00161471 0.000478334 0.00143489 
925 0.123684 0.708708 0.107778 0.031161 0.0135161 0.00979114 0.00217045 0.00319067 0 0 
926 0.118307 0.721374 0.103092 0.0298061 0.0129284 0.00936543 0.00207608 0.00305195 0 0 
927 0.3198 0.676645 0.00355449 0 0 0 0 0 0 0 
928 0.116776 0.668881 0.121198 0.04379 0.0140009 0.00671634 0.00929426 0.0171948 0.000537206 0.00161149 
929 0.321157 0.634414 0.0272834 0.00759944 0.00373695 0.00359383 0.00142535 0.000789472 0 0 
930 0.102093 0.705552 0.117798 0.0495531 0.0101618 0.00718693 0.00588392 0.00058145 0.00118999 0 
931 0.0771162 0.693977 0.135498 0.0411975 0.0290512 0.0130811 0.00422769 0.00585127 0 0 
932 0.0960848 0.693677 0.113414 0.0541272 0.0110998 0.0232349 0.00642706 0.000635123 0.00129983 0 
933 0.0684426 0.627277 0.219983 0.0555548 0.0196978 0.00633256 0.00180832 0 0 0.000904182 
934 0.155463 0.643543 0.131564 0.0417635 0.00923195 0.0119734 0.00335181 0.00257199 0 0.000537545 
935 0.137006 0.678246 0.112542 0.0406622 0.0130008 0.00623661 0.0086274 0.00168391 0.000498834 0.00149638 
936 0.470748 0.509856 0.0144283 0.00235628 0.00168456 0.000739742 0 0 0.000186478 0 
937 0.159734 0.644902 0.122872 0.043606 0.00963924 0.0125017 0.00349968 0.00268546 0 0.00056126 
938 0.15534 0.662871 0.114261 0.0406193 0.00897902 0.0116454 0.00325998 0.00250152 0 0.000522818 
939 0.121838 0.698131 0.121094 0.0306959 0.0133143 0.009645 0.00213805 0.00314305 0 0 
940 0.130158 0.673898 0.119362 0.0431265 0.0137887 0.00661458 0.00915027 0.00178597 0.000529066 0.00158707 
941 0.249724 0.629693 0.0758153 0.0217699 0.0158342 0.00301229 0.00248587 0.00121157 0 0.000453678 
942 0.0661787 0.620836 0.196127 0.0597014 0.029659 0.00607977 0.00912225 0.00920502 0 0.00309146 
943 0.0684426 0.611892 0.219984 0.0709388 0.0196978 0.00633256 0.00180832 0 0 0.000904182 
944 0.0873282 0.296698 0.218088 0.166936 0 0.205811 0.0251392 0 0 0 
945 0.116776 0.668881 0.121198 0.0591746 0.0140009 0.00671634 0.00929104 0.00181344 0.000537206 0.00161149 
946 0.0960849 0.707925 0.11455 0.0541272 0.0110998 0.00785034 0.00642706 0.000635123 0.00129983 0 
947 0.125587 0.704227 0.109436 0.0316404 0.013724 0.00994177 0.00220384 0.00323976 0 0 
948 0.257391 0.610896 0.0828135 0.0237794 0.0172958 0.00329035 0.00271533 0.0013234 0 0.000495556 
949 0.0960849 0.709062 0.113414 0.0541272 0.0110998 0.00785034 0.00642706 0.000635123 0.00129983 0 
950 0.159075 0.636763 0.128324 0.0456186 0.0100841 0.0130787 0.00366121 0.0028094 0 0.000587164 
951 0.065176 0.641732 0.179126 0.0576745 0.0292097 0.00598765 0.00898404 0.00906555 0 0.00304462 
952 0.0580945 0.639997 0.143421 0.100461 0.0228666 0.0179795 0.0108044 0.005987 0.000388908 0 
953 0.139221 0.708853 0.0978332 0.0281729 0.01222 0.00885226 0.00196232 0.00288472 0 0 
954 0.156086 0.630919 0.139418 0.0442575 0.00978311 0.0126883 0.00355192 0.00272554 0 0.000569637 
955 0.0661787 0.63622 0.181882 0.0585618 0.029659 0.00607977 0.00912225 0.00920502 0 0.00309146 
956 0.0661787 0.63622 0.181882 0.0585618 0.029659 0.00607977 0.00912225 0.00920502 0 0.00309146 
957 0.154326 0.618003 0.154037 0.0443153 0.00978311 0.0126883 0.00355192 0.00272554 0 0.000569637 
958 0.483362 0.496134 0.0152527 0.00249092 0.00178082 0.000782013 0 0 0.000197134 0 
959 0.3348 0.627119 0.0233857 0.00651381 0.0032031 0.00308042 0.00122173 0.000676691 0 0 
960 0.243887 0.655391 0.063328 0.0181843 0.0132262 0.00251615 0.00207643 0.00101201 0 0.000378955 
961 0.0803264 0.626581 0.179126 0.0576745 0.0292097 0.00598765 0.00898404 0.00906555 0 0.00304462 
962 0.392583 0.572647 0.0213522 0.00594739 0.00292457 0.00281256 0.00111549 0.000617848 0 0 
963 0.489775 0.472759 0.016426 0.0026826 0.0173024 0.000842167 0 0 0.000212298 0 
964 0.257391 0.595511 0.0828135 0.039164 0.0172958 0.00329035 0.00271533 0.0013234 0 0.000495556 
965 0.163241 0.654614 0.110956 0.0400895 0.0128177 0.00614877 0.00850588 0.00166019 0.000491808 0.00147531 
966 0.369648 0.585298 0.0276676 0.00770647 0.00378958 0.00364444 0.00144543 0.000800592 0 0 
967 0.154326 0.63268 0.124493 0.0591822 0.00978311 0.0126883 0.00355192 0.00272554 0 0.000569637 
968 0.125587 0.688843 0.12482 0.0316404 0.013724 0.00994177 0.00220384 0.00323976 0 0 
969 0.110006 0.659018 0.157723 0.0412516 0.0131892 0.00632699 0.00875243 0.00170832 0.000506063 0.00151807 
970 0.087965 0.719562 0.117916 0.0495531 0.0101618 0.00718693 0.00588392 0.00058145 0.00118999 0 
971 0.166762 0.637074 0.123671 0.043606 0.00963924 0.0125017 0.00349968 0.00268546 0 0.00056126 
972 0.111624 0.698195 0.115851 0.0418581 0.0133832 0.00642003 0.00888114 0.00173344 0.000513505 0.0015404 
973 0.115006 0.689047 0.119364 0.0431265 0.0137887 0.00661458 0.00915027 0.00178597 0.000529066 0.00158707 
974 0.340359 0.610418 0.0302318 0.00841784 0.00413939 0.00398085 0.00157885 0.000874492 0 0 
975 0.063259 0.608362 0.215586 0.0581576 0.0283506 0.00581154 0.0087198 0.00879891 0 0.00295507 
976 0.115006 0.673898 0.134514 0.0431265 0.0137887 0.00661458 0.00915027 0.00178597 0.000529066 0.00158707 
977 0.116776 0.684265 0.121198 0.04379 0.0140009 0.00671634 0.00929104 0.00181344 0.000537206 0.00161149 
978 0.123684 0.708709 0.107778 0.031161 0.0135161 0.00979114 0.00217045 0.00319067 0 0 
979 0.426606 0.541767 0.0268532 0.00226448 0.00161893 0.000710921 0 0 0.000179213 0 
980 0.094629 0.71347 0.111695 0.0533071 0.0109316 0.0077314 0.00632968 0.0006255 0.00128014 0 
981 0.094629 0.698319 0.126847 0.0533071 0.0109316 0.0077314 0.00632968 0.0006255 0.00128014 0 
982 0.159474 0.681763 0.102353 0.0293803 0.0127437 0.00923164 0.00204642 0.00300835 0 0 
983 0.562049 0.418738 0.0183693 0.000843297 0 0 0 0 0 0 
984 0.094629 0.71347 0.111695 0.0533071 0.0109316 0.0077314 0.00632968 0.0006255 0.00128014 0 
985 0.0603292 0.609319 0.158812 0.110916 0.0238905 0.0187846 0.0112882 0.00625508 0.000406322 0 
986 0.116776 0.668881 0.121198 0.04379 0.0140009 0.00671659 0.0246754 0.00181344 0.000537206 0.00161149 
987 0.116776 0.668881 0.121199 0.0591745 0.0140009 0.00671634 0.00929104 0.00181344 0.000537206 0.00161149 
988 0.156664 0.627115 0.141531 0.0449274 0.00993134 0.0128805 0.00360573 0.00276683 0 0.000578268 
989 0.0469564 0.612527 0.169838 0.108189 0.0246256 0.0193626 0.0116355 0.00644754 0.000418824 0 
990 0.116776 0.684265 0.121198 0.04379 0.0140009 0.00671634 0.00929104 0.00181344 0.000537206 0.00161149 
991 0.0657054 0.628775 0.222667 0.0553778 0.0188287 0.00605319 0.00172854 0 0 0.000864291 
992 0.0960849 0.693678 0.128798 0.0541274 0.0110998 0.00785034 0.00642706 0.000635123 0.00129983 0 
993 0.253491 0.601624 0.0967263 0.0234191 0.0170338 0.0032405 0.00267419 0.00130335 0 0.000488048 
994 0.580443 0.402906 0.00258672 0.0140605 3.69292e-06 0 0 0 0 0 
995 0.266627 0.604165 0.0862551 0.0208873 0.0151923 0.00289017 0.00238509 0.00116245 0 0.000435286 
996 0.094629 0.713462 0.111703 0.0533071 0.0109316 0.0077314 0.00632968 0.0006255 0.00128014 0 
997 0.249723 0.629686 0.0758226 0.0217699 0.0158342 0.00301229 0.00248587 0.00121157 0 0.000453678 
998 0.0316414 0.501681 0.148131 0.244408 0.0322405 0.0209492 0 0 0 0.0209493 
999 0.0663995 0.638403 0.213417 0.0538965 0.0191098 0.00614353 0.00175434 0 0 0.000877191 
1000 0.159075 0.636763 0.128324 0.0456186 0.0100841 0.0130787 0.00366121 0.0028094 0 0.000587164 
1001 0.553533 0.442697 0.00293945 0.00083052 0 0 0 0 0 0 
1002 0.065176 0.62658 0.194277 0.0576745 0.0292097 0.00598765 0.00898404 0.00906555 0 0.00304462 
1003 0 0.61791 0.0955222 0 0.0955224 0.191045 0 0 0 0 
1004 0.0960849 0.693677 0.113414 0.0695118 0.0110998 0.00785034 0.00642706 0.000635123 0.00129983 0 
1005 0.124335 0.708058 0.107778 0.031161 0.0135161 0.00979114 0.00217045 0.00319067 0 0 
1006 0.330199 0.607132 0.0442447 0.00816656 0.00401583 0.00386202 0.00153172 0.000848388 0 0 
1007 0.130642 0.674137 0.119598 0.050261 0.0103069 0.0072896 0.00596798 0.000589757 0.00120699 0 
1008 0.0674056 0.617773 0.231802 0.0547131 0.0193993 0.00623662 0.00178092 0 0 0.000890482 
1009 0.115007 0.673895 0.134516 0.0431266 0.0137887 0.00661458 0.00915027 0.00178597 0.000529066 0.00158707 
1010 0.085157 0.639923 0.173274 0.0514394 0.0260519 0.00534033 0.00801279 0.00808549 0 0.00271547 
1011 0.0674056 0.61322 0.236354 0.0547131 0.0193993 0.00623662 0.00178092 0 0 0.000890482 
1012 0.206997 0.59972 0.103013 0.0519399 0.0255091 0.00828481 0.00183653 0.0026998 0 0 
1013 0.106626 0.692412 0.123116 0.0517392 0.0106101 0.007504 0.00614351 0.000607103 0.00124249 0 
1014 0.121838 0.713056 0.106169 0.0306959 0.0133143 0.009645 0.00213805 0.00314305 0 0 
1015 0.313783 0.58181 0.0656449 0.0188496 0.0137101 0.00260821 0.0021524 0.00104904 0 0.000392819 
1016 0.0605869 0.610623 0.195851 0.0665271 0.0274126 0.0193906 0.00835136 0.00842713 0 0.00283021 
1017 0.249707 0.622511 0.0803415 0.0230696 0.0167795 0.00319213 0.00263428 0.0012839 0 0.000480763 
1018 0.0684426 0.611892 0.235368 0.0555548 0.0196978 0.00633256 0.00180832 0 0 0.000904182 
1019 0.257391 0.595511 0.0828136 0.039164 0.0172958 0.00329035 0.00271533 0.0013234 0 0.000495556 
1020 0.330199 0.607132 0.0293194 0.0230919 0.00401583 0.00386202 0.00153172 0.000848388 0 0 
1021 0.0455548 0.639018 0.149843 0.10496 0.0238905 0.0187846 0.0112882 0.00625508 0.000406322 0 
1022 0.244664 0.631258 0.0780128 0.0224009 0.0162932 0.00309961 0.00255792 0.00124668 0 0.000466828 
1023 0.0674056 0.617773 0.21665 0.0698621 0.0194018 0.00623662 0.00178092 0 0 0.000890482 
1024 0.482354 0.495899 0.0161771 0.00264189 0.00188875 0.000829407 0 0 0.000209081 0 
1025 0.303213 0.5856 0.0699078 0.0200735 0.0146004 0.00277757 0.00229216 0.00111716 0 0.000418327 
1026 0.0794531 0.684707 0.1396 0.0424459 0.0299315 0.0134775 0.0043558 0.00602858 0 0 
1027 0.0813189 0.608558 0.213417 0.0688215 0.0191098 0.00614353 0.00175434 0 0 0.000877191 
1028 0.253491 0.60164 0.0815588 0.0234191 0.0170338 0.00324056 0.0178242 0.00130482 0 0.000488048 
1029 0.562049 0.434123 0.00298467 0.000843297 0 0 0 0 0 0 
1030 0.166762 0.623376 0.137368 0.043606 0.00963924 0.0125017 0.00349968 0.00268546 0 0.00056126 
1031 0.125587 0.704227 0.109436 0.0316404 0.013724 0.00994177 0.00220384 0.00323976 0 0 
1032 0.257391 0.610896 0.0828136 0.0237794 0.0172958 0.00329035 0.00271533 0.0013234 0 0.000495556 
1033 0.116776 0.668881 0.136583 0.04379 0.0140009 0.00671634 0.00929104 0.00181344 0.000537206 0.00161149 
1034 0.335264 0.616269 0.0297637 0.0082903 0.00407667 0.00392054 0.00155493 0.000861243 0 0 
1035 0.0960849 0.693677 0.113414 0.0695117 0.0110999 0.00785034 0.00642706 0.000635123 0.00129983 0 
1036 0.0960849 0.693678 0.128798 0.0541272 0.0110998 0.00785034 0.00642706 0.000635123 0.00129983 0 
1037 0.33928 0.619177 0.0255117 0.00710597 0.00349429 0.00336046 0.0013328 0.000738208 0 0 
1038 0.0469564 0.627911 0.154453 0.108189 0.0246256 0.0193626 0.0116355 0.00644754 0.000418824 0 
1039 0.0578881 0.597561 0.186063 0.100462 0.0228666 0.0179795 0.0108044 0.005987 0.000388908 0 
1040 0.0779649 0.637563 0.173857 0.0559782 0.0283506 0.00581154 0.0087198 0.00879891 0 0.00295507 
1041 0.135509 0.703664 0.108178 0.0274217 0.0118941 0.0086162 0.00190999 0.00280779 0 0 
1042 0.125587 0.688843 0.109436 0.0316404 0.0291086 0.00994177 0.00220384 0.00323976 0 0 
1043 0.253491 0.60164 0.0815588 0.0385706 0.0170338 0.0032405 0.00267419 0.00130335 0 0.000488048 
1044 0.159075 0.636763 0.128324 0.0456186 0.0100841 0.0130787 0.00366121 0.0028094 0 0.000587164 
1045 0.159075 0.621379 0.143708 0.0456186 0.0100841 0.0130787 0.00366121 0.0028094 0 0.000587164 
1046 0.0469626 0.627905 0.154453 0.108189 0.0246256 0.0193626 0.0116355 0.00644754 0.000418824 0 
1047 0.227313 0.662926 0.0690113 0.0198162 0.0144132 0.00274196 0.00226277 0.00110284 0 0.000412963 
1048 0.0442343 0.649482 0.145499 0.101917 0.023198 0.0182401 0.010961 0.00607377 0.000394544 0 
1049 0.0960849 0.693678 0.128798 0.0541272 0.0110998 0.00785034 0.00642706 0.000635123 0.00129983 0 
1050 0.046245 0.618397 0.152113 0.10655 0.0242541 0.0342191 0.0114592 0.00634985 0.000412478 0 
1051 0.166762 0.638082 0.122662 0.043606 0.00963924 0.0125017 0.00349968 0.00268546 0 0.00056126 
1052 0.101208 0.699697 0.131703 0.0379514 0.0121341 0.00582083 0.00805224 0.00157165 0.000465578 0.00139663 
1053 0.115012 0.677116 0.131289 0.043128 0.0137887 0.00661458 0.00915027 0.00178597 0.000529066 0.00158707 
1054 0.0663995 0.623477 0.228342 0.0538965 0.0191098 0.00614353 0.00175434 0 0 0.000877191 
1055 0.120046 0.717276 0.104608 0.0302445 0.0131185 0.00950316 0.00210661 0.00309683 0 0 
1056 0.11329 0.648914 0.162357 0.0424829 0.0135829 0.00651586 0.0090137 0.00175931 0.00052117 0.00156339 
1057 0.065176 0.641439 0.179419 0.0576745 0.0292097 0.00598765 0.00898404 0.00906555 0 0.00304462 
1058 0.0960849 0.693677 0.113414 0.0695117 0.0110998 0.00785034 0.00642706 0.000635123 0.00129983 0 
1059 0.125587 0.688843 0.12482 0.0316404 0.013724 0.00994177 0.00220384 0.00323976 0 0 
1060 0.0635543 0.639614 0.218556 0.0515866 0.0182908 0.00588024 0.00167915 0 0 0.000839597 
1061 0.0813249 0.623477 0.213416 0.0538965 0.0191098 0.00614353 0.00175434 0 0 0.000877191 
1062 0.386448 0.611529 0.00157727 0.000445645 0 0 0 0 0 0 
1063 0.123684 0.705487 0.110999 0.031161 0.0135161 0.00979114 0.00217045 0.00319067 0 0 
1064 0.334785 0.624204 0.0251847 0.00701487 0.00344949 0.00331738 0.00131571 0.000728744 0 0 
1065 0.136437 0.698458 0.106169 0.0306959 0.0133143 0.009645 0.00213805 0.00314305 0 0 
1066 0.257391 0.610896 0.0828135 0.0237794 0.0172958 0.00329035 0.00271533 0.0013234 0 0.000495556 
1067 0.340359 0.610428 0.0302216 0.00841784 0.00413939 0.00398085 0.00157885 0.000874492 0 0 
