0 4 0.351198
0 5 0.221973
0 11 0.000800628
0 16 0.015665
0 19 0.00335493
0 20 0.107103
0 25 0.0757613
0 46 0.0843597
0 63 0.0389993
0 77 9.80141e-06
0 78 0.0998278
0 96 0.000795635
0 396 0.000147368
0 397 1.19785e-07
0 744 1.32274e-06
0 953 1.70287e-07
0 2842 6.04956e-07
0 4621 6.3021e-07
2 2 0.16129
2 30 0.387097
2 70 0.32258
2 961 1.01664e-07
2 1484 0.0645161
2 1867 0.064516
2 4284 6.84847e-07
3 3 0.142857
3 110 0.857143
4 4 0.227807
4 11 0.658315
4 46 0.113879
5 5 0.330886
5 11 0.119245
5 20 0.0962495
5 78 0.438494
5 476 0.0151259
6 20 0.325647
6 28 0.168596
6 1025 0.168586
6 1242 0.168586
6 1861 0.168586
7 9 0.784117
7 165 0.215883
8 8 0.979557
8 10 0.0204432
9 9 0.063463
9 10 0.780441
9 58 0.156096
10 6 0.99993
10 11 6.96381e-05
11 7 0.813555
11 38 0.0255226
11 476 0.160922
12 12 1
13 13 1
14 15 0.881723
14 787 0.118277
15 14 0.363638
15 396 0.0909088
15 476 0.0909053
15 920 0.0909095
15 1480 0.181819
15 1482 0.0909096
15 2227 0.0909096
16 16 0.8328
16 103 0.133468
16 205 0.0326568
16 1382 0.00107523
17 17 0.552479
17 118 0.447521
18 18 1
19 19 0.999015
19 99 1.53296e-07
19 2842 0.000984978
20 21 0.871846
20 1418 0.00160425
20 1653 0.12655
21 21 0.173774
21 22 0.757373
21 44 0.0688521
22 414 0.20163
22 489 3.24632e-06
22 617 0.798367
23 125 3.78774e-05
23 299 0.545434
23 372 0.272717
23 1782 0.0909057
23 5039 0.0909056
24 543 0.219602
24 1089 0.219602
24 2213 0.219602
24 2857 0.121592
24 3261 0.219602
25 63 0.358219
25 65 0.00687665
25 77 0.634722
25 476 0.000182893
26 156 0.727307
26 1879 0.272693
27 63 0.000157188
27 119 0.999843
28 11 0.00229507
28 106 0.44598
28 118 0.0103716
28 185 1.71593e-07
28 205 0.478322
28 648 0.0626117
28 806 0.000419587
29 23 0.166667
29 24 0.166669
29 26 0.166669
29 27 0.166668
29 28 0.166658
29 29 0.166669
30 6 1
31 31 0.512448
31 32 0.393249
31 876 0.094303
32 33 0.524919
32 174 0.461361
32 193 0.000167197
32 498 0.013553
33 34 0.333333
33 1282 0.333333
33 2312 0.333333
34 35 0.333333
34 39 0.333333
34 40 0.333333
35 36 0.599971
35 1322 0.0500462
35 1340 0.349983
36 37 0.236267
36 200 0.467189
36 205 0.0955215
36 269 0.0799225
36 441 0.116928
36 648 1.94402e-05
36 899 0.00415275
37 31 0.5
37 41 0.5
38 24 0.0497747
38 38 9.10565e-06
38 42 0.575015
38 653 0.375201
39 43 1
40 17 0.199918
40 38 0.200227
40 96 0.200063
40 268 6.31673e-06
40 2296 0.199893
40 2297 0.199893
41 38 0.980831
41 77 0.0190618
41 2537 3.15211e-06
41 4774 0.000104129
42 24 0.499517
42 39 0.125121
42 1321 0.375362
43 1309 1
44 16 0.198148
44 45 0.267284
44 396 0.267284
44 1301 0.267284
45 47 0.666679
45 787 0.166651
45 3164 0.16667
46 32 0.142857
46 48 0.428571
46 65 0.142857
46 434 0.142857
46 469 0.142857
47 49 1
48 50 1
49 51 0.5
49 4728 0.5
50 52 0.583333
50 705 0.416667
51 54 0.445397
51 75 0.112248
51 208 0.111641
51 820 0.111366
51 2552 0.219348
52 53 0.8
52 1976 0.2
53 31 0.333407
53 54 0.333186
53 55 0.333407
54 56 1
55 46 4.74496e-06
55 57 0.999995
56 8 0.36325
56 10 0.636718
56 1897 3.14807e-05
57 8 0.286355
57 58 0.570916
57 80 0.0713645
57 4680 0.0713645
58 4 0.544329
58 11 0.317301
58 25 1.01647e-06
58 46 0.0669098
58 77 0.0714532
58 476 6.57448e-06
59 60 0.547585
59 729 0.452415
60 25 0.00076662
60 59 0.59954
60 383 0.399693
61 25 0.607143
61 38 0.382649
61 77 0.0102077
62 7 0.248005
62 33 0.125366
62 61 0.125366
62 99 0.375897
62 1892 0.125366
63 62 0.333333
63 64 0.333333
63 65 0.333333
64 63 0.0956624
64 66 0.508625
64 367 0.339076
64 595 0.000123834
64 1045 0.0565135
65 8 1
66 8 0.683972
66 80 0.0486197
66 138 0.267408
67 67 0.0588251
67 68 0.411768
67 69 0.058824
67 174 0.176534
67 228 0.0588233
67 524 0.058761
67 1044 0.0588237
67 2598 0.0588168
67 4799 0.058824
68 70 0.0357142
68 71 0.607142
68 1045 0.357142
68 2634 1.40542e-06
69 72 0.288952
69 184 8.33596e-07
69 338 0.313617
69 433 0.131347
69 953 0.239815
69 3910 0.0262688
70 73 0.75
70 474 0.25
71 33 0.510929
71 174 0.489071
72 63 0.498449
72 478 0.445845
72 2602 0.0557059
73 74 0.5
73 75 0.5
74 76 0.870968
74 757 0.0322578
74 1861 0.0967738
75 74 0.923082
75 834 0.076918
76 79 1
77 68 0.714275
77 498 0.14287
77 2564 0.142855
78 81 0.500006
78 82 0.499994
79 83 0.975564
79 4170 0.0244359
80 84 0.5
80 85 0.5
81 86 0.89996
81 1497 0.0999955
81 1862 4.48959e-05
82 38 9.55904e-06
82 87 0.99999
83 88 1
84 88 0.272905
84 89 0.727095
85 90 1
86 91 1
87 25 0.220855
87 719 0.779145
88 92 1
89 93 0.384615
89 609 0.615385
90 94 0.75
90 95 0.25
91 16 0.137656
91 19 0.017456
91 103 0.720321
91 336 0.107283
91 405 0.0172847
92 96 1
93 98 1
94 97 0.2
94 99 0.2
94 806 0.2
94 2159 0.2
94 2800 0.2
95 15 0.142857
95 24 0.142857
95 100 0.142857
95 164 0.428571
95 476 0.142857
96 101 0.266671
96 757 0.666677
96 4284 0.0666527
97 102 0.666668
97 3804 0.333332
98 103 0.200103
98 104 0.200001
98 170 0.199895
98 3685 0.200001
98 3686 0.200001
99 16 0.298036
99 19 1.62046e-05
99 160 0.701948
100 105 1
101 8 0.228576
101 69 0.0453779
101 107 0.544535
101 166 0.0907558
101 715 0.0453779
101 5002 0.0453779
102 103 0.00549712
102 196 0.788181
102 273 0.0178725
102 899 0.111625
102 1588 0.0768242
103 108 1
104 15 0.332655
104 31 0.333673
104 109 0.333673
105 46 1
106 7 0.125689
106 11 0.125641
106 15 0.245669
106 111 0.125689
106 1259 0.125689
106 1828 0.000242874
106 5047 0.125689
106 5048 0.125689
107 112 0.25
107 705 0.25
107 869 0.25
107 3035 0.25
108 116 0.043025
108 373 0.134063
108 666 0.258117
108 818 0.129033
108 1102 0.435762
109 16 0.167679
109 569 0.242562
109 2066 0.530783
109 3915 0.0589759
110 160 0.14286
110 699 0.142857
110 823 0.285713
110 1890 0.142857
110 3368 0.142857
110 4540 0.142857
111 7 0.117522
111 27 0.0587594
111 115 0.000643447
111 282 0.29425
111 423 0.352536
111 1202 0.117512
111 2600 0.058756
111 2602 2.08102e-05
112 36 0.0908349
112 99 0.0916508
112 290 0.817514
113 116 0.390736
113 316 4.23384e-05
113 396 7.92257e-07
113 570 0.0604178
113 576 0.0334834
113 666 3.04918e-06
113 818 0.470635
113 1255 1.55135e-06
113 1315 0.0446801
114 117 1
115 68 0.997504
115 3398 0.00249649
116 120 0.748175
116 451 0.0138591
116 1213 0.110873
116 1603 0.127093
117 121 1
118 16 0.322085
118 122 0.321973
118 945 0.0338682
118 2991 0.322074
119 123 1
120 113 0.250688
120 114 0.250688
120 115 0.24794
120 124 0.250684
121 26 1
122 31 0.742138
122 125 0.0670734
122 196 0.039685
122 873 0.1511
122 4600 3.85282e-06
123 126 0.5
123 1466 0.25
123 4425 0.25
124 128 0.583333
124 176 0.416667
125 46 0.00696841
125 129 0.33101
125 2213 0.331011
125 4824 0.331011
126 127 0.941177
126 946 0.0588235
127 130 0.384619
127 2163 0.384619
127 2754 0.230763
128 435 0.351316
128 539 0.00419614
128 1309 0.293651
128 1568 0.234211
128 3440 0.116626
129 40 0.142857
129 131 0.142857
129 132 0.285714
129 133 0.285714
129 134 0.142857
130 134 1
131 135 0.750005
131 273 0.249995
132 16 0.00130704
132 248 0.441142
132 418 0.502952
132 695 3.28982e-06
132 975 0.0110219
132 1382 1.18536e-07
132 2029 0.0435736
133 16 0.0694296
133 136 0.21546
133 183 0.348724
133 480 0.215453
133 986 0.150933
134 137 1
135 139 1
136 16 0.0468168
136 103 0.000112804
136 316 0.000408108
136 505 0.907276
136 576 0.000216634
136 3108 0.0451651
136 3115 4.5789e-06
137 140 0.166666
137 436 0.166666
137 510 0.499998
137 664 4.10109e-06
137 2755 0.166666
138 141 0.5
138 2769 0.5
139 27 0.0834111
139 31 0.165041
139 142 0.0807708
139 476 0.298948
139 585 0.147553
139 908 0.149517
139 3344 0.0747587
140 27 0.211004
140 142 0.386009
140 143 0.402986
141 112 0.0210744
141 144 0.978926
142 7 0.124995
142 20 3.71054e-05
142 145 0.249991
142 472 0.124995
142 532 0.124995
142 879 0.124995
142 3115 0.249991
143 15 0.13904
143 25 0.304798
143 445 0.556161
144 146 0.545455
144 1166 0.272727
144 1930 0.090909
144 2603 0.0909091
145 63 0.348027
145 147 0.349393
145 148 0.30258
146 149 0.5
146 1234 0.5
147 150 0.5
147 492 0.5
148 11 0.340759
148 151 0.329621
148 2907 0.329621
149 152 0.500363
149 153 0.499637
150 153 0.00289769
150 154 0.997102
151 2 1
152 155 0.333333
152 158 0.333333
152 159 0.333333
153 153 0.498898
153 157 0.501102
154 156 0.666667
154 1524 0.333333
155 160 0.263517
155 423 0.294594
155 648 0.147297
155 2286 0.147297
155 2898 0.147296
156 78 0.0277543
156 834 0.194449
156 3562 0.194449
156 3563 0.194449
156 3623 0.388898
157 161 0.50243
157 206 0.49757
158 162 0.6
158 163 0.2
158 3128 0.2
159 46 0.254892
159 99 0.124276
159 103 0.124275
159 222 0.124276
159 1122 0.12373
159 2264 0.124276
159 2729 0.124276
160 164 0.770632
160 939 0.0770112
160 3987 0.0770112
160 4289 0.0753455
161 165 0.0645965
161 166 0.818478
161 1694 0.0584627
161 1846 0.0584627
162 167 1
163 81 0.490834
163 168 0.436478
163 648 0.0726876
164 24 0.00133256
164 169 0.48832
164 375 0.342057
164 824 0.097664
164 2857 0.0706261
165 2 0.0527953
165 20 0.00287062
165 78 0.310789
165 120 0.633545
166 20 0.0195243
166 25 0.259691
166 170 0.431865
166 174 0.00160704
166 1682 0.287313
167 171 0.616257
167 1830 0.383743
168 16 0.105766
168 38 0.11234
168 78 0.0163032
168 172 0.321925
168 413 0.32208
168 1462 0.107485
168 3237 0.014101
169 173 0.8
169 2776 0.2
170 174 0.000745784
170 1519 0.249814
170 3123 0.249813
170 4523 0.249814
170 4534 0.249814
171 92 0.0762155
171 175 0.233678
171 176 0.381072
171 498 0.23282
171 838 0.0762144
172 177 0.166667
172 1524 0.166667
172 1873 0.166667
172 2309 0.333333
172 4207 0.166667
173 178 1
174 179 0.111017
174 571 0.111579
174 751 0.444066
174 1746 0.333049
174 3227 0.000289661
175 180 1
176 181 0.142857
176 182 0.285714
176 319 0.142857
176 419 0.142857
176 421 0.142857
176 422 0.142857
177 187 1
178 72 0.0126945
178 96 1.56232e-07
178 174 0.0249707
178 396 3.8413e-05
178 436 0.962296
179 38 0.199676
179 184 0.200076
179 185 0.400165
179 3817 0.200083
180 186 0.5
180 2330 0.5
181 188 1
182 189 0.5
182 751 0.25
182 1049 0.25
183 24 0.100036
183 190 0.200072
183 545 0.599858
183 1060 0.100035
184 27 1
185 191 1
186 63 0.323261
186 170 0.112994
186 205 0.224526
186 397 0.11308
186 1519 0.226139
187 1233 1
188 63 0.000706646
188 65 0.998572
188 2830 0.000721723
189 192 0.333334
189 193 0.333334
189 194 0.333332
190 70 0.25
190 195 0.75
191 33 0.401243
191 197 0.598757
192 197 0.0019427
192 198 0.998057
193 199 1
194 67 0.666658
194 3815 0.333342
195 201 0.5
195 202 0.5
196 203 1
197 204 0.499997
197 205 0.500003
198 187 0.332262
198 206 0.335476
198 3848 0.332262
199 103 0.266883
199 205 0.656705
199 3279 0.0764114
200 16 0.361578
200 205 0.193926
200 418 0.0691599
200 673 0.187668
200 675 0.187668
201 196 0.1
201 200 0.1
201 205 0.1
201 207 0.1
201 1417 0.1
201 1431 0.1
201 1432 0.1
201 1433 0.1
201 1434 0.1
201 1435 0.1
202 75 0.999998
202 136 2.06128e-06
203 208 0.999652
203 1697 0.000347834
204 209 1
205 11 0.201686
205 195 0.399157
205 211 0.199578
205 221 0.199579
206 65 0.0432039
206 210 0.825513
206 237 0.130344
206 490 0.000939405
207 552 0.90455
207 685 0.0954501
208 106 3.98069e-07
208 174 7.94795e-07
208 212 0.428565
208 905 0.183675
208 924 0.387759
209 213 0.333336
209 222 0.333328
209 4376 0.333336
210 46 0.330818
210 214 0.167296
210 391 0.167296
210 3646 0.167293
210 4923 0.167296
211 90 0.384615
211 457 0.538462
211 2690 0.0769231
212 215 0.25
212 218 0.25
212 219 0.25
212 220 0.25
213 261 0.261323
213 833 0.147656
213 1143 0.295312
213 1359 0.29571
214 216 0.5
214 217 0.5
215 224 0.2
215 750 0.8
216 65 0.461538
216 225 0.461539
216 1436 0.0769229
217 174 0.0486634
217 417 0.192817
217 466 0.289226
217 664 0.131863
217 1145 0.33743
218 226 0.247667
218 227 0.504666
218 1625 0.247667
219 223 0.5
219 3120 0.5
220 30 0.333333
220 1116 0.333333
220 2116 0.333333
221 119 3.19075e-06
221 229 0.166369
221 254 0.00178471
221 585 0.332737
221 886 0.332737
221 2315 0.166369
222 230 0.333333
222 231 0.333333
222 232 0.333333
223 121 0.2
223 233 0.2
223 234 0.2
223 235 0.2
223 236 0.2
224 185 0.5
224 2855 0.5
225 25 0.265385
225 63 0.0734034
225 77 0.1295
225 103 0.0449839
225 476 0.486728
226 19 0.199477
226 300 0.200131
226 558 0.200131
226 949 0.200131
226 1399 0.200131
227 4 1.75346e-06
227 5 0.00090781
227 25 1.6236e-06
227 99 0.287104
227 271 9.36842e-05
227 380 0.142378
227 420 0.427134
227 866 0.142378
228 240 0.5
228 877 0.25
228 1339 0.25
229 33 0.142259
229 239 0.571819
229 1001 0.285922
230 238 1
231 116 0.5
231 241 0.5
232 242 1
233 497 0.434537
233 1562 0.144846
233 1921 0.144846
233 2750 0.130954
233 2761 0.144818
234 11 0.328572
234 314 0.671428
235 172 0.2
235 243 0.2
235 244 0.4
235 245 0.2
236 247 1
237 246 1
238 121 0.5
238 154 0.5
239 249 0.924614
239 418 0.0753864
240 184 0.199635
240 250 0.200092
240 251 0.200091
240 252 0.200091
240 3578 0.200092
241 253 1
242 254 0.250077
242 255 0.124996
242 476 0.124979
242 968 0.499948
243 254 0.441915
243 327 0.223282
243 975 0.111534
243 1465 0.223269
244 256 0.250007
244 489 0.124975
244 1902 0.125003
244 2345 0.250007
244 2759 0.250007
245 46 0.132873
245 257 0.289157
245 372 0.289157
245 3440 0.144235
245 4989 0.144578
246 4 0.0409453
246 20 0.198221
246 103 0.120927
246 196 0.277149
246 259 0.120919
246 3421 0.120919
246 5069 0.120919
247 258 1
248 260 0.75
248 3845 0.25
249 262 0.5
249 263 0.5
250 397 1
251 264 1
252 19 2.92026e-05
252 265 0.999971
253 396 0.369096
253 463 0.46053
253 570 0.0728109
253 666 0.0975627
254 72 0.166666
254 2055 0.166667
254 2468 0.333333
254 2689 0.166667
254 3216 0.166667
255 266 0.5
255 267 0.5
256 268 1
257 38 0.447965
257 185 0.457255
257 569 0.0947716
257 4289 7.95769e-06
258 99 0.176339
258 187 0.823661
259 1061 1
260 99 1
261 274 0.88264
261 919 0.00604222
261 2537 0.000988021
261 3089 0.11033
262 38 0.111111
262 269 0.222222
262 270 0.111111
262 271 0.222222
262 272 0.111111
262 273 0.111111
262 275 0.111111
263 70 0.25
263 276 0.25
263 278 0.249999
263 2022 0.25
264 19 0.167022
264 277 0.666382
264 1045 0.166596
265 279 1
266 31 0.4
266 280 0.6
267 46 0.00130464
267 281 0.998695
268 282 0.25
268 283 0.25
268 534 0.25
268 1265 0.25
269 63 0.000169364
269 476 0.101139
269 831 0.399418
269 1121 0.0998546
269 1865 0.299564
269 4719 0.0998546
270 284 1
271 63 0.333335
271 285 0.333332
271 286 0.333332
272 11 0.0845277
272 287 0.915472
273 32 0.333333
273 288 0.666667
274 16 0.224348
274 289 0.11934
274 369 0.596647
274 1561 0.0596653
275 437 0.428571
275 637 0.142857
275 979 0.285714
275 1292 0.142857
276 16 8.60747e-07
276 46 0.0846785
276 174 0.0499754
276 371 0.235883
276 1793 0.629462
277 271 0.249877
277 290 0.250041
277 291 0.250041
277 381 0.250041
278 30 0.14282
278 112 0.21423
278 248 0.071688
278 292 0.0714099
278 851 0.142802
278 1053 0.35705
279 4 0.00012942
279 20 0.0722664
279 293 0.67451
279 451 0.0844542
279 453 1.85113e-06
279 456 0.168638
280 294 0.999254
280 295 0.00074601
281 694 0.0827615
281 790 0.611492
281 2886 0.305746
282 295 0.199881
282 296 0.20003
282 297 0.40006
282 298 0.20003
283 116 0.015235
283 300 0.984765
284 301 0.666667
284 964 0.333333
285 302 0.793955
285 315 0.206045
286 303 0.5
286 316 0.5
287 213 1
288 304 0.500001
288 305 0.499999
289 306 0.250001
289 476 0.249998
289 490 0.250001
289 491 0.250001
290 112 0.452366
290 410 3.36852e-05
290 773 0.166661
290 941 0.0952349
290 1116 0.285705
291 307 0.477275
291 418 0.0454505
291 1795 0.238637
291 4828 0.238637
292 205 0.166693
292 293 0.500056
292 456 0.166566
292 3827 0.166685
293 63 0.486469
293 308 0.513531
294 25 0.1678
294 200 0.277398
294 500 0.554802
295 122 0.25
295 309 0.25
295 310 0.25
295 311 0.25
296 11 3.91436e-06
296 312 0.333332
296 476 0.333332
296 1931 0.333332
297 313 1
298 666 0.000298747
298 1201 0.111147
298 1433 0.444279
298 1565 0.111069
298 2152 0.111069
298 2165 0.111069
298 3342 0.111069
299 61 0.166683
299 317 0.500047
299 1425 0.166683
299 5058 0.166587
300 318 1
301 31 0.182475
301 81 0.272529
301 185 0.0908302
301 975 0.0907935
301 3484 0.363372
302 46 3.00849e-05
302 63 1.53717e-06
302 103 0.249992
302 155 0.124996
302 319 0.124996
302 320 0.374988
302 497 0.124996
303 63 0.162267
303 205 0.167547
303 247 0.167547
303 321 0.167547
303 323 0.167547
303 3383 0.167547
304 46 7.66332e-05
304 322 0.999923
305 324 1
306 107 0.0722267
306 154 0.0722267
306 306 0.0722263
306 325 0.288907
306 456 0.216287
306 1584 0.133673
306 1694 0.0722266
306 2222 0.0722264
307 326 0.190476
307 410 0.142857
307 941 0.238095
307 1034 2.01464e-06
307 1116 0.428571
308 77 0.25
308 328 0.25
308 329 0.25
308 330 0.25
309 121 1
310 331 0.333333
310 332 0.333333
310 333 0.333333
311 334 1
312 335 1
313 96 0.302562
313 337 0.348719
313 340 0.348718
314 339 1
315 20 0.118608
315 27 0.644094
315 2624 0.237298
316 341 0.5
316 2992 0.5
317 218 0.142857
317 342 0.142857
317 343 0.571429
317 488 0.142857
318 193 1
319 77 0.199998
319 344 0.199999
319 345 0.200001
319 346 0.200001
319 347 0.200001
320 276 0.378379
320 348 0.108108
320 502 0.108108
320 851 0.162162
320 1920 0.216216
320 4044 0.0270263
321 349 0.75
321 3020 0.25
322 350 1
323 63 0.523714
323 196 0.476286
324 4 0.127939
324 27 2.83531e-06
324 952 0.436029
324 3094 0.218014
324 3363 0.218014
325 331 0.666595
325 3228 0.000107893
325 3229 0.333297
326 4 4.41338e-05
326 107 0.199991
326 332 0.199991
326 351 0.199991
326 352 0.199991
326 353 0.199991
327 354 0.5
327 2585 0.5
328 355 0.333335
328 356 0.33333
328 1024 0.333335
329 25 0.150557
329 464 0.424722
329 492 0.254833
329 4656 0.169888
330 357 1
331 358 0.6
331 420 0.2
331 2739 0.2
332 46 0.68892
332 1526 0.31108
333 359 0.5
333 2154 0.5
334 20 0.0512781
334 658 0.658917
334 1862 0.289805
335 360 1
336 361 1
337 184 0.499999
337 362 0.500001
338 100 0.333333
338 363 0.333333
338 365 0.333333
339 364 0.666597
339 366 0.333403
340 366 0.818166
340 494 1.33031e-05
340 533 0.0909105
340 1544 0.0909105
341 27 0.210719
341 46 0.0490282
341 160 0.634548
341 1990 0.105705
342 368 1
343 185 0.314377
343 309 0.0422928
343 569 0.507499
343 897 0.0898222
343 1906 9.29778e-06
343 3915 0.0460006
344 116 0.500229
344 370 0.499771
345 35 0.500286
345 116 0.499714
346 374 0.857144
346 3621 0.142856
347 376 0.5
347 377 0.5
348 378 1
349 96 1
350 379 0.5
350 3853 0.5
351 218 0.143583
351 289 0.729466
351 2560 0.00537302
351 4927 0.121578
352 362 0.166565
352 382 0.166744
352 576 0.16646
352 617 0.166744
352 1136 0.333487
353 99 0.332078
353 119 0.110892
353 174 0.221714
353 384 0.221713
353 456 0.113603
354 385 0.250004
354 386 0.24999
354 387 0.250003
354 4745 0.250004
355 386 0.0832796
355 1509 0.541664
355 4412 0.375056
356 388 1
357 389 1
358 63 0.55355
358 77 0.44645
359 223 1
360 390 1
361 392 0.666667
361 2846 0.333333
362 393 1
363 20 1.04223e-05
363 38 0.33333
363 394 0.333329
363 395 0.33333
364 38 0.0854599
364 196 0.230862
364 397 0.427298
364 1322 0.25638
365 184 0.000760654
365 399 0.66616
365 498 0.33308
366 398 0.5
366 706 0.25
366 2670 0.25
367 400 1
368 11 0.200092
368 401 0.399932
368 786 0.199966
368 4767 4.2825e-05
368 4877 0.199966
369 38 0.500112
369 403 0.499888
370 404 0.500001
370 405 0.499999
371 402 0.666667
371 4862 0.333333
372 219 0.666661
372 4369 0.333339
373 7 0.142834
373 442 0.142861
373 982 0.142861
373 1793 0.571444
374 406 1
375 46 0.147044
375 144 0.170597
375 396 0.170569
375 407 0.170597
375 408 0.170597
375 409 0.170597
376 63 0.215161
376 411 0.588629
376 1265 0.19621
377 96 0.0909626
377 412 0.545422
377 1378 0.181808
377 1415 0.090904
377 2860 0.0909038
378 96 0.665883
378 412 8.79985e-06
378 4457 0.334108
379 16 0.0637524
379 413 0.664175
379 751 0.198348
379 1174 0.0665367
379 3428 0.00718758
380 15 0.112119
380 415 0.665897
380 1011 1.84849e-05
380 3111 0.221966
381 205 0.20054
381 416 0.0999329
381 442 0.0999329
381 672 0.0999329
381 736 0.0999322
381 996 0.0999329
381 3043 0.0999314
381 3168 0.099932
381 4362 0.0999329
382 25 0.00668881
382 336 0.496657
382 417 0.496654
383 423 0.333333
383 3555 0.666667
384 31 0.2
384 172 0.2
384 373 0.2
384 424 0.2
384 425 0.2
385 16 0.157679
385 223 0.203007
385 418 0.2333
385 2347 0.203007
385 2348 0.203007
386 426 1
387 20 0.000998098
387 427 0.999002
388 428 1
389 20 0.0430265
389 429 0.159515
389 784 0.372086
389 1261 0.425373
390 48 0.363024
390 65 0.121008
390 77 0.029167
390 430 0.484032
390 585 0.00276853
391 154 0.0526263
391 325 0.105253
391 431 0.157879
391 451 0.421111
391 546 0.0526265
391 715 0.0526263
391 1194 0.0526258
391 1685 0.0526264
391 3380 0.0526259
392 432 0.545455
392 821 0.0909089
392 869 0.0909091
392 1116 0.272727
393 419 1
394 96 0.107202
394 196 0.1116
394 2057 0.781198
395 77 0.578857
395 121 0.10488
395 1118 0.263124
395 1316 0.0526249
395 1382 0.000513709
396 11 0.164653
396 20 0.161161
396 121 0.164373
396 174 0.181061
396 438 0.164376
396 442 0.164376
397 125 0.2
397 346 0.2
397 434 0.2
397 435 0.2
397 439 0.2
398 440 0.5
398 1224 0.25
398 3498 0.25
399 16 0.359324
399 46 1.22023e-06
399 96 2.8586e-05
399 200 0.355986
399 441 0.213591
399 1174 0.0710694
400 1621 1
401 1813 0.25
401 2464 0.5
401 2825 0.25
402 172 0.200011
402 269 0.399966
402 444 0.200011
402 3298 0.200011
403 345 0.5
403 443 0.5
404 446 0.888889
404 576 0.111111
405 77 0.166731
405 297 0.833269
406 7 0.2
406 576 0.2
406 682 0.2
406 1135 0.2
406 4187 0.2
407 449 0.832234
407 3162 0.167766
408 449 0.401216
408 450 0.598784
409 16 0.180687
409 114 0.408845
409 602 0.205234
409 2952 0.205234
410 18 0.250875
410 1334 0.749125
411 451 1
412 452 0.666667
412 453 0.333333
413 433 0.25
413 454 0.250004
413 476 0.249997
413 1120 0.25
414 65 0.200001
414 447 0.200001
414 448 0.200001
414 454 0.199997
414 455 0.200001
415 218 0.25
415 222 0.25
415 456 0.5
416 458 1
417 459 1
418 460 1
419 461 0.4
419 2713 0.6
420 462 0.166716
420 595 0.333138
420 1314 0.166716
420 3339 0.166715
420 4623 0.166714
421 33 0.155305
421 446 0.0767904
421 465 0.691114
421 665 0.0767904
422 63 0.385383
422 466 0.307317
422 1322 0.204861
422 2634 0.102439
423 467 0.75
423 3977 0.25
424 468 0.5
424 2048 0.5
425 33 0.382844
425 174 0.224433
425 1241 0.112182
425 1651 0.224432
425 3588 0.0561081
426 11 0.603285
426 77 0.00696987
426 78 0.00291837
426 308 0.185306
426 1176 0.201521
427 65 0.112516
427 77 0.21239
427 225 0.112516
427 377 0.112516
427 469 0.112516
427 470 0.112516
427 2444 0.225031
428 38 0.198905
428 106 0.0659623
428 1584 0.00955835
428 1845 0.197874
428 2185 0.461738
428 2711 0.0659625
429 471 0.5
429 2884 0.5
430 16 0.249155
430 473 0.250282
430 474 0.250282
430 475 0.250282
431 476 0.499703
431 489 0.166766
431 3824 0.333531
432 293 0.199999
432 477 0.400001
432 1797 0.199999
432 3825 0.200001
433 11 0.496384
433 121 0.251795
433 3826 0.251821
434 479 0.500782
434 481 0.499218
435 482 1
436 33 0.333333
436 497 0.333333
436 3897 0.333333
437 5 0.134915
437 6 0.66437
437 121 0.0063346
437 481 0.19438
438 483 1
439 24 0.2
439 484 0.2
439 485 0.2
439 486 0.2
439 487 0.2
440 493 1
441 494 0.85714
441 1522 0.14286
442 11 5.24114e-05
442 495 0.60061
442 1619 0.200203
442 3811 0.00447312
442 3812 0.194662
443 496 1
444 345 0.666666
444 746 0.333334
445 497 0.333352
445 498 0.333297
445 499 0.333351
446 193 0.166429
446 500 0.500677
446 2673 0.332893
447 501 1
448 254 0.339956
448 3575 0.330022
448 3897 0.330022
449 503 0.75
449 504 0.25
450 505 0.00148576
450 506 0.998514
451 507 1
452 7 0.337541
452 335 0.33123
452 4046 0.33123
453 63 0.2
453 147 0.2
453 148 0.2
453 252 0.2
453 508 0.2
454 268 0.499991
454 509 0.500009
455 172 1
456 511 1
457 512 1
458 476 0.123693
458 513 0.292096
458 625 0.146067
458 2136 0.438144
459 42 0.144408
459 65 0.285461
459 428 0.284667
459 1316 0.285465
460 70 1
461 514 0.5
461 515 0.5
462 174 0.333333
462 516 0.333333
462 2042 0.333333
463 106 0.199995
463 517 0.600005
463 3381 0.2
464 518 0.5
464 4380 0.5
465 48 0.142857
465 262 0.142857
465 419 0.285715
465 519 0.285714
465 1549 0.142857
466 373 0.221906
466 463 0.443811
466 3067 0.334283
467 16 0.276661
467 245 0.361669
467 520 0.36167
468 521 1
469 522 1
470 197 0.156151
470 523 0.531537
470 576 0.0624649
470 632 0.0936924
470 2290 0.156154
471 56 0.25
471 524 0.5
471 574 0.25
472 525 1
473 526 0.5
473 2582 0.5
474 1831 1
475 397 0.5
475 527 0.5
476 528 1
477 529 0.5
477 533 0.5
478 534 1
479 373 1.70998e-05
479 456 0.999694
479 1584 0.000289093
480 38 0.233199
480 380 0.2556
480 421 0.511201
481 152 0.556837
481 535 0.443149
481 1462 1.39964e-05
482 65 0.170294
482 405 0.148532
482 451 0.170294
482 530 0.170294
482 531 0.170294
482 536 0.170291
483 502 0.166487
483 851 0.499461
483 1053 0.332974
483 3440 0.00107717
484 514 0.166331
484 537 0.334675
484 538 0.166331
484 1467 0.166331
484 2998 0.166331
485 46 0.152369
485 540 0.423769
485 758 0.169535
485 915 0.169539
485 1993 0.0847894
486 539 1
487 225 0.25
487 870 0.25
487 1391 0.25
487 4373 0.25
488 2370 0.222222
488 2727 0.666667
488 3412 0.111111
489 541 0.333333
489 542 0.333333
489 544 0.333333
490 28 0.666196
490 36 0.333098
490 46 0.000706132
491 20 0.1912
491 46 0.263254
491 193 0.272773
491 545 0.272773
492 20 0.616518
492 451 0.379976
492 2062 0.00350567
493 276 0.266706
493 547 0.666631
493 851 0.0666631
494 548 0.5
494 550 0.5
495 549 0.586331
495 1380 0.146583
495 2250 0.146583
495 4939 0.120503
496 96 0.000172691
496 290 0.333276
496 551 0.333276
496 4229 0.333276
497 74 0.5
497 553 0.5
498 498 0.142857
498 554 0.142857
498 863 0.142857
498 2519 0.142857
498 3753 0.285714
498 4568 0.142857
499 555 0.200029
499 556 0.799971
500 4 0.652593
500 555 0.347407
501 7 0.25
501 196 0.25
501 557 0.25
501 558 0.25
502 559 0.999032
502 1069 0.000967767
503 15 0.333334
503 560 0.666666
504 5 1.99562e-05
504 20 0.0343449
504 78 0.0107596
504 562 0.35745
504 784 0.00167603
504 789 0.595749
505 561 0.333333
505 2172 0.333333
505 2173 0.333333
506 563 0.5
506 1448 0.5
507 564 0.714286
507 834 0.285714
508 565 0.5
508 4714 0.5
509 19 0.437401
509 45 0.375066
509 81 0.125022
509 456 0.062511
510 7 0.110929
510 100 0.110929
510 324 0.443716
510 566 0.0016172
510 1798 0.221858
510 2421 0.11095
511 534 0.499998
511 567 0.500002
512 79 0.368447
512 175 0.578632
512 964 0.0529208
513 338 0.14753
513 569 0.139321
513 1902 0.0740442
513 3394 0.295061
513 3851 0.14753
513 3915 0.0489834
513 3979 0.0737652
513 4216 0.0737651
514 196 0.0975517
514 271 0.0691307
514 566 0.740576
514 5020 0.0927412
515 185 0.111199
515 271 0.221626
515 290 0.222392
515 534 0.111196
515 3277 0.333588
516 568 0.250001
516 3197 0.249998
516 3241 0.250001
516 3242 0.25
517 309 8.15729e-07
517 569 0.284473
517 571 0.681209
517 1301 0.0343174
518 572 1
519 573 0.25
519 583 0.25
519 805 0.5
520 371 0.857124
520 2861 0.142876
521 575 1
522 30 0.0736805
522 753 0.294722
522 944 0.589444
522 945 0.0421531
523 32 1
524 576 0.200313
524 577 0.200313
524 578 0.200312
524 579 0.198964
524 1009 0.200097
525 19 0.237808
525 423 0.253496
525 579 0.00170603
525 580 0.50699
526 581 1
527 16 0.0577456
527 65 0.054493
527 581 0.118312
527 582 0.0598511
527 836 0.177399
527 1402 0.236532
527 1616 0.118267
527 2492 0.177399
528 65 0.166344
528 414 0.166731
528 584 0.166731
528 1198 0.333462
528 2962 0.166731
529 4 0.301131
529 7 0.327527
529 25 0.371152
529 65 0.000190038
530 585 0.5
530 587 0.5
531 142 0.166741
531 586 0.666966
531 2621 0.166293
532 588 0.6
532 878 0.4
533 589 0.508671
533 591 0.491329
534 590 0.329588
534 591 0.0112348
534 592 0.329588
534 2401 0.329588
535 593 0.5
535 889 0.5
536 26 0.169648
536 121 0.254474
536 1242 0.575878
537 46 0.18279
537 70 0.064739
537 920 0.36404
537 995 0.323695
537 2634 0.0647357
538 583 0.166667
538 609 0.833333
539 595 1
540 4 0.0350486
540 578 0.160825
540 594 0.804126
541 596 1
542 25 3.20467e-05
542 46 6.01639e-05
542 174 0.741413
542 1317 0.258495
543 597 0.999938
543 2392 6.22752e-05
544 77 0.333333
544 598 0.666667
545 5 0.00222897
545 46 0.997755
545 78 1.58772e-05
546 46 0.283999
546 603 0.286401
546 604 0.286401
546 2693 0.1432
547 106 0.75
547 1392 0.25
548 599 0.333333
548 600 0.333333
548 601 0.333333
549 7 0.333333
549 602 0.333333
549 1400 0.333334
550 605 0.333334
550 606 0.333334
550 607 0.333333
551 1678 0.666667
551 2669 0.166667
551 4866 0.166667
552 56 0.333333
552 584 0.333333
552 608 0.333333
553 610 1
554 611 1
555 612 1
556 36 0.5
556 613 0.5
557 614 0.5
557 615 0.5
558 36 0.334092
558 46 0.331816
558 949 0.334092
559 616 1
560 617 1
561 46 0.495614
561 618 0.504386
562 619 1
563 11 0.0663405
563 46 0.0723086
563 621 0.4494
563 657 0.41195
564 620 0.875
564 1147 0.125
565 622 1
566 46 0.294276
566 623 0.201746
566 624 0.201591
566 2912 0.302387
567 623 0.961402
567 4412 0.0385975
568 5 3.91435e-06
568 578 0.363635
568 956 0.636361
569 626 1
570 625 0.5
570 627 0.5
571 628 1
572 397 0.999955
572 653 3.7719e-05
572 1561 6.79994e-06
573 16 0.141041
573 96 0.14357
573 183 0.143078
573 629 0.143075
573 2337 0.286157
573 3876 0.143078
574 489 0.333333
574 932 0.666667
575 132 1
576 630 0.333331
576 631 0.333332
576 2546 0.333338
577 634 0.5
577 635 0.5
578 633 0.555556
578 1931 0.333333
578 1945 0.111111
579 636 0.75
579 1844 0.25
580 285 1
581 638 0.2
581 2425 0.8
582 463 0.219318
582 639 0.260227
582 1275 0.260227
582 2165 0.260227
583 46 0.0688923
583 640 0.931108
584 641 1
585 642 1
586 46 0.199493
586 1022 0.499264
586 1918 0.199705
586 4428 0.101538
587 127 0.600002
587 205 0.200001
587 2849 0.199997
588 63 0.396514
588 348 0.20116
588 643 0.201163
588 644 0.201163
589 63 0.142958
589 1025 0.714202
589 2586 0.14284
590 397 0.5
590 1249 0.5
591 645 0.25
591 646 0.25
591 647 0.5
592 650 0.5
592 2648 0.5
593 651 0.5
593 1801 0.5
594 185 0.5
594 652 0.5
595 103 0.199928
595 493 0.200296
595 654 0.199925
595 1198 0.199925
595 2658 0.199925
596 445 0.333333
596 510 0.666667
597 655 0.5
597 4567 0.5
598 193 0.5
598 656 0.5
599 77 0.165576
599 476 0.166892
599 958 0.333766
599 1999 0.166883
599 3364 0.166883
600 659 1
601 38 0.25
601 660 0.25
601 662 0.25
601 747 0.25
602 136 0.200057
602 648 0.199649
602 649 0.200098
602 661 0.200098
602 663 0.200098
603 664 0.170717
603 665 0.829283
604 436 0.166667
604 669 0.166667
604 1460 0.333333
604 1461 0.166667
604 4787 0.166667
605 667 0.25
605 668 0.25
605 670 0.25
605 2651 0.25
606 77 0.113682
606 238 0.380224
606 348 0.126529
606 671 0.126511
606 1115 0.126524
606 3963 0.12653
607 423 0.0588486
607 582 0.293528
607 674 0.411942
607 2066 0.176546
607 3804 0.0591349
608 676 0.333333
608 2969 0.333333
608 3524 0.333333
609 677 1
610 11 0.263424
610 63 0.215985
610 1060 0.130148
610 1201 0.130148
610 3891 0.130148
610 5087 0.130148
611 32 0.500002
611 678 0.499998
612 16 0.630015
612 99 0.190218
612 1861 0.179768
613 679 0.333333
613 680 0.333333
613 681 0.333333
614 15 0.201188
614 16 0.195255
614 96 0.40237
614 682 0.201188
615 174 0.124999
615 478 0.499996
615 684 0.375005
616 683 1
617 11 1.51433e-05
617 564 0.9521
617 685 0.047885
618 8 0.5
618 319 0.5
619 686 0.5
619 1280 0.5
620 571 0.148359
620 687 0.340656
620 762 0.170328
620 3099 0.340656
621 46 0.659102
621 539 0.336727
621 1190 0.00417085
622 31 0.0654524
622 63 0.0183793
622 75 0.130847
622 382 0.261693
622 478 0.458001
622 689 0.0656272
623 1075 0.156618
623 1494 0.674706
623 2599 0.168676
624 103 1.5689e-06
624 555 0.285757
624 688 0.142878
624 689 0.142728
624 690 0.285757
624 1425 0.142878
625 38 0.499999
625 691 0.500001
626 692 0.515254
626 1161 0.171751
626 1921 0.171751
626 4163 0.141244
627 693 1
628 11 0.436125
628 86 0.563874
629 694 0.500091
629 695 0.499909
630 695 0.0941945
630 696 0.600369
630 881 0.305436
631 78 0.462378
631 697 0.537622
632 693 0.25
632 698 0.75
633 699 0.333333
633 1330 0.333333
633 4536 0.333333
634 700 0.666667
634 1162 0.333333
635 46 0.000107035
635 160 0.198034
635 1872 0.594482
635 2197 0.207376
636 203 0.166667
636 350 0.166667
636 701 0.166667
636 702 0.166667
636 1783 0.166667
636 1807 0.166667
637 71 0.250061
637 873 0.250061
637 1045 0.250061
637 1322 0.249817
638 703 1
639 620 0.5
639 704 0.25
639 2016 0.25
640 705 1
641 174 0.169485
641 274 0.664414
641 2876 0.166101
642 174 0.27919
642 345 0.186368
642 463 0.160093
642 707 0.18679
642 738 0.000769948
642 3128 0.18679
643 708 1
644 457 0.249999
644 709 0.499997
644 1417 0.249999
644 2537 5.47566e-06
645 710 0.501299
645 711 0.498701
646 711 0.00172502
646 712 0.332758
646 2157 0.332758
646 4504 0.332758
647 20 5.22784e-06
647 205 0.142856
647 4042 0.285713
647 4192 0.285713
647 4233 0.142856
647 4842 0.142856
648 11 0.124268
648 78 0.122576
648 103 0.000378126
648 138 0.125131
648 713 0.249863
648 729 0.2502
648 1952 0.125313
648 4844 0.00227159
649 103 0.5
649 714 0.5
650 715 0.857143
650 1694 0.0714284
650 4720 0.0714285
651 16 0.00233339
651 34 0.332555
651 112 0.332556
651 463 0.332556
652 716 0.25
652 1199 0.25
652 1890 0.25
652 4162 0.25
653 427 0.49633
653 717 0.50367
654 170 0.333333
654 718 0.333333
654 719 0.333333
655 715 0.5
655 4549 0.5
656 292 0.5
656 720 0.5
657 721 1
658 553 0.749974
658 722 0.125045
658 1498 0.124981
659 396 0.0473851
659 463 0.0993045
659 569 0.0299574
659 761 0.221173
659 895 0.428442
659 2206 0.157981
659 3227 0.0157568
660 723 0.5
660 725 0.5
661 423 0.125
661 724 0.875
662 77 0.00517244
662 726 0.663218
662 804 0.110536
662 3416 0.110536
662 4026 0.110536
663 727 0.5
663 728 0.5
664 730 0.5
664 5085 0.5
665 451 0.20091
665 531 0.499431
665 865 0.299659
666 156 0.499914
666 730 0.166638
666 1470 0.166638
666 1471 0.000171374
666 3544 0.166638
667 346 0.666667
667 3786 0.333333
668 75 0.142857
668 210 0.142859
668 345 0.142851
668 731 0.142859
668 732 0.142858
668 1833 0.142858
668 4388 0.142859
669 16 0.17948
669 74 0.273507
669 733 0.547013
670 734 0.99995
670 735 4.99798e-05
671 25 0.00777363
671 735 0.496101
671 736 0.496125
672 2 0.111112
672 70 0.111112
672 502 0.222216
672 1053 0.111112
672 1945 0.444448
673 737 0.5
673 2597 0.25
673 4303 0.25
674 16 0.151266
674 289 0.191973
674 797 0.0959878
674 1382 0.0465421
674 1561 0.0480401
674 2158 0.239966
674 2640 0.0818705
674 3414 0.0479933
674 3998 0.0963603
675 16 0.00441
675 38 5.41092e-05
675 174 0.0128405
675 196 1.02911e-06
675 606 0.484356
675 695 0.000425572
675 900 0.0834114
675 918 0.268913
675 1906 0.0380239
675 2220 0.0537824
675 4089 0.0537825
676 738 0.25
676 739 0.25
676 740 0.25
676 741 0.25
677 78 0.395363
677 2747 0.403091
677 3294 0.201546
678 742 0.662585
678 4270 0.337415
679 7 0.201361
679 19 0.196688
679 743 0.401301
679 3970 0.200651
680 742 1
681 744 1
682 745 0.250003
682 746 0.249992
682 747 0.250003
682 749 0.250003
683 8 0.372487
683 222 0.179289
683 748 0.448223
684 7 0.5
684 4592 0.5
685 695 0.038467
685 767 0.49165
685 900 0.469883
686 205 0.0589558
686 752 0.470522
686 2698 0.411707
686 4497 0.0588153
687 67 0.249999
687 754 0.25
687 956 0.25
687 1051 0.25
688 755 1
689 756 1
690 758 0.5
690 2196 0.5
691 322 0.999801
691 759 0.000198977
692 759 0.499953
692 760 0.500047
693 63 0.301454
693 147 0.279418
693 148 0.419128
694 104 0.0909091
694 154 0.545455
694 487 0.090909
694 1375 0.0909091
694 1483 0.0909091
694 1696 0.090909
695 38 0.154181
695 723 0.169167
695 762 0.169167
695 805 0.169151
695 2709 0.169167
695 4450 0.169167
696 729 0.000270361
696 763 0.99973
697 8 0.333202
697 1324 0.666404
697 2493 0.000394532
698 15 0.2
698 265 0.2
698 764 0.2
698 765 0.2
698 766 0.2
699 473 0.25
699 768 0.5
699 4045 0.25
700 769 1
701 576 0.5
701 770 0.5
702 20 0.000934664
702 771 0.999065
703 144 0.2
703 772 0.2
703 1146 0.2
703 2257 0.2
703 2399 0.2
704 463 0.5
704 774 0.5
705 50 0.252438
705 775 0.747562
706 382 0.333333
706 776 0.666667
707 20 0.00126214
707 552 0.998738
708 20 0.00202931
708 385 0.997971
709 777 0.503964
709 806 0.244054
709 834 0.251982
710 778 1
711 20 0.00109377
711 49 0.665937
711 779 0.332969
712 147 0.333333
712 274 0.333333
712 780 0.333333
713 182 0.597993
713 1437 0.402007
714 238 0.5
714 781 0.5
715 78 0.482538
715 782 0.258731
715 2458 0.258731
716 562 0.5
716 759 0.5
717 4 8.83784e-05
717 61 0.0888954
717 63 1.84729e-06
717 79 0.0922529
717 792 0.10766
717 1462 0.0888961
717 3063 0.17779
717 3064 0.444416
718 784 0.857143
718 1604 0.142857
719 783 0.5
719 785 0.5
720 46 2.50257e-05
720 788 0.999975
721 153 0.463703
721 535 0.270914
721 1865 0.265383
722 99 0.147299
722 702 0.147299
722 791 0.147299
722 792 0.116208
722 793 0.147299
722 794 0.147299
722 795 0.147299
723 476 0.00333515
723 796 0.996665
724 692 0.5
724 797 0.5
725 798 0.333333
725 1921 0.333333
725 2640 0.333333
726 222 0.5
726 799 0.5
727 800 0.5
727 844 0.5
728 801 0.333333
728 2371 0.333333
728 2390 0.333333
729 46 0.226983
729 752 0.0147029
729 4578 0.252451
729 4660 0.252451
729 4661 0.253413
730 802 0.5
730 803 0.5
731 807 0.503271
731 2159 0.496729
732 805 4.85224e-05
732 806 0.499895
732 808 0.500057
733 46 0.447856
733 809 0.552144
734 810 1
735 811 1
736 46 0.64194
736 812 0.35806
737 812 0.488529
737 813 0.511471
738 435 1
739 814 0.5
739 2743 0.25
739 4273 0.25
740 815 0.5
740 816 0.5
741 817 0.666667
741 3217 0.333333
742 373 0.250014
742 593 0.250022
742 819 0.250022
742 820 0.249942
743 112 0.0833333
743 821 0.75
743 1397 0.166667
744 583 0.332979
744 822 0.33351
744 4872 0.33351
745 20 0.716671
745 99 0.0989762
745 1058 0.184353
746 399 0.5
746 825 0.5
747 826 1
748 96 0.000408723
748 498 0.241219
748 1060 0.723086
748 1906 0.0352863
749 827 0.500001
749 828 0.249999
749 2368 0.25
750 292 0.5
750 720 0.5
751 11 0.0048489
751 96 0.110572
751 555 0.442289
751 829 0.331717
751 1864 0.110572
752 830 1
753 63 0.480597
753 832 0.519403
754 17 0.166021
754 25 0.16891
754 90 1.4257e-05
754 388 0.166264
754 395 0.166264
754 3285 0.166264
754 5131 0.166264
755 16 0.332888
755 691 0.333556
755 834 0.333556
756 835 1
757 396 0.25
757 473 0.5
757 834 0.25
758 38 0.333333
758 834 0.333333
758 837 0.333333
759 839 0.499999
759 840 0.500001
760 703 0.333333
760 811 0.5
760 2691 0.166667
761 103 0.319321
761 648 0.335426
761 1458 0.345253
762 841 0.5
762 4180 0.5
763 193 0.166667
763 218 0.166667
763 452 0.166667
763 715 0.166667
763 838 0.166667
763 842 0.166666
764 72 0.193965
764 569 0.626235
764 571 0.178937
764 953 0.000863269
765 96 0.499995
765 338 0.500005
766 378 0.25
766 576 0.25
766 843 0.5
767 37 0.249998
767 845 0.250001
767 2683 0.250001
767 2684 0.250001
768 81 0.333318
768 539 0.666682
769 11 2.13899e-06
769 846 0.2
769 1224 0.2
769 1950 0.2
769 3768 0.399999
770 847 0.333333
770 848 0.333333
770 1468 0.333333
771 5 0.11732
771 20 0.387844
771 33 0.0990015
771 1950 0.197917
771 3693 0.197917
772 849 0.166666
772 850 0.166667
772 1525 0.166667
772 2093 0.166667
772 2537 0.166667
772 3153 0.166667
773 78 0.49326
773 853 0.50674
774 852 1
775 854 0.666667
775 855 0.333333
776 5 0.202398
776 46 0.391313
776 856 0.101331
776 2784 0.304957
777 856 0.00105255
777 857 0.332867
777 1816 0.665735
777 4968 0.000345613
778 212 0.166666
778 858 0.666667
778 2352 0.166667
779 25 0.0200934
779 859 0.489953
779 2350 0.244977
779 2351 0.244976
780 196 0.500088
780 860 0.499912
781 24 0.25
781 534 0.25
781 796 0.25
781 852 0.25
782 7 0.333333
782 861 0.333333
782 862 0.333333
783 5 0.137886
783 7 0.171839
783 77 0.174581
783 863 0.515694
784 11 0.199991
784 38 0.200002
784 864 0.200003
784 4139 0.400005
785 453 0.2
785 865 0.8
786 81 0.499986
786 160 0.500014
787 866 0.5
787 867 0.5
788 868 0.25
788 869 0.25
788 870 0.25
788 871 0.25
789 11 0.00172492
789 872 0.998275
790 116 0.181832
790 396 0.0907961
790 873 0.0909138
790 975 0.0909137
790 979 0.363655
790 1717 0.0909138
790 1751 0.090976
791 874 0.934857
791 3752 0.0651426
792 875 0.933722
792 2260 0.0662776
793 587 1
794 83 0.103566
794 880 0.697224
794 953 0.0996112
794 3115 0.0995988
795 882 1
796 883 0.5
796 884 0.5
797 7 0.499999
797 205 0.500001
798 885 0.5
798 886 0.5
799 887 0.5
799 3320 0.5
800 888 0.5
800 889 0.5
801 46 0.13156
801 890 0.86844
802 11 0.492866
802 891 0.507134
803 892 1
804 38 0.13165
804 108 0.13165
804 481 0.658249
804 876 0.0784515
805 27 0.142859
805 142 0.142862
805 893 0.142862
805 1588 0.142862
805 3121 0.142834
805 3548 0.142861
805 3915 0.142861
806 336 0.285714
806 894 0.714286
807 896 0.333333
807 3789 0.333333
807 4703 0.333333
808 20 0.439535
808 40 0.202636
808 46 0.00210827
808 428 0.00106844
808 1301 0.202411
808 4369 0.15224
809 583 0.79901
809 953 0.20099
810 186 0.334124
810 959 0.334117
810 4487 0.331759
811 901 1
812 25 0.203712
812 902 0.612754
812 1939 0.183534
813 278 1
814 78 0.668488
814 161 0.331512
815 31 0.500008
815 280 0.499992
816 37 0.2
816 77 0.199999
816 336 0.2
816 903 0.4
817 435 0.5
817 904 0.5
818 898 0.249997
818 906 0.250001
818 4533 0.500002
819 56 0.250008
819 907 0.250008
819 909 0.250008
819 3708 0.249977
820 31 0.200696
820 125 0.00089144
820 910 0.399206
820 2646 0.199603
820 3211 0.199603
821 4816 1
822 468 0.25
822 911 0.75
823 77 0.119592
823 78 0.000225026
823 132 0.12574
823 252 0.12574
823 913 0.502962
823 4755 0.12574
824 800 0.249954
824 912 0.750046
825 914 1
826 218 0.444428
826 915 0.555572
827 88 0.125608
827 916 0.124913
827 1504 0.749479
828 16 0.121
828 185 1.56105e-05
828 751 0.878984
829 917 1
830 701 0.0998702
830 948 0.0998702
830 2159 0.101167
830 2160 0.399481
830 2208 1.35554e-06
830 2744 0.19974
830 2778 0.0998702
831 463 0.0154786
831 919 0.984521
832 463 0.190991
832 920 0.236036
832 921 0.381982
832 1268 0.190991
833 922 1
834 923 1
835 925 0.749992
835 1990 1.05361e-05
835 3758 0.124999
835 4712 0.124999
836 205 0.0666501
836 668 0.800014
836 3384 0.133336
837 16 6.93004e-05
837 46 0.161462
837 78 0.233519
837 926 0.604949
838 5 0.298629
838 927 0.561116
838 2878 0.140255
839 30 0.25
839 2307 0.25
839 3032 0.25
839 3797 0.25
840 16 7.01615e-05
840 768 0.407139
840 899 0.185652
840 1009 0.407139
841 118 0.499764
841 928 0.500236
842 11 0.166484
842 285 0.166744
842 476 0.333285
842 1174 0.166743
842 1764 0.166744
843 160 0.25
843 823 0.25
843 929 0.25
843 930 0.25
844 11 0.390564
844 71 0.40629
844 3309 0.203145
845 336 0.25
845 797 0.25
845 903 0.25
845 931 0.25
846 933 1
847 515 1
848 1145 0.333332
848 1810 0.333334
848 2147 0.333334
849 1384 0.75
849 2424 0.25
850 934 0.5
850 2162 0.5
851 481 0.5
851 571 0.333333
851 576 0.166666
852 1132 0.25
852 1878 0.25
852 2345 0.25
852 3196 0.25
853 935 1
854 96 0.256004
854 569 0.231987
854 1909 0.512009
855 24 0.323225
855 569 0.0303244
855 582 0.323225
855 1970 0.323225
856 936 1
857 19 0.142324
857 269 0.142946
857 576 0.142946
857 937 0.142946
857 938 0.142946
857 939 0.142946
857 940 0.142946
858 63 0.236455
858 571 0.50903
858 1786 0.254515
859 942 1
860 943 0.992788
860 945 0.0072118
861 31 0.25665
861 947 0.123892
861 1740 0.495567
861 5115 0.123891
862 16 1
863 7 0.111326
863 817 0.111084
863 2934 0.333253
863 2962 0.333253
863 3263 0.111084
864 19 0.0715476
864 96 0.0712283
864 948 0.428612
864 1258 0.357177
864 2196 0.0714353
865 949 0.5
865 950 0.5
866 951 1
867 583 0.333334
867 1493 0.333334
867 1645 0.166666
867 3869 0.166667
868 121 0.162886
868 442 0.162886
868 855 0.162886
868 1462 0.00497511
868 1930 0.162886
868 2552 0.0177114
868 2760 0.162886
868 3145 0.162886
869 954 1
870 955 0.5
870 1398 0.5
871 7 0.20327
871 3494 0.79673
872 959 1
873 172 0.333335
873 957 0.333335
873 960 0.33333
874 30 0.142857
874 961 0.428571
874 2303 0.142857
874 3780 0.285714
875 962 1
876 962 0.502981
876 963 0.497019
877 11 2.63662e-06
877 852 0.142855
877 964 0.857142
878 174 0.529171
878 218 0.206248
878 5029 0.264581
879 423 0.111616
879 965 0.665152
879 3669 0.111616
879 3761 0.111616
880 11 0.332077
880 889 0.333962
880 967 0.333961
881 75 0.333257
881 287 0.666512
881 969 0.000231242
882 966 0.166685
882 969 0.333256
882 970 0.333372
882 1071 0.166686
883 452 0.503299
883 623 0.496701
884 2 0.248372
884 623 0.254884
884 971 0.248372
884 3995 0.248372
885 112 0.185303
885 972 0.185238
885 974 0.0735495
885 2577 0.555909
886 200 0.1
886 973 0.9
887 442 0.555055
887 972 9.61152e-05
887 974 0.167323
887 3868 0.277526
888 31 1
889 252 0.333333
889 476 0.333333
889 978 0.333333
890 975 0.285714
890 976 0.285714
890 979 0.142857
890 980 0.142857
890 3867 0.142857
891 5 0.1265
891 977 0.582333
891 1829 0.291167
892 9 0.0152966
892 165 0.984703
893 63 0.000276541
893 476 0.0832949
893 1445 0.0832948
893 1501 0.166559
893 2424 0.666359
893 2842 0.000215559
894 490 0.245914
894 768 0.754086
895 451 1
896 16 0.142698
896 65 0.000796818
896 103 0.142751
896 185 0.428252
896 1433 0.142751
896 1611 0.142751
897 981 0.5
897 5001 0.5
898 5 0.149161
898 273 0.340316
898 716 4.93693e-05
898 1331 0.170158
898 3936 0.170158
898 5075 0.170158
899 33 0.2
899 982 0.2
899 983 0.2
899 984 0.2
899 985 0.2
900 183 0.0493451
900 895 0.327995
900 986 0.62266
901 576 0.5
901 987 0.5
902 131 0.166447
902 571 0.167763
902 958 0.332895
902 997 0.332895
903 36 0.25
903 648 0.25
903 988 0.25
903 989 0.25
904 75 0.833333
904 290 0.166667
905 218 0.5
905 2641 0.5
906 20 0.127247
906 990 0.290803
906 1117 0.000344839
906 2235 0.581605
907 763 0.600001
907 2953 0.2
907 3971 0.199999
908 2164 0.5
908 4317 0.5
909 818 0.322109
909 876 0.225962
909 2504 0.225965
909 3136 0.112982
909 3871 0.112982
910 991 0.333333
910 992 0.333333
910 993 0.333333
911 994 0.5
911 4682 0.5
912 8 0.166706
912 9 0.166706
912 58 0.166706
912 998 0.166452
912 1625 0.333429
913 1625 1
914 19 0.482359
914 998 0.000787544
914 999 0.516853
915 1000 1
916 1002 1
917 1001 1
918 1003 1
919 1004 0.428572
919 1005 0.42857
919 1763 0.142857
920 881 0.200004
920 1005 5.63926e-06
920 1006 0.399995
920 1337 0.199998
920 3175 0.199998
921 212 0.224217
921 2490 0.336327
921 2498 0.112109
921 2746 0.224218
921 3398 0.10313
922 448 1
923 1012 0.125
923 1076 0.75
923 2050 0.125
924 1013 0.333333
924 1014 0.666667
925 448 2.2306e-05
925 1015 0.999978
926 1016 1
927 1017 1
928 33 0.14286
928 1007 0.142861
928 1008 0.142861
928 1009 0.142861
928 1010 0.142861
928 1011 0.142837
928 1018 0.142857
929 1020 0.714286
929 1633 0.285714
930 738 0.141908
930 838 0.143055
930 1039 0.572358
930 1069 0.142674
930 1110 4.94925e-06
931 838 0.200038
931 1022 0.799962
932 112 0.2
932 498 0.2
932 1019 0.2
932 1021 0.2
932 1023 0.2
933 1026 1
934 31 0.273899
934 1027 0.13695
934 2041 0.410849
934 4161 0.0413533
934 4874 0.13695
935 1028 0.75
935 4671 0.25
936 558 0.285714
936 563 0.285714
936 583 0.285714
936 4353 0.142857
937 63 0.140944
937 1029 0.859056
938 465 0.375
938 3462 0.625
939 1030 0.75
939 2145 0.25
940 1031 1
941 737 1
942 25 0.035714
942 1032 0.482142
942 1033 0.482144
943 172 0.333338
943 1034 0.333324
943 1035 0.333338
944 32 0.1
944 226 0.1
944 436 0.1
944 524 0.1
944 1060 0.1
944 1171 0.1
944 1172 0.1
944 1173 0.1
944 1174 0.1
944 1175 0.1
945 10 0.333333
945 466 0.333333
945 1036 0.333333
946 20 0.0688005
946 1037 0.9312
947 1038 1
948 1040 1
949 1041 1
950 1042 1
951 1043 1
952 446 0.200579
952 498 0.398262
952 2913 0.401159
953 61 0.426835
953 67 0.142277
953 218 0.142286
953 1019 0.142278
953 2842 0.00404639
953 4650 0.142278
954 46 0.227231
954 1046 0.25759
954 1048 0.25759
954 2038 0.25759
955 1047 1
956 1050 1
957 5 0.000935855
957 25 0.198933
957 1052 0.401019
957 2537 0.198612
957 2538 0.2005
958 96 0.500002
958 1054 0.499998
959 99 0.999988
959 196 1.23211e-05
960 61 0.882353
960 1055 0.0588235
960 4186 0.0588235
961 17 1
962 96 0.0714037
962 793 0.142742
962 1058 0.142799
962 1131 0.285584
962 1608 0.356998
962 2842 0.000473252
963 1056 0.249999
963 1057 0.25
963 1058 0.25
963 1059 0.25
964 174 0.333333
964 922 0.333333
964 1062 0.333333
965 1063 0.333411
965 1442 0.666589
966 78 0.305157
966 2371 0.694843
967 1064 0.2
967 1065 0.2
967 1066 0.6
968 612 0.5
968 1067 0.5
969 88 0.375398
969 1068 0.124922
969 2150 0.124914
969 2837 0.124922
969 4437 0.124922
969 4840 0.124922
970 31 0.125015
970 1070 0.749987
970 4876 0.124998
971 434 0.325882
971 1242 6.82147e-06
971 1590 0.348229
971 5008 0.325882
972 22 0.5
972 4541 0.5
973 46 1.72462e-05
973 812 0.999983
974 441 0.000661617
974 1072 0.999338
975 24 0.00372309
975 71 0.140175
975 78 0.295401
975 704 0.140175
975 1073 0.280351
975 1093 0.140175
976 1074 0.333333
976 1950 0.333333
976 2695 0.333333
977 1001 1
978 1077 0.5
978 1855 0.5
979 103 1
980 1078 0.5
980 3249 0.5
981 1079 0.666667
981 1099 0.333333
982 11 0.0168352
982 2239 0.983165
983 832 0.5
983 1080 0.5
984 103 0.5
984 1081 0.5
985 20 0.000113354
985 25 0.119905
985 65 0.293327
985 73 0.293327
985 106 0.293327
986 103 0.166666
986 174 0.166666
986 1082 0.166667
986 1083 0.166667
986 1084 0.166667
986 1085 0.166667
987 805 0.333332
987 1082 0.333334
987 1086 0.333334
988 30 0.333333
988 60 0.333333
988 303 0.333333
989 68 0.5
989 1087 0.5
990 60 1
991 24 0.225183
991 26 0.194047
991 414 0.194837
991 1088 0.194835
991 1575 0.191098
992 1089 0.499999
992 1090 0.500001
993 1091 0.666432
993 1092 0.333568
994 34 0.166659
994 133 0.333318
994 1172 0.166659
994 2841 0.166659
994 2842 4.55051e-05
994 2843 0.166659
995 248 0.25
995 695 0.125
995 2376 0.375
995 3670 0.25
996 11 0.000267679
996 1095 0.999732
997 11 8.66425e-05
997 31 4.01045e-06
997 1001 0.999909
998 1075 0.0856299
998 1094 0.457185
998 1096 0.457185
999 1097 0.333333
999 1422 0.333333
999 3005 0.333333
1000 1098 1
1001 1100 1
1002 7 0.333333
1002 1101 0.333333
1002 1311 0.333333
1003 442 0.333333
1003 1103 0.333333
1003 3371 0.333333
1004 1104 0.333333
1004 1105 0.333334
1004 1106 0.333334
1005 20 0.489024
1005 81 0.510976
1006 1107 0.25
1006 2257 0.25
1006 3221 0.25
1006 4485 0.25
1007 289 0.243869
1007 414 0.0245252
1007 481 0.243869
1007 1108 0.487737
1008 1109 0.333333
1008 1111 0.333333
1008 1273 0.333333
1009 119 0.333313
1009 1110 0.333308
1009 1112 0.333319
1009 1293 6.04285e-05
1010 312 0.888889
1010 1113 0.111111
1011 441 0.302982
1011 476 0.0910473
1011 1114 0.60597
1012 56 0.0703166
1012 63 0.149023
1012 103 0.282488
1012 205 0.282252
1012 319 0.215762
1012 373 0.000159035
1013 238 0.749684
1013 2914 0.250316
1014 1117 0.333333
1014 2542 0.666667
1015 25 2.48211e-05
1015 1382 0.888866
1015 1450 0.111109
1016 71 0.335607
1016 476 0.328787
1016 1045 0.0671212
1016 1691 0.201364
1016 2413 0.0671213
1017 1119 0.333333
1017 3718 0.666667
1018 476 0.5
1018 1120 0.5
1019 251 0.333334
1019 342 0.333332
1019 1118 0.333334
1020 312 0.2
1020 1122 0.6
1020 1359 0.2
1021 1123 1
1022 46 0.381261
1022 1654 0.618739
1023 20 4.07539e-05
1023 428 0.24999
1023 1124 0.24999
1023 1125 0.249989
1023 2822 0.24999
1024 1126 1
1025 25 0.286241
1025 63 0.0887372
1025 65 4.28313e-06
1025 96 0.156824
1025 311 0.156666
1025 476 0.311527
1026 26 0.333333
1026 423 0.333333
1026 1127 0.333333
1027 1128 0.249972
1027 1129 0.249975
1027 1130 0.500053
1028 418 0.142869
1028 570 0.142855
1028 1133 0.142855
1028 1380 0.142855
1028 1668 0.142855
1028 1971 0.142855
1028 3054 0.142855
1029 423 1
1030 1134 0.75
1030 2424 0.25
1031 1136 1
1032 1137 1
1033 141 0.5
1033 458 0.5
1034 160 1
1035 424 0.333333
1035 1138 0.333333
1035 1139 0.333333
1036 1140 0.499998
1036 1141 0.500002
1037 290 0.222253
1037 1142 0.222253
1037 2239 0.333379
1037 2409 0.222116
1038 1144 1
1039 1146 0.626174
1039 1147 0.125235
1039 1153 0.125235
1039 1154 0.123356
1040 1148 1
1041 65 0.0999999
1041 240 0.3
1041 2295 0.5
1041 3645 0.1
1042 187 0.25
1042 498 0.25
1042 1149 0.25
1042 1150 0.25
1043 273 0.25
1043 1151 0.5
1043 1482 0.25
1044 1152 1
1045 32 0.500005
1045 1154 0.499995
1046 1130 1
1047 1094 0.230769
1047 1155 0.769231
1048 1156 1
1049 1157 0.500001
1049 1158 0.499999
1050 648 0.166663
1050 797 0.166665
1050 1159 0.333333
1050 1382 0.16667
1050 3119 0.16667
1051 1160 1
1052 10 0.307663
1052 37 0.076936
1052 58 0.538476
1052 1161 0.0769252
1053 269 3.36365e-05
1053 273 0.282473
1053 1163 0.35881
1053 4561 0.358684
1054 1164 0.5
1054 2155 0.25
1054 2156 0.25
1055 502 0.25
1055 1165 0.75
1056 116 0.5
1056 1167 0.5
1057 751 0.00956679
1057 1028 0.495217
1057 1185 0.495217
1058 1142 0.333332
1058 1168 0.333334
1058 1169 0.333334
1059 205 0.5
1059 1170 0.5
1060 103 0.285716
1060 674 0.285711
1060 1638 0.285716
1060 3698 0.142858
1061 1820 0.5
1061 2995 0.5
1062 67 1
1063 476 0.0960949
1063 1176 0.903905
1064 112 0.0998991
1064 144 0.00100852
1064 410 0.199798
1064 941 0.599395
1064 3438 0.0998986
1065 25 0.0105921
1065 412 0.000242102
1065 2281 0.494583
1065 4849 0.494583
1066 1178 1
1067 1179 1
1068 1180 1
1069 1181 1
1070 1182 1
1071 32 0.16668
1071 160 0.16668
1071 412 0.166599
1071 1177 0.16668
1071 1183 0.16668
1071 1184 0.16668
1072 16 0.0983066
1072 24 0.301658
1072 42 0.0983973
1072 46 0.00965229
1072 133 0.196795
1072 296 0.196794
1072 924 0.0983972
1073 487 0.00300804
1073 648 9.05954e-05
1073 1186 0.3323
1073 3144 0.664601
1074 38 0.253977
1074 103 0.238073
1074 702 0.253977
1074 1187 0.253972
1075 715 0.499995
1075 1187 9.70847e-06
1075 2258 0.499995
1076 1116 1
1077 1188 1
1078 1189 1
1079 818 0.666653
1079 2591 0.333347
1080 32 0.334716
1080 1190 0.330569
1080 1191 0.334716
1081 413 0.999988
1081 2842 1.15594e-05
1082 147 0.499549
1082 148 0.250676
1082 3817 0.249775
1083 148 0.499097
1083 1192 0.500903
1084 1193 1
1085 65 0.428232
1085 147 0.142942
1085 1197 0.142942
1085 1198 0.142942
1085 4785 0.142942
1086 585 0.25
1086 818 0.25
1086 1195 0.25
1086 1196 0.25
1087 69 1
1088 1199 0.333333
1088 2605 0.666667
1089 83 1
1090 61 0.142855
1090 84 0.142858
1090 876 0.142858
1090 1200 0.142858
1090 1201 0.142858
1090 1202 0.142858
1090 1203 0.142858
1091 1204 1
1092 423 0.2
1092 424 0.2
1092 451 0.2
1092 625 0.2
1092 1207 0.2
1093 116 0.166667
1093 1205 0.666667
1093 1206 0.166667
1094 2936 0.25
1094 3994 0.5
1094 4572 0.25
1095 875 0.249992
1095 1208 0.249992
1095 1833 0.249988
1095 4284 3.49894e-05
1095 4288 0.249992
1096 30 0.2
1096 498 0.2
1096 1209 0.2
1096 1210 0.2
1096 1211 0.2
1097 127 0.428571
1097 1212 0.142857
1097 2651 0.285714
1097 3048 0.142857
1098 441 0.25
1098 1019 0.25
1098 1214 0.25
1098 1215 0.25
1099 1216 1
1100 142 0.200305
1100 1217 0.299884
1100 1555 0.199923
1100 2238 0.299884
1100 4044 2.9782e-06
1101 107 0.142857
1101 431 0.857143
1102 72 1
1103 63 0.183441
1103 397 0.20414
1103 981 0.20414
1103 1209 0.20414
1103 1218 0.20414
1104 319 0.5
1104 453 0.5
1105 103 0.24771
1105 132 0.247713
1105 463 0.256864
1105 2340 0.247713
1106 1219 0.333333
1106 1221 0.333333
1106 1222 0.333333
1107 1220 0.5
1107 1223 0.5
1108 5 0.505314
1108 1225 0.494686
1109 1226 1
1110 273 0.257177
1110 453 0.371412
1110 1227 0.371412
1111 1228 1
1112 1229 0.333334
1112 1230 0.333334
1112 1231 0.333332
1113 16 0.332347
1113 174 0.166913
1113 1232 0.166913
1113 2234 0.166913
1113 4766 0.166913
1114 569 2.10387e-05
1114 1234 0.499989
1114 3081 0.249995
1114 4105 0.249995
1115 80 0.199999
1115 346 0.199999
1115 498 0.400003
1115 1235 0.199999
1116 498 0.499962
1116 1236 0.500038
1117 1237 1
1118 498 0.392747
1118 838 0.607253
1119 1194 0.5
1119 1238 0.5
1120 1239 1
1121 1240 1
1122 46 0.134159
1122 78 2.32235e-06
1122 223 0.865839
1123 193 0.82579
1123 1242 0.17421
1124 355 1
1125 1244 1
1126 1245 1
1127 1246 1
1128 28 0.166667
1128 99 0.166667
1128 702 0.166667
1128 1243 0.166667
1128 1247 0.166667
1128 1248 0.166667
1129 476 0.124999
1129 498 0.125
1129 2881 0.625
1129 4285 0.125
1130 1250 1
1131 666 0.5
1131 1251 0.5
1132 1252 1
1133 174 0.998929
1133 524 0.00107061
1134 1253 0.5
1134 1257 0.5
1135 1254 0.500035
1135 1255 0.499965
1136 16 0.199575
1136 81 0.399633
1136 397 0.199816
1136 1256 0.200976
1137 63 0.22696
1137 103 0.259947
1137 1207 0.256546
1137 1360 0.256546
1138 30 0.333333
1138 68 0.666667
1139 38 1.80436e-05
1139 948 0.333332
1139 1258 0.499997
1139 3282 0.166653
1140 20 0.00432314
1140 1259 0.995677
1141 72 0.249999
1141 424 0.250002
1141 762 0.250002
1141 1260 0.249998
1142 193 0.22574
1142 414 0.111777
1142 576 0.218597
1142 592 0.110971
1142 677 0.110971
1142 1911 0.110972
1142 3058 0.110972
1143 7 0.333342
1143 539 0.333329
1143 1262 0.333329
1144 38 0.111282
1144 103 0.332302
1144 405 0.111282
1144 1317 0.111282
1144 1695 0.222565
1144 1713 0.111287
1145 18 0.329372
1145 433 0.335313
1145 1263 0.335315
1146 269 0.5
1146 592 0.5
1147 43 0.5
1147 307 0.5
1148 1264 1
1149 1278 0.25
1149 1795 0.5
1149 4522 0.25
1150 569 0.110964
1150 1265 0.111169
1150 3075 0.444676
1150 3087 0.110853
1150 3088 0.111169
1150 3296 0.111169
1151 77 0.250019
1151 1551 0.499987
1151 1568 0.249994
1152 1266 1
1153 1267 1
1154 1089 0.5
1154 1665 0.5
1155 193 0.2
1155 497 0.2
1155 1009 0.2
1155 1268 0.2
1155 1269 0.2
1156 43 0.666666
1156 2218 0.333334
1157 1271 1
1158 463 0.0723481
1158 569 0.493565
1158 873 0.361741
1158 1433 0.0723458
1159 1272 0.666667
1159 2693 0.333333
1160 1273 0.5
1160 1274 0.5
1161 857 0.333335
1161 1270 0.333335
1161 1276 0.333331
1162 1277 0.5
1162 2731 0.5
1163 193 0.0981448
1163 1001 0.901855
1164 1278 1
1165 54 0.335733
1165 375 0.335719
1165 476 0.328548
1166 174 0.248689
1166 1319 0.250437
1166 2191 0.500874
1167 787 0.0419002
1167 4161 0.479047
1167 4528 0.479053
1168 25 0.487893
1168 59 0.256054
1168 991 0.256054
1169 312 0.333335
1169 1279 0.666665
1170 1281 1
1171 481 1
1172 1282 0.365914
1172 1283 0.365915
1172 1284 0.268171
1173 5 0.0489706
1173 46 0.43888
1173 219 0.0501921
1173 729 1.80505e-05
1173 1284 0.0133925
1173 2743 0.398258
1173 3087 0.0502881
1173 3795 1.12379e-06
1174 1285 0.59817
1174 1286 0.19939
1174 3123 0.20244
1175 65 0.166666
1175 163 0.166667
1175 366 0.166667
1175 1287 0.166667
1175 1288 0.166667
1175 1289 0.166667
1176 1290 1
1177 1291 1
1178 31 0.333353
1178 1292 0.333353
1178 1293 0.333293
1179 750 0.111327
1179 1187 0.332037
1179 1294 0.556636
1180 25 0.474712
1180 372 0.262644
1180 1295 0.262644
1181 1296 0.8
1181 1297 0.2
1182 162 0.5
1182 237 0.5
1183 703 0.5
1183 1298 0.5
1184 368 0.333333
1184 704 0.333333
1184 1314 0.333333
1185 1299 1
1186 1300 0.25
1186 1301 0.25
1186 1302 0.25
1186 1303 0.25
1187 1304 0.5
1187 1305 0.5
1188 1306 1
1189 28 0.500047
1189 205 0.499953
1190 196 1
1191 103 0.499981
1191 1805 0.500019
1192 668 0.333333
1192 846 0.166667
1192 953 0.166667
1192 1307 0.333333
1193 1308 1
1194 33 0.1112
1194 34 0.2222
1194 657 0.1111
1194 703 0.1111
1194 1330 0.1111
1194 1469 0.1111
1194 2149 0.2222
1195 606 0.25
1195 1310 0.25
1195 4448 0.5
1196 1312 1
1197 1313 1
1198 469 1
1199 120 0.0588235
1199 1314 0.764706
1199 4607 0.176471
1200 193 0.222078
1200 963 0.333766
1200 3163 0.222078
1200 3164 0.222078
1201 16 0.169877
1201 33 0.166025
1201 200 0.166025
1201 975 0.166025
1201 1318 0.166025
1201 2315 0.166025
1202 1320 1
1203 5 0.000198337
1203 1323 0.338457
1203 1713 0.338457
1203 1874 0.322888
1204 1045 1
1205 1325 1
1206 1326 1
1207 33 0.5
1207 1327 0.5
1208 1328 1
1209 668 0.666667
1209 1329 0.333333
1210 77 3.4365e-05
1210 866 0.375714
1210 1840 0.12569
1210 2297 0.12569
1210 2303 0.12569
1210 4161 0.247183
1211 63 0.579027
1211 717 0.151298
1211 1488 0.269676
1212 25 0.652917
1212 119 0.0495912
1212 170 0.297492
1213 497 0.25
1213 1009 0.25
1213 1332 0.25
1213 1333 0.25
1214 1025 0.5
1214 2961 0.5
1215 10 0.462707
1215 293 0.537293
1216 10 0.221611
1216 69 0.194597
1216 107 0.194597
1216 306 0.194597
1216 1045 0.194597
1217 11 0.436459
1217 1335 0.563541
1218 1336 1
1219 583 0.000126506
1219 953 0.333299
1219 1092 0.333299
1219 1337 0.333276
1220 24 0.499971
1220 583 0.499995
1220 1337 3.42985e-05
1221 16 0.499761
1221 1338 0.500239
1222 481 0.5
1222 1341 0.5
1223 37 0.333332
1223 1342 0.333333
1223 2932 0.333335
1224 1343 1
1225 71 0.25
1225 476 0.5
1225 2937 0.25
1226 205 0.249863
1226 870 0.250046
1226 1344 0.250046
1226 1345 0.250046
1227 458 0.2
1227 1346 0.2
1227 1347 0.2
1227 1350 0.2
1227 1351 0.2
1228 16 0.0613083
1228 1563 0.469345
1228 1564 0.469347
1229 1352 1
1230 77 0.142857
1230 205 0.142857
1230 431 0.142857
1230 975 0.142857
1230 1348 0.142857
1230 1349 0.142857
1230 1353 0.142857
1231 1216 0.25
1231 1354 0.25
1231 1355 0.25
1231 1356 0.25
1232 1228 1
1233 569 1
1234 1357 0.5
1234 1361 0.5
1235 96 0.200605
1235 534 0.199849
1235 981 0.199849
1235 1127 0.199849
1235 4184 0.199849
1236 424 0.666638
1236 2451 0.333362
1237 5 0.264114
1237 3125 0.490591
1237 3130 0.245295
1238 96 0.498959
1238 1007 0.501041
1239 24 0.166667
1239 187 0.166667
1239 886 0.166667
1239 1358 0.166667
1239 1359 0.166667
1239 1360 0.166667
1240 1362 0.5
1240 1363 0.5
1241 174 0.340294
1241 1364 0.659706
1242 16 0.124745
1242 75 0.125036
1242 81 0.125036
1242 975 0.125036
1242 1365 0.125036
1242 1366 0.125036
1242 1367 0.125036
1242 3210 0.125036
1243 851 0.111087
1243 1116 0.333262
1243 2133 0.222174
1243 3684 0.222174
1243 3728 0.111087
1243 4142 0.000215228
1244 96 0.200014
1244 899 0.399967
1244 1368 0.20001
1244 1369 0.20001
1245 424 0.199994
1245 1120 0.400003
1245 1370 0.200002
1245 2308 0.200001
1246 338 0.209697
1246 1781 0.592727
1246 3442 0.197576
1247 25 0.00158045
1247 147 0.142564
1247 196 0.143036
1247 753 0.142564
1247 1371 0.142564
1247 1372 0.142564
1247 1373 0.285128
1248 1374 0.5
1248 1867 0.5
1249 25 3.48734e-05
1249 104 0.333322
1249 1375 0.333322
1249 1376 0.333322
1250 576 0.25
1250 979 0.25
1250 1379 0.25
1250 2299 0.25
1251 61 1
1252 72 0.25
1252 106 0.25
1252 912 0.25
1252 1377 0.25
1253 83 0.0285036
1253 481 0.159011
1253 583 0.477031
1253 953 0.335454
1254 83 0.363679
1254 2377 0.381793
1254 4363 0.254528
1255 1012 0.333333
1255 1380 0.333333
1255 1381 0.333333
1256 1383 1
1257 1301 0.25
1257 1384 0.25
1257 1386 0.25
1257 1387 0.25
1258 1385 1
1259 46 0.00419012
1259 1368 0.497905
1259 2014 0.497905
1260 429 0.333333
1260 3980 0.666667
1261 78 0.33293
1261 481 0.334053
1261 587 0.333018
1262 1388 0.666667
1262 1393 0.333333
1263 429 0.25
1263 1390 0.75
1264 116 0.333333
1264 497 0.333333
1264 1512 0.333333
1265 205 0.332982
1265 417 0.166823
1265 474 0.166731
1265 1375 0.333463
1266 1389 1
1267 31 0.333495
1267 1350 0.333253
1267 1391 0.333253
1268 7 3.72283e-05
1268 1950 0.999963
1269 2 0.507829
1269 46 0.492171
1270 273 0.372467
1270 1790 0.626095
1270 4943 0.00143856
1271 31 0.5
1271 32 0.5
1272 106 0.125
1272 119 0.125
1272 336 0.125
1272 600 0.125
1272 1390 0.125
1272 1394 0.125
1272 1395 0.125
1272 1396 0.125
1273 359 0.250001
1273 1398 0.249998
1273 3115 0.250001
1273 5070 0.250001
1274 1228 0.5
1274 2650 0.5
1275 894 0.333333
1275 941 0.333333
1275 1094 0.333333
1276 132 0.499994
1276 218 0.250003
1276 412 0.250003
1277 63 0.0116632
1277 563 0.494168
1277 1399 0.494168
1278 1401 1
1279 1403 0.6
1279 1549 0.2
1279 3702 0.2
1280 103 0.445169
1280 625 0.554831
1281 115 0.2
1281 487 0.2
1281 899 0.2
1281 1404 0.2
1281 1405 0.2
1282 116 1
1283 46 0.000106792
1283 134 0.249973
1283 442 0.249973
1283 1408 0.249973
1283 1414 0.249973
1284 1409 1
1285 46 2.07241e-06
1285 1411 0.999998
1286 1410 1
1287 414 1
1288 7 0.206864
1288 46 0.172546
1288 1406 0.206864
1288 1407 0.206864
1288 1412 0.206864
1289 2 0.000103967
1289 1216 0.499948
1289 1397 0.499948
1290 2 0.499933
1290 617 2.90776e-05
1290 1413 0.500037
1291 31 0.166735
1291 397 0.166653
1291 1084 0.166653
1291 1738 0.166653
1291 1745 0.166653
1291 1746 0.166653
1292 5 0.178217
1292 481 0.273928
1292 1415 0.273928
1292 1416 0.273928
1293 112 0.333343
1293 348 0.333343
1293 1990 0.333313
1294 196 0.2
1294 441 0.2
1294 1227 0.2
1294 1417 0.2
1294 1421 0.199999
1295 572 1
1296 1229 0.33334
1296 1230 0.16667
1296 1418 0.499991
1297 178 0.334433
1297 1419 0.332783
1297 2497 0.332783
1298 119 0.25
1298 1420 0.25
1298 1598 0.25
1298 3658 0.25
1299 1423 1
1300 1424 1
1301 576 0.5
1301 1425 0.5
1302 1426 1
1303 63 1
1304 1427 1
1305 1428 1
1306 1429 0.2
1306 2386 0.4
1306 2861 0.2
1306 4165 0.2
1307 7 0.265013
1307 100 0.0740524
1307 1430 0.528747
1307 3390 0.132187
1308 7 0.49662
1308 2521 0.501479
1308 2522 0.00190078
1309 26 1
1310 1832 1
1311 20 0.338739
1311 63 0.322341
1311 576 0.33892
1312 1436 0.8
1312 2682 0.2
1313 46 0.455772
1313 182 0.00681834
1313 222 0.000103411
1313 331 0.272556
1313 1458 0.26475
1314 182 1
1315 1438 1
1316 174 0.25
1316 417 0.25
1316 1145 0.25
1316 4631 0.25
1317 2035 1
1318 1438 1
1319 1448 1
1320 187 0.167477
1320 265 0.166512
1320 413 0.332986
1320 1174 0.166512
1320 2272 0.166512
1321 1440 1
1322 31 0.400001
1322 218 0.199999
1322 397 0.2
1322 1441 0.2
1323 1439 1
1324 17 0.249997
1324 182 0.250001
1324 1442 0.250001
1324 1443 0.250001
1325 205 0.125
1325 617 0.125
1325 1058 0.125
1325 1444 0.125
1325 1445 0.125
1325 1446 0.125
1325 1447 0.125
1325 1449 0.125
1326 1091 0.333333
1326 1450 0.333333
1326 1451 0.333333
1327 11 0.142751
1327 103 0.142709
1327 261 0.142908
1327 967 0.142908
1327 1005 0.142908
1327 3029 0.142908
1327 3030 0.142908
1328 78 0.0294999
1328 1004 0.000363377
1328 1452 0.485068
1328 2124 0.485068
1329 412 0.499999
1329 1170 0.500001
1330 424 0.125
1330 648 0.125
1330 1058 0.125
1330 1454 0.125
1330 1455 0.125
1330 1456 0.125
1330 1458 0.125
1330 1459 0.125
1331 265 0.5
1331 1307 0.5
1332 193 0.248865
1332 942 0.500757
1332 1457 0.250378
1333 1067 0.999819
1333 1593 0.000180607
1334 103 0.0011995
1334 196 0.199758
1334 205 0.399525
1334 1055 0.199758
1334 1453 0.199758
1335 76 0.499989
1335 205 0.500011
1336 46 0.095606
1336 127 0.361758
1336 252 0.0904397
1336 1463 0.0904397
1336 2438 0.0904392
1336 3028 0.0904385
1336 3212 0.0904394
1336 3214 0.0904396
1337 1453 1
1338 27 6.42957e-05
1338 639 0.499968
1338 1462 0.499968
1339 31 0.166667
1339 1229 0.333333
1339 1464 0.333333
1339 2117 0.166667
1340 31 0.333332
1340 1467 0.333334
1340 1468 0.333334
1341 20 0.380201
1341 46 0.228548
1341 2649 0.07825
1341 4034 0.313
1342 42 0.111124
1342 1471 0.111009
1342 1472 0.222248
1342 1473 0.222248
1342 2848 0.111124
1342 4300 0.111124
1342 4308 0.111124
1343 476 0.247475
1343 1453 0.250842
1343 1474 0.250842
1343 1475 0.250842
1344 33 0.333336
1344 441 0.333328
1344 1477 0.333336
1345 876 0.25
1345 1172 0.25
1345 1476 0.25
1345 1478 0.25
1346 834 0.5
1346 2064 0.25
1346 3785 0.25
1347 118 0.200006
1347 396 0.199975
1347 1479 0.200007
1347 1480 0.200007
1347 1481 0.200006
1348 1854 1
1349 1485 1
1350 144 0.165264
1350 205 0.16695
1350 218 0.16695
1350 396 0.166937
1350 1486 0.16695
1350 1487 0.16695
1351 1488 1
1352 183 0.498464
1352 1489 0.501536
1353 1490 1
1354 868 1
1355 345 0.25
1355 677 0.25
1355 1491 0.25
1355 4655 0.25
1356 1492 1
1357 7 0.166667
1357 33 0.166667
1357 682 0.166667
1357 1495 0.166667
1357 1496 0.166667
1357 1499 0.166667
1358 1497 1
1359 1500 1
1360 92 0.374999
1360 173 0.125
1360 905 0.125
1360 1568 0.125
1360 1569 0.125
1360 2850 0.125
1361 1503 0.6
1361 2730 0.4
1362 1502 1
1363 1505 1
1364 1506 1
1365 1507 0.2
1365 1508 0.4
1365 2927 0.4
1366 63 4.13804e-06
1366 524 0.999996
1367 1510 1
1368 1511 0.8
1368 5077 0.2
1369 1513 1
1370 1514 1
1371 1514 1
1372 1725 0.5
1372 2758 0.5
1373 78 0.219017
1373 476 0.520653
1373 3110 0.260331
1374 203 0.142857
1374 1783 0.285714
1374 1796 0.428571
1374 1815 0.142857
1375 1515 1
1376 1516 0.5
1376 1517 0.5
1377 116 0.166667
1377 476 0.166667
1377 1518 0.166667
1377 1519 0.166667
1377 1520 0.166667
1377 1521 0.166667
1378 1522 0.333333
1378 3098 0.666667
1379 19 0.333335
1379 65 0.333332
1379 1523 0.333332
1380 1524 0.5
1380 1525 0.5
1381 24 0.666666
1381 40 0.166667
1381 413 0.166667
1382 1068 0.333333
1382 1527 0.333333
1382 1528 0.333333
1383 866 0.249842
1383 1529 0.500317
1383 2235 0.249842
1384 1530 1
1385 5100 0.500006
1385 5106 0.499994
1386 187 0.125
1386 1876 0.125
1386 2204 0.125
1386 2338 0.125
1386 3642 0.125
1386 4107 0.125
1386 4478 0.125
1386 4632 0.125
1387 70 0.0908787
1387 112 0.363515
1387 144 0.0908784
1387 248 0.000334735
1387 705 0.0908787
1387 869 0.181757
1387 1116 0.0908787
1387 2307 0.0908787
1388 308 0.333333
1388 791 0.333333
1388 1532 0.333333
1389 1533 1
1390 423 0.333335
1390 476 0.33333
1390 1534 0.333335
1391 38 0.25
1391 119 0.25
1391 1004 0.5
1392 1229 0.307463
1392 1322 5.59788e-05
1392 1751 0.34624
1392 2997 0.34624
1393 579 0.5
1393 1535 0.5
1394 1536 0.5
1394 1539 0.5
1395 1537 1
1396 38 0.494675
1396 1538 0.505325
1397 63 2.36674e-06
1397 93 0.214148
1397 1653 0.351433
1397 2062 0.434416
1398 1540 1
1399 1541 1
1400 1542 1
1401 494 0.5
1401 2318 0.5
1402 72 0.333334
1402 1531 0.333334
1402 1543 0.333331
1403 1545 0.333333
1403 1546 0.333333
1403 4009 0.333333
1404 40 0.400975
1404 174 0.399146
1404 2424 0.199879
1405 746 0.333333
1405 1547 0.333333
1405 1548 0.333333
1406 1145 0.333333
1406 1554 0.666667
1407 1553 0.333333
1407 1555 0.333333
1407 5041 0.333333
1408 122 0.166667
1408 449 0.166667
1408 1549 0.166667
1408 1550 0.166667
1408 1551 0.166666
1408 1552 0.166667
1409 122 0.333333
1409 1556 0.333334
1409 1557 0.333333
1410 1558 1
1411 15 0.4
1411 1315 0.4
1411 1559 0.2
1412 1560 1
1413 1567 1
1414 1566 1
1415 1570 1
1416 1315 0.333333
1416 1571 0.333333
1416 1572 0.333333
1417 1009 0.2
1417 1399 0.2
1417 1573 0.2
1417 1574 0.4
1418 196 1
1419 4 1
1420 1575 0.0188291
1420 1576 0.981171
1421 4 8.55642e-05
1421 1577 0.499957
1421 1614 0.499957
1422 924 0.333189
1422 1075 0.000431285
1422 1578 0.66638
1423 16 0.485958
1423 1415 0.514042
1424 1319 1
1425 182 1
1426 273 0.25
1426 610 0.25
1426 1579 0.25
1426 1580 0.25
1427 1581 1
1428 4257 1
1429 21 0.5
1429 2216 0.25
1429 3664 0.25
1430 1391 0.5
1430 1585 0.5
1431 1586 1
1432 273 0.166665
1432 1301 0.166667
1432 1582 0.166667
1432 1583 0.166667
1432 1584 0.166667
1432 1587 0.166667
1433 78 0.332545
1433 1589 0.333727
1433 1590 0.333727
1434 715 0.5
1434 1591 0.5
1435 1592 0.5
1435 1593 0.5
1436 24 0.201265
1436 78 0.194942
1436 899 0.201264
1436 1594 0.201264
1436 1595 0.201265
1437 1391 0.333333
1437 1596 0.333333
1437 1597 0.333333
1438 77 0.249956
1438 1598 0.250015
1438 1599 0.250015
1438 2527 0.250015
1439 37 0.333072
1439 132 0.000819749
1439 531 0.666108
1440 132 0.249537
1440 1600 0.500309
1440 4585 0.250154
1441 682 0.5
1441 1601 0.5
1442 170 0.5
1442 1602 0.5
1443 11 2.12652e-06
1443 78 0.000318833
1443 120 0.181323
1443 4487 0.382896
1443 4530 0.244351
1443 4677 0.19111
1444 120 0.0249666
1444 420 0.243758
1444 1255 0.243758
1444 1598 0.243758
1444 1605 0.243758
1445 1201 1
1446 1605 0.666667
1446 1606 0.333333
1447 576 0.249979
1447 750 0.250007
1447 1607 0.250007
1447 1609 0.250007
1448 63 0.122458
1448 1610 0.292514
1448 1611 0.146257
1448 1612 0.292514
1448 1615 0.146257
1449 569 0.000166441
1449 1613 0.999834
1450 1614 1
1451 498 0.2
1451 1582 0.2
1451 1617 0.2
1451 1618 0.2
1451 1619 0.2
1452 25 0.137737
1452 63 0.120019
1452 2198 0.37112
1452 2564 4.10712e-06
1452 3354 0.37112
1453 293 0.277511
1453 1664 0.722489
1454 166 0.166667
1454 306 0.666667
1454 2902 0.166667
1455 77 0.166946
1455 1622 0.333221
1455 3361 0.499832
1456 103 0.333333
1456 1201 0.333333
1456 1623 0.333333
1457 2076 0.75
1457 2710 0.25
1458 699 0.25
1458 1620 0.75
1459 1624 1
1460 1625 0.5
1460 1626 0.5
1461 4 1
1462 1627 1
1463 1628 1
1464 1629 1
1465 1630 1
1466 1631 1
1467 1632 1
1468 869 0.5
1468 1635 0.5
1469 174 0.2
1469 197 0.2
1469 1476 0.2
1469 1634 0.2
1469 1636 0.2
1470 11 0.249994
1470 342 0.250214
1470 498 0.249578
1470 1021 0.250215
1471 1637 1
1472 1638 1
1473 4 0.00287237
1473 2003 0.997128
1474 46 1
1475 833 0.142857
1475 1265 0.142857
1475 1576 0.142857
1475 1639 0.142857
1475 1640 0.142857
1475 1641 0.142857
1475 1642 0.142857
1476 46 0.000858169
1476 1643 0.664694
1476 2752 0.334447
1477 11 0.324726
1477 46 0.0217197
1477 1643 0.00407828
1477 1644 0.324738
1477 2753 0.324738
1478 1639 0.200139
1478 1645 0.199445
1478 2757 0.200139
1478 4722 0.200139
1478 5045 0.200139
1479 1645 0.00173139
1479 3448 0.499135
1479 3449 0.499134
1480 1646 0.5
1480 1647 0.5
1481 98 0.333332
1481 138 0.333335
1481 761 0.333334
1482 1648 0.5
1482 4098 0.5
1483 1650 1
1484 1652 1
1485 1653 1
1486 1649 0.499997
1486 1654 0.500003
1487 1655 1
1488 1656 1
1489 576 1
1490 1230 0.5
1490 1657 0.5
1491 1658 1
1492 103 0.333331
1492 119 0.333335
1492 1659 0.333335
1493 1660 0.25
1493 1661 0.5
1493 1804 0.25
1494 112 0.2
1494 821 0.2
1494 4056 0.6
1495 571 0.333363
1495 1588 0.333275
1495 1662 0.333362
1496 33 0.5
1496 1663 0.5
1497 25 0.428911
1497 1268 0.571089
1498 1131 0.000206204
1498 1666 0.999794
1499 218 0.499999
1499 1667 0.500001
1500 863 0.333333
1500 1305 0.666667
1501 25 6.66767e-06
1501 1668 0.499997
1501 1669 0.499997
1502 103 0.280997
1502 205 0.280997
1502 1670 0.280997
1502 1671 0.157008
1503 72 0.222933
1503 196 0.103526
1503 433 0.21434
1503 953 0.10717
1503 1138 0.10717
1503 1671 0.0667006
1503 2502 0.0709911
1503 4216 0.10717
1504 476 0.111112
1504 505 0.111112
1504 575 0.111112
1504 881 0.111112
1504 908 0.111112
1504 1672 0.111112
1504 1673 0.111112
1504 1802 0.111112
1504 4166 0.111103
1505 1674 0.499998
1505 1675 0.500002
1506 1676 1
1507 1230 0.666667
1507 1677 0.333333
1508 761 1
1509 666 0.321641
1509 1187 0.342116
1509 1216 0.336244
1510 474 0.333333
1510 2267 0.333333
1510 2268 0.333333
1511 81 0.25
1511 187 0.25
1511 413 0.25
1511 1679 0.25
1512 324 1
1513 1680 0.333406
1513 1681 0.333189
1513 1682 0.333406
1514 571 0.5
1514 1684 0.5
1515 1681 1
1516 451 0.333327
1516 1683 0.333336
1516 1685 0.333336
1517 174 0.250003
1517 1688 0.249999
1517 1878 0.249999
1517 4749 0.249999
1518 67 0.156962
1518 106 0.156962
1518 174 0.215191
1518 1686 0.156962
1518 1687 0.156962
1518 1689 0.156961
1519 941 1
1520 78 0.0330022
1520 1595 0.966998
1521 587 0.500001
1521 2054 0.125
1521 2343 0.125
1521 2519 0.125
1521 2978 0.124999
1522 30 0.222291
1522 43 0.111145
1522 1690 0.555727
1522 1697 0.110836
1523 451 0.499861
1523 1301 0.000277799
1523 1691 0.249931
1523 3301 0.249931
1524 65 0.25
1524 1616 0.25
1524 1692 0.25
1524 1693 0.25
1525 569 0.250414
1525 1322 0.249871
1525 1559 0.499714
1526 31 0.215424
1526 1230 0.356625
1526 3152 0.356625
1526 3225 0.0713251
1527 537 0.250001
1527 834 0.249998
1527 1060 0.25
1527 1697 0.250001
1528 441 0.5
1528 642 0.5
1529 1698 1
1530 16 6.23848e-05
1530 273 0.499969
1530 1175 0.499969
1531 65 0.333333
1531 154 0.333333
1531 1692 0.333333
1532 1699 1
1533 200 0.5
1533 1672 0.5
1534 56 0.333334
1534 583 0.333333
1534 1700 0.333334
1535 20 0.134095
1535 576 0.144317
1535 755 0.144317
1535 1701 0.144317
1535 2181 0.144317
1535 2756 0.144317
1535 2757 0.144317
1536 1687 1
1537 1702 1
1538 1695 0.333334
1538 1703 0.333333
1538 1704 0.333333
1539 1091 0.4
1539 2852 0.4
1539 4649 0.199999
1540 19 0.143129
1540 26 0.143214
1540 31 0.143214
1540 205 0.143214
1540 1705 0.1408
1540 2335 0.143214
1540 2336 0.143214
1541 234 0.983423
1541 1705 0.0165774
1542 234 3.19257e-05
1542 235 0.998717
1542 1706 0.00125065
1543 1706 0.249765
1543 1707 0.250078
1543 1708 0.250078
1543 1709 0.250078
1544 96 0.399991
1544 413 0.200003
1544 414 0.200003
1544 1710 0.200003
1545 791 0.5
1545 1711 0.5
1546 170 0.499996
1546 1268 0.500004
1547 65 0.091697
1547 77 0.541515
1547 93 0.091697
1547 121 0.091697
1547 1292 0.091697
1547 2115 0.091697
1548 155 0.946782
1548 1682 0.0532178
1549 1563 0.333338
1549 1712 0.333338
1549 1713 0.333324
1550 1697 1
1551 46 0.000770015
1551 81 0.249771
1551 1708 0.499688
1551 3859 0.249771
1552 569 0.333334
1552 1714 0.333334
1552 1715 0.333332
1553 1716 0.964327
1553 2046 0.0356726
1554 1672 0.499992
1554 1718 0.500008
1555 31 0.285719
1555 200 1.71838e-06
1555 442 0.428568
1555 1719 0.142856
1555 4809 0.142856
1556 436 0.333333
1556 648 0.166667
1556 895 0.166667
1556 1171 0.166667
1556 1445 0.166667
1557 1712 0.333333
1557 1720 0.333333
1557 1721 0.333333
1558 1722 0.5
1558 1723 0.5
1559 474 0.25
1559 1672 0.25
1559 1724 0.25
1559 1725 0.25
1560 2467 0.666668
1560 4154 0.333332
1561 25 0.501508
1561 1726 0.498492
1562 107 0.143486
1562 431 0.143486
1562 1462 0.139085
1562 1727 0.28697
1562 2105 0.143486
1562 3303 0.143486
1563 1728 0.75
1563 4870 0.25
1564 975 0.166667
1564 1729 0.166667
1564 1730 0.166667
1564 1731 0.166667
1564 1732 0.166667
1564 1733 0.166667
1565 1671 1
1566 1001 0.499998
1566 1739 0.500002
1567 187 0.5
1567 534 0.5
1568 1734 0.333334
1568 1735 0.333333
1568 1736 0.333333
1569 31 0.399991
1569 1737 0.600009
1570 1738 0.666667
1570 3852 0.333333
1571 11 0.112217
1571 25 0.0216314
1571 1610 0.123736
1571 1741 0.123736
1571 1965 0.123736
1571 2503 0.123736
1571 3001 0.123736
1571 3002 0.123736
1571 3003 0.123734
1572 2046 1
1573 549 0.25
1573 1742 0.25
1573 3872 0.25
1573 4143 0.25
1574 797 0.5
1574 1088 0.25
1574 2814 0.25
1575 1743 1
1576 1744 1
1577 168 0.25
1577 206 0.25
1577 234 0.25
1577 3643 0.25
1578 26 1
1579 1747 0.25
1579 1748 0.25
1579 1749 0.25
1579 1750 0.249999
1580 31 0.662639
1580 441 0.337361
1581 1752 1
1582 31 0.5
1582 1753 0.5
1583 1754 1
1584 696 0.0046836
1584 868 0.497658
1584 1755 0.497658
1585 1757 1
1586 33 0.198499
1586 442 0.200375
1586 1315 0.200375
1586 1756 0.400751
1587 19 0.499485
1587 1758 0.500515
1588 873 1.87891e-05
1588 1759 0.999981
1589 576 0.0733153
1589 579 0.463342
1589 617 0.231671
1589 2215 0.231671
1590 200 1
1591 1216 0.5
1591 1760 0.5
1592 579 1
1593 265 0.499968
1593 834 0.500032
1594 1301 0.333333
1594 1663 0.333334
1594 1761 0.333333
1595 1762 1
1596 63 0.333324
1596 285 0.133335
1596 286 0.0666676
1596 1343 0.200003
1596 3596 0.266671
1597 1765 1
1598 1668 0.249998
1598 1766 0.750002
1599 63 4.85886e-05
1599 78 0.326841
1599 481 0.336562
1599 3426 0.336549
1600 1767 1
1601 1768 1
1602 1764 1
1603 1769 0.333333
1603 3776 0.333333
1603 4281 0.333333
1604 1770 1
1605 271 1
1606 103 0.499961
1606 1771 0.500039
1607 174 0.25
1607 1772 0.25
1607 1773 0.25
1607 1774 0.25
1608 1775 1
1609 11 1
1610 7 0.111111
1610 1474 0.111111
1610 2118 0.777778
1611 212 0.636364
1611 924 0.363636
1612 1776 1
1613 1777 1
1614 25 7.99539e-05
1614 114 0.499957
1614 873 6.58909e-06
1614 1778 0.499957
1615 1779 1
1616 1780 1
1617 174 0.2
1617 1423 0.4
1617 1922 0.199999
1617 1947 0.2
1618 196 0.0215956
1618 1781 0.978404
1619 185 0.170126
1619 1359 0.149369
1619 1782 0.340252
1619 2518 0.170126
1619 2844 0.170126
1620 165 1
1621 382 0.333333
1621 1784 0.333333
1621 1785 0.333333
1622 1787 1
1623 1786 1
1624 1384 0.333333
1624 3352 0.333333
1624 3750 0.333333
1625 1788 1
1626 833 0.5
1626 1789 0.5
1627 1488 0.333333
1627 1791 0.333333
1627 1792 0.333333
1628 1672 0.5
1628 1733 0.5
1629 1794 1
1630 33 0.143487
1630 172 0.142752
1630 173 0.142752
1630 1797 0.142752
1630 1900 0.428257
1631 366 0.333333
1631 791 0.333333
1631 4091 0.333333
1632 1229 0.100715
1632 1799 0.899285
1633 1800 1
1634 537 1
1635 46 1
1636 317 0.333333
1636 541 0.333333
1636 966 0.333333
1637 1242 1
1638 1802 1
1639 218 0.5
1639 1803 0.5
1640 1145 1
1641 844 0.333333
1641 4930 0.666667
1642 173 0.5
1642 1806 0.5
1643 1807 1
1644 96 0.333331
1644 1808 0.333335
1644 2819 0.333334
1645 981 0.19975
1645 1672 0.19975
1645 1809 0.19975
1645 2260 0.200999
1645 3112 0.19975
1646 5 7.68285e-05
1646 1725 0.249981
1646 1810 0.749942
1647 1811 1
1648 1476 1
1649 16 0.49954
1649 4330 0.50046
1650 800 0.5
1650 3075 0.5
1651 1812 1
1652 1813 0.5
1652 1844 0.5
1653 1814 1
1654 10 0.111111
1654 196 0.111111
1654 534 0.111111
1654 571 0.111111
1654 873 0.111111
1654 1772 0.111111
1654 1815 0.111111
1654 1816 0.111111
1654 1817 0.111111
1655 286 1
1656 65 0.0254747
1656 1818 0.974525
1657 1819 0.333333
1657 4683 0.333333
1657 5117 0.333333
1658 15 0.198272
1658 20 0.206898
1658 653 0.198277
1658 1216 0.198276
1658 1488 0.198277
1659 1821 1
1660 463 0.0716089
1660 566 0.928391
1661 576 0.333334
1661 1399 0.333333
1661 1822 0.333334
1662 174 0.19949
1662 1161 0.398476
1662 1681 0.402034
1663 155 0.333639
1663 3284 0.16659
1663 3929 0.333181
1663 4019 0.16659
1664 576 0.124989
1664 1823 0.625008
1664 1824 0.125002
1664 3122 0.125002
1665 1315 0.333333
1665 1825 0.333333
1665 1826 0.333333
1666 1827 0.500484
1666 1828 0.499516
1667 193 0.2
1667 216 0.2
1667 977 0.6
1668 191 0.665538
1668 1829 0.334462
1669 185 0.333333
1669 702 0.333333
1669 1693 0.333333
1670 56 0.25
1670 1832 0.75
1671 8 0.000171807
1671 112 0.100022
1671 498 0.100022
1671 683 0.300067
1671 1019 0.100022
1671 1834 0.200045
1671 4844 0.0996266
1671 4845 0.100022
1672 63 0.181249
1672 1835 0.456631
1672 1898 0.36212
1673 1619 0.199966
1673 1836 0.399931
1673 1837 0.200137
1673 1868 0.199966
1674 293 1
1675 11 0.499876
1675 218 0.250035
1675 308 0.250088
1676 1838 1
1677 11 0.262558
1677 63 0.21232
1677 1837 0.262449
1677 1839 0.262673
1678 1841 1
1679 1176 0.248895
1679 1216 0.375552
1679 1842 0.375552
1680 397 0.500011
1680 498 0.16667
1680 570 0.166647
1680 953 1.836e-06
1680 1844 0.166671
1681 953 0.499162
1681 1843 0.500838
1682 1847 1
1683 576 0.333333
1683 1848 0.666667
1684 63 9.63921e-06
1684 222 0.199998
1684 791 0.199998
1684 1849 0.199998
1684 3162 0.199998
1684 4297 0.199998
1685 65 0.166855
1685 666 0.166588
1685 744 0.165991
1685 1198 0.33371
1685 4608 0.166855
1686 1850 1
1687 1851 1
1688 65 0.263974
1688 78 0.193866
1688 1852 0.54216
1689 80 0.499999
1689 1116 0.500001
1690 1853 0.666667
1690 2213 0.333333
1691 77 0.0304978
1691 165 0.215466
1691 1161 0.754036
1692 1674 1
1693 24 0.333104
1693 1092 0.333448
1693 1854 0.333448
1694 555 1
1695 1636 0.25
1695 1856 0.25
1695 1857 0.25
1695 1858 0.25
1696 1207 1
1697 489 0.25
1697 674 0.25
1697 1720 0.25
1697 2954 0.25
1698 1859 1
1699 1860 0.25
1699 2227 0.25
1699 4813 0.25
1699 4891 0.25
1700 25 0.153143
1700 1863 0.635143
1700 2901 0.211714
1701 20 0.000126031
1701 38 0.140382
1701 166 0.140462
1701 1861 0.140463
1701 1862 0.297642
1701 2950 0.140463
1701 3042 0.140463
1702 20 0.33112
1702 831 0.5574
1702 5056 0.11148
1703 581 0.166848
1703 583 0.166848
1703 1990 0.165761
1703 4230 0.166848
1703 4231 0.166848
1703 4232 0.166848
1704 1410 1
1705 411 0.500002
1705 1866 0.499998
1706 30 0.5
1706 1869 0.5
1707 523 0.5
1707 1870 0.25
1707 1871 0.25
1708 15 0.5
1708 1161 0.25
1708 3222 0.25
1709 1695 1
1710 103 0.4
1710 1423 0.2
1710 2454 0.4
1711 20 0.222803
1711 1664 0.255153
1711 1874 0.26689
1711 3587 0.255153
1712 293 0.187666
1712 335 1.35044e-05
1712 1664 0.361089
1712 2553 0.0902462
1712 3272 0.360985
1713 571 0.496553
1713 1875 0.503447
1714 851 1
1715 1877 1
1716 103 0.00208865
1716 1087 0.997911
1717 218 0.166667
1717 746 0.166667
1717 1060 0.166667
1717 1878 0.166667
1717 1880 0.166667
1717 1881 0.166667
1718 1883 0.500057
1718 2589 0.499943
1719 57 0.2
1719 279 0.4
1719 2114 0.2
1719 2453 0.2
1720 16 0.166293
1720 144 0.166774
1720 205 0.166774
1720 1289 0.166774
1720 1561 0.166612
1720 1882 0.166774
1721 956 0.166667
1721 1147 0.333333
1721 1884 0.5
1722 749 0.499999
1722 1885 0.500001
1723 30 0.5
1723 1886 0.5
1724 78 7.81674e-05
1724 1887 0.999922
1725 1888 1
1726 1889 1
1727 193 0.25
1727 497 0.25
1727 1009 0.25
1727 1891 0.25
1728 96 0.199996
1728 576 0.200001
1728 1892 0.400002
1728 3979 0.200001
1729 355 0.166667
1729 1893 0.5
1729 2833 0.333333
1730 38 0.200011
1730 162 0.199997
1730 478 0.199997
1730 3128 0.199997
1730 3873 0.199997
1731 556 1
1732 1894 1
1733 26 0.5
1733 1895 0.5
1734 46 0.501256
1734 451 0.498744
1735 77 0.5
1735 1896 0.5
1736 32 0.00645991
1736 1897 0.248385
1736 3744 0.248385
1736 4261 0.248385
1736 4889 0.248385
1737 119 0.29493
1737 1835 0.115211
1737 1908 0.58986
1738 1899 1
1739 1901 1
1740 45 0.200135
1740 185 0.200135
1740 1484 0.200135
1740 1902 0.19946
1740 1903 0.200135
1741 1904 0.799988
1741 2737 1.46284e-05
1741 3106 0.199997
1742 341 0.312541
1742 1905 0.343729
1742 3842 0.34373
1743 571 1
1744 218 0.2
1744 880 0.4
1744 1315 0.199999
1744 4886 0.2
1745 103 0.196436
1745 341 0.017821
1745 1242 0.196436
1745 3611 0.392872
1745 3834 0.196436
1746 96 0.199426
1746 1892 0.400287
1746 3289 0.200143
1746 4527 0.200143
1747 498 0.110418
1747 1897 0.222395
1747 1907 0.444791
1747 2871 0.111198
1747 3755 0.111198
1748 1910 1
1749 99 0.5
1749 796 0.5
1750 174 0.5
1750 1911 0.5
1751 1912 0.8
1751 3382 0.2
1752 964 0.500099
1752 1913 0.499901
1753 771 0.499902
1753 1913 0.000198188
1753 1914 0.499899
1754 876 2.43903e-05
1754 1021 0.999976
1755 26 0.4
1755 3928 0.4
1755 3955 0.2
1756 200 0.200229
1756 442 0.200229
1756 1004 0.199083
1756 1171 0.200229
1756 1915 0.200229
1757 1021 1
1758 1916 1
1759 31 0.203317
1759 33 0.000869153
1759 1924 0.198953
1759 2329 0.59686
1760 952 0.499999
1760 1917 0.500001
1761 1919 1
1762 569 0.000139497
1762 1902 0.999861
1763 1315 0.166667
1763 1580 0.166667
1763 1922 0.166667
1763 1923 0.166667
1763 1925 0.166667
1763 1926 0.166667
1764 691 1
1765 834 0.5
1765 1927 0.5
1766 1928 0.666667
1766 3244 0.333333
1767 16 0.661717
1767 200 0.338283
1768 1733 0.5
1768 1929 0.5
1769 185 0.25
1769 578 0.25
1769 1931 0.25
1769 1935 0.25
1770 16 0.24746
1770 975 0.250847
1770 1936 0.250847
1770 1937 0.250847
1771 1938 1
1772 1939 1
1773 397 0.499882
1773 1932 0.500118
1774 1075 0.2
1774 1933 0.2
1774 1934 0.2
1774 1940 0.2
1774 1941 0.2
1775 235 0.200001
1775 1942 0.200001
1775 1943 0.2
1775 1944 0.199997
1775 4790 0.200001
1776 103 0.244343
1776 362 0.251886
1776 1947 0.251886
1776 1948 0.251886
1777 60 0.250001
1777 476 0.249999
1777 737 0.25
1777 818 0.250001
1778 65 0.249999
1778 196 0.25
1778 424 0.25
1778 1946 0.25
1779 119 0.5
1779 448 0.5
1780 2876 0.284689
1780 4426 0.284687
1780 4530 0.427997
1780 4670 0.00262758
1781 1949 1
1782 193 0.25
1782 458 0.25
1782 1950 0.25
1782 1951 0.25
1783 1952 1
1784 1953 1
1785 76 0.5
1785 1423 0.5
1786 1954 1
1787 20 0.00469832
1787 1955 0.497654
1787 2277 0.248824
1787 3467 0.248824
1788 63 0.161423
1788 103 0.167701
1788 218 0.167775
1788 827 0.503102
1789 1956 0.5
1789 1957 0.5
1790 1958 0.5
1790 1959 0.5
1791 197 0.142857
1791 200 0.142857
1791 569 0.142857
1791 571 0.142857
1791 572 0.142857
1791 633 0.142857
1791 1417 0.142857
1792 869 1
1793 65 0.25
1793 362 0.25
1793 1960 0.25
1793 1961 0.25
1794 467 0.5
1794 1962 0.5
1795 1963 1
1796 1964 1
1797 75 0.333065
1797 1421 0.333028
1797 2557 0.000879065
1797 2806 0.333028
1798 65 0.000352862
1798 285 0.249912
1798 1950 0.249912
1798 1965 0.249912
1798 1966 0.249912
1799 65 0.66651
1799 1967 0.33349
1800 46 0.00985422
1800 1969 0.000568392
1800 3814 1.50732e-05
1800 4815 0.989562
1801 2750 0.417965
1801 4163 0.442713
1801 4716 0.139322
1802 1968 0.500143
1802 1969 0.499857
1803 1143 0.25
1803 1258 0.25
1803 2230 0.25
1803 3074 0.25
1804 1971 0.5
1804 2095 0.25
1804 3226 0.25
1805 1972 1
1806 1964 1
1807 2846 1
1808 1975 1
1809 1976 1
1810 1973 0.5
1810 1977 0.5
1811 1974 1
1812 1978 1
1813 1939 0.092088
1813 1979 0.907912
1814 610 0.5
1814 1982 0.5
1815 751 0.5
1815 1980 0.5
1816 594 0.25
1816 1984 0.5
1816 2478 0.25
1817 1950 0.333333
1817 1981 0.333333
1817 1983 0.333333
1818 597 1
1819 598 1
1820 4628 0.5
1820 4629 0.5
1821 1985 0.5
1821 1986 0.5
1822 818 0.5
1822 1987 0.5
1823 1988 0.5
1823 1989 0.5
1824 1256 0.5
1824 1991 0.5
1825 1992 1
1826 1147 1
1827 1610 1
1828 88 0.500066
1828 1993 0.499934
1829 1994 1
1830 476 0.333333
1830 1996 0.333334
1830 1998 0.333334
1831 476 0.142555
1831 489 0.142907
1831 1997 0.714537
1832 338 0.199702
1832 378 0.599106
1832 1854 0.199702
1832 3154 0.00149005
1833 112 0.053661
1833 1417 0.315448
1833 1995 0.315448
1833 2000 0.315443
1834 185 0.142857
1834 218 0.142857
1834 428 0.142857
1834 474 0.142857
1834 593 0.142857
1834 1445 0.142857
1834 2001 0.142857
1835 2002 1
1836 2003 1
1837 19 1
1838 25 4.41136e-05
1838 428 0.249989
1838 2004 0.249989
1838 2005 0.249989
1838 2006 0.249988
1839 169 0.333333
1839 464 0.333333
1839 4027 0.333333
1840 282 0.333333
1840 492 0.333333
1840 2009 0.333333
1841 19 0.663307
1841 657 0.336693
1842 2008 0.5
1842 2010 0.5
1843 27 0.5
1843 2007 0.5
1844 26 0.4
1844 112 0.2
1844 617 0.2
1844 4525 0.2
1845 5 0.0564152
1845 442 0.314528
1845 1458 0.314528
1845 2011 0.314528
1846 2012 1
1847 2013 1
1848 900 0.333333
1848 1589 0.333333
1848 1614 0.333333
1849 218 0.5
1849 2015 0.5
1850 7 0.5
1850 2017 0.5
1851 1062 0.333333
1851 2018 0.666667
1852 118 0.500149
1852 2019 0.499851
1853 1354 1
1854 2020 1
1855 2021 1
1856 2026 1
1857 273 1
1858 2027 1
1859 16 0.111111
1859 230 0.111111
1859 592 0.111111
1859 1473 0.111111
1859 2023 0.111111
1859 2024 0.111111
1859 2025 0.222222
1859 2028 0.111111
1860 2030 1
1861 2031 0.49998
1861 2365 4.03281e-05
1861 2427 0.49998
1862 422 0.000272994
1862 2032 0.999727
1863 422 0.499932
1863 2033 0.500068
1864 2034 1
1865 11 0.249726
1865 1933 0.250091
1865 2036 0.250091
1865 2459 0.250091
1866 2037 1
1867 2039 1
1868 174 0.125
1868 827 0.125
1868 1607 0.25
1868 2040 0.125
1868 2050 0.125
1868 2638 0.125
1868 2639 0.125
1869 38 0.166668
1869 419 0.166666
1869 749 0.166666
1869 2043 0.166666
1869 2044 0.166666
1869 4020 0.166666
1870 222 0.249929
1870 2045 0.500047
1870 3178 0.250024
1871 2047 1
1872 468 0.333333
1872 2048 0.666667
1873 2049 0.909091
1873 2410 0.0909091
1874 2050 1
1875 2051 1
1876 32 0.333333
1876 571 0.333333
1876 2052 0.333333
1877 196 0.372554
1877 2053 0.627446
1878 2055 1
1879 2056 1
1880 2058 0.333333
1880 2059 0.333333
1880 2060 0.333333
1881 587 0.5
1881 2061 0.333333
1881 2423 0.166667
1882 1423 1
1883 546 0.336852
1883 2062 0.326296
1883 2525 0.336852
1884 2063 1
1885 25 5.01769e-06
1885 1301 0.199999
1885 2065 0.599997
1885 2066 0.199999
1886 46 0.0701767
1886 265 0.039165
1886 2067 0.890658
1887 15 0.252779
1887 265 0.241663
1887 2068 0.252779
1887 3424 0.252779
1888 2069 1
1889 876 0.5
1889 2070 0.5
1890 2071 1
1891 2072 1
1892 2073 1
1893 1030 1
1894 19 0.248497
1894 552 0.250501
1894 2146 0.250501
1894 2147 0.250501
1895 1583 0.499995
1895 2074 1.02418e-05
1895 3884 0.499995
1896 2074 0.499995
1896 2075 0.500005
1897 290 3.94231e-05
1897 2559 0.49998
1897 3409 0.49998
1898 103 0.443428
1898 205 0.00770658
1898 569 0.0119015
1898 2078 0.536964
1899 2080 1
1900 841 0.369775
1900 2083 0.630225
1901 1788 0.333332
1901 2081 0.666668
1902 2082 0.63536
1902 2083 0.36464
1903 924 0.125
1903 1045 0.125
1903 3377 0.625
1903 3489 0.125
1904 31 0.142957
1904 32 0.142957
1904 38 0.142948
1904 2077 0.142957
1904 2078 0.142267
1904 2079 0.142957
1904 2084 0.142956
1905 851 0.000124815
1905 1572 0.499938
1905 2085 0.499937
1906 579 0.333333
1906 869 0.333333
1906 2087 0.333333
1907 362 0.333333
1907 1019 0.333333
1907 2086 0.333333
1908 474 7.80385e-05
1908 2088 0.499961
1908 4066 0.499961
1909 78 0.302529
1909 423 0.348736
1909 2779 0.174368
1909 3839 0.174368
1910 2090 1
1911 78 0.0162432
1911 502 0.196751
1911 555 0.196751
1911 2089 0.196751
1911 2091 0.196751
1911 2132 0.196751
1912 290 0.5
1912 474 0.25
1912 2669 0.25
1913 448 0.25
1913 1134 0.25
1913 2092 0.25
1913 2520 0.25
1914 452 1
1915 11 1
1916 112 1
1917 1677 0.5
1917 2094 0.5
1918 1531 1
1919 193 0.0466875
1919 493 0.476656
1919 2095 0.238328
1919 3141 0.238328
1920 2096 0.5
1920 2717 0.5
1921 2097 1
1922 2098 1
1923 844 0.333337
1923 4795 0.333337
1923 4797 0.333326
1924 849 0.700001
1924 1510 0.299999
1925 780 0.4
1925 1588 0.2
1925 2099 0.2
1925 2344 0.2
1926 2100 0.5
1926 2695 0.5
1927 222 0.166667
1927 849 0.5
1927 3387 0.166667
1927 3393 0.166667
1928 2101 1
1929 1949 0.515892
1929 1950 0.484108
1930 2102 1
1931 169 0.5
1931 2103 0.5
1932 2104 1
1933 800 1
1934 218 0.5
1934 2105 0.5
1935 1863 1
1936 2106 1
1937 2107 1
1938 1045 1
1939 1984 0.5
1939 2108 0.5
1940 345 0.00150642
1940 1823 0.332831
1940 2435 0.665662
1941 65 0.333333
1941 720 0.333333
1941 2916 0.333333
1942 2109 1
1943 2110 1
1944 27 0.142861
1944 144 0.142861
1944 569 0.285694
1944 824 0.142861
1944 2111 0.142861
1944 2112 0.142861
1945 11 0.0892636
1945 881 0.069131
1945 2113 0.764987
1945 3271 0.000120066
1945 4594 0.0764986
1946 1466 0.25
1946 1501 0.25
1946 2287 0.25
1946 3691 0.25
1947 2119 1
1948 2120 1
1949 881 1
1950 2121 1
1951 2122 1
1952 1004 0.0049513
1952 2123 0.995049
1953 375 0.999003
1953 975 0.000997025
1954 2125 1
1955 377 0.5
1955 2126 0.5
1956 2127 1
1957 2127 0.333329
1957 2128 0.666657
1957 2129 1.41562e-05
1958 20 0.0457017
1958 623 0.318104
1958 2129 0.31809
1958 2130 0.318104
1959 2131 1
1960 2134 0.333333
1960 2300 0.333333
1960 4420 0.333333
1961 1546 1
1962 93 0.028345
1962 2135 0.971655
1963 93 0.24449
1963 680 0.251837
1963 681 0.251837
1963 2137 0.251837
1964 966 0.25
1964 2138 0.25
1964 2139 0.25
1964 3413 0.25
1965 2140 1
1966 185 0.333333
1966 2141 0.333333
1966 2207 0.333333
1967 121 0.00699437
1967 2142 0.993006
1968 16 0.25237
1968 487 0.373815
1968 2143 0.373815
1969 2144 1
1970 576 1
1971 46 0.325312
1971 617 0.168681
1971 627 0.168659
1971 2148 0.168678
1971 2554 0.168671
1972 184 0.965961
1972 920 0.0340388
1973 28 0.163682
1973 617 0.163673
1973 1993 0.327365
1973 3067 0.181597
1973 4574 0.163682
1974 2151 1
1975 2152 1
1976 26 0.250214
1976 579 0.125107
1976 975 0.249357
1976 1530 0.125107
1976 2153 0.125107
1976 4161 0.125107
1977 138 0.250006
1977 2157 0.249998
1977 2570 0.249998
1977 2993 0.249998
1978 397 0.00603955
1978 2158 0.99396
1979 16 0.327819
1979 2161 0.336091
1979 3313 0.336091
1980 11 0.65756
1980 451 0.334298
1980 4774 0.00814158
1981 431 0.199857
1981 545 0.000714528
1981 785 0.199858
1981 1201 0.199858
1981 2165 0.199856
1981 2166 0.199858
1982 30 0.5
1982 1869 0.5
1983 317 0.333333
1983 1315 0.333333
1983 4566 0.333333
1984 1045 0.2
1984 2167 0.4
1984 3521 0.2
1984 3835 0.2
1985 78 6.86626e-05
1985 95 0.33331
1985 431 0.33331
1985 2168 0.333311
1986 2 1
1987 16 0.249792
1987 456 0.250079
1987 569 0.250087
1987 617 0.250042
1988 78 0.160413
1988 1009 0.279862
1988 1474 0.279862
1988 1833 0.279862
1989 1315 0.249102
1989 1584 0.250298
1989 2171 0.5006
1990 2169 0.333333
1990 2170 0.333333
1990 2174 0.333333
1991 63 0.0393551
1991 2176 0.480334
1991 3167 0.240143
1991 5023 0.240167
1992 498 0.333303
1992 1019 0.333349
1992 2175 0.333348
1993 2177 1
1994 185 0.142976
1994 205 0.142976
1994 405 0.142976
1994 606 0.142143
1994 797 0.142976
1994 2178 0.285952
1995 174 0.333303
1995 2179 0.333349
1995 2180 0.333348
1996 193 0.2
1996 2112 0.6
1996 3053 0.2
1997 72 0.165283
1997 174 0.258517
1997 442 0.2881
1997 1315 0.2881
1998 1216 1
1999 25 1.62889e-05
1999 2182 0.999984
2000 456 0.333333
2000 2183 0.333333
2000 2184 0.333333
2001 11 0.243405
2001 2186 0.252198
2001 2750 0.252198
2001 3905 0.252198
2002 907 1
2003 2187 1
2004 2188 1
2005 1825 1
2006 2189 1
2007 165 0.5
2007 593 0.5
2008 2190 1
2009 25 0.333029
2009 307 0.333486
2009 2191 0.333485
2010 308 0.202036
2010 476 0.191765
2010 1932 0.606199
2011 72 1
2012 106 0.333333
2012 2192 0.333333
2012 2193 0.333334
2013 481 0.25
2013 623 0.25
2013 2194 0.25
2013 2195 0.25
2014 119 0.42166
2014 715 0.288715
2014 1122 0.289624
2015 366 0.20245
2015 533 0.202451
2015 1549 0.20245
2015 2197 0.392649
2016 595 0.333337
2016 846 0.333337
2016 2564 0.333326
2017 2199 0.5
2017 4571 0.5
2018 2200 0.5
2018 3134 0.5
2019 2201 1
2020 711 0.5
2020 2202 0.5
2021 75 0.333309
2021 1325 0.333346
2021 2203 0.333345
2022 941 1
2023 2205 1
2024 1301 0.500035
2024 1838 0.499965
2025 2208 1
2026 8 0.249677
2026 583 0.250108
2026 2209 0.250108
2026 2210 0.250108
2027 2212 1
2028 2213 0.488292
2028 2724 0.488292
2028 2750 0.0234152
2029 2214 1
2030 2215 0.333333
2030 2708 0.333333
2030 4148 0.333333
2031 78 1
2032 476 0.138491
2032 2216 0.717924
2032 2217 0.143585
2033 1312 1
2034 2219 0.6
2034 2790 0.4
2035 103 0.2
2035 154 0.199999
2035 205 0.2
2035 681 0.2
2035 2211 0.2
2036 276 0.249999
2036 348 0.25
2036 349 0.25
2036 3020 0.25
2037 2221 1
2038 1241 0.000600784
2038 2096 0.999399
2039 193 0.102503
2039 478 0.128998
2039 1625 0.128998
2039 1732 0.515991
2039 2062 0.12351
2040 1171 0.5
2040 1516 0.5
2041 290 0.5
2041 2223 0.5
2042 1053 0.75
2042 4741 0.25
2043 653 0.499999
2043 2224 0.500001
2044 1075 0.389649
2044 2225 0.610351
2045 2226 1
2046 2228 1
2047 2229 1
2048 2231 1
2049 63 1.13859e-05
2049 100 0.166669
2049 876 0.166641
2049 1206 0.166669
2049 1242 0.166669
2049 2232 0.166669
2049 2233 0.166669
2050 2234 1
2051 1529 1
2052 2236 1
2053 27 0.647521
2053 2237 0.352479
2054 514 0.998303
2054 585 0.00169689
2055 1423 0.333333
2055 1621 0.333333
2055 2239 0.333333
2056 2240 1
2057 2241 0.499996
2057 2242 0.500004
2058 2243 1
2059 2244 1
2060 2245 1
2061 7 0.200027
2061 24 0.200027
2061 648 0.199893
2061 2246 0.200027
2061 2247 0.200027
2062 2248 1
2063 2249 0.500003
2063 2250 0.499997
2064 193 0.19066
2064 537 0.202335
2064 2251 0.607005
2065 498 0.499967
2065 1845 4.96516e-05
2065 2253 0.499983
2066 1312 0.333333
2066 2252 0.333333
2066 2254 0.333333
2067 7 0.25
2067 2255 0.25
2067 2256 0.25
2067 2257 0.25
2068 46 0.363476
2068 476 0.159129
2068 791 0.477395
2069 2259 0.666667
2069 5116 0.333333
2070 476 0.496024
2070 2261 0.503976
2071 2262 0.8
2071 4555 0.2
2072 11 0.333156
2072 1664 0.333235
2072 2263 0.333609
2073 78 0.324403
2073 2264 0.337798
2073 2265 0.337799
2074 1116 0.333333
2074 2266 0.666667
2075 1359 1
2076 2269 1
2077 1933 0.2
2077 2270 0.2
2077 2791 0.4
2077 3527 0.2
2078 541 0.333333
2078 884 0.333333
2078 3294 0.333333
2079 25 0.10683
2079 120 0.17863
2079 1693 0.178635
2079 2271 0.535906
2080 99 0.501077
2080 2844 0.498923
2081 1445 1
2082 16 0.203123
2082 523 0.159376
2082 569 0.159376
2082 1228 0.159376
2082 2273 0.159376
2082 2968 0.159375
2083 2274 0.499998
2083 2275 0.500002
2084 2276 1
2085 695 0.249988
2085 2278 0.250006
2085 4108 0.250004
2085 4111 0.250002
2086 81 0.333333
2086 555 0.333333
2086 2279 0.333333
2087 15 0.166667
2087 2280 0.166667
2087 2281 0.166667
2087 2282 0.166667
2087 2283 0.166667
2087 3113 0.166667
2088 1844 1
2089 2284 0.25
2089 2285 0.25
2089 3068 0.25
2089 4304 0.25
2090 335 0.5
2090 4772 0.5
2091 1229 0.5
2091 2288 0.5
2092 2289 1
2093 1315 0.333333
2093 2292 0.333333
2093 2528 0.333333
2094 246 0.5
2094 2291 0.5
2095 172 0.5
2095 2293 0.5
2096 351 0.669726
2096 2294 0.167431
2096 2830 0.162843
2097 2298 0.333333
2097 4526 0.333333
2097 4825 0.333333
2098 1840 0.5
2098 2301 0.5
2099 315 1
2100 1840 0.5
2100 2712 0.5
2101 2302 1
2102 74 0.5
2102 2587 0.5
2103 15 0.500023
2103 2304 0.499977
2104 103 0.204032
2104 169 0.397985
2104 2702 0.198992
2104 3775 0.198991
2105 279 0.142856
2105 905 0.142857
2105 1289 0.428572
2105 3576 0.142857
2105 4374 0.142857
2106 2305 1
2107 2306 1
2108 15 0.023674
2108 1201 0.488163
2108 2310 0.488163
2109 46 0.382922
2109 449 0.209656
2109 2313 0.407423
2110 2279 1
2111 468 1
2112 2059 0.5
2112 2316 0.5
2113 32 0.199986
2113 873 0.200004
2113 2314 0.200004
2113 2315 0.200004
2113 2317 0.200002
2114 979 0.5
2114 2311 0.5
2115 2319 1
2116 2145 0.5
2116 4431 0.5
2117 33 0.499424
2117 571 0.500576
2118 2320 1
2119 2321 1
2120 2322 1
2121 24 0.237671
2121 2323 0.762329
2122 2324 0.5
2122 2325 0.5
2123 25 0.0247396
2123 553 0.488696
2123 792 0.486564
2124 531 0.332771
2124 545 0.332771
2124 792 0.00168778
2124 2326 0.332771
2125 15 0.333333
2125 273 0.333333
2125 2327 0.333333
2126 52 1
2127 8 0.499998
2127 2328 0.500002
2128 308 0.459693
2128 2331 0.540307
2129 11 0.500128
2129 476 0.166454
2129 1865 0.333419
2130 36 0.333246
2130 899 0.00026097
2130 2332 0.333246
2130 2333 0.333246
2131 625 0.499997
2131 2334 0.500003
2132 22 0.333335
2132 166 0.166662
2132 715 0.166667
2132 1789 0.166668
2132 2654 0.166668
2133 30 1
2134 269 0.5
2134 2337 0.5
2135 37 0.000515818
2135 273 0.499742
2135 2339 0.499742
2136 2341 0.5
2136 3051 0.5
2137 2342 1
2138 25 0.317669
2138 2945 0.341165
2138 3739 0.341165
2139 63 0.324448
2139 148 0.337776
2139 563 0.337776
2140 2346 1
2141 271 0.333108
2141 463 0.333446
2141 4499 0.333446
2142 2349 0.5
2142 3817 0.5
2143 2353 1
2144 25 0.165334
2144 63 0.500563
2144 164 0.16705
2144 476 0.167052
2145 25 0.0421138
2145 150 0.319297
2145 464 0.319293
2145 780 0.319297
2146 428 0.5
2146 2354 0.5
2147 1453 1
2148 2775 1
2149 106 0.111301
2149 2615 0.333911
2149 3123 0.554788
2150 2356 1
2151 115 0.2
2151 498 0.2
2151 751 0.2
2151 2355 0.2
2151 2357 0.199999
2152 30 0.1
2152 1431 0.9
2153 2358 1
2154 569 0.333464
2154 617 0.333073
2154 2359 0.333463
2155 2360 1
2156 2361 1
2157 827 0.499999
2157 2362 0.500001
2158 46 1
2159 2363 0.4
2159 2364 0.2
2159 4082 0.2
2159 4083 0.2
2160 2365 1
2161 2366 1
2162 2367 1
2163 451 0.5
2163 2307 0.5
2164 2369 0.25
2164 2659 0.25
2164 2665 0.25
2164 4168 0.25
2165 1043 0.333337
2165 1990 9.41934e-06
2165 2371 0.666654
2166 1725 0.333333
2166 2372 0.333333
2166 2373 0.333333
2167 1580 0.333333
2167 2374 0.333333
2167 2375 0.333333
2168 1433 1
2169 78 0.26144
2169 2378 0.492373
2169 2481 0.246187
2170 26 0.5
2170 2117 0.5
2171 99 0.25
2171 566 0.25
2171 1559 0.5
2172 20 7.43599e-06
2172 33 0.166836
2172 383 0.165841
2172 1827 0.166807
2172 2379 0.166836
2172 2770 0.166836
2172 3079 0.166836
2173 2380 1
2174 65 0.49999
2174 1425 0.50001
2175 362 0.00106765
2175 2381 0.998932
2176 2382 1
2177 2383 0.5
2177 2384 0.5
2178 2385 1
2179 2387 1
2180 2388 0.5
2180 4692 0.5
2181 2389 1
2182 2391 1
2183 2392 0.499953
2183 3764 0.500047
2184 20 0.0244059
2184 2393 0.975594
2185 1200 0.500001
2185 2394 0.499999
2186 2395 1
2187 2396 1
2188 617 0.333333
2188 1975 0.333333
2188 2397 0.333333
2189 5 3.71709e-05
2189 4248 0.999963
2190 1222 0.5
2190 4937 0.5
2191 103 0.00370143
2191 625 0.498149
