1 1 1 100 1
2 1 2 100 1
1 1 3 100 0.71427
3 1 3 100 0.28573
0 2 3 100 0.138131
1 2 3 100 0.142873
2 2 3 100 0.285714
3 2 3 100 0.433282
0 3 3 100 0.0129514
1 3 3 100 0.2
2 3 3 100 0.399988
3 3 3 100 0.38706
0 4 3 100 0.180921
2 4 3 100 0.500001
3 4 3 100 0.319079
3 5 3 100 1
3 6 3 100 1
0 1 4 100 3.93832e-06
1 1 4 100 0.888889
4 1 4 100 0.111107
0 2 4 100 0.111093
1 2 4 100 0.111684
2 2 4 100 0.333333
3 2 4 100 0.221586
4 2 4 100 0.222304
0 3 4 100 0.126832
1 3 4 100 0.10713
2 3 4 100 0.247634
3 3 4 100 0.221168
4 3 4 100 0.297235
0 4 4 100 0.125
3 4 4 100 0.25
4 4 4 100 0.625
0 5 4 100 4.22323e-06
4 5 4 100 0.999996
4 6 4 100 1
1 1 5 100 0.642996
5 1 5 100 0.357004
0 2 5 100 0.0714284
2 2 5 100 0.281673
3 2 5 100 0.214283
4 2 5 100 0.0714265
5 2 5 100 0.36119
0 3 5 100 0.294414
2 3 5 100 0.0714286
3 3 5 100 0.213559
4 3 5 100 0.214286
5 3 5 100 0.206313
0 4 5 100 0.1281
2 4 5 100 0.0769369
3 4 5 100 0.0769257
4 4 5 100 0.384599
5 4 5 100 0.333438
0 5 5 100 0.100118
3 5 5 100 0.194144
4 5 5 100 0.0998821
5 5 5 100 0.605856
0 6 5 100 0.2728
2 6 5 100 0.122356
4 6 5 100 0.0216214
5 6 5 100 0.583222
3 7 5 100 0.199999
5 7 5 100 0.800001
5 8 5 100 1
1 1 6 100 0.941176
6 1 6 100 0.0588235
0 2 6 100 1.86733e-06
1 2 6 100 0.0590562
2 2 6 100 0.352183
3 2 6 100 0.353067
5 2 6 100 0.0588236
6 2 6 100 0.176868
0 3 6 100 0.0486804
1 3 6 100 6.86565e-07
2 3 6 100 0.235312
3 3 6 100 0.332512
4 3 6 100 0.0588308
5 3 6 100 0.0736882
6 3 6 100 0.250976
1 4 6 100 0.0371457
3 4 6 100 0.19811
4 4 6 100 0.352941
5 4 6 100 0.0588235
6 4 6 100 0.352979
0 5 6 100 0.305178
3 5 6 100 0.0625
4 5 6 100 0.25
5 5 6 100 0.161003
6 5 6 100 0.221319
0 6 6 100 2.94996e-06
2 6 6 100 0.0714286
4 6 6 100 0.142857
5 6 6 100 0.149735
6 6 6 100 0.635976
0 7 6 100 0.262132
3 7 6 100 0.125006
5 7 6 100 0.25
6 7 6 100 0.362862
6 8 6 100 1
0 9 6 100 2.51061e-05
3 9 6 100 0.999975
1 1 7 100 0.84
6 1 7 100 0.08
7 1 7 100 0.08
0 2 7 100 0.184112
2 2 7 100 0.45563
3 2 7 100 0.200227
4 2 7 100 0.04
5 2 7 100 3.04311e-05
6 2 7 100 0.04
7 2 7 100 0.08
0 3 7 100 0.0537908
2 3 7 100 0.244063
3 3 7 100 0.36539
4 3 7 100 0.12
5 3 7 100 0.0553936
6 3 7 100 0.121362
7 3 7 100 0.04
0 4 7 100 0.00828646
3 4 7 100 0.200068
4 4 7 100 0.591596
5 4 7 100 0.0401905
6 4 7 100 0.119858
7 4 7 100 0.0400004
0 5 7 100 0.226238
2 5 7 100 3.42286e-05
4 5 7 100 0.16668
5 5 7 100 0.333345
6 5 7 100 0.148703
7 5 7 100 0.125
0 6 7 100 0.0460759
3 6 7 100 0.0434783
4 6 7 100 0.0436613
5 6 7 100 0.130435
6 6 7 100 0.301539
7 6 7 100 0.434811
0 7 7 100 0.0861155
4 7 7 100 0.0526316
5 7 7 100 0.105263
6 7 7 100 0.281875
7 7 7 100 0.474115
0 8 7 100 0.166671
5 8 7 100 0.083331
6 8 7 100 0.416667
7 8 7 100 0.333332
0 9 7 100 0.374987
6 9 7 100 0.0676718
7 9 7 100 0.557341
6 10 7 100 0.333333
7 10 7 100 0.666667
4 11 7 100 0.499999
7 11 7 100 0.500001
4 12 7 100 1
0 1 8 100 5.66626e-07
1 1 8 100 0.809524
4 1 8 100 0.0952379
8 1 8 100 0.0952381
0 2 8 100 0.180371
1 2 8 100 0.0952381
2 2 8 100 0.386602
3 2 8 100 0.242544
4 2 8 100 0.0476197
5 2 8 100 0.047619
6 2 8 100 3.78443e-06
8 2 8 100 1.90589e-06
0 3 8 100 0.0893991
1 3 8 100 0.136145
2 3 8 100 0.149432
3 3 8 100 0.292959
4 3 8 100 0.152088
5 3 8 100 0.0847384
6 3 8 100 0.0952382
0 4 8 100 0.221131
2 4 8 100 0.0952382
3 4 8 100 0.190308
4 4 8 100 0.238586
5 4 8 100 0.0952378
6 4 8 100 0.0476191
7 4 8 100 0.0159358
8 4 8 100 0.0959439
0 5 8 100 0.190353
4 5 8 100 0.142857
5 5 8 100 0.342367
6 5 8 100 0.0952362
7 5 8 100 0.0385776
8 5 8 100 0.190609
0 6 8 100 0.104129
4 6 8 100 0.0498654
5 6 8 100 0.172272
6 6 8 100 0.182439
7 6 8 100 0.268937
8 6 8 100 0.222357
0 7 8 100 0.130953
5 7 8 100 0.00917465
6 7 8 100 0.278992
7 7 8 100 0.117647
8 7 8 100 0.463233
0 8 8 100 0.155823
6 8 8 100 9.89228e-06
7 8 8 100 0.305706
8 8 8 100 0.538462
0 9 8 100 0.187746
8 9 8 100 0.812254
0 10 8 100 0.499238
8 10 8 100 0.500762
8 11 8 100 1
8 12 8 100 1
1 1 9 100 0.857143
9 1 9 100 0.142857
1 2 9 100 0.0714286
2 2 9 100 0.571658
3 2 9 100 0.285484
9 2 9 100 0.0714286
0 3 9 100 0.169117
2 3 9 100 0.259449
3 3 9 100 0.214384
4 3 9 100 0.285714
5 3 9 100 3.25164e-06
9 3 9 100 0.0713325
0 4 9 100 0.214937
2 4 9 100 0.0716452
3 4 9 100 0.285714
4 4 9 100 0.214286
6 4 9 100 0.0704856
7 4 9 100 1.72797e-05
8 4 9 100 6.2887e-05
9 4 9 100 0.142852
0 5 9 100 0.214064
3 5 9 100 0.0714286
4 5 9 100 0.285714
5 5 9 100 0.214508
6 5 9 100 0.142857
9 5 9 100 0.0714282
0 6 9 100 0.178875
3 6 9 100 0.0769231
4 6 9 100 1.66429e-05
5 6 9 100 0.353452
6 6 9 100 0.147692
7 6 9 100 0.153875
8 6 9 100 1.84583e-05
9 6 9 100 0.0891484
4 7 9 100 0.0769232
5 7 9 100 0.153846
6 7 9 100 0.307458
7 7 9 100 0.230769
9 7 9 100 0.231004
0 8 9 100 0.0978397
2 8 9 100 4.89439e-06
5 8 9 100 0.0833334
6 8 9 100 0.0833334
7 8 9 100 0.088019
8 8 9 100 0.200155
9 8 9 100 0.447314
0 9 9 100 0.250743
6 9 9 100 0.000558748
7 9 9 100 0.0908541
8 9 9 100 0.272886
9 9 9 100 0.384958
0 10 9 100 0.123042
8 10 9 100 0.125
9 10 9 100 0.751958
0 11 9 100 0.166638
6 11 9 100 2.53008e-05
8 11 9 100 1.21099e-05
9 11 9 100 0.833325
9 12 9 100 1
0 13 9 100 1
9 14 9 100 1
9 15 9 100 1
1 1 10 100 0.935484
5 1 10 100 0.032258
8 1 10 100 0.0322581
0 2 10 100 0.0322595
1 2 10 100 0.032258
2 2 10 100 0.548135
3 2 10 100 0.225876
4 2 10 100 0.00054375
5 2 10 100 0.0641537
6 2 10 100 0.0322581
10 2 10 100 0.0645161
0 3 10 100 0.190397
2 3 10 100 0.213026
3 3 10 100 0.20628
4 3 10 100 0.292948
5 3 10 100 0.0322778
6 3 10 100 0.0322581
7 3 10 100 0.032258
9 3 10 100 0.000555654
0 4 10 100 0.187489
2 4 10 100 0.0645101
3 4 10 100 0.140806
4 4 10 100 0.246882
5 4 10 100 0.128866
6 4 10 100 0.129098
7 4 10 100 0.00557384
8 4 10 100 0.0322581
9 4 10 100 0.0322581
10 4 10 100 0.0322581
0 5 10 100 0.154375
3 5 10 100 0.0409956
4 5 10 100 0.184718
5 5 10 100 0.297174
6 5 10 100 0.129183
7 5 10 100 0.0967741
8 5 10 100 4.49149e-06
9 5 10 100 4.17097e-05
10 5 10 100 0.0967338
0 6 10 100 0.0729704
4 6 10 100 0.0967727
5 6 10 100 0.160654
6 6 10 100 0.225874
7 6 10 100 0.130542
8 6 10 100 0.185731
9 6 10 100 0.062939
10 6 10 100 0.0645162
0 7 10 100 0.220763
3 7 10 100 0.0322581
5 7 10 100 0.0967743
6 7 10 100 0.0968781
7 7 10 100 0.161219
8 7 10 100 0.134029
9 7 10 100 0.225819
10 7 10 100 0.0322592
0 8 10 100 0.0902811
3 8 10 100 0.0322581
5 8 10 100 0.0103651
6 8 10 100 0.129112
7 8 10 100 0.15734
8 8 10 100 0.0326576
9 8 10 100 0.16129
10 8 10 100 0.386696
0 9 10 100 0.0385064
4 9 10 100 0.0384614
7 9 10 100 0.192307
8 9 10 100 0.192256
9 9 10 100 0.153846
10 9 10 100 0.384624
0 10 10 100 0.266794
8 10 10 100 0.228367
9 10 10 100 0.115761
10 10 10 100 0.389079
0 11 10 100 0.163555
5 11 10 100 3.22606e-05
8 11 10 100 0.15389
9 11 10 100 0.374643
10 11 10 100 0.30788
0 12 10 100 0.0999317
5 12 10 100 6.84464e-05
9 12 10 100 0.1
10 12 10 100 0.8
0 13 10 100 0.285647
5 13 10 100 5.1408e-05
6 13 10 100 7.27543e-05
9 13 10 100 0.142857
10 13 10 100 0.571371
0 14 10 100 3.31923e-06
10 14 10 100 0.999997
0 1 11 100 6.75948e-07
1 1 11 100 0.647179
2 1 11 100 0.0592711
3 1 11 100 0.0552258
11 1 11 100 0.238323
0 2 11 100 0.0540057
2 2 11 100 0.477833
3 2 11 100 0.155272
4 2 11 100 0.114596
6 2 11 100 0.0588236
8 2 11 100 0.0588237
11 2 11 100 0.0806467
0 3 11 100 0.0596021
2 3 11 100 0.0588215
3 3 11 100 0.362371
4 3 11 100 0.176518
5 3 11 100 0.224508
6 3 11 100 0.000531132
9 3 11 100 0.0588242
11 3 11 100 0.0588236
0 4 11 100 0.0694776
2 4 11 100 0.0588235
3 4 11 100 0.117647
4 4 11 100 0.342277
5 4 11 100 0.117569
6 4 11 100 0.117732
7 4 11 100 0.0588235
10 4 11 100 2.69484e-06
11 4 11 100 0.117647
0 5 11 100 0.20173
5 5 11 100 0.352191
6 5 11 100 0.0588236
7 5 11 100 0.0931356
8 5 11 100 0.235293
10 5 11 100 3.21535e-06
11 5 11 100 0.0588236
0 6 11 100 0.172894
6 6 11 100 0.281844
7 6 11 100 0.186023
8 6 11 100 0.177772
9 6 11 100 8.86509e-07
10 6 11 100 0.00499649
11 6 11 100 0.17647
0 7 11 100 0.117645
3 7 11 100 0.0588236
4 7 11 100 1.97487e-06
5 7 11 100 0.117575
6 7 11 100 6.41574e-05
7 7 11 100 0.408961
8 7 11 100 0.179212
9 7 11 100 0.0588235
11 7 11 100 0.0588933
0 8 11 100 0.00193394
4 8 11 100 0.0588236
7 8 11 100 0.117647
8 8 11 100 0.409831
9 8 11 100 0.117647
10 8 11 100 0.0580902
11 8 11 100 0.236027
0 9 11 100 0.25119
1 9 11 100 8.23772e-05
4 9 11 100 1.81034e-06
5 9 11 100 2.1623e-05
6 9 11 100 0.0129636
7 9 11 100 0.0625
8 9 11 100 0.125
9 9 11 100 0.125
10 9 11 100 0.125
11 9 11 100 0.29824
0 10 11 100 0.116746
4 10 11 100 6.81446e-06
7 10 11 100 0.230769
8 10 11 100 0.153846
9 10 11 100 0.0769231
10 10 11 100 0.114016
11 10 11 100 0.307692
0 11 11 100 0.200023
6 11 11 100 0.1
7 11 11 100 0.100007
9 11 11 100 0.199959
10 11 11 100 0.1
11 11 11 100 0.300012
0 12 11 100 0.14782
5 12 11 100 2.05671e-05
6 12 11 100 0.142857
7 12 11 100 0.142857
10 12 11 100 0.280727
11 12 11 100 0.285718
0 13 11 100 1.35842e-05
7 13 11 100 0.166667
9 13 11 100 0.166667
11 13 11 100 0.666653
0 14 11 100 0.229153
8 14 11 100 0.25
10 14 11 100 0.0208467
11 14 11 100 0.5
0 15 11 100 0.500001
8 15 11 100 0.499999
11 16 11 100 1
1 1 12 100 0.884616
2 1 12 100 0.0384616
12 1 12 100 0.0769229
0 2 12 100 0.0419777
2 2 12 100 0.617935
3 2 12 100 0.142089
4 2 12 100 0.0313967
5 2 12 100 0.0384615
6 2 12 100 0.0126293
7 2 12 100 0.000128333
12 2 12 100 0.115383
0 3 12 100 0.0924437
2 3 12 100 0.0911306
3 3 12 100 0.486692
4 3 12 100 0.108748
5 3 12 100 0.0989882
7 3 12 100 8.23111e-06
8 3 12 100 0.0384616
9 3 12 100 0.0384624
12 3 12 100 0.0450643
0 4 12 100 0.0326206
2 4 12 100 0.0384614
3 4 12 100 0.182025
4 4 12 100 0.346865
5 4 12 100 0.188825
6 4 12 100 0.0384614
7 4 12 100 0.0387339
8 4 12 100 0.0188959
9 4 12 100 0.0384616
10 4 12 100 0.0381893
12 4 12 100 0.0384616
0 5 12 100 0.0316247
3 5 12 100 0.00753446
4 5 12 100 0.153846
5 5 12 100 0.26959
6 5 12 100 0.26124
7 5 12 100 0.0384967
8 5 12 100 0.0453198
9 5 12 100 0.0384633
10 5 12 100 0.0384616
11 5 12 100 3.62885e-05
12 5 12 100 0.115387
0 6 12 100 0.18816
2 6 12 100 1.66957e-06
3 6 12 100 7.83345e-07
4 6 12 100 0.00394868
5 6 12 100 0.149893
6 6 12 100 0.136155
7 6 12 100 0.0975612
8 6 12 100 0.0782693
9 6 12 100 0.114586
10 6 12 100 0.039116
11 6 12 100 0.0384616
12 6 12 100 0.153846
0 7 12 100 0.15916
4 7 12 100 0.0384793
5 7 12 100 0.0384695
6 7 12 100 0.192298
7 7 12 100 0.193581
8 7 12 100 0.147076
9 7 12 100 0.0384616
10 7 12 100 0.0384609
11 7 12 100 0.0770568
12 7 12 100 0.0769573
0 8 12 100 0.23101
3 8 12 100 0.00280364
5 8 12 100 0.0769231
6 8 12 100 0.0384608
7 8 12 100 0.116924
8 8 12 100 0.153396
9 8 12 100 0.0497899
10 8 12 100 0.0999216
11 8 12 100 0.0769913
12 8 12 100 0.153779
0 9 12 100 0.0517225
5 9 12 100 0.04
6 9 12 100 0.119986
7 9 12 100 0.12
8 9 12 100 0.194788
9 9 12 100 0.165202
10 9 12 100 0.0282881
11 9 12 100 0.120014
12 9 12 100 0.16
0 10 12 100 0.0473381
7 10 12 100 0.0869402
8 10 12 100 0.0867976
9 10 12 100 0.17397
10 10 12 100 0.173914
11 10 12 100 0.0431189
12 10 12 100 0.387922
0 11 12 100 0.0518429
3 11 12 100 5.32422e-07
8 11 12 100 0.105263
9 11 12 100 0.157895
10 11 12 100 0.158683
11 11 12 100 0.105263
12 11 12 100 0.421053
0 12 12 100 0.212996
6 12 12 100 1.30865e-05
7 12 12 100 9.75949e-05
8 12 12 100 0.0769113
10 12 12 100 0.153846
11 12 12 100 0.164567
12 12 12 100 0.391569
0 13 12 100 0.298607
9 13 12 100 0.201393
11 13 12 100 0.2
12 13 12 100 0.3
0 14 12 100 0.129954
10 14 12 100 0.0154775
11 14 12 100 0.25
12 14 12 100 0.604568
0 15 12 100 9.15792e-06
10 15 12 100 0.499991
11 15 12 100 0.249327
12 15 12 100 0.250673
0 16 12 100 0.66666
7 16 12 100 6.53487e-06
10 16 12 100 0.333333
12 17 12 100 1
1 1 13 100 0.826526
4 1 13 100 0.0865176
13 1 13 100 0.0869565
0 2 13 100 0.00490649
2 2 13 100 0.469756
3 2 13 100 0.351424
4 2 13 100 0.0869529
6 2 13 100 2.75102e-06
7 2 13 100 0.0434783
12 2 13 100 4.4308e-07
13 2 13 100 0.0434783
0 3 13 100 0.0856229
2 3 13 100 0.0432606
3 3 13 100 0.21739
4 3 13 100 0.17551
5 3 13 100 0.217392
7 3 13 100 0.0434783
8 3 13 100 0.0435278
10 3 13 100 0.0434783
12 3 13 100 0.0413796
13 3 13 100 0.0889603
0 4 13 100 0.333138
2 4 13 100 0.0086176
3 4 13 100 0.00679001
4 4 13 100 0.214281
5 4 13 100 0.17637
6 4 13 100 0.131031
7 4 13 100 0.0428132
10 4 13 100 0.0434798
12 4 13 100 8.50034e-07
13 4 13 100 0.0434783
0 5 13 100 0.208188
2 5 13 100 0.0434782
3 5 13 100 0.0869611
4 5 13 100 0.0896091
5 5 13 100 0.0957239
6 5 13 100 0.212052
7 5 13 100 0.113598
8 5 13 100 0.0199552
10 5 13 100 0.0869094
13 5 13 100 0.0435251
0 6 13 100 0.301605
2 6 13 100 0.0382426
3 6 13 100 0.00523564
4 6 13 100 0.0435024
5 6 13 100 0.0869541
6 6 13 100 0.0889763
7 6 13 100 0.17411
8 6 13 100 0.217391
13 6 13 100 0.0439836
0 7 13 100 0.0819479
3 7 13 100 0.0434783
5 7 13 100 0.130429
6 7 13 100 0.0826703
7 7 13 100 0.202721
8 7 13 100 0.1304
9 7 13 100 0.17392
10 7 13 100 0.0674763
11 7 13 100 0.0434783
13 7 13 100 0.0434792
0 8 13 100 0.0795327
6 8 13 100 0.129867
7 8 13 100 0.127232
8 8 13 100 0.141641
9 8 13 100 0.214743
10 8 13 100 0.0895934
11 8 13 100 0.0869566
12 8 13 100 0.0869566
13 8 13 100 0.0434782
0 9 13 100 0.177874
6 9 13 100 6.91802e-06
7 9 13 100 0.131766
8 9 13 100 0.0869598
9 9 13 100 0.217349
10 9 13 100 0.0434789
11 9 13 100 0.130434
12 9 13 100 0.12769
13 9 13 100 0.084442
0 10 13 100 0.156228
6 10 13 100 8.52004e-06
7 10 13 100 0.0434783
8 10 13 100 0.0869638
9 10 13 100 0.222134
10 10 13 100 0.0573104
11 10 13 100 0.0984624
12 10 13 100 0.118023
13 10 13 100 0.217392
0 11 13 100 0.19798
2 11 13 100 2.68574e-06
5 11 13 100 2.56453e-06
8 11 13 100 0.0866449
9 11 13 100 0.0999997
10 11 13 100 0.166881
11 11 13 100 0.200267
12 11 13 100 0.0982048
13 11 13 100 0.150017
0 12 13 100 0.354881
6 12 13 100 9.36002e-06
7 12 13 100 0.00452988
9 12 13 100 0.117655
10 12 13 100 0.117648
11 12 13 100 0.111103
12 12 13 100 0.158324
13 12 13 100 0.13585
0 13 13 100 2.22083e-05
10 13 13 100 0.0666667
11 13 13 100 0.133574
12 13 13 100 0.0666667
13 13 13 100 0.733071
0 14 13 100 0.142761
12 14 13 100 0.142853
13 14 13 100 0.714386
12 15 13 100 0.000448979
13 15 13 100 0.999551
0 16 13 100 1
13 17 13 100 1
1 1 14 100 0.851836
3 1 14 100 0.0322581
8 1 14 100 0.0322581
14 1 14 100 0.0836477
0 2 14 100 0.0963497
1 2 14 100 0.0645159
2 2 14 100 0.534415
3 2 14 100 0.111171
4 2 14 100 0.0322581
5 2 14 100 0.0322367
7 2 14 100 3.14228e-05
8 2 14 100 2.13566e-05
11 2 14 100 0.0322581
14 2 14 100 0.0967429
0 3 14 100 0.130016
2 3 14 100 0.123595
3 3 14 100 0.424294
4 3 14 100 0.129034
5 3 14 100 0.032259
6 3 14 100 0.0322526
7 3 14 100 2.0566e-06
8 3 14 100 0.0322853
12 3 14 100 0.0323396
14 3 14 100 0.0639215
0 4 14 100 0.258922
2 4 14 100 0.000455714
3 4 14 100 0.0967935
4 4 14 100 0.366059
5 4 14 100 0.0688013
6 4 14 100 0.0645169
7 4 14 100 0.0322581
8 4 14 100 1.84074e-06
9 4 14 100 0.0153894
10 4 14 100 1.51465e-06
11 4 14 100 5.45132e-06
12 4 14 100 2.02742e-06
13 4 14 100 0.0322581
14 4 14 100 0.0645354
0 5 14 100 0.139693
1 5 14 100 0.032258
3 5 14 100 0.0621715
4 5 14 100 0.0658052
5 5 14 100 0.28218
6 5 14 100 0.159794
7 5 14 100 0.0645236
8 5 14 100 0.0645161
9 5 14 100 0.0322581
10 5 14 100 0.0322581
12 5 14 100 2.55691e-05
13 5 14 100 4.11963e-07
14 5 14 100 0.0645161
0 6 14 100 0.220125
2 6 14 100 0.0322561
3 6 14 100 0.032258
4 6 14 100 0.0322586
5 6 14 100 0.0967916
6 6 14 100 0.208284
7 6 14 100 0.185283
8 6 14 100 0.192461
9 6 14 100 1.94332e-05
11 6 14 100 0.000262292
13 6 14 100 4.38917e-07
0 7 14 100 0.0922713
3 7 14 100 0.064577
4 7 14 100 0.0322586
5 7 14 100 0.032277
6 7 14 100 0.193324
7 7 14 100 0.224295
8 7 14 100 0.135254
9 7 14 100 0.0322581
10 7 14 100 0.064447
11 7 14 100 0.0644969
12 7 14 100 0.0314236
14 7 14 100 0.033118
0 8 14 100 0.123267
4 8 14 100 0.0322581
5 8 14 100 0.0645157
6 8 14 100 0.0322581
7 8 14 100 0.225802
8 8 14 100 0.167114
9 8 14 100 0.064293
10 8 14 100 0.0334756
11 8 14 100 0.0967783
12 8 14 100 0.0644754
13 8 14 100 1.89952e-06
14 8 14 100 0.095761
0 9 14 100 0.19739
4 9 14 100 5.34363e-07
5 9 14 100 0.0967276
6 9 14 100 0.000225219
7 9 14 100 0.096549
8 9 14 100 0.0457364
9 9 14 100 0.15825
10 9 14 100 0.141947
12 9 14 100 0.00510958
13 9 14 100 0.0322581
14 9 14 100 0.225806
0 10 14 100 0.136678
3 10 14 100 9.34847e-07
4 10 14 100 4.54763e-07
5 10 14 100 0.0666667
6 10 14 100 0.0333486
7 10 14 100 0.0333333
8 10 14 100 0.0634058
9 10 14 100 0.0963947
10 10 14 100 0.203624
11 10 14 100 0.0999996
12 10 14 100 0.0332491
13 10 14 100 0.0666667
14 10 14 100 0.166632
0 11 14 100 0.312463
5 11 14 100 1.34243e-06
6 11 14 100 0.0344828
7 11 14 100 0.0352525
8 11 14 100 0.0344828
9 11 14 100 0.0344917
10 11 14 100 0.108245
11 11 14 100 0.148327
12 11 14 100 0.0876675
13 11 14 100 0.0661319
14 11 14 100 0.138454
0 12 14 100 0.068965
8 12 14 100 0.103397
9 12 14 100 0.0370881
10 12 14 100 0.16986
11 12 14 100 0.137931
12 12 14 100 0.103203
13 12 14 100 0.0692115
14 12 14 100 0.310344
0 13 14 100 0.193858
2 13 14 100 0.0800001
6 13 14 100 0.0388965
8 13 14 100 2.41477e-06
9 13 14 100 2.61612e-05
10 13 14 100 0.119984
11 13 14 100 0.047238
12 13 14 100 0.119994
13 13 14 100 0.12
14 13 14 100 0.28
0 14 14 100 0.285686
3 14 14 100 0.047613
4 14 14 100 9.20723e-06
6 14 14 100 1.32869e-06
8 14 14 100 0.0476191
9 14 14 100 1.67929e-05
11 14 14 100 0.0952439
12 14 14 100 0.0476191
13 14 14 100 0.333247
14 14 14 100 0.142944
0 15 14 100 0.159891
5 15 14 100 0.0555556
6 15 14 100 0.0555646
9 15 14 100 0.0555556
11 15 14 100 0.0555583
12 15 14 100 0.0611475
13 15 14 100 0.112283
14 15 14 100 0.444444
0 16 14 100 0.0909033
2 16 14 100 5.84849e-06
3 16 14 100 1.08309e-05
6 16 14 100 0.0909092
7 16 14 100 0.0909092
8 16 14 100 0.0909092
11 16 14 100 0.0909092
13 16 14 100 0.181818
14 16 14 100 0.363625
0 17 14 100 0.165654
6 17 14 100 0.0343393
11 17 14 100 0.1
12 17 14 100 6.78391e-06
13 17 14 100 0.1
14 17 14 100 0.6
0 18 14 100 0.333307
6 18 14 100 1.0247e-05
11 18 14 100 1.58326e-05
12 18 14 100 0.166667
14 18 14 100 0.5
0 19 14 100 0.000897945
11 19 14 100 0.200113
13 19 14 100 0.199102
14 19 14 100 0.599887
0 20 14 100 0.333333
14 20 14 100 0.666667
0 21 14 100 0.49997
8 21 14 100 3.0185e-05
13 21 14 100 0.5
0 22 14 100 0.5
14 22 14 100 0.5
14 23 14 100 1
14 24 14 100 1
0 1 15 100 5.27301e-07
1 1 15 100 0.806453
2 1 15 100 0.059021
3 1 15 100 0.0645162
5 1 15 100 0.00549499
12 1 15 100 0.0322581
15 1 15 100 0.0322557
0 2 15 100 3.27363e-05
1 2 15 100 0.0967728
2 2 15 100 0.612435
3 2 15 100 0.161719
4 2 15 100 0.032258
5 2 15 100 0.0322294
6 2 15 100 2.86787e-05
7 2 15 100 0.0322581
8 2 15 100 8.30153e-06
12 2 15 100 0.0322581
0 3 15 100 0.0326188
1 3 15 100 0.0645162
2 3 15 100 0.225862
3 3 15 100 0.351569
4 3 15 100 0.131777
5 3 15 100 0.0645162
6 3 15 100 0.0322582
7 3 15 100 0.000108733
8 3 15 100 0.0322581
12 3 15 100 0.0322581
14 3 15 100 0.0322581
0 4 15 100 0.166507
1 4 15 100 0.000226341
2 4 15 100 0.0645161
3 4 15 100 0.0645193
4 4 15 100 0.307575
5 4 15 100 0.161163
6 4 15 100 0.12916
7 4 15 100 0.00697982
8 4 15 100 4.35041e-07
9 4 15 100 4.82363e-06
12 4 15 100 0.0322592
14 4 15 100 0.0348321
15 4 15 100 0.0322577
0 5 15 100 0.145985
1 5 15 100 0.0322581
2 5 15 100 0.0675421
3 5 15 100 0.0364206
4 5 15 100 0.0645161
5 5 15 100 0.233913
6 5 15 100 0.16129
7 5 15 100 0.0967742
8 5 15 100 0.0645161
9 5 15 100 0.0645197
10 5 15 100 5.88379e-06
13 5 15 100 5.5165e-07
15 5 15 100 0.0322581
0 6 15 100 0.210916
2 6 15 100 0.0645161
3 6 15 100 0.0645161
4 6 15 100 0.0322617
5 6 15 100 0.0641026
6 6 15 100 0.26145
7 6 15 100 0.172733
8 6 15 100 0.0649743
9 6 15 100 0.0322581
10 6 15 100 0.0292321
11 6 15 100 1.26793e-05
12 6 15 100 0.00302639
14 6 15 100 8.9716e-07
15 6 15 100 7.16916e-07
0 7 15 100 0.166721
3 7 15 100 0.0333334
4 7 15 100 8.71903e-07
5 7 15 100 0.1
6 7 15 100 0.0335796
7 7 15 100 0.266851
8 7 15 100 0.199507
9 7 15 100 0.133333
10 7 15 100 4.4165e-06
13 7 15 100 0.0333367
15 7 15 100 0.0333334
0 8 15 100 0.0903856
1 8 15 100 0.0333333
2 8 15 100 0.0333333
5 8 15 100 0.033334
6 8 15 100 0.0667318
7 8 15 100 0.166659
8 8 15 100 0.365388
9 8 15 100 0.0333333
10 8 15 100 0.100003
11 8 15 100 0.0333333
12 8 15 100 0.0108321
15 8 15 100 0.0333333
0 9 15 100 0.212698
5 9 15 100 0.0333343
6 9 15 100 1.62567e-05
7 9 15 100 0.1
8 9 15 100 0.233363
9 9 15 100 0.200013
10 9 15 100 0.0205145
11 9 15 100 0.0666997
15 9 15 100 0.133361
0 10 15 100 0.245845
4 10 15 100 1.21183e-06
5 10 15 100 0.0333333
7 10 15 100 0.0333338
8 10 15 100 0.0333723
9 10 15 100 0.0669444
10 10 15 100 0.266383
11 10 15 100 0.166667
12 10 15 100 0.0874519
13 10 15 100 1.56629e-06
15 10 15 100 0.0666667
0 11 15 100 0.15563
7 11 15 100 0.0333333
8 11 15 100 0.0666693
9 11 15 100 0.100054
10 11 15 100 0.166667
11 11 15 100 0.135419
12 11 15 100 0.1
13 11 15 100 0.0665564
14 11 15 100 0.0422482
15 11 15 100 0.133422
0 12 15 100 0.165168
7 12 15 100 1.19061e-06
9 12 15 100 0.0666667
10 12 15 100 0.0656753
11 12 15 100 0.168916
12 12 15 100 0.208521
13 12 15 100 0.0334158
14 12 15 100 0.0665703
15 12 15 100 0.225065
0 13 15 100 0.322586
3 13 15 100 4.95147e-07
10 13 15 100 0.0333334
11 13 15 100 0.0770344
12 13 15 100 0.134289
13 13 15 100 0.166089
14 13 15 100 0.0661317
15 13 15 100 0.200536
0 14 15 100 0.206329
7 14 15 100 8.8425e-07
8 14 15 100 7.40503e-05
9 14 15 100 5.34043e-06
10 14 15 100 0.0357143
11 14 15 100 0.035734
12 14 15 100 0.107143
13 14 15 100 0.10872
14 14 15 100 0.232323
15 14 15 100 0.273957
0 15 15 100 0.0416675
8 15 15 100 9.12991e-07
12 15 15 100 0.128703
13 15 15 100 0.121307
14 15 15 100 0.0833668
15 15 15 100 0.624955
0 16 15 100 0.083366
7 16 15 100 2.96432e-06
12 16 15 100 0.0833334
13 16 15 100 0.0898184
14 16 15 100 0.0876119
15 16 15 100 0.655867
0 17 15 100 0.292203
4 17 15 100 2.2047e-06
9 17 15 100 9.85682e-06
12 17 15 100 0.142857
14 17 15 100 0.13635
15 17 15 100 0.428578
0 18 15 100 0.133845
6 18 15 100 1.29578e-05
13 18 15 100 0.0661422
15 18 15 100 0.8
0 19 15 100 0.333331
15 19 15 100 0.666669
15 20 15 100 1
1 1 16 100 0.944446
2 1 16 100 0.0277778
4 1 16 100 0.0277766
0 2 16 100 0.0902223
1 2 16 100 0.138889
2 2 16 100 0.611285
3 2 16 100 0.048488
4 2 16 100 0.0555554
5 2 16 100 0.0277788
9 2 16 100 1.01297e-06
10 2 16 100 7.97788e-07
13 2 16 100 1.54987e-06
14 2 16 100 2.87681e-07
16 2 16 100 0.0277778
0 3 16 100 0.0810249
1 3 16 100 0.0555548
2 3 16 100 0.0833334
3 3 16 100 0.44672
4 3 16 100 0.0556112
5 3 16 100 0.0555556
6 3 16 100 0.0277778
7 3 16 100 0.0277781
8 3 16 100 0.0833334
10 3 16 100 0.0277778
11 3 16 100 3.3884e-07
12 3 16 100 4.07138e-07
14 3 16 100 5.00112e-07
16 3 16 100 0.0555323
0 4 16 100 0.226361
2 4 16 100 0.0277782
3 4 16 100 0.0834958
4 4 16 100 0.387382
5 4 16 100 0.137297
6 4 16 100 0.0991644
7 4 16 100 0.0106155
9 4 16 100 0.0277778
11 4 16 100 3.74095e-06
14 4 16 100 9.34484e-07
15 4 16 100 1.10768e-06
16 4 16 100 0.000123087
0 5 16 100 0.111665
3 5 16 100 0.0822286
4 5 16 100 0.196305
5 5 16 100 0.220972
6 5 16 100 0.166608
7 5 16 100 0.0555578
8 5 16 100 0.0555531
9 5 16 100 0.0277786
11 5 16 100 0.0278069
15 5 16 100 0.0277478
16 5 16 100 0.0277778
0 6 16 100 0.218456
4 6 16 100 0.0555556
5 6 16 100 0.249999
6 6 16 100 0.170436
7 6 16 100 0.111109
8 6 16 100 0.0555585
9 6 16 100 0.0555527
10 6 16 100 2.82752e-07
11 6 16 100 0.0277778
12 6 16 100 0.0277778
16 6 16 100 0.0277775
0 7 16 100 0.0798601
4 7 16 100 0.0555556
5 7 16 100 0.0555556
6 7 16 100 0.253254
7 7 16 100 0.166735
8 7 16 100 0.152707
9 7 16 100 0.079855
10 7 16 100 0.0994117
11 7 16 100 0.00151124
16 7 16 100 0.0555556
0 8 16 100 0.0832155
2 8 16 100 6.93531e-07
3 8 16 100 8.1961e-06
4 8 16 100 0.0555464
5 8 16 100 0.0602074
6 8 16 100 0.0833615
7 8 16 100 0.161976
8 8 16 100 0.111109
9 8 16 100 0.166668
10 8 16 100 0.0833344
11 8 16 100 0.0555556
12 8 16 100 0.0277778
13 8 16 100 0.0279065
16 8 16 100 0.0833333
0 9 16 100 0.163824
3 9 16 100 0.0277778
4 9 16 100 0.0555565
5 9 16 100 0.0277684
6 9 16 100 0.0277778
7 9 16 100 0.169908
8 9 16 100 0.056779
9 9 16 100 0.185946
10 9 16 100 0.0877531
11 9 16 100 0.0833372
12 9 16 100 0.0329614
13 9 16 100 4.5266e-07
14 9 16 100 0.0250539
16 9 16 100 0.0555554
0 10 16 100 0.229409
3 10 16 100 2.54637e-06
4 10 16 100 0.0556174
6 10 16 100 3.2556e-07
7 10 16 100 0.0547628
8 10 16 100 0.138947
9 10 16 100 0.166607
10 10 16 100 0.139073
11 10 16 100 0.0720129
12 10 16 100 0.0596213
13 10 16 100 0.055556
14 10 16 100 0.000258778
15 10 16 100 3.53135e-05
16 10 16 100 0.0280962
0 11 16 100 0.278762
2 11 16 100 2.72701e-06
4 11 16 100 0.0277778
5 11 16 100 1.08444e-05
7 11 16 100 0.000148162
8 11 16 100 0.0283902
9 11 16 100 0.248479
10 11 16 100 0.0905195
11 11 16 100 0.0866044
12 11 16 100 0.103939
13 11 16 100 0.0555556
14 11 16 100 0.0242543
15 11 16 100 9.71867e-07
16 11 16 100 0.0555556
0 12 16 100 0.140168
2 12 16 100 1.17383e-06
5 12 16 100 5.89299e-05
6 12 16 100 0.0277812
7 12 16 100 0.0810107
8 12 16 100 0.0277778
9 12 16 100 0.0277804
10 12 16 100 0.212198
11 12 16 100 0.101625
12 12 16 100 0.101058
13 12 16 100 0.164703
14 12 16 100 0.00327464
15 12 16 100 0.0834734
16 12 16 100 0.0290895
0 13 16 100 0.161293
3 13 16 100 9.55104e-07
7 13 16 100 0.0285714
8 13 16 100 0.00493158
10 13 16 100 0.0571403
11 13 16 100 0.119521
12 13 16 100 0.142829
13 13 16 100 0.0571393
14 13 16 100 0.200003
15 13 16 100 0.0595547
16 13 16 100 0.169016
0 14 16 100 0.25548
4 14 16 100 3.13881e-07
5 14 16 100 5.52309e-06
6 14 16 100 0.0606056
7 14 16 100 0.030303
8 14 16 100 0.0303508
9 14 16 100 2.07852e-06
10 14 16 100 2.52127e-06
11 14 16 100 0.0715586
12 14 16 100 0.0258157
13 14 16 100 0.150184
14 14 16 100 0.0390861
15 14 16 100 0.128705
16 14 16 100 0.207901
0 15 16 100 0.165011
5 15 16 100 9.427e-06
7 15 16 100 7.2434e-05
8 15 16 100 5.91934e-05
9 15 16 100 0.0333334
10 15 16 100 5.77469e-07
12 15 16 100 0.166667
13 15 16 100 0.100499
14 15 16 100 0.0380559
15 15 16 100 0.133034
16 15 16 100 0.363258
0 16 16 100 0.098562
2 16 16 100 9.41861e-07
6 16 16 100 2.12702e-06
7 16 16 100 8.91927e-07
9 16 16 100 0.0384616
11 16 16 100 0.0384616
13 16 16 100 0.158572
14 16 16 100 0.0391221
15 16 16 100 0.0769261
16 16 16 100 0.549891
0 17 16 100 0.132048
10 17 16 100 9.68835e-07
12 17 16 100 0.0588236
14 17 16 100 0.231137
15 17 16 100 0.107402
16 17 16 100 0.470588
0 18 16 100 0.153848
9 18 16 100 0.0769232
15 18 16 100 0.308606
16 18 16 100 0.460623
9 19 16 100 0.125
13 19 16 100 0.125
15 19 16 100 0.125
16 19 16 100 0.625
10 20 16 100 0.333333
15 20 16 100 0.333333
16 20 16 100 0.333333
11 21 16 100 0.5
16 21 16 100 0.5
13 22 16 100 0.499999
16 22 16 100 0.500001
0 23 16 100 0.500001
14 23 16 100 0.499999
15 24 16 100 0.5
16 24 16 100 0.5
16 25 16 100 1
1 1 17 100 0.944444
3 1 17 100 0.0277778
17 1 17 100 0.0277778
0 2 17 100 0.0554847
1 2 17 100 0.0555555
2 2 17 100 0.693514
3 2 17 100 0.0843347
4 2 17 100 0.0555556
5 2 17 100 0.0277778
17 2 17 100 0.0277778
0 3 17 100 0.0724932
1 3 17 100 0.0277778
2 3 17 100 0.0555544
3 3 17 100 0.59409
4 3 17 100 0.166749
5 3 17 100 1.91166e-06
6 3 17 100 0.0554711
7 3 17 100 8.44363e-05
17 3 17 100 0.0277778
0 4 17 100 0.258422
2 4 17 100 0.0277776
3 4 17 100 0.0833328
4 4 17 100 0.352791
5 4 17 100 0.0553978
6 4 17 100 0.0278118
7 4 17 100 0.111054
8 4 17 100 0.0277815
13 4 17 100 0.0277778
14 4 17 100 8.90592e-05
17 4 17 100 0.0277642
0 5 17 100 0.105295
3 5 17 100 0.0277778
4 5 17 100 0.174664
5 5 17 100 0.319414
6 5 17 100 0.165768
7 5 17 100 0.0833144
8 5 17 100 0.0555556
10 5 17 100 0.0126233
11 5 17 100 0.0278045
13 5 17 100 3.69868e-07
14 5 17 100 0.0277778
15 5 17 100 4.89963e-06
0 6 17 100 0.265792
3 6 17 100 1.00174e-05
4 6 17 100 0.0789555
5 6 17 100 0.1124
6 6 17 100 0.262196
7 6 17 100 0.0833349
8 6 17 100 0.0584216
9 6 17 100 0.0555588
11 6 17 100 0.0277778
12 6 17 100 0.0277778
15 6 17 100 0.000108996
16 6 17 100 0.0276662
0 7 17 100 0.131715
4 7 17 100 6.19148e-07
5 7 17 100 0.0833298
6 7 17 100 0.0779192
7 7 17 100 0.283392
8 7 17 100 0.190623
9 7 17 100 0.0663521
10 7 17 100 0.0282098
11 7 17 100 0.0273458
12 7 17 100 0.0555556
13 7 17 100 0.0555556
14 7 17 100 3.15325e-07
15 7 17 100 1.04746e-06
0 8 17 100 0.167556
6 8 17 100 0.111089
7 8 17 100 0.0941978
8 8 17 100 0.244684
9 8 17 100 0.194444
10 8 17 100 0.104165
11 8 17 100 0.0837044
12 8 17 100 3.91322e-05
14 8 17 100 0.000121447
0 9 17 100 0.10873
3 9 17 100 4.80559e-07
6 9 17 100 0.0277778
7 9 17 100 0.111111
8 9 17 100 0.110701
9 9 17 100 0.114527
10 9 17 100 0.278179
11 9 17 100 0.0614089
12 9 17 100 0.0213696
13 9 17 100 0.0277537
14 9 17 100 0.000366494
15 9 17 100 0.027785
16 9 17 100 0.0547364
17 9 17 100 0.055554
0 10 17 100 0.263778
4 10 17 100 3.65055e-07
6 10 17 100 0.0277778
7 10 17 100 0.0277893
8 10 17 100 0.0512951
9 10 17 100 0.14253
10 10 17 100 0.11853
11 10 17 100 0.166436
12 10 17 100 0.0833377
13 10 17 100 0.00741677
16 10 17 100 1.98261e-06
17 10 17 100 0.111106
0 11 17 100 0.136451
6 11 17 100 2.63286e-06
8 11 17 100 3.97608e-06
9 11 17 100 0.184133
10 11 17 100 0.0928936
11 11 17 100 0.234739
12 11 17 100 0.0462235
13 11 17 100 0.0555529
14 11 17 100 0.0277778
16 11 17 100 0.0277778
17 11 17 100 0.194445
0 12 17 100 0.144593
5 12 17 100 4.78703e-07
6 12 17 100 0.0285713
8 12 17 100 0.0571429
9 12 17 100 0.0571428
10 12 17 100 0.0841061
11 12 17 100 0.0855535
12 12 17 100 0.2
13 12 17 100 0.0428118
14 12 17 100 0.0444026
15 12 17 100 0.0571438
16 12 17 100 0.0286033
17 12 17 100 0.169928
0 13 17 100 0.145826
7 13 17 100 0.0293236
9 13 17 100 0.0292906
10 13 17 100 0.0882392
11 13 17 100 0.0598719
12 13 17 100 0.117647
13 13 17 100 0.205472
14 13 17 100 0.0294903
15 13 17 100 0.0301619
16 13 17 100 0.088207
17 13 17 100 0.176471
0 14 17 100 0.0897102
9 14 17 100 0.03125
10 14 17 100 0.0625001
11 14 17 100 0.0487111
12 14 17 100 0.156194
13 14 17 100 0.0441261
14 14 17 100 0.12503
15 14 17 100 0.161326
16 14 17 100 0.124897
17 14 17 100 0.156255
0 15 17 100 0.145044
2 15 17 100 2.14602e-06
6 15 17 100 3.66745e-07
9 15 17 100 2.44063e-06
10 15 17 100 3.68274e-05
11 15 17 100 0.103467
12 15 17 100 0.0344828
13 15 17 100 0.0344828
14 15 17 100 0.13793
15 15 17 100 0.172419
16 15 17 100 0.165236
17 15 17 100 0.206897
0 16 17 100 0.176571
9 16 17 100 0.0714286
11 16 17 100 6.10923e-06
12 16 17 100 0.105323
13 16 17 100 0.0719991
14 16 17 100 0.0358137
15 16 17 100 0.0357143
16 16 17 100 0.178578
17 16 17 100 0.324566
0 17 17 100 0.168643
4 17 17 100 4.45469e-07
10 17 17 100 0.0434822
11 17 17 100 8.85266e-07
12 17 17 100 4.89146e-05
13 17 17 100 0.00521633
14 17 17 100 0.133912
15 17 17 100 0.130079
16 17 17 100 0.0872704
17 17 17 100 0.431346
0 18 17 100 0.164224
9 18 17 100 0.0555556
11 18 17 100 7.86444e-07
14 18 17 100 0.222223
15 18 17 100 0.113552
16 18 17 100 0.1114
17 18 17 100 0.333044
0 19 17 100 0.071441
10 19 17 100 0.0714286
15 19 17 100 0.214273
16 19 17 100 0.0714286
17 19 17 100 0.571428
0 20 17 100 0.453149
3 20 17 100 0.125
10 20 17 100 2.99911e-06
14 20 17 100 0.125401
16 20 17 100 0.0460369
17 20 17 100 0.250411
0 21 17 100 0.166477
3 21 17 100 0.000189222
4 21 17 100 0.166667
16 21 17 100 0.166667
17 21 17 100 0.5
9 22 17 100 0.166667
17 22 17 100 0.833333
17 23 17 100 1
1 1 18 100 0.967742
3 1 18 100 0.0322581
0 2 18 100 0.0914022
1 2 18 100 0.162462
2 2 18 100 0.403013
3 2 18 100 0.117316
4 2 18 100 0.0322581
5 2 18 100 0.0322585
6 2 18 100 0.0322581
7 2 18 100 0.0967742
18 2 18 100 0.0322581
0 3 18 100 0.135179
1 3 18 100 0.0322581
2 3 18 100 0.183402
3 3 18 100 0.262627
4 3 18 100 0.192798
5 3 18 100 0.0647087
6 3 18 100 0.0322581
7 3 18 100 5.8717e-07
8 3 18 100 0.0322581
16 3 18 100 2.08321e-06
17 3 18 100 0.0322565
18 3 18 100 0.0322527
0 4 18 100 0.114176
3 4 18 100 0.16128
4 4 18 100 0.322062
5 4 18 100 0.16129
6 4 18 100 0.0796163
7 4 18 100 0.0322579
8 4 18 100 0.0322581
15 4 18 100 9.10301e-07
16 4 18 100 0.000283604
18 4 18 100 0.0967743
0 5 18 100 0.0879624
1 5 18 100 0.0322581
3 5 18 100 0.0322586
4 5 18 100 0.16129
5 5 18 100 0.234979
6 5 18 100 0.159365
7 5 18 100 0.129032
8 5 18 100 0.0645162
11 5 18 100 0.0015638
14 5 18 100 5.45052e-07
17 5 18 100 0.0322577
18 5 18 100 0.0645162
0 6 18 100 0.246056
1 6 18 100 0.0322581
3 6 18 100 0.0322581
4 6 18 100 0.0967766
5 6 18 100 0.104243
6 6 18 100 0.16124
7 6 18 100 0.159346
8 6 18 100 0.0710282
9 6 18 100 6.16312e-07
10 6 18 100 0.0322779
17 6 18 100 0.0322581
18 6 18 100 0.0322581
0 7 18 100 0.161366
4 7 18 100 0.0325499
5 7 18 100 0.0320809
6 7 18 100 0.1289
7 7 18 100 0.225788
8 7 18 100 0.194779
9 7 18 100 0.128035
10 7 18 100 0.0322624
11 7 18 100 1.39503e-05
13 7 18 100 1.45004e-05
18 7 18 100 0.0642107
0 8 18 100 0.226787
2 8 18 100 5.95878e-06
3 8 18 100 0.0322762
6 8 18 100 0.0645162
7 8 18 100 0.193469
8 8 18 100 0.0969469
9 8 18 100 0.0952659
10 8 18 100 0.225653
11 8 18 100 0.0645161
12 8 18 100 0.000528394
15 8 18 100 3.303e-05
18 8 18 100 2.21504e-06
0 9 18 100 0.065357
3 9 18 100 5.4912e-07
6 9 18 100 0.0322581
7 9 18 100 0.0967743
8 9 18 100 0.0959475
9 9 18 100 0.290303
10 9 18 100 0.193552
11 9 18 100 0.0645162
12 9 18 100 0.0649935
13 9 18 100 0.0322581
15 9 18 100 0.0322581
18 9 18 100 0.031782
0 10 18 100 0.211528
3 10 18 100 4.31935e-07
4 10 18 100 0.00296812
5 10 18 100 1.26214e-06
8 10 18 100 0.109994
9 10 18 100 0.0753319
10 10 18 100 0.19292
11 10 18 100 0.12904
12 10 18 100 0.0322581
13 10 18 100 0.09668
14 10 18 100 0.0967704
15 10 18 100 0.00111816
17 10 18 100 0.0191307
18 10 18 100 0.0322581
0 11 18 100 0.193073
2 11 18 100 0.0322581
5 11 18 100 0.0322581
7 11 18 100 3.06652e-05
8 11 18 100 1.52159e-05
9 11 18 100 0.129032
10 11 18 100 0.0322586
11 11 18 100 0.106574
12 11 18 100 0.161262
13 11 18 100 0.0967701
14 11 18 100 0.0645167
16 11 18 100 0.0874354
18 11 18 100 0.0645162
0 12 18 100 0.194681
2 12 18 100 1.81215e-06
3 12 18 100 0.0293311
5 12 18 100 5.46905e-07
8 12 18 100 0.0322581
9 12 18 100 4.67922e-05
10 12 18 100 0.0654778
11 12 18 100 0.13196
12 12 18 100 0.223604
13 12 18 100 0.0645162
14 12 18 100 0.0967871
15 12 18 100 0.0323047
17 12 18 100 0.0322581
18 12 18 100 0.0967727
0 13 18 100 0.20927
4 13 18 100 1.46752e-06
5 13 18 100 0.0333334
6 13 18 100 5.8477e-06
8 13 18 100 0.0333334
10 13 18 100 0.0666844
11 13 18 100 0.0667418
12 13 18 100 0.133338
13 13 18 100 0.123978
14 13 18 100 0.0999824
15 13 18 100 0.0333321
16 13 18 100 0.0333334
18 13 18 100 0.166667
0 14 18 100 0.169117
4 14 18 100 3.29623e-06
9 14 18 100 0.0018361
10 14 18 100 0.0333342
11 14 18 100 0.067122
12 14 18 100 0.0621849
13 14 18 100 0.199033
14 14 18 100 0.232998
15 14 18 100 0.0333333
16 14 18 100 0.0666698
18 14 18 100 0.134368
0 15 18 100 0.131681
6 15 18 100 0.000800215
10 15 18 100 0.0714287
12 15 18 100 0.0357143
13 15 18 100 0.178558
14 15 18 100 0.0890501
15 15 18 100 0.246737
16 15 18 100 0.0465544
17 15 18 100 0.0357143
18 15 18 100 0.163762
0 16 18 100 0.305912
4 16 18 100 1.67046e-06
5 16 18 100 6.28144e-07
9 16 18 100 2.93971e-05
10 16 18 100 0.037077
11 16 18 100 0.000112193
12 16 18 100 0.0713452
13 16 18 100 0.0370382
14 16 18 100 0.136013
15 16 18 100 0.147876
16 16 18 100 0.116528
17 16 18 100 0.0370371
18 16 18 100 0.111028
0 17 18 100 0.10953
9 17 18 100 6.04084e-06
11 17 18 100 2.3345e-06
12 17 18 100 0.0370371
13 17 18 100 0.147911
14 17 18 100 0.0386657
15 17 18 100 0.0741697
16 17 18 100 0.0741566
17 17 18 100 0.112741
18 17 18 100 0.405781
0 18 18 100 0.294569
6 18 18 100 2.90833e-06
12 18 18 100 8.67597e-07
14 18 18 100 0.0732944
15 18 18 100 0.0533523
16 18 18 100 0.105817
17 18 18 100 0.0577627
18 18 18 100 0.415201
0 19 18 100 0.134456
5 19 18 100 1.21132e-06
9 19 18 100 0.000612861
14 19 18 100 0.00794451
15 19 18 100 0.285714
16 19 18 100 0.0713714
17 19 18 100 0.285614
18 19 18 100 0.214286
0 20 18 100 0.240249
15 20 18 100 0.0769231
16 20 18 100 0.0800307
17 20 18 100 0.0486572
18 20 18 100 0.55414
0 21 18 100 0.111111
16 21 18 100 0.110286
17 21 18 100 0.111111
18 21 18 100 0.667492
0 22 18 100 0.199802
16 22 18 100 0.200199
18 22 18 100 0.599999
0 23 18 100 0.000694271
17 23 18 100 0.333334
18 23 18 100 0.665972
13 24 18 100 0.00072849
18 24 18 100 0.999272
18 25 18 100 1
1 1 19 100 0.892847
2 1 19 100 0.0714286
4 1 19 100 9.79257e-06
18 1 19 100 0.0357143
0 2 19 100 0.0401724
1 2 19 100 0.0357143
2 2 19 100 0.638396
3 2 19 100 0.178431
5 2 19 100 0.000140842
6 2 19 100 2.98046e-06
8 2 19 100 0.0357143
9 2 19 100 0.0714286
0 3 19 100 0.0693397
1 3 19 100 0.0357143
2 3 19 100 0.214652
3 3 19 100 0.358369
4 3 19 100 0.107618
5 3 19 100 0.0714286
6 3 19 100 0.0357158
7 3 19 100 0.0357152
8 3 19 100 0.0356966
9 3 19 100 0.0357143
10 3 19 100 3.54279e-05
18 3 19 100 1.36546e-06
0 4 19 100 0.0733307
2 4 19 100 1.02626e-06
3 4 19 100 0.214292
4 4 19 100 0.283824
5 4 19 100 0.143235
6 4 19 100 0.0703777
7 4 19 100 0.14284
8 4 19 100 0.0357143
16 4 19 100 0.000670323
19 4 19 100 0.0357143
0 5 19 100 0.214409
4 5 19 100 0.285555
5 5 19 100 0.214407
6 5 19 100 0.106795
7 5 19 100 0.000140029
8 5 19 100 0.142699
10 5 19 100 4.13672e-06
14 5 19 100 3.85627e-05
15 5 19 100 0.000238789
19 5 19 100 0.0357143
0 6 19 100 0.1048
2 6 19 100 0.071424
4 6 19 100 2.64694e-06
5 6 19 100 0.181528
6 6 19 100 0.142242
7 6 19 100 0.214252
8 6 19 100 0.035745
9 6 19 100 0.107143
11 6 19 100 0.0714297
12 6 19 100 0.0357147
15 6 19 100 4.53046e-06
19 6 19 100 0.0357143
0 7 19 100 0.113819
2 7 19 100 0.000651388
3 7 19 100 0.0357143
4 7 19 100 0.0386111
5 7 19 100 0.0714286
6 7 19 100 0.0744516
7 7 19 100 0.175361
8 7 19 100 0.139336
9 7 19 100 0.104533
10 7 19 100 0.107303
11 7 19 100 0.0316451
13 7 19 100 0.0357164
14 7 19 100 0.0357152
19 7 19 100 0.0357148
0 8 19 100 0.108618
2 8 19 100 0.0357143
3 8 19 100 3.9342e-07
4 8 19 100 0.0357148
6 8 19 100 8.07689e-06
7 8 19 100 0.107137
8 8 19 100 0.212807
9 8 19 100 0.178572
10 8 19 100 0.178682
11 8 19 100 0.107023
12 8 19 100 9.70463e-06
16 8 19 100 0.0357143
0 9 19 100 0.142911
5 9 19 100 0.0357143
6 9 19 100 0.0357143
7 9 19 100 0.0356346
8 9 19 100 0.142876
9 9 19 100 0.142857
10 9 19 100 0.250004
11 9 19 100 0.107143
12 9 19 100 0.0714286
13 9 19 100 2.02917e-06
14 9 19 100 6.80481e-07
17 9 19 100 0.0357143
0 10 19 100 0.212927
2 10 19 100 0.0357143
7 10 19 100 0.0356837
8 10 19 100 0.0714286
9 10 19 100 0.107118
10 10 19 100 0.286759
11 10 19 100 0.036209
12 10 19 100 0.107476
13 10 19 100 0.0714692
14 10 19 100 9.42969e-06
15 10 19 100 0.0351969
18 10 19 100 7.78078e-06
0 11 19 100 0.220133
10 11 19 100 0.176679
11 11 19 100 0.246043
12 11 19 100 0.0714283
13 11 19 100 0.142857
14 11 19 100 0.107143
15 11 19 100 7.47531e-07
19 11 19 100 0.0357152
0 12 19 100 0.14796
2 12 19 100 0.035489
5 12 19 100 6.84363e-06
7 12 19 100 4.46118e-05
10 12 19 100 0.0716612
11 12 19 100 0.142857
12 12 19 100 0.250667
13 12 19 100 0.108784
14 12 19 100 0.171093
15 12 19 100 5.00799e-06
19 12 19 100 0.0714322
0 13 19 100 0.207995
2 13 19 100 0.0357143
3 13 19 100 0.0357143
4 13 19 100 1.14931e-06
9 13 19 100 6.75767e-06
11 13 19 100 0.035211
12 13 19 100 0.123883
13 13 19 100 0.281342
14 13 19 100 0.143824
15 13 19 100 0.0429813
17 13 19 100 0.0357143
19 13 19 100 0.057613
0 14 19 100 0.143006
2 14 19 100 0.0357143
3 14 19 100 0.0357141
4 14 19 100 0.00454779
6 14 19 100 4.366e-05
12 14 19 100 0.0355905
13 14 19 100 0.178549
14 14 19 100 0.205126
15 14 19 100 0.102989
16 14 19 100 0.115907
17 14 19 100 0.0356699
19 14 19 100 0.107143
0 15 19 100 0.267783
2 15 19 100 0.0357143
6 15 19 100 0.0357143
13 15 19 100 0.157965
14 15 19 100 0.0803173
15 15 19 100 0.101011
16 15 19 100 0.142857
17 15 19 100 0.0357143
18 15 19 100 0.0714352
19 15 19 100 0.0714884
0 16 19 100 0.109696
3 16 19 100 8.42174e-07
6 16 19 100 4.60976e-07
13 16 19 100 0.0625058
14 16 19 100 0.1126
15 16 19 100 0.0739099
16 16 19 100 0.222244
17 16 19 100 0.0486687
18 16 19 100 0.0757763
19 16 19 100 0.294599
0 17 19 100 0.372206
4 17 19 100 1.96861e-06
5 17 19 100 5.27924e-07
7 17 19 100 7.87058e-07
13 17 19 100 3.01222e-06
14 17 19 100 0.0416667
15 17 19 100 0.0615667
16 17 19 100 0.101041
17 17 19 100 0.177087
18 17 19 100 0.121425
19 17 19 100 0.125001
0 18 19 100 0.130281
6 18 19 100 1.0292e-06
10 18 19 100 5.34451e-05
14 18 19 100 0.0435294
16 18 19 100 0.173896
17 18 19 100 0.217408
18 18 19 100 0.130422
19 18 19 100 0.30441
0 19 19 100 0.183661
14 19 19 100 3.62475e-06
15 19 19 100 0.111107
16 19 19 100 0.0555557
17 19 19 100 0.220466
18 19 19 100 0.105589
19 19 19 100 0.323617
0 20 19 100 0.153843
13 20 19 100 2.58812e-06
16 20 19 100 0.153846
17 20 19 100 0.153846
18 20 19 100 0.0769232
19 20 19 100 0.461539
0 21 19 100 0.222246
10 21 19 100 5.31009e-06
17 21 19 100 0.222193
18 21 19 100 0.222662
19 21 19 100 0.332894
0 22 19 100 0.338046
6 22 19 100 0.000217087
7 22 19 100 3.14823e-06
9 22 19 100 0.0108675
18 22 19 100 0.176498
19 22 19 100 0.474367
0 23 19 100 0.25
19 23 19 100 0.75
0 24 19 100 1
19 25 19 100 1
1 1 20 100 0.815066
2 1 20 100 0.00117949
3 1 20 100 0.102564
5 1 20 100 0.0511876
7 1 20 100 0.025641
20 1 20 100 0.00436181
0 2 20 100 0.0734998
1 2 20 100 0.0769223
2 2 20 100 0.481775
3 2 20 100 0.1104
4 2 20 100 0.0256385
5 2 20 100 0.0256411
6 2 20 100 0.0771237
7 2 20 100 0.0512819
8 2 20 100 0.0270484
15 2 20 100 7.37729e-07
17 2 20 100 0.0243412
18 2 20 100 0.000685608
20 2 20 100 0.0256411
0 3 20 100 0.0894126
1 3 20 100 0.0512846
2 3 20 100 0.179418
3 3 20 100 0.219637
4 3 20 100 0.205064
5 3 20 100 0.0257966
6 3 20 100 0.126811
7 3 20 100 0.0256434
9 3 20 100 2.96648e-07
10 3 20 100 0.025641
16 3 20 100 9.47964e-06
19 3 20 100 0.025641
20 3 20 100 0.025641
0 4 20 100 0.205052
2 4 20 100 0.00181637
3 4 20 100 0.232065
4 4 20 100 0.227727
5 4 20 100 0.102564
6 4 20 100 0.025641
7 4 20 100 0.128205
10 4 20 100 0.0512821
12 4 20 100 1.69423e-06
13 4 20 100 4.73893e-06
20 4 20 100 0.025641
0 5 20 100 0.0754164
3 5 20 100 0.025641
4 5 20 100 0.307692
5 5 20 100 0.173769
6 5 20 100 0.13543
7 5 20 100 0.128205
8 5 20 100 0.0512821
9 5 20 100 0.0512821
10 5 20 100 0.025641
20 5 20 100 0.025641
0 6 20 100 0.145599
2 6 20 100 0.025641
3 6 20 100 1.40763e-05
4 6 20 100 0.0290447
5 6 20 100 0.138052
6 6 20 100 0.229232
7 6 20 100 0.215925
8 6 20 100 0.0769231
9 6 20 100 0.0512836
10 6 20 100 0.025641
14 6 20 100 0.025641
16 6 20 100 0.0113624
18 6 20 100 3.71547e-07
20 6 20 100 0.025641
0 7 20 100 0.178192
3 7 20 100 0.051282
4 7 20 100 0.025641
5 7 20 100 0.0769231
6 7 20 100 0.128205
7 7 20 100 0.206404
8 7 20 100 0.102572
9 7 20 100 0.0512821
10 7 20 100 0.153846
12 7 20 100 5.0246e-07
13 7 20 100 7.89935e-07
14 7 20 100 0.025641
17 7 20 100 5.85924e-07
20 7 20 100 9.41797e-06
0 8 20 100 0.157634
3 8 20 100 0.0254615
4 8 20 100 0.000179975
5 8 20 100 0.0513038
6 8 20 100 0.0256451
7 8 20 100 0.128505
8 8 20 100 0.230708
9 8 20 100 0.196155
10 8 20 100 0.0479182
11 8 20 100 0.130533
13 8 20 100 0.00235523
14 8 20 100 2.57225e-07
15 8 20 100 2.77757e-07
16 8 20 100 2.61695e-05
17 8 20 100 0.00179226
18 8 20 100 0.00178145
0 9 20 100 0.172792
2 9 20 100 3.93764e-05
4 9 20 100 2.39316e-06
5 9 20 100 0.0512838
6 9 20 100 0.0256394
7 9 20 100 0.0256421
8 9 20 100 0.161042
9 9 20 100 0.130576
10 9 20 100 0.252596
11 9 20 100 0.102348
12 9 20 100 0.0512939
13 9 20 100 0.000206002
14 9 20 100 9.77941e-06
15 9 20 100 0.0265274
17 9 20 100 1.01128e-06
0 10 20 100 0.224276
5 10 20 100 6.75515e-07
6 10 20 100 0.0488808
7 10 20 100 0.00738004
8 10 20 100 0.0512821
9 10 20 100 0.172072
10 10 20 100 0.156228
11 10 20 100 0.157485
12 10 20 100 0.00286856
13 10 20 100 0.0512821
14 10 20 100 0.025641
16 10 20 100 0.0256414
17 10 20 100 3.7347e-05
18 10 20 100 0.025641
19 10 20 100 0.0256422
20 10 20 100 0.025641
0 11 20 100 0.172983
7 11 20 100 0.0313895
8 11 20 100 0.0512821
9 11 20 100 0.0255308
10 11 20 100 0.231591
11 11 20 100 0.102291
12 11 20 100 0.153844
13 11 20 100 0.0769472
14 11 20 100 0.102634
17 11 20 100 0.000110253
18 11 20 100 0.0257555
20 11 20 100 0.025641
0 12 20 100 0.104815
5 12 20 100 5.16244e-07
8 12 20 100 0.0769235
9 12 20 100 0.0257544
10 12 20 100 0.151679
11 12 20 100 0.128169
12 12 20 100 0.128227
13 12 20 100 0.153774
14 12 20 100 0.0512821
15 12 20 100 0.0769249
16 12 20 100 0.025641
17 12 20 100 0.0255277
19 12 20 100 0.025641
20 12 20 100 0.025641
0 13 20 100 0.123807
8 13 20 100 0.025641
9 13 20 100 0.0155903
10 13 20 100 0.025641
11 13 20 100 0.0771816
12 13 20 100 0.230536
13 13 20 100 0.153807
14 13 20 100 0.102649
15 13 20 100 0.0307743
16 13 20 100 0.0512821
17 13 20 100 0.0100508
19 13 20 100 0.0512821
20 13 20 100 0.101759
0 14 20 100 0.130306
5 14 20 100 5.16244e-07
7 14 20 100 1.38512e-06
8 14 20 100 0.025641
9 14 20 100 0.0242304
11 14 20 100 0.00118293
12 14 20 100 0.0512511
13 14 20 100 0.124951
14 14 20 100 0.205127
15 14 20 100 0.127885
16 14 20 100 0.025961
17 14 20 100 0.0783337
18 14 20 100 0.0256414
19 14 20 100 0.0769231
20 14 20 100 0.102564
0 15 20 100 0.185712
4 15 20 100 2.52252e-06
7 15 20 100 1.08077e-06
8 15 20 100 0.0267408
9 15 20 100 0.0100315
12 15 20 100 0.02703
13 15 20 100 0.0540656
14 15 20 100 0.163698
15 15 20 100 0.1625
16 15 20 100 0.080874
17 15 20 100 0.15421
18 15 20 100 0.0540541
19 15 20 100 0.0266908
20 15 20 100 0.0543901
0 16 20 100 0.210363
3 16 20 100 4.14202e-07
7 16 20 100 1.25929e-06
9 16 20 100 0.00225508
13 16 20 100 0.00201622
14 16 20 100 0.135136
15 16 20 100 0.0900118
16 16 20 100 0.205773
17 16 20 100 0.0794309
18 16 20 100 0.0838349
19 16 20 100 0.0546189
20 16 20 100 0.136559
0 17 20 100 0.215835
4 17 20 100 4.80992e-05
10 17 20 100 3.03813e-06
11 17 20 100 0.0277778
14 17 20 100 0.0557929
15 17 20 100 0.166748
16 17 20 100 0.138516
17 17 20 100 0.00980368
18 17 20 100 0.109024
19 17 20 100 0.0559327
20 17 20 100 0.220518
0 18 20 100 0.152377
9 18 20 100 7.86282e-05
12 18 20 100 0.03125
14 18 20 100 0.03125
15 18 20 100 0.0625001
16 18 20 100 0.09375
17 18 20 100 0.191021
18 18 20 100 0.067958
19 18 20 100 0.0712633
20 18 20 100 0.298552
0 19 20 100 0.17636
3 19 20 100 5.47275e-07
5 19 20 100 9.4021e-07
7 19 20 100 1.66406e-06
9 19 20 100 0.000394079
13 19 20 100 0.0357155
15 19 20 100 4.55624e-06
16 19 20 100 0.106924
17 19 20 100 0.142463
18 19 20 100 0.109445
19 19 20 100 0.214252
20 19 20 100 0.214439
0 20 20 100 0.20758
5 20 20 100 2.36448e-06
10 20 20 100 0.0416667
13 20 20 100 3.17025e-05
14 20 20 100 0.0416667
16 20 20 100 0.0358599
17 20 20 100 0.0833334
18 20 20 100 0.0832129
19 20 20 100 0.171029
20 20 20 100 0.335618
0 21 20 100 0.0526449
12 21 20 100 0.0526316
15 21 20 100 0.0526316
17 21 20 100 0.105231
18 21 20 100 0.105299
19 21 20 100 0.104909
20 21 20 100 0.526653
0 22 20 100 1.05931e-06
15 22 20 100 0.0833334
16 22 20 100 0.0833335
19 22 20 100 0.25
20 22 20 100 0.583332
0 23 20 100 0.423185
5 23 20 100 6.43964e-06
9 23 20 100 4.40599e-06
13 23 20 100 1.59849e-06
16 23 20 100 0.00507272
18 23 20 100 0.285714
19 23 20 100 0.000129134
20 23 20 100 0.285886
0 24 20 100 0.155258
17 24 20 100 0.2
19 24 20 100 0.0447415
20 24 20 100 0.6
18 25 20 100 0.5
20 25 20 100 0.5
20 26 20 100 1
20 27 20 100 1
1 1 21 100 0.923076
3 1 21 100 4.57224e-07
21 1 21 100 0.0769231
0 2 21 100 0.0838199
1 2 21 100 0.153758
2 2 21 100 0.469772
3 2 21 100 0.0807744
4 2 21 100 0.0587925
5 2 21 100 0.0256783
6 2 21 100 0.0497153
7 2 21 100 0.000762485
8 2 21 100 3.59905e-07
9 2 21 100 0.025641
11 2 21 100 5.58068e-07
14 2 21 100 1.24825e-06
16 2 21 100 2.97202e-07
18 2 21 100 1.78174e-06
20 2 21 100 4.46214e-07
21 2 21 100 0.051282
0 3 21 100 0.120949
1 3 21 100 0.0512841
2 3 21 100 0.215187
3 3 21 100 0.284188
4 3 21 100 0.200184
5 3 21 100 0.0256421
6 3 21 100 0.0512821
7 3 21 100 4.28015e-07
10 3 21 100 0.025641
16 3 21 100 9.37529e-07
21 3 21 100 0.025641
0 4 21 100 0.262976
1 4 21 100 4.56273e-07
2 4 21 100 0.00249275
3 4 21 100 0.259897
4 4 21 100 0.237137
5 4 21 100 0.0804718
6 4 21 100 0.0256666
7 4 21 100 0.025641
8 4 21 100 8.61334e-07
11 4 21 100 0.0256413
12 4 21 100 0.025641
13 4 21 100 0.025641
15 4 21 100 3.13277e-07
19 4 21 100 2.31173e-05
21 4 21 100 0.0287695
0 5 21 100 0.166719
2 5 21 100 2.65866e-07
3 5 21 100 0.0556406
4 5 21 100 0.303147
5 5 21 100 0.216293
6 5 21 100 0.153754
7 5 21 100 8.20413e-07
13 5 21 100 0.0255965
14 5 21 100 0.0256453
19 5 21 100 0.0021578
20 5 21 100 0.025629
21 5 21 100 0.0254166
0 6 21 100 0.151786
4 6 21 100 0.0769231
5 6 21 100 0.153062
6 6 21 100 0.41115
7 6 21 100 0.102495
8 6 21 100 0.0276603
9 6 21 100 2.66486e-07
14 6 21 100 0.0512821
15 6 21 100 3.31823e-07
21 6 21 100 0.0256415
0 7 21 100 0.178238
1 7 21 100 0.0256411
2 7 21 100 0.0256409
4 7 21 100 0.0432004
5 7 21 100 0.102571
6 7 21 100 0.132199
7 7 21 100 0.189816
8 7 21 100 0.159042
9 7 21 100 0.0711444
12 7 21 100 0.0211132
13 7 21 100 7.05925e-07
14 7 21 100 0.0255975
15 7 21 100 0.00013389
17 7 21 100 3.02573e-07
20 7 21 100 0.0256411
21 7 21 100 2.05743e-05
0 8 21 100 0.175344
2 8 21 100 0.0576442
3 8 21 100 1.34885e-05
4 8 21 100 0.025641
5 8 21 100 0.0594531
6 8 21 100 0.0256745
7 8 21 100 0.102597
8 8 21 100 0.21057
9 8 21 100 0.211035
10 8 21 100 0.025641
11 8 21 100 0.077115
14 8 21 100 0.0254497
15 8 21 100 0.00382141
0 9 21 100 0.127796
5 9 21 100 0.0265274
6 9 21 100 0.10233
7 9 21 100 0.104396
8 9 21 100 0.0772334
9 9 21 100 0.199127
10 9 21 100 0.205657
11 9 21 100 0.0256516
12 9 21 100 0.025641
14 9 21 100 0.025641
15 9 21 100 0.00307278
16 9 21 100 0.0256436
18 9 21 100 1.1076e-06
19 9 21 100 0.0256418
21 9 21 100 0.025641
0 10 21 100 0.153494
4 10 21 100 1.52972e-06
5 10 21 100 0.025641
6 10 21 100 0.0501557
7 10 21 100 0.0524089
8 10 21 100 0.0769231
9 10 21 100 0.15427
10 10 21 100 0.204708
11 10 21 100 0.153834
12 10 21 100 0.000468425
14 10 21 100 0.0768001
16 10 21 100 5.72387e-06
17 10 21 100 6.26401e-06
20 10 21 100 8.1048e-07
21 10 21 100 0.0512821
0 11 21 100 0.200376
2 11 21 100 5.66161e-07
5 11 21 100 1.06219e-06
7 11 21 100 0.00268014
8 11 21 100 0.0742454
9 11 21 100 0.153518
10 11 21 100 0.128534
11 11 21 100 0.177001
12 11 21 100 0.0530846
13 11 21 100 0.0772522
15 11 21 100 0.0563831
16 11 21 100 0.025641
20 11 21 100 0.0256411
21 11 21 100 0.025641
0 12 21 100 0.165382
4 12 21 100 2.74513e-07
6 12 21 100 0.025641
8 12 21 100 0.076924
9 12 21 100 0.0512836
10 12 21 100 0.05473
11 12 21 100 0.115539
12 12 21 100 0.179478
13 12 21 100 0.128236
14 12 21 100 0.0769353
15 12 21 100 3.43022e-05
16 12 21 100 0.025641
17 12 21 100 0.0512821
18 12 21 100 1.1076e-06
21 12 21 100 0.0488936
0 13 21 100 0.155902
2 13 21 100 1.25027e-06
6 13 21 100 0.025641
7 13 21 100 0.000395682
9 13 21 100 0.0261729
10 13 21 100 0.050762
11 13 21 100 0.113164
12 13 21 100 0.102564
13 13 21 100 0.102564
14 13 21 100 0.104784
15 13 21 100 0.0768434
16 13 21 100 0.0512821
17 13 21 100 0.0765121
18 13 21 100 0.0308869
19 13 21 100 0.0256329
20 13 21 100 0.00561924
21 13 21 100 0.0512727
0 14 21 100 0.1739
8 14 21 100 0.0516378
10 14 21 100 0.0512821
11 14 21 100 0.0512818
12 14 21 100 0.102557
13 14 21 100 0.102591
14 14 21 100 0.102666
15 14 21 100 0.205989
16 14 21 100 0.025641
17 14 21 100 0.0512808
19 14 21 100 0.0256427
20 14 21 100 0.0256428
21 14 21 100 0.0298871
0 15 21 100 0.302788
2 15 21 100 1.71025e-06
3 15 21 100 4.14769e-07
5 15 21 100 0.00703408
7 15 21 100 7.83164e-05
10 15 21 100 7.75761e-06
11 15 21 100 0.0564955
12 15 21 100 0.0770619
13 15 21 100 0.0175911
14 15 21 100 0.0756882
15 15 21 100 0.153836
16 15 21 100 0.128203
17 15 21 100 0.102564
18 15 21 100 0.0273554
19 15 21 100 1.27552e-05
21 15 21 100 0.051282
0 16 21 100 0.207727
4 16 21 100 1.74075e-06
7 16 21 100 8.006e-07
9 16 21 100 0.0526368
10 16 21 100 2.87323e-07
12 16 21 100 0.105264
13 16 21 100 0.105214
14 16 21 100 4.53807e-05
15 16 21 100 0.105377
16 16 21 100 0.106326
17 16 21 100 0.105154
18 16 21 100 0.0280471
19 16 21 100 0.026426
20 16 21 100 0.0301291
21 16 21 100 0.127651
0 17 21 100 0.149414
7 17 21 100 5.3505e-05
10 17 21 100 0.054054
13 17 21 100 0.133546
14 17 21 100 0.0810121
15 17 21 100 0.054056
16 17 21 100 0.0855033
17 17 21 100 0.13621
18 17 21 100 0.089945
19 17 21 100 0.135125
20 17 21 100 0.0270271
21 17 21 100 0.054054
0 18 21 100 0.237663
2 18 21 100 5.28067e-07
5 18 21 100 4.85401e-07
7 18 21 100 9.63128e-07
11 18 21 100 0.0540655
12 18 21 100 0.0270271
13 18 21 100 0.0193399
14 18 21 100 0.0270296
15 18 21 100 0.135207
16 18 21 100 0.0540541
17 18 21 100 0.0270274
18 18 21 100 0.162164
19 18 21 100 0.17223
20 18 21 100 4.23361e-05
21 18 21 100 0.0841481
0 19 21 100 0.253487
9 19 21 100 7.16663e-07
11 19 21 100 0.0277473
12 19 21 100 0.0277778
13 19 21 100 0.00835242
14 19 21 100 0.0194355
15 19 21 100 0.138569
16 19 21 100 0.111107
17 19 21 100 0.027779
18 19 21 100 0.0814043
19 19 21 100 0.113085
20 19 21 100 0.0759372
21 19 21 100 0.115317
0 20 21 100 0.249166
5 20 21 100 1.18358e-06
8 20 21 100 4.97964e-07
10 20 21 100 8.2585e-07
12 20 21 100 0.0285715
13 20 21 100 1.04557e-06
15 20 21 100 0.0285715
16 20 21 100 8.55673e-06
17 20 21 100 0.114301
18 20 21 100 0.0285713
19 20 21 100 0.0857122
20 20 21 100 0.150809
21 20 21 100 0.314285
0 21 21 100 0.223536
2 21 21 100 3.3599e-06
3 21 21 100 1.39039e-05
5 21 21 100 4.03545e-06
8 21 21 100 0.000195006
14 21 21 100 1.29491e-06
15 21 21 100 0.0387009
16 21 21 100 0.0769231
17 21 21 100 0.0769231
18 21 21 100 0.116524
20 21 21 100 0.076925
21 21 21 100 0.390251
0 22 21 100 0.190481
10 22 21 100 7.59962e-07
16 22 21 100 0.0426826
17 22 21 100 0.102984
18 22 21 100 0.0960831
19 22 21 100 0.186529
20 22 21 100 0.0949172
21 22 21 100 0.286323
0 23 21 100 0.132597
17 23 21 100 0.0588236
18 23 21 100 0.108102
19 23 21 100 0.176475
20 23 21 100 0.278752
21 23 21 100 0.245251
8 24 21 100 4.6316e-06
18 24 21 100 0.142857
19 24 21 100 0.0714317
20 24 21 100 0.0714286
21 24 21 100 0.714278
0 25 21 100 0.000228543
20 25 21 100 0.444216
21 25 21 100 0.555555
0 26 21 100 0.550541
10 26 21 100 2.27988e-06
18 26 21 100 1.98996e-05
20 26 21 100 0.142857
21 26 21 100 0.30658
21 27 21 100 1
0 28 21 100 1
21 29 21 100 1
1 1 22 100 0.86663
2 1 22 100 0.0333334
4 1 22 100 0.0667029
22 1 22 100 0.0333334
0 2 22 100 0.0997402
1 2 22 100 0.0668082
2 2 22 100 0.505595
3 2 22 100 0.127662
4 2 22 100 0.133303
6 2 22 100 0.000160874
7 2 22 100 8.9048e-06
12 2 22 100 1.56283e-06
17 2 22 100 0.0002137
19 2 22 100 6.03016e-07
22 2 22 100 0.0665058
0 3 22 100 0.110888
1 3 22 100 0.0333333
2 3 22 100 0.159033
3 3 22 100 0.438096
4 3 22 100 0.200647
5 3 22 100 0.0246563
6 3 22 100 1.26477e-05
9 3 22 100 3.87466e-07
22 3 22 100 0.0333338
0 4 22 100 0.0620061
1 4 22 100 0.0333334
2 4 22 100 0.0993192
3 4 22 100 0.268177
4 4 22 100 0.16852
5 4 22 100 0.0993618
6 4 22 100 0.102614
8 4 22 100 0.0333333
9 4 22 100 0.0333334
16 4 22 100 1.2704e-06
22 4 22 100 0.1
0 5 22 100 0.207932
1 5 22 100 0.0333333
3 5 22 100 0.0667481
4 5 22 100 0.166673
5 5 22 100 0.187867
6 5 22 100 0.137457
7 5 22 100 0.0333387
9 5 22 100 0.0333154
13 5 22 100 1.87428e-06
14 5 22 100 0.0333334
17 5 22 100 1.75252e-06
22 5 22 100 0.0999991
0 6 22 100 0.0748463
2 6 22 100 0.000105388
3 6 22 100 0.0333284
4 6 22 100 0.166667
5 6 22 100 0.225335
6 6 22 100 0.166667
7 6 22 100 0.199718
8 6 22 100 0.0333339
9 6 22 100 0.033333
15 6 22 100 0.0333334
21 6 22 100 1.68998e-06
22 6 22 100 0.0333314
0 7 22 100 0.171894
3 7 22 100 0.0333334
4 7 22 100 0.0666667
5 7 22 100 0.233463
6 7 22 100 0.1671
7 7 22 100 0.0946874
8 7 22 100 0.132711
9 7 22 100 0.000143241
11 7 22 100 1.33234e-06
16 7 22 100 0.0333342
17 7 22 100 3.66339e-07
21 7 22 100 0.0333334
22 7 22 100 0.033332
0 8 22 100 0.135274
3 8 22 100 1.44589e-05
4 8 22 100 1.02025e-06
5 8 22 100 0.0666666
6 8 22 100 0.1
7 8 22 100 0.263594
8 8 22 100 0.167767
9 8 22 100 0.166662
10 8 22 100 0.0333334
12 8 22 100 2.65685e-06
13 8 22 100 1.65656e-06
15 8 22 100 1.63724e-05
17 8 22 100 0.0333334
22 8 22 100 0.0333334
0 9 22 100 0.0664116
4 9 22 100 0.0331433
5 9 22 100 1.68602e-06
6 9 22 100 0.0666667
7 9 22 100 0.133511
8 9 22 100 0.132115
9 9 22 100 0.168488
10 9 22 100 0.167383
11 9 22 100 0.0333334
12 9 22 100 0.0656106
13 9 22 100 1.87478e-06
15 9 22 100 0.0333334
16 9 22 100 0.0333334
19 9 22 100 3.35299e-07
22 9 22 100 0.0666667
0 10 22 100 0.139106
5 10 22 100 0.000572694
7 10 22 100 0.1
8 10 22 100 0.0706756
9 10 22 100 0.149627
10 10 22 100 0.207168
11 10 22 100 0.0998027
12 10 22 100 0.0500022
13 10 22 100 0.0170398
14 10 22 100 0.0333334
17 10 22 100 0.0660058
18 10 22 100 1.27206e-06
22 10 22 100 0.0666654
0 11 22 100 0.162916
4 11 22 100 0.0333302
7 11 22 100 0.00126671
8 11 22 100 0.0994514
9 11 22 100 0.0961887
10 11 22 100 0.100559
11 11 22 100 0.166667
12 11 22 100 0.0698846
13 11 22 100 0.0666668
14 11 22 100 0.0333325
15 11 22 100 0.0333334
17 11 22 100 5.18976e-06
18 11 22 100 0.0363979
20 11 22 100 0.0333334
22 11 22 100 0.0666668
0 12 22 100 0.273807
8 12 22 100 0.0359643
9 12 22 100 0.0333162
10 12 22 100 0.0871269
11 12 22 100 0.133387
12 12 22 100 0.0711962
13 12 22 100 0.227257
14 12 22 100 8.07668e-06
15 12 22 100 0.0379357
16 12 22 100 8.81287e-07
17 12 22 100 1.0385e-06
19 12 22 100 0.0333334
20 12 22 100 0.0666667
0 13 22 100 0.170575
9 13 22 100 0.0346337
10 13 22 100 0.0333476
11 13 22 100 0.103914
12 13 22 100 0.136091
13 13 22 100 0.0666663
14 13 22 100 0.132332
15 13 22 100 0.0994272
16 13 22 100 0.0666256
17 13 22 100 0.000590536
18 13 22 100 1.27206e-06
20 13 22 100 0.0333334
21 13 22 100 0.0557952
22 13 22 100 0.0666667
0 14 22 100 0.195231
6 14 22 100 0.000528881
9 14 22 100 0.00234378
10 14 22 100 0.0333333
11 14 22 100 0.091999
12 14 22 100 0.0744058
13 14 22 100 0.233333
14 14 22 100 0.0718216
15 14 22 100 0.0948567
16 14 22 100 0.0333388
17 14 22 100 0.0346565
18 14 22 100 0.0666667
21 14 22 100 0.000830094
22 14 22 100 0.066654
0 15 22 100 0.171489
6 15 22 100 1.13257e-06
7 15 22 100 3.71676e-06
11 15 22 100 0.0297403
12 15 22 100 0.133333
13 15 22 100 0.132114
14 15 22 100 0.13489
15 15 22 100 0.097285
16 15 22 100 0.067817
18 15 22 100 0.0999933
19 15 22 100 0.0333334
22 15 22 100 0.1
0 16 22 100 0.11379
3 16 22 100 4.94536e-06
7 16 22 100 0.000757307
9 16 22 100 2.0829e-05
12 16 22 100 0.0344885
13 16 22 100 0.127604
14 16 22 100 0.206305
15 16 22 100 0.195294
16 16 22 100 0.0691821
17 16 22 100 0.0454136
18 16 22 100 0.103639
21 16 22 100 5.20884e-05
22 16 22 100 0.103448
0 17 22 100 0.149899
13 17 22 100 0.0357057
14 17 22 100 0.0359073
15 17 22 100 0.205129
16 17 22 100 0.17855
17 17 22 100 0.107144
18 17 22 100 0.170214
19 17 22 100 6.65357e-07
20 17 22 100 0.0357408
21 17 22 100 0.0459949
22 17 22 100 0.0357149
0 18 22 100 0.178036
13 18 22 100 0.0357142
14 18 22 100 0.178572
16 18 22 100 0.107142
17 18 22 100 0.179121
18 18 22 100 0.107143
19 18 22 100 0.106655
20 18 22 100 0.00047485
22 18 22 100 0.107143
0 19 22 100 0.179529
5 19 22 100 9.45352e-07
9 19 22 100 3.41491e-05
15 19 22 100 0.116792
16 19 22 100 0.0740758
17 19 22 100 0.198508
18 19 22 100 0.145116
19 19 22 100 0.0224741
20 19 22 100 0.0740752
21 19 22 100 0.0991199
22 19 22 100 0.0902753
0 20 22 100 0.262838
3 20 22 100 5.39359e-07
12 20 22 100 1.07771e-06
13 20 22 100 4.09412e-06
15 20 22 100 0.0384616
16 20 22 100 5.92428e-06
17 20 22 100 0.0770297
18 20 22 100 0.192308
19 20 22 100 0.160487
20 20 22 100 0.0384616
21 20 22 100 0.0767289
22 20 22 100 0.153674
0 21 22 100 0.239971
5 21 22 100 2.96523e-06
14 21 22 100 1.77606e-06
16 21 22 100 0.0969561
17 21 22 100 2.16057e-06
18 21 22 100 0.173771
19 21 22 100 0.177224
20 21 22 100 0.0447311
21 21 22 100 0.136905
22 21 22 100 0.130435
0 22 22 100 0.192681
2 22 22 100 5.07718e-07
5 22 22 100 9.81738e-07
8 22 22 100 1.6993e-06
16 22 22 100 0.0476191
17 22 22 100 0.0951424
19 22 22 100 0.0476158
20 22 22 100 0.140753
21 22 22 100 0.333152
22 22 22 100 0.143034
0 23 22 100 0.232331
15 23 22 100 6.68523e-07
18 23 22 100 8.1887e-06
19 23 22 100 0.166667
20 23 22 100 0.222222
21 23 22 100 0.0555556
22 23 22 100 0.323215
0 24 22 100 0.0667415
19 24 22 100 0.0666667
20 24 22 100 0.13334
21 24 22 100 0.144391
22 24 22 100 0.588861
0 25 22 100 0.149964
13 25 22 100 1.6888e-06
17 25 22 100 1.3832e-05
18 25 22 100 0.0993948
19 25 22 100 0.125
20 25 22 100 0.124987
21 25 22 100 0.000640859
22 25 22 100 0.499998
20 26 22 100 0.199999
21 26 22 100 0.2
22 26 22 100 0.6
0 27 22 100 0.33333
22 27 22 100 0.66667
22 28 22 100 1
0 1 23 100 6.27755e-07
1 1 23 100 0.999999
0 2 23 100 0.00726671
1 2 23 100 0.17647
2 2 23 100 0.639792
3 2 23 100 0.176471
0 3 23 100 0.0203153
2 3 23 100 0.284876
3 3 23 100 0.582631
4 3 23 100 0.111979
5 3 23 100 0.000196491
18 3 23 100 2.16238e-06
0 4 23 100 0.191366
2 4 23 100 0.0588236
3 4 23 100 0.177386
4 4 23 100 0.255532
5 4 23 100 0.199245
6 4 23 100 0.0588236
7 4 23 100 0.0588236
18 4 23 100 7.63885e-07
0 5 23 100 0.117399
3 5 23 100 0.0588235
4 5 23 100 0.0617417
5 5 23 100 0.52941
6 5 23 100 0.173726
8 5 23 100 1.30956e-05
9 5 23 100 0.0588236
12 5 23 100 1.16748e-06
23 5 23 100 6.28298e-05
0 6 23 100 0.17368
3 6 23 100 0.0588192
4 6 23 100 0.106047
5 6 23 100 0.177246
6 6 23 100 0.122139
7 6 23 100 0.235294
8 6 23 100 0.117647
12 6 23 100 0.000329757
13 6 23 100 1.20066e-06
15 6 23 100 0.00878442
17 6 23 100 1.16066e-05
0 7 23 100 0.117972
5 7 23 100 0.117322
6 7 23 100 0.296191
7 7 23 100 0.115574
8 7 23 100 0.176471
9 7 23 100 0.0588234
10 7 23 100 0.0588236
18 7 23 100 0.0588235
0 8 23 100 0.171287
6 8 23 100 0.17647
7 8 23 100 0.235292
8 8 23 100 0.176471
9 8 23 100 0.176471
10 8 23 100 0.0588236
11 8 23 100 0.00401291
15 8 23 100 0.00117104
18 8 23 100 2.59696e-06
0 9 23 100 0.198776
7 9 23 100 0.0588236
8 9 23 100 0.176496
9 9 23 100 0.22563
10 9 23 100 0.0461543
11 9 23 100 0.117646
12 9 23 100 0.0588262
16 9 23 100 0.0588236
19 9 23 100 0.0588236
0 10 23 100 0.176542
5 10 23 100 0.117443
7 10 23 100 0.0588235
8 10 23 100 2.14136e-05
9 10 23 100 0.176405
10 10 23 100 0.411815
11 10 23 100 0.0588234
13 10 23 100 4.38901e-05
17 10 23 100 8.15416e-05
19 10 23 100 8.02147e-07
0 11 23 100 0.0597983
4 11 23 100 0.00113638
6 11 23 100 0.0588236
7 11 23 100 0.0576869
8 11 23 100 0.0588236
9 11 23 100 0.0588236
10 11 23 100 0.116676
11 11 23 100 0.352747
12 11 23 100 0.117836
14 11 23 100 0.117647
21 11 23 100 1.27087e-06
0 12 23 100 0.117726
6 12 23 100 0.0588236
7 12 23 100 0.0588235
8 12 23 100 0.0588236
9 12 23 100 0.0588236
10 12 23 100 0.11769
12 12 23 100 0.176472
13 12 23 100 0.0588236
14 12 23 100 0.117526
15 12 23 100 0.0588236
16 12 23 100 0.0588235
23 12 23 100 0.0588221
0 13 23 100 0.192722
6 13 23 100 8.87008e-07
10 13 23 100 0.176471
11 13 23 100 0.117662
12 13 23 100 0.176469
13 13 23 100 0.0637848
14 13 23 100 0.215384
15 13 23 100 2.61307e-06
16 13 23 100 0.057503
0 14 23 100 0.155126
6 14 23 100 0.0588235
10 14 23 100 0.0588235
11 14 23 100 0.117647
12 14 23 100 0.117647
13 14 23 100 0.138991
14 14 23 100 0.0588235
15 14 23 100 0.181256
16 14 23 100 0.0540383
18 14 23 100 0.0588235
0 15 23 100 0.214837
3 15 23 100 1.92254e-06
8 15 23 100 0.0588154
11 15 23 100 0.117647
12 15 23 100 0.0658577
13 15 23 100 0.0590499
14 15 23 100 0.176471
16 15 23 100 0.189673
17 15 23 100 0.0588236
20 15 23 100 0.0588236
0 16 23 100 0.119593
6 16 23 100 0.0588236
9 16 23 100 0.0588211
10 16 23 100 0.0588236
13 16 23 100 0.117648
14 16 23 100 0.130736
15 16 23 100 0.163382
16 16 23 100 0.0588236
17 16 23 100 0.115702
18 16 23 100 0.0588236
19 16 23 100 0.0588236
0 17 23 100 0.176471
11 17 23 100 0.0588236
12 17 23 100 2.8263e-06
13 17 23 100 0.0588208
14 17 23 100 0.1165
15 17 23 100 6.58625e-06
16 17 23 100 0.117715
17 17 23 100 0.11872
18 17 23 100 0.117505
19 17 23 100 0.17647
20 17 23 100 0.0588236
21 17 23 100 0.000140532
0 18 23 100 0.176281
5 18 23 100 4.31217e-06
13 18 23 100 0.000144349
14 18 23 100 0.117647
15 18 23 100 0.0588231
16 18 23 100 0.235313
17 18 23 100 0.117647
18 18 23 100 0.159816
19 18 23 100 0.0630803
20 18 23 100 0.0124911
21 18 23 100 0.0587535
0 19 23 100 0.225004
2 19 23 100 3.16744e-06
14 19 23 100 0.0588236
15 19 23 100 0.176504
16 19 23 100 0.0588259
17 19 23 100 0.0588158
18 19 23 100 0.117647
19 19 23 100 0.0588564
20 19 23 100 0.132076
21 19 23 100 0.0520127
22 19 23 100 0.0614278
23 19 23 100 3.14616e-06
0 20 23 100 0.117635
6 20 23 100 6.2977e-05
14 20 23 100 0.117647
15 20 23 100 0.0588236
16 20 23 100 0.0588236
17 20 23 100 0.058823
18 20 23 100 0.0588236
19 20 23 100 0.117645
20 20 23 100 0.117647
21 20 23 100 0.0588236
22 20 23 100 0.117661
23 20 23 100 0.117584
0 21 23 100 0.312498
13 21 23 100 1.09621e-06
14 21 23 100 0.0625001
16 21 23 100 0.00112125
17 21 23 100 9.51167e-07
18 21 23 100 0.123879
19 21 23 100 0.0625001
20 21 23 100 0.124999
21 21 23 100 0.0625001
22 21 23 100 0.124818
23 21 23 100 0.125183
0 22 23 100 0.213685
7 22 23 100 0.0714286
14 22 23 100 0.0714286
15 22 23 100 0.0714286
16 22 23 100 0.0714286
17 22 23 100 0.0714662
18 22 23 100 0.0714286
19 22 23 100 0.000562813
20 22 23 100 0.0714286
21 22 23 100 0.142857
22 22 23 100 0.0714286
23 22 23 100 0.0714286
0 23 23 100 0.311405
17 23 23 100 0.0833334
18 23 23 100 0.0233594
19 23 23 100 0.0833334
20 23 23 100 0.0833334
21 23 23 100 0.0818952
22 23 23 100 0.0823144
23 23 23 100 0.251025
0 24 23 100 0.239856
6 24 23 100 1.21393e-06
14 24 23 100 0.000674189
17 24 23 100 0.111111
18 24 23 100 0.111111
19 24 23 100 0.111111
20 24 23 100 0.00963635
21 24 23 100 0.194243
22 24 23 100 0.111145
23 24 23 100 0.111111
0 25 23 100 0.374868
18 25 23 100 0.000131228
19 25 23 100 0.125
20 25 23 100 0.25
21 25 23 100 0.125
23 25 23 100 0.125
0 26 23 100 0.428569
18 26 23 100 0.142859
20 26 23 100 0.142856
22 26 23 100 0.142857
23 26 23 100 0.142859
0 27 23 100 0.161995
19 27 23 100 0.166667
21 27 23 100 0.166667
22 27 23 100 0.00467209
23 27 23 100 0.5
0 28 23 100 0.246892
20 28 23 100 0.00314251
22 28 23 100 0.249965
23 28 23 100 0.500001
0 29 23 100 0.405751
7 29 23 100 6.24212e-06
12 29 23 100 3.91464e-05
20 29 23 100 0.333334
21 29 23 100 0.236046
23 29 23 100 0.0248232
0 30 23 100 3.6822e-06
21 30 23 100 0.331629
22 30 23 100 0.00170088
23 30 23 100 0.666667
22 31 23 100 1
23 32 23 100 1
1 1 24 100 0.885714
2 1 24 100 0.010604
8 1 24 100 0.0857143
24 1 24 100 0.0179673
0 2 24 100 0.0179599
1 2 24 100 0.0857447
2 2 24 100 0.61056
3 2 24 100 0.142876
4 2 24 100 0.0571429
5 2 24 100 2.27626e-06
6 2 24 100 0.0285714
7 2 24 100 0.0285714
8 2 24 100 0.0285714
24 2 24 100 4.59157e-07
0 3 24 100 0.161909
2 3 24 100 0.142857
3 3 24 100 0.363252
4 3 24 100 0.189361
6 3 24 100 0.0285715
7 3 24 100 0.0285715
8 3 24 100 0.0285568
14 3 24 100 3.97644e-07
23 3 24 100 4.36515e-07
24 3 24 100 0.0569205
0 4 24 100 0.173113
2 4 24 100 0.0285714
3 4 24 100 0.2
4 4 24 100 0.226867
5 4 24 100 0.200016
6 4 24 100 0.0571429
7 4 24 100 0.0285715
8 4 24 100 0.0285715
17 4 24 100 3.61985e-06
22 4 24 100 2.90387e-07
24 4 24 100 0.0571429
0 5 24 100 0.171583
3 5 24 100 0.0571429
4 5 24 100 0.177948
5 5 24 100 0.164715
6 5 24 100 0.0857475
7 5 24 100 0.114286
8 5 24 100 0.0857143
9 5 24 100 0.0571429
10 5 24 100 6.41922e-06
24 5 24 100 0.0857142
0 6 24 100 0.0517426
3 6 24 100 0.0285749
4 6 24 100 0.0857438
5 6 24 100 0.122818
6 6 24 100 0.279386
7 6 24 100 0.171398
8 6 24 100 0.0553004
9 6 24 100 0.114286
10 6 24 100 0.00503341
11 6 24 100 0.0285714
13 6 24 100 1.4648e-06
23 6 24 100 2.87419e-07
24 6 24 100 0.0571429
0 7 24 100 0.292747
4 7 24 100 0.0285715
5 7 24 100 0.14242
6 7 24 100 0.120216
7 7 24 100 0.119417
8 7 24 100 0.124853
9 7 24 100 0.0574838
10 7 24 100 0.0285714
11 7 24 100 0.0571429
12 7 24 100 0.0285713
13 7 24 100 3.45796e-06
14 7 24 100 3.09312e-06
0 8 24 100 0.17609
5 8 24 100 0.0852272
6 8 24 100 0.12296
7 8 24 100 0.0664581
8 8 24 100 0.114286
9 8 24 100 0.256935
10 8 24 100 0.0858788
11 8 24 100 0.0324703
12 8 24 100 0.0311224
13 8 24 100 2.89063e-07
14 8 24 100 0.0285714
20 8 24 100 4.69992e-07
22 8 24 100 2.90404e-07
0 9 24 100 0.216294
4 9 24 100 0.0285714
6 9 24 100 0.0571429
7 9 24 100 0.0789744
8 9 24 100 0.142855
9 9 24 100 0.0849887
10 9 24 100 0.133711
11 9 24 100 0.0571309
12 9 24 100 0.0859726
13 9 24 100 0.0571432
14 9 24 100 0.0571429
16 9 24 100 5.5832e-07
22 9 24 100 7.13999e-05
0 10 24 100 0.159035
7 10 24 100 0.0857148
8 10 24 100 0.0862552
9 10 24 100 0.115901
10 10 24 100 0.086752
11 10 24 100 0.0955553
12 10 24 100 0.143172
13 10 24 100 0.133115
14 10 24 100 0.0652133
15 10 24 100 0.0292425
16 10 24 100 1.21674e-06
21 10 24 100 3.85282e-07
22 10 24 100 2.91456e-07
23 10 24 100 4.17506e-05
0 11 24 100 0.124379
2 11 24 100 9.34714e-06
5 11 24 100 0.000257855
8 11 24 100 9.38633e-07
9 11 24 100 0.142857
10 11 24 100 0.114276
11 11 24 100 0.142857
12 11 24 100 0.132416
13 11 24 100 2.45665e-05
14 11 24 100 0.114351
15 11 24 100 0.0571434
16 11 24 100 0.0571429
17 11 24 100 0.0285714
21 11 24 100 0.0285714
22 11 24 100 0.0285714
24 11 24 100 0.0285714
0 12 24 100 0.251657
3 12 24 100 7.53594e-07
5 12 24 100 0.000175766
6 12 24 100 2.2789e-05
8 12 24 100 9.48362e-06
9 12 24 100 0.0854934
10 12 24 100 0.0572371
11 12 24 100 0.118775
12 12 24 100 0.0568527
13 12 24 100 0.0572246
15 12 24 100 0.116324
16 12 24 100 0.057152
17 12 24 100 0.0571429
18 12 24 100 0.0284819
19 12 24 100 0.0285715
22 12 24 100 0.0571428
23 12 24 100 3.33182e-07
24 12 24 100 0.0277365
0 13 24 100 0.142085
9 13 24 100 0.0571429
10 13 24 100 0.0285715
11 13 24 100 0.0571429
12 13 24 100 0.114996
13 13 24 100 0.142857
14 13 24 100 0.0857759
15 13 24 100 0.0571429
16 13 24 100 0.0857143
17 13 24 100 0.0857143
18 13 24 100 0.0571429
20 13 24 100 0.0285713
23 13 24 100 0.0285715
24 13 24 100 0.0285714
0 14 24 100 0.227877
4 14 24 100 7.4753e-06
9 14 24 100 0.0273084
10 14 24 100 0.0857144
11 14 24 100 0.0285715
12 14 24 100 0.0857144
13 14 24 100 0.114637
14 14 24 100 0.0842877
15 14 24 100 0.114285
16 14 24 100 0.00125067
17 14 24 100 0.0579684
18 14 24 100 0.0285715
19 14 24 100 0.0865341
20 14 24 100 0.00029833
21 14 24 100 6.2515e-05
23 14 24 100 0.02834
24 14 24 100 0.0285715
0 15 24 100 0.123454
4 15 24 100 0.000848215
10 15 24 100 0.0571429
11 15 24 100 0.085309
13 15 24 100 0.0564387
14 15 24 100 0.0489071
15 15 24 100 0.142186
16 15 24 100 0.0857145
17 15 24 100 0.114286
18 15 24 100 0.114286
20 15 24 100 0.0857144
21 15 24 100 0.0285715
23 15 24 100 6.84024e-07
24 15 24 100 0.0571422
0 16 24 100 0.15714
3 16 24 100 1.21525e-06
6 16 24 100 8.4411e-07
8 16 24 100 0.00844635
10 16 24 100 3.57907e-07
11 16 24 100 0.0857143
12 16 24 100 0.00724447
13 16 24 100 0.0571433
14 16 24 100 0.0857694
15 16 24 100 0.057056
16 16 24 100 0.169965
17 16 24 100 0.142855
18 16 24 100 0.114285
19 16 24 100 0.0285714
20 16 24 100 0.0285797
21 16 24 100 0.0285257
22 16 24 100 4.77375e-05
23 16 24 100 0.0285692
24 16 24 100 8.41178e-05
0 17 24 100 0.129832
5 17 24 100 4.74302e-07
8 17 24 100 3.07266e-07
9 17 24 100 9.85828e-06
12 17 24 100 0.0571429
14 17 24 100 0.0285715
15 17 24 100 0.167682
16 17 24 100 0.114236
17 17 24 100 0.0175005
18 17 24 100 0.11421
19 17 24 100 0.0857062
20 17 24 100 0.113679
21 17 24 100 0.0285714
22 17 24 100 0.0569903
23 17 24 100 0.0285718
24 17 24 100 0.0572952
0 18 24 100 0.152516
8 18 24 100 9.34718e-07
12 18 24 100 0.0285715
13 18 24 100 0.0605314
15 18 24 100 0.142891
16 18 24 100 0.0891583
17 18 24 100 0.0572158
18 18 24 100 0.0820704
19 18 24 100 0.0871673
20 18 24 100 0.0571141
21 18 24 100 0.0128113
22 18 24 100 0.0305892
23 18 24 100 0.0285714
24 18 24 100 0.170792
0 19 24 100 0.146381
10 19 24 100 8.26237e-07
14 19 24 100 0.0645162
15 19 24 100 0.0967871
16 19 24 100 0.0622561
17 19 24 100 0.196523
18 19 24 100 0.0645162
19 19 24 100 0.0338948
20 19 24 100 0.0745653
21 19 24 100 0.0672336
23 19 24 100 0.0643392
24 19 24 100 0.128987
0 20 24 100 0.107148
12 20 24 100 0.0357142
15 20 24 100 0.0714297
16 20 24 100 0.0714257
17 20 24 100 0.107838
18 20 24 100 0.142857
19 20 24 100 0.0714286
21 20 24 100 0.142857
22 20 24 100 0.14217
23 20 24 100 0.0357143
24 20 24 100 0.0714175
0 21 24 100 0.0959367
6 21 24 100 5.69155e-07
13 21 24 100 0.074074
16 21 24 100 0.111111
18 21 24 100 0.15033
19 21 24 100 0.0502126
20 21 24 100 0.0740741
21 21 24 100 0.110937
22 21 24 100 0.148141
23 21 24 100 0.109925
24 21 24 100 0.0752574
0 22 24 100 0.118249
14 22 24 100 0.0370371
15 22 24 100 0.0370371
17 22 24 100 0.0370371
18 22 24 100 0.0370427
19 22 24 100 0.148142
20 22 24 100 0.14815
21 22 24 100 0.148034
22 22 24 100 9.60905e-07
23 22 24 100 0.0300114
24 22 24 100 0.259258
0 23 24 100 0.279816
2 23 24 100 3.12543e-06
7 23 24 100 4.56113e-07
15 23 24 100 0.00018751
16 23 24 100 0.0454538
17 23 24 100 0.0454054
18 23 24 100 0.0455039
19 23 24 100 0.0939726
20 23 24 100 0.0454368
21 23 24 100 0.129104
22 23 24 100 0.0878447
23 23 24 100 0.0905929
24 23 24 100 0.13668
0 24 24 100 0.354635
8 24 24 100 1.63576e-06
9 24 24 100 5.03411e-07
14 24 24 100 5.30305e-07
17 24 24 100 3.01754e-06
19 24 24 100 0.0999997
20 24 24 100 0.0500025
21 24 24 100 0.197161
22 24 24 100 0.0494695
23 24 24 100 0.0487276
24 24 24 100 0.2
0 25 24 100 0.0956355
5 25 24 100 8.47436e-07
14 25 24 100 1.35942e-05
17 25 24 100 0.0588236
18 25 24 100 0.0588236
20 25 24 100 0.176502
21 25 24 100 0.0578112
22 25 24 100 0.172727
23 25 24 100 0.144368
24 25 24 100 0.235294
0 26 24 100 0.142305
18 26 24 100 0.0713612
19 26 24 100 0.142857
21 26 24 100 0.142857
22 26 24 100 0.0714286
23 26 24 100 0.143476
24 26 24 100 0.285714
0 27 24 100 0.583096
5 27 24 100 2.28733e-06
11 27 24 100 1.19956e-06
17 27 24 100 2.17072e-06
18 27 24 100 0.1
20 27 24 100 0.0168964
21 27 24 100 1.43259e-06
22 27 24 100 0.1
23 27 24 100 0.2
0 28 24 100 0.0226047
20 28 24 100 0.1
21 28 24 100 0.262678
22 28 24 100 0.0373211
23 28 24 100 0.00368322
24 28 24 100 0.573712
0 29 24 100 0.142784
14 29 24 100 3.38812e-06
21 29 24 100 0.142857
22 29 24 100 0.142927
24 29 24 100 0.571428
0 30 24 100 0.199996
18 30 24 100 0.2
23 30 24 100 0.399992
24 30 24 100 0.200012
0 31 24 100 0.249998
19 31 24 100 0.250001
24 31 24 100 0.500001
22 32 24 100 0.333333
24 32 24 100 0.666667
24 33 24 100 1
24 34 24 100 1
1 1 25 100 0.857143
3 1 25 100 0.0357143
4 1 25 100 0.0119548
25 1 25 100 0.0951879
0 2 25 100 0.0789084
1 2 25 100 0.122737
2 2 25 100 0.528222
3 2 25 100 0.14286
5 2 25 100 0.0357143
6 2 25 100 0.0201196
10 2 25 100 9.51145e-07
23 2 25 100 7.00064e-06
24 2 25 100 1.48514e-06
25 2 25 100 0.0714286
0 3 25 100 0.132193
2 3 25 100 0.117778
3 3 25 100 0.429518
4 3 25 100 0.249082
11 3 25 100 0.0357143
18 3 25 100 4.58764e-07
25 3 25 100 0.0357143
0 4 25 100 0.071403
2 4 25 100 0.0357143
3 4 25 100 0.172597
4 4 25 100 0.434552
5 4 25 100 0.21426
6 4 25 100 0.0357143
7 4 25 100 2.54395e-05
9 4 25 100 1.98798e-05
11 4 25 100 0.0357143
0 5 25 100 0.262297
1 5 25 100 0.0357143
2 5 25 100 0.0357147
4 5 25 100 0.107143
5 5 25 100 0.36614
6 5 25 100 0.0858488
7 5 25 100 0.0714286
12 5 25 100 0.0357134
20 5 25 100 4.72132e-07
0 6 25 100 0.169532
2 6 25 100 0.0357143
3 6 25 100 0.0357143
5 6 25 100 0.10895
6 6 25 100 0.398868
7 6 25 100 0.214286
8 6 25 100 0.0347186
9 6 25 100 0.00213468
20 6 25 100 2.9238e-06
22 6 25 100 1.85904e-06
23 6 25 100 7.7635e-05
0 7 25 100 0.227333
3 7 25 100 0.0357143
4 7 25 100 0.0357143
5 7 25 100 0.0714518
6 7 25 100 0.142859
7 7 25 100 0.142857
8 7 25 100 0.236805
9 7 25 100 1.85177e-06
10 7 25 100 0.0714276
12 7 25 100 0.0357143
15 7 25 100 1.68296e-06
17 7 25 100 1.76148e-06
21 7 25 100 8.65556e-05
23 7 25 100 3.22893e-05
0 8 25 100 0.172176
3 8 25 100 0.0357143
5 8 25 100 0.0714725
6 8 25 100 0.0716633
7 8 25 100 0.285667
8 8 25 100 0.147038
9 8 25 100 0.0357524
10 8 25 100 2.1666e-06
11 8 25 100 0.109085
18 8 25 100 0.0357143
20 8 25 100 0.0357143
0 9 25 100 0.132234
6 9 25 100 0.107143
7 9 25 100 0.0714286
8 9 25 100 0.278179
9 9 25 100 0.152369
10 9 25 100 0.0800745
11 9 25 100 2.8807e-06
12 9 25 100 0.0714279
14 9 25 100 0.0357114
17 9 25 100 7.36964e-07
19 9 25 100 0.0357143
20 9 25 100 0.0357143
0 10 25 100 0.0834625
7 10 25 100 0.0382537
8 10 25 100 0.107143
9 10 25 100 0.270765
10 10 25 100 0.21396
11 10 25 100 0.071578
12 10 25 100 0.0714287
14 10 25 100 0.0357143
18 10 25 100 0.0357586
20 10 25 100 1.15551e-06
21 10 25 100 0.0714286
23 10 25 100 1.51939e-05
24 10 25 100 0.000491637
0 11 25 100 0.181716
2 11 25 100 2.10111e-06
5 11 25 100 7.82906e-07
6 11 25 100 0.0357143
8 11 25 100 0.0357143
9 11 25 100 0.0957187
10 11 25 100 0.181446
11 11 25 100 0.175941
12 11 25 100 0.147806
13 11 25 100 0.0357143
14 11 25 100 0.00518791
15 11 25 100 0.0336095
17 11 25 100 5.08978e-07
20 11 25 100 0.0357143
21 11 25 100 0.0357143
0 12 25 100 0.156717
2 12 25 100 3.8952e-07
8 12 25 100 0.0357143
9 12 25 100 0.0357143
10 12 25 100 0.107112
11 12 25 100 0.334451
12 12 25 100 0.0408811
13 12 25 100 0.178572
14 12 25 100 0.071429
16 12 25 100 0.00355127
18 12 25 100 0.000100468
19 12 25 100 4.2374e-05
20 12 25 100 0.0357147
23 12 25 100 4.25215e-07
0 13 25 100 0.112778
5 13 25 100 2.97325e-06
7 13 25 100 0.0357132
8 13 25 100 8.78591e-05
10 13 25 100 0.176655
11 13 25 100 0.0375411
12 13 25 100 0.184528
13 13 25 100 0.07529
14 13 25 100 0.168716
15 13 25 100 0.0301028
16 13 25 100 0.0714286
17 13 25 100 0.000100219
18 13 25 100 0.0356155
19 13 25 100 0.0357253
20 13 25 100 0.0357147
22 13 25 100 5.02983e-07
0 14 25 100 0.207847
5 14 25 100 7.80017e-07
8 14 25 100 0.0357143
10 14 25 100 0.0589263
11 14 25 100 0.0357143
12 14 25 100 0.178573
13 14 25 100 0.107208
14 14 25 100 0.122264
15 14 25 100 0.146523
16 14 25 100 0.0714725
17 14 25 100 8.37153e-05
18 14 25 100 0.0356716
21 14 25 100 1.24163e-06
0 15 25 100 0.111493
5 15 25 100 3.65534e-07
9 15 25 100 0.00938086
10 15 25 100 0.000536261
11 15 25 100 0.13294
12 15 25 100 0.0357143
13 15 25 100 0.1053
14 15 25 100 0.0715805
15 15 25 100 0.179301
16 15 25 100 0.213547
17 15 25 100 0.10448
19 15 25 100 0.0357143
20 15 25 100 1.28063e-05
0 16 25 100 0.105934
6 16 25 100 1.97583e-06
7 16 25 100 5.10074e-06
8 16 25 100 8.63684e-07
9 16 25 100 6.82696e-06
12 16 25 100 0.0714286
13 16 25 100 0.0714286
14 16 25 100 0.142857
15 16 25 100 0.178571
16 16 25 100 0.107143
17 16 25 100 0.174331
18 16 25 100 0.0741466
19 16 25 100 0.0357143
20 16 25 100 0.00271803
21 16 25 100 0.0357123
0 17 25 100 0.216168
12 17 25 100 0.0311996
13 17 25 100 0.0357147
14 17 25 100 0.107143
15 17 25 100 0.0714265
16 17 25 100 0.107144
17 17 25 100 0.0712572
18 17 25 100 0.285865
19 17 25 100 0.0357143
20 17 25 100 0.000101819
21 17 25 100 0.0382318
23 17 25 100 3.49311e-05
0 18 25 100 0.177927
12 18 25 100 0.0357143
13 18 25 100 0.0714286
15 18 25 100 0.0714561
16 18 25 100 0.142825
17 18 25 100 0.0721086
18 18 25 100 0.0357143
19 18 25 100 0.107142
20 18 25 100 0.0716667
21 18 25 100 0.142586
22 18 25 100 0.0713484
24 18 25 100 2.68106e-06
25 18 25 100 8.02772e-05
0 19 25 100 0.246817
8 19 25 100 5.49564e-07
10 19 25 100 9.32221e-07
13 19 25 100 1.41153e-06
14 19 25 100 0.0714286
15 19 25 100 0.107143
16 19 25 100 0.10714
17 19 25 100 0.0367608
18 19 25 100 0.0714286
20 19 25 100 0.142858
22 19 25 100 0.0377842
23 19 25 100 0.0375046
24 19 25 100 0.0697037
25 19 25 100 0.0714286
0 20 25 100 0.00907547
2 20 25 100 5.97102e-07
8 20 25 100 1.60026e-06
15 20 25 100 0.0740741
16 20 25 100 0.0740796
17 20 25 100 0.111111
18 20 25 100 0.111104
19 20 25 100 0.0740741
20 20 25 100 0.0740741
21 20 25 100 0.111111
23 20 25 100 0.102035
24 20 25 100 0.110958
25 20 25 100 0.148301
0 21 25 100 0.113142
13 21 25 100 2.33948e-05
16 21 25 100 0.0740742
17 21 25 100 0.0370371
18 21 25 100 0.0793816
19 21 25 100 1.95082e-05
20 21 25 100 0.154478
21 21 25 100 0.0656695
22 21 25 100 0.073807
23 21 25 100 0.0319968
24 21 25 100 0.185171
25 21 25 100 0.1852
0 22 25 100 0.244704
3 22 25 100 2.81909e-06
4 22 25 100 4.41844e-06
9 22 25 100 2.86135e-06
17 22 25 100 0.0400009
19 22 25 100 0.119999
20 22 25 100 0.159812
21 22 25 100 0.04
22 22 25 100 0.11973
23 22 25 100 0.0757411
25 22 25 100 0.200003
0 23 25 100 0.0890859
14 23 25 100 2.33699e-06
15 23 25 100 0.0434783
18 23 25 100 0.130435
20 23 25 100 0.0869504
21 23 25 100 0.132813
22 23 25 100 0.0389749
23 23 25 100 0.0434814
24 23 25 100 0.0869531
25 23 25 100 0.347826
0 24 25 100 0.157083
16 24 25 100 0.05
19 24 25 100 0.1
20 24 25 100 0.0920587
21 24 25 100 0.053442
22 24 25 100 0.0930292
23 24 25 100 0.104386
25 24 25 100 0.350001
0 25 25 100 0.131476
6 25 25 100 2.97428e-06
18 25 25 100 0.125
20 25 25 100 0.0624976
21 25 25 100 0.0625
22 25 25 100 0.187501
23 25 25 100 0.125001
24 25 25 100 0.0560234
25 25 25 100 0.249998
0 26 25 100 0.252356
10 26 25 100 7.85649e-06
15 26 25 100 6.9105e-07
18 26 25 100 0.0666668
19 26 25 100 0.0666668
20 26 25 100 0.0666667
21 26 25 100 0.0726155
23 26 25 100 0.0599011
24 26 25 100 0.0817858
25 26 25 100 0.333333
0 27 25 100 0.181819
20 27 25 100 0.0909092
22 27 25 100 0.0909092
23 27 25 100 0.0909092
25 27 25 100 0.545454
0 28 25 100 0.142857
22 28 25 100 0.123488
24 28 25 100 0.305083
25 28 25 100 0.428571
0 29 25 100 8.00897e-06
21 29 25 100 0.166667
24 29 25 100 0.166667
25 29 25 100 0.666659
25 30 25 100 1
0 31 25 100 1
25 32 25 100 1
25 33 25 100 1
0 1 26 100 3.38076e-07
1 1 26 100 0.90625
5 1 26 100 0.03125
23 1 26 100 0.03125
26 1 26 100 0.03125
0 2 26 100 0.0312498
1 2 26 100 0.09375
2 2 26 100 0.561738
3 2 26 100 0.0954711
4 2 26 100 0.03125
5 2 26 100 0.03125
6 2 26 100 0.0312561
18 2 26 100 0.03125
23 2 26 100 0.0312439
24 2 26 100 0.03125
26 2 26 100 0.0302909
0 3 26 100 0.167951
1 3 26 100 0.0624984
2 3 26 100 0.0885962
3 3 26 100 0.352425
4 3 26 100 0.241432
7 3 26 100 0.0242546
8 3 26 100 0.0315917
23 3 26 100 0.03125
25 3 26 100 5.29779e-07
0 4 26 100 0.157622
1 4 26 100 0.0312493
2 4 26 100 0.0926847
3 4 26 100 0.153835
4 4 26 100 0.156796
5 4 26 100 0.219147
6 4 26 100 0.0635627
7 4 26 100 0.03125
8 4 26 100 0.0313524
9 4 26 100 3.71719e-07
14 4 26 100 0.03125
19 4 26 100 0.0312508
0 5 26 100 0.184881
1 5 26 100 0.0625001
2 5 26 100 0.0317846
3 5 26 100 0.000989557
4 5 26 100 0.0907543
5 5 26 100 0.171688
6 5 26 100 0.218376
7 5 26 100 0.114012
8 5 26 100 0.0312625
9 5 26 100 0.0312501
12 5 26 100 0.0312501
14 5 26 100 3.3537e-07
23 5 26 100 0.0312501
24 5 26 100 5.95193e-07
0 6 26 100 0.121508
1 6 26 100 0.03125
2 6 26 100 0.0625
3 6 26 100 0.0625011
4 6 26 100 0.0316332
5 6 26 100 0.129804
6 6 26 100 0.18629
7 6 26 100 0.124991
8 6 26 100 0.1875
9 6 26 100 0.0307616
11 6 26 100 0.03125
12 6 26 100 5.82434e-07
15 6 26 100 5.40348e-07
21 6 26 100 6.3506e-06
25 6 26 100 3.65373e-06
0 7 26 100 0.121725
3 7 26 100 0.0625001
4 7 26 100 0.125
5 7 26 100 0.0625001
6 7 26 100 0.15625
7 7 26 100 0.10708
8 7 26 100 0.145923
9 7 26 100 0.124992
10 7 26 100 0.03125
13 7 26 100 0.0312331
16 7 26 100 0.031251
17 7 26 100 0.000295994
0 8 26 100 0.167764
4 8 26 100 0.03125
5 8 26 100 0.0322985
6 8 26 100 0.075359
7 8 26 100 0.156084
8 8 26 100 0.124158
9 8 26 100 0.100515
10 8 26 100 0.0625001
11 8 26 100 0.0937504
12 8 26 100 0.03125
13 8 26 100 0.03125
14 8 26 100 3.22508e-07
16 8 26 100 0.0302067
17 8 26 100 6.96127e-05
18 8 26 100 0.00104332
23 8 26 100 0.03125
26 8 26 100 0.03125
0 9 26 100 0.254326
3 9 26 100 1.12829e-06
4 9 26 100 5.38401e-07
5 9 26 100 0.03125
7 9 26 100 0.03125
8 9 26 100 0.125068
9 9 26 100 0.0937794
10 9 26 100 0.18064
11 9 26 100 8.72416e-07
12 9 26 100 0.125285
13 9 26 100 0.03125
14 9 26 100 0.03125
15 9 26 100 0.000278013
17 9 26 100 3.22488e-07
18 9 26 100 0.03125
20 9 26 100 6.27332e-07
21 9 26 100 0.000953279
24 9 26 100 0.0311699
25 9 26 100 0.000997415
26 9 26 100 0.03125
0 10 26 100 0.0956103
5 10 26 100 3.9468e-07
6 10 26 100 0.03125
7 10 26 100 0.128635
8 10 26 100 0.0313586
9 10 26 100 0.156222
10 10 26 100 0.159694
11 10 26 100 0.240953
12 10 26 100 0.0625182
13 10 26 100 0.03125
14 10 26 100 0.03125
20 10 26 100 8.01465e-06
24 10 26 100 5.40931e-07
26 10 26 100 0.03125
0 11 26 100 0.135216
2 11 26 100 0.03125
8 11 26 100 0.0937501
9 11 26 100 0.0625001
10 11 26 100 0.156802
11 11 26 100 0.156051
12 11 26 100 0.157054
13 11 26 100 0.143543
14 11 26 100 0.00130929
15 11 26 100 0.03125
16 11 26 100 2.36888e-05
24 11 26 100 4.82971e-07
26 11 26 100 0.03125
0 12 26 100 0.251555
3 12 26 100 0.0312496
8 12 26 100 0.03125
9 12 26 100 0.0932949
10 12 26 100 0.125
11 12 26 100 0.129015
12 12 26 100 0.0960872
13 12 26 100 0.15701
14 12 26 100 0.00307683
15 12 26 100 0.0199401
16 12 26 100 0.0625154
26 12 26 100 6.01189e-06
0 13 26 100 0.212462
3 13 26 100 0.000190232
9 13 26 100 0.03125
10 13 26 100 0.09375
11 13 26 100 0.0625005
12 13 26 100 0.184162
13 13 26 100 0.124904
14 13 26 100 0.128415
15 13 26 100 0.0625001
16 13 26 100 0.0625195
17 13 26 100 4.27985e-05
18 13 26 100 0.0062421
23 13 26 100 0.0310598
24 13 26 100 1.32942e-06
0 14 26 100 0.123986
10 14 26 100 0.0315492
11 14 26 100 0.124993
12 14 26 100 0.181094
13 14 26 100 0.0977893
14 14 26 100 0.218416
15 14 26 100 0.0657007
16 14 26 100 0.0937589
17 14 26 100 7.25958e-05
19 14 26 100 0.03125
20 14 26 100 0.0313887
24 14 26 100 6.21317e-07
25 14 26 100 7.73359e-07
0 15 26 100 0.18691
9 15 26 100 0.03125
11 15 26 100 0.0624966
12 15 26 100 0.0312535
13 15 26 100 0.155767
14 15 26 100 0.125484
15 15 26 100 0.062525
16 15 26 100 0.125566
17 15 26 100 0.0937481
18 15 26 100 0.0312499
20 15 26 100 0.0312615
21 15 26 100 0.031239
25 15 26 100 0.03125
0 16 26 100 0.133771
10 16 26 100 0.03125
11 16 26 100 0.031152
12 16 26 100 0.0625
13 16 26 100 0.037467
14 16 26 100 0.187542
15 16 26 100 0.115837
16 16 26 100 0.0941811
17 16 26 100 0.125015
18 16 26 100 0.0562721
19 16 26 100 0.0625095
21 16 26 100 0.03125
25 16 26 100 3.36579e-06
26 16 26 100 0.03125
0 17 26 100 0.18857
5 17 26 100 2.36301e-06
8 17 26 100 0.0625079
12 17 26 100 0.03125
13 17 26 100 0.03125
14 17 26 100 0.03125
15 17 26 100 0.124995
16 17 26 100 0.125
17 17 26 100 0.0624999
18 17 26 100 0.123927
19 17 26 100 0.03125
20 17 26 100 0.0624983
21 17 26 100 0.0625
26 17 26 100 0.0625
0 18 26 100 0.156224
3 18 26 100 1.12829e-06
8 18 26 100 0.03125
9 18 26 100 6.01777e-07
11 18 26 100 0.03125
12 18 26 100 6.01777e-07
13 18 26 100 2.81631e-06
14 18 26 100 0.0625001
15 18 26 100 0.0937501
16 18 26 100 0.0624861
17 18 26 100 0.0937684
18 18 26 100 0.093773
19 18 26 100 0.125
20 18 26 100 0.0624992
21 18 26 100 0.00542222
23 18 26 100 0.0258278
24 18 26 100 0.0312514
26 18 26 100 0.124993
0 19 26 100 0.184128
8 19 26 100 0.0624987
10 19 26 100 0.0312479
11 19 26 100 0.03125
13 19 26 100 0.0625001
14 19 26 100 0.0312514
15 19 26 100 3.24557e-07
16 19 26 100 5.56845e-06
17 19 26 100 8.44189e-05
18 19 26 100 0.151271
19 19 26 100 0.127594
20 19 26 100 0.0314909
21 19 26 100 0.0673804
22 19 26 100 0.0312506
23 19 26 100 0.0630458
24 19 26 100 0.03125
26 19 26 100 0.0937501
0 20 26 100 0.209972
8 20 26 100 0.03125
9 20 26 100 4.91241e-07
15 20 26 100 0.0624999
16 20 26 100 0.0937501
17 20 26 100 3.64047e-07
18 20 26 100 0.0937501
19 20 26 100 0.126136
20 20 26 100 0.0701527
21 20 26 100 0.00135721
22 20 26 100 0.0937499
23 20 26 100 0.0923838
26 20 26 100 0.124998
0 21 26 100 0.222843
5 21 26 100 6.93681e-06
7 21 26 100 8.26087e-07
11 21 26 100 0.03125
13 21 26 100 0.0312488
14 21 26 100 0.03125
15 21 26 100 0.0312504
16 21 26 100 0.030727
18 21 26 100 0.03125
19 21 26 100 9.43759e-07
20 21 26 100 0.157028
21 21 26 100 0.187478
22 21 26 100 0.0937501
23 21 26 100 0.0035104
24 21 26 100 0.0269159
25 21 26 100 1.26276e-06
26 21 26 100 0.121489
0 22 26 100 0.100305
3 22 26 100 1.96209e-06
16 22 26 100 0.03125
17 22 26 100 0.0624999
18 22 26 100 0.0625001
20 22 26 100 0.125
21 22 26 100 0.18006
22 22 26 100 0.117018
23 22 26 100 0.0624995
24 22 26 100 0.0394832
25 22 26 100 0.0327078
26 22 26 100 0.186675
0 23 26 100 0.148568
17 23 26 100 0.092506
18 23 26 100 0.0645162
20 23 26 100 0.0322581
21 23 26 100 0.0885884
22 23 26 100 0.163397
23 23 26 100 0.225807
25 23 26 100 0.0322581
26 23 26 100 0.152102
0 24 26 100 0.215287
3 24 26 100 1.24501e-06
9 24 26 100 1.18474e-06
12 24 26 100 6.42676e-07
17 24 26 100 0.0344828
18 24 26 100 0.0344828
19 24 26 100 0.0689657
20 24 26 100 0.0689656
22 24 26 100 0.137931
23 24 26 100 0.103355
24 24 26 100 0.137974
25 24 26 100 0.0167339
26 24 26 100 0.18182
0 25 26 100 0.111671
18 25 26 100 0.0740741
19 25 26 100 0.0370371
21 25 26 100 0.037037
22 25 26 100 0.111111
23 25 26 100 0.185185
24 25 26 100 0.184625
25 25 26 100 0.081242
26 25 26 100 0.178017
0 26 26 100 0.120318
13 26 26 100 9.88936e-07
19 26 26 100 0.0769229
20 26 26 100 1.50373e-06
21 26 26 100 0.0384616
23 26 26 100 0.115249
24 26 26 100 0.183475
25 26 26 100 0.192036
26 26 26 100 0.273535
0 27 26 100 0.0585329
9 27 26 100 1.57831e-06
15 27 26 100 3.06204e-06
20 27 26 100 0.142858
22 27 26 100 0.0476191
23 27 26 100 0.0476226
24 27 26 100 0.0952345
25 27 26 100 0.126416
26 27 26 100 0.481713
0 28 26 100 0.15384
5 28 26 100 4.76794e-06
19 28 26 100 0.0769232
21 28 26 100 0.0769233
22 28 26 100 0.153846
23 28 26 100 0.0769075
25 28 26 100 0.0769389
26 28 26 100 0.384616
0 29 26 100 0.213732
20 29 26 100 0.100169
21 29 26 100 0.0105927
22 29 26 100 0.000192944
23 29 26 100 0.00865164
24 29 26 100 0.222222
26 29 26 100 0.444439
0 30 26 100 0.125026
17 30 26 100 4.80363e-06
21 30 26 100 0.125
22 30 26 100 0.124974
24 30 26 100 0.25
26 30 26 100 0.374995
0 31 26 100 0.500064
23 31 26 100 0.166667
25 31 26 100 0.166603
26 31 26 100 0.166667
0 32 26 100 0.399404
22 32 26 100 0.200121
24 32 26 100 0.000475429
26 32 26 100 0.4
23 33 26 100 0.333333
24 33 26 100 0.333333
26 33 26 100 0.333333
0 34 26 100 0.447762
25 34 26 100 0.552238
0 35 26 100 0.499999
26 35 26 100 0.500001
0 36 26 100 1.72052e-05
26 36 26 100 0.999983
1 1 27 100 0.8
2 1 27 100 3.95699e-06
3 1 27 100 0.0800001
4 1 27 100 0.0399957
17 1 27 100 0.04
21 1 27 100 0.04
0 2 27 100 0.0133077
1 2 27 100 0.2
2 2 27 100 0.386815
3 2 27 100 0.158138
4 2 27 100 0.0799997
5 2 27 100 0.0817506
7 2 27 100 4.52439e-07
17 2 27 100 7.60456e-07
18 2 27 100 0.0399868
22 2 27 100 0.04
0 3 27 100 0.0810096
1 3 27 100 0.12
2 3 27 100 0.285749
3 3 27 100 0.276608
4 3 27 100 0.0775278
5 3 27 100 0.0390789
6 3 27 100 0.0400001
7 3 27 100 0.0400001
11 3 27 100 0.0400001
13 3 27 100 1.8832e-05
21 3 27 100 7.25797e-06
0 4 27 100 0.105365
1 4 27 100 0.0400001
2 4 27 100 0.163264
3 4 27 100 0.16999
4 4 27 100 0.0795307
5 4 27 100 0.211968
6 4 27 100 0.0800001
7 4 27 100 0.0679223
8 4 27 100 0.04
9 4 27 100 0.00195089
11 4 27 100 0.0400001
21 4 27 100 6.7262e-07
24 4 27 100 7.88061e-06
0 5 27 100 0.0800757
1 5 27 100 0.0399969
3 5 27 100 0.0800118
4 5 27 100 0.120078
5 5 27 100 0.2
6 5 27 100 0.159731
7 5 27 100 0.120105
8 5 27 100 0.04
9 5 27 100 0.040001
10 5 27 100 0.0800001
11 5 27 100 0.04
0 6 27 100 0.274015
4 6 27 100 0.0804497
5 6 27 100 0.159619
6 6 27 100 0.121268
7 6 27 100 0.200046
8 6 27 100 1.2247e-06
9 6 27 100 0.0823982
10 6 27 100 0.0400001
11 6 27 100 0.0400001
12 6 27 100 1.42597e-06
17 6 27 100 4.61296e-07
23 6 27 100 2.9802e-06
24 6 27 100 2.09897e-06
26 6 27 100 0.00219559
0 7 27 100 0.0799914
4 7 27 100 0.04
5 7 27 100 0.2
6 7 27 100 0.12
7 7 27 100 0.08
8 7 27 100 0.2
9 7 27 100 0.0799998
10 7 27 100 0.160007
15 7 27 100 5.65789e-07
16 7 27 100 0.04
26 7 27 100 9.78048e-07
0 8 27 100 0.229263
4 8 27 100 0.0400007
5 8 27 100 0.0399985
6 8 27 100 0.0377612
7 8 27 100 0.122477
8 8 27 100 0.160004
9 8 27 100 0.210778
10 8 27 100 0.0399998
11 8 27 100 0.0797156
13 8 27 100 0.0400001
24 8 27 100 2.09804e-06
0 9 27 100 0.252796
3 9 27 100 7.78083e-07
6 9 27 100 0.0800001
7 9 27 100 0.160023
8 9 27 100 0.124777
9 9 27 100 0.0404525
10 9 27 100 0.141986
11 9 27 100 0.0799185
12 9 27 100 0.0400031
13 9 27 100 3.8114e-05
14 9 27 100 0.0399788
15 9 27 100 0.0400001
16 9 27 100 5.73729e-07
17 9 27 100 2.11502e-05
20 9 27 100 5.10502e-07
26 9 27 100 3.80352e-06
0 10 27 100 0.0798423
6 10 27 100 0.0400609
7 10 27 100 0.0399856
8 10 27 100 0.0796434
9 10 27 100 0.160357
10 10 27 100 0.160033
11 10 27 100 0.279968
12 10 27 100 0.0799792
13 10 27 100 0.0400001
15 10 27 100 0.0400001
17 10 27 100 0.000111093
24 10 27 100 2.05845e-05
0 11 27 100 0.30098
9 11 27 100 0.118959
10 11 27 100 0.188538
11 11 27 100 0.16
12 11 27 100 0.0661602
14 11 27 100 0.0453013
15 11 27 100 6.51838e-05
16 11 27 100 1.54577e-05
17 11 27 100 0.0399784
24 11 27 100 2.09804e-06
25 11 27 100 0.0400001
27 11 27 100 0.0400001
0 12 27 100 0.266121
4 12 27 100 9.41085e-05
5 12 27 100 2.02239e-06
7 12 27 100 3.05953e-06
8 12 27 100 0.0401521
9 12 27 100 0.04
10 12 27 100 0.0782863
11 12 27 100 0.19343
12 12 27 100 0.14159
13 12 27 100 0.12
14 12 27 100 0.000317472
15 12 27 100 0.04
18 12 27 100 0.04
21 12 27 100 1.20912e-06
22 12 27 100 5.56077e-07
23 12 27 100 1.33371e-06
27 12 27 100 0.04
0 13 27 100 0.228745
8 13 27 100 2.35738e-06
9 13 27 100 0.0800007
10 13 27 100 0.0399712
12 13 27 100 0.170889
13 13 27 100 0.0400001
14 13 27 100 0.200013
15 13 27 100 0.199987
16 13 27 100 0.000388981
24 13 27 100 2.89564e-06
27 13 27 100 0.04
0 14 27 100 0.155581
4 14 27 100 1.95514e-06
6 14 27 100 4.44226e-06
9 14 27 100 0.0400001
10 14 27 100 0.039367
12 14 27 100 0.080633
13 14 27 100 0.120011
14 14 27 100 0.119901
15 14 27 100 0.201062
16 14 27 100 0.0434258
17 14 27 100 0.0400001
18 14 27 100 0.0397984
19 14 27 100 0.000201671
20 14 27 100 0.0400131
27 14 27 100 0.0800002
0 15 27 100 0.0399903
10 15 27 100 0.04
11 15 27 100 0.04
12 15 27 100 0.08
13 15 27 100 0.119999
14 15 27 100 0.157908
15 15 27 100 0.1221
16 15 27 100 0.159985
17 15 27 100 0.0800175
19 15 27 100 0.04
21 15 27 100 0.04
22 15 27 100 0.04
27 15 27 100 0.04
0 16 27 100 0.240974
6 16 27 100 7.68766e-07
9 16 27 100 1.19965e-06
11 16 27 100 0.0400001
12 16 27 100 0.00511174
13 16 27 100 0.0400001
14 16 27 100 0.0400001
15 16 27 100 0.12005
16 16 27 100 0.0800559
17 16 27 100 0.197223
18 16 27 100 0.00164137
19 16 27 100 0.0800001
20 16 27 100 0.0399994
21 16 27 100 5.1299e-05
22 16 27 100 0.0400001
24 16 27 100 2.09804e-06
27 16 27 100 0.0748884
0 17 27 100 0.114905
2 17 27 100 3.40986e-06
8 17 27 100 0.04
11 17 27 100 0.0399984
13 17 27 100 0.0800001
14 17 27 100 0.00217661
15 17 27 100 0.12
16 17 27 100 0.0767916
17 17 27 100 0.0461232
18 17 27 100 0.319989
20 17 27 100 0.0799999
21 17 27 100 0.04
23 17 27 100 0.04
26 17 27 100 1.26926e-05
0 18 27 100 0.237415
3 18 27 100 4.50991e-07
13 18 27 100 0.0400001
14 18 27 100 0.0400444
15 18 27 100 0.0400088
16 18 27 100 0.119993
17 18 27 100 0.0400001
18 18 27 100 0.1184
19 18 27 100 0.204041
20 18 27 100 0.120083
21 18 27 100 0.04
24 18 27 100 2.10009e-06
26 18 27 100 1.3008e-05
0 19 27 100 0.187215
2 19 27 100 5.78304e-06
3 19 27 100 1.05593e-06
9 19 27 100 5.67763e-07
12 19 27 100 0.00232566
14 19 27 100 0.04
15 19 27 100 0.0776681
16 19 27 100 0.0800053
17 19 27 100 0.04
18 19 27 100 0.12
19 19 27 100 0.0800001
20 19 27 100 0.16
21 19 27 100 0.172775
23 19 27 100 0.04
24 19 27 100 2.90407e-06
0 20 27 100 0.0794501
14 20 27 100 0.04
15 20 27 100 0.119991
17 20 27 100 0.04
18 20 27 100 0.0800349
19 20 27 100 0.0800001
20 20 27 100 0.16
21 20 27 100 0.0805236
22 20 27 100 0.12
23 20 27 100 0.0799756
24 20 27 100 2.43848e-05
25 20 27 100 0.04
27 20 27 100 0.08
0 21 27 100 0.203918
15 21 27 100 0.0833334
16 21 27 100 0.0833333
19 21 27 100 0.166663
20 21 27 100 0.0416667
21 21 27 100 0.0868797
22 21 27 100 0.179719
23 21 27 100 0.0899903
24 21 27 100 0.000870584
25 21 27 100 0.0416775
26 21 27 100 0.0219477
0 22 27 100 0.167479
4 22 27 100 5.49878e-07
5 22 27 100 0.0416667
14 22 27 100 1.20118e-06
15 22 27 100 0.0416667
16 22 27 100 0.0416667
17 22 27 100 0.0416667
18 22 27 100 0.000598128
19 22 27 100 0.0419597
20 22 27 100 0.125
21 22 27 100 0.0819356
22 22 27 100 0.0416667
23 22 27 100 0.124997
24 22 27 100 0.125
26 22 27 100 0.0413757
27 22 27 100 0.0833188
0 23 27 100 0.142377
7 23 27 100 0.0434783
14 23 27 100 5.2586e-05
15 23 27 100 0.0434783
18 23 27 100 0.0435094
19 23 27 100 0.0434783
20 23 27 100 0.0869565
21 23 27 100 0.0869566
22 23 27 100 0.0434802
23 23 27 100 0.161913
24 23 27 100 0.130435
25 23 27 100 0.037827
26 23 27 100 0.0470745
27 23 27 100 0.0889827
0 24 27 100 0.0364957
9 24 27 100 6.89422e-07
14 24 27 100 1.88028e-06
18 24 27 100 0.0434869
19 24 27 100 0.0434783
20 24 27 100 0.0434783
21 24 27 100 0.086946
22 24 27 100 0.130435
23 24 27 100 0.043462
24 24 27 100 0.185922
25 24 27 100 0.125424
26 24 27 100 0.0434783
27 24 27 100 0.217391
0 25 27 100 0.176254
7 25 27 100 4.98405e-06
15 25 27 100 5.42547e-06
19 25 27 100 0.0526316
21 25 27 100 0.0526316
22 25 27 100 0.0541536
23 25 27 100 0.157895
24 25 27 100 0.0526316
25 25 27 100 0.157895
26 25 27 100 0.138003
27 25 27 100 0.157895
0 26 27 100 0.290376
4 26 27 100 1.0746e-06
14 26 27 100 3.89826e-06
19 26 27 100 7.6214e-07
21 26 27 100 1.8455e-05
22 26 27 100 0.0603944
23 26 27 100 0.108898
24 26 27 100 0.0555556
25 26 27 100 0.059879
26 26 27 100 0.20265
27 26 27 100 0.222222
0 27 27 100 0.135034
19 27 27 100 0.066665
22 27 27 100 0.0666667
23 27 27 100 0.0666693
24 27 27 100 6.22112e-06
25 27 27 100 0.131626
26 27 27 100 0.0666772
27 27 27 100 0.466655
0 28 27 100 0.0015781
4 28 27 100 2.67418e-05
22 28 27 100 0.169502
23 28 27 100 0.0818236
25 28 27 100 0.0804073
27 28 27 100 0.666662
0 29 27 100 0.142848
12 29 27 100 1.85622e-06
15 29 27 100 5.08579e-06
22 29 27 100 1.94943e-06
23 29 27 100 0.143418
24 29 27 100 0.285153
26 29 27 100 0.142857
27 29 27 100 0.285715
0 30 27 100 0.315466
6 30 27 100 0.000260073
15 30 27 100 4.14453e-06
23 30 27 100 0.166667
24 30 27 100 8.93492e-05
25 30 27 100 0.0175138
27 30 27 100 0.5
25 31 27 100 0.25
26 31 27 100 0.25
27 31 27 100 0.5
0 32 27 100 0.333339
26 32 27 100 0.333333
27 32 27 100 0.333328
27 33 27 100 1
1 1 28 100 0.818181
2 1 28 100 0.0454545
18 1 28 100 1.0194e-06
28 1 28 100 0.136364
0 2 28 100 0.0782132
1 2 28 100 0.136364
2 2 28 100 0.466551
3 2 28 100 0.227571
5 2 28 100 6.32064e-06
9 2 28 100 0.000392268
16 2 28 100 6.60326e-07
28 2 28 100 0.0909018
0 3 28 100 0.104616
1 3 28 100 0.0454546
2 3 28 100 0.18195
3 3 28 100 0.440743
4 3 28 100 0.136293
8 3 28 100 3.35393e-05
12 3 28 100 5.25677e-07
23 3 28 100 5.62102e-07
28 3 28 100 0.0909091
0 4 28 100 0.0922446
1 4 28 100 0.0454546
2 4 28 100 0.0454546
3 4 28 100 0.227461
4 4 28 100 0.22575
5 4 28 100 0.181818
6 4 28 100 0.136364
26 4 28 100 1.72085e-06
28 4 28 100 0.0454517
0 5 28 100 0.141623
2 5 28 100 0.00596844
4 5 28 100 0.227273
5 5 28 100 0.305785
6 5 28 100 0.136258
8 5 28 100 0.0909091
19 5 28 100 0.000637367
23 5 28 100 0.000637367
25 5 28 100 0.0454546
28 5 28 100 0.0454546
0 6 28 100 0.080048
3 6 28 100 0.0909092
5 6 28 100 0.142887
6 6 28 100 0.266917
7 6 28 100 0.282877
8 6 28 100 0.0454546
10 6 28 100 0.0453941
11 6 28 100 5.8054e-05
20 6 28 100 4.65919e-07
25 6 28 100 0.0454546
0 7 28 100 0.0458107
4 7 28 100 0.0451064
5 7 28 100 0.0454888
6 7 28 100 0.181818
7 7 28 100 0.272728
8 7 28 100 0.31814
9 7 28 100 0.0454546
11 7 28 100 0.0454538
0 8 28 100 0.224445
2 8 28 100 5.90033e-07
5 8 28 100 0.0909108
6 8 28 100 0.0909091
7 8 28 100 0.0468892
8 8 28 100 0.241794
9 8 28 100 0.123666
10 8 28 100 0.0904666
11 8 28 100 0.0909091
13 8 28 100 8.77265e-07
14 8 28 100 2.0719e-06
23 8 28 100 7.1717e-06
0 9 28 100 0.100118
5 9 28 100 0.0454547
6 9 28 100 0.0909093
7 9 28 100 0.0454547
8 9 28 100 0.0454547
9 9 28 100 0.269469
10 9 28 100 0.130405
11 9 28 100 0.0454547
12 9 28 100 0.168828
13 9 28 100 0.0584448
21 9 28 100 6.77403e-06
0 10 28 100 0.236651
7 10 28 100 6.12356e-07
8 10 28 100 0.0909092
9 10 28 100 0.0454546
10 10 28 100 0.227349
11 10 28 100 0.181789
12 10 28 100 0.077767
13 10 28 100 0.136365
17 10 28 100 0.00371299
23 10 28 100 4.98649e-07
27 10 28 100 1.01044e-06
0 11 28 100 0.0869437
7 11 28 100 0.0454545
9 11 28 100 0.0890637
10 11 28 100 0.0909091
11 11 28 100 0.233301
12 11 28 100 0.227055
13 11 28 100 0.136364
14 11 28 100 0.0381678
15 11 28 100 0.00728686
18 11 28 100 0.0454546
0 12 28 100 0.269531
6 12 28 100 0.0454546
7 12 28 100 1.96836e-05
9 12 28 100 0.0454544
10 12 28 100 0.0454546
11 12 28 100 0.0909092
12 12 28 100 0.136344
13 12 28 100 0.139828
14 12 28 100 0.0906143
15 12 28 100 0.0454546
16 12 28 100 0.0454546
17 12 28 100 0.0454546
19 12 28 100 3.96395e-06
22 12 28 100 1.60923e-06
25 12 28 100 2.05117e-05
0 13 28 100 0.210176
3 13 28 100 5.7015e-05
4 13 28 100 3.50413e-06
6 13 28 100 6.39183e-07
10 13 28 100 0.0454546
11 13 28 100 0.136367
12 13 28 100 0.136363
13 13 28 100 0.18456
14 13 28 100 0.0597324
15 13 28 100 0.0871241
16 13 28 100 0.140149
17 13 28 100 1.14843e-05
20 13 28 100 5.00089e-07
0 14 28 100 0.294779
11 14 28 100 0.0454546
12 14 28 100 0.0203605
13 14 28 100 0.0902442
14 14 28 100 0.0490441
15 14 28 100 0.182637
16 14 28 100 0.0447902
17 14 28 100 0.16156
18 14 28 100 0.0656755
19 14 28 100 0.0454546
0 15 28 100 0.260154
12 15 28 100 0.00573908
13 15 28 100 0.0909077
14 15 28 100 0.227275
15 15 28 100 0.0477243
16 15 28 100 0.0953103
17 15 28 100 0.0454562
